digraph Tree {
node [shape=box, fontname="helvetica"] ;
edge [fontname="helvetica"] ;
0 [label="X[18] <= 0.109\nentropy = 1.0\nsamples = 40228\nvalue = [20309, 19919]\nclass = y[0]"] ;
1 [label="X[6] <= -0.499\nentropy = 0.644\nsamples = 22460\nvalue = [18773, 3687]\nclass = y[0]"] ;
0 -> 1 [labeldistance=2.5, labelangle=45, headlabel="True"] ;
2 [label="X[17] <= 0.169\nentropy = 0.224\nsamples = 14629\nvalue = [14100, 529]\nclass = y[0]"] ;
1 -> 2 ;
3 [label="X[14] <= 0.345\nentropy = 0.743\nsamples = 2471\nvalue = [1950, 521]\nclass = y[0]"] ;
2 -> 3 ;
4 [label="X[1] <= -1.394\nentropy = 0.965\nsamples = 692\nvalue = [270, 422]\nclass = y[1]"] ;
3 -> 4 ;
5 [label="X[6] <= -1.444\nentropy = 0.218\nsamples = 287\nvalue = [10, 277]\nclass = y[1]"] ;
4 -> 5 ;
6 [label="X[23] <= 0.45\nentropy = 0.89\nsamples = 13\nvalue = [9, 4]\nclass = y[0]"] ;
5 -> 6 ;
7 [label="X[11] <= 0.447\nentropy = 1.0\nsamples = 8\nvalue = [4, 4]\nclass = y[0]"] ;
6 -> 7 ;
8 [label="X[22] <= 0.229\nentropy = 0.811\nsamples = 4\nvalue = [1, 3]\nclass = y[1]"] ;
7 -> 8 ;
9 [label="X[0] <= -1.574\nentropy = 0.918\nsamples = 3\nvalue = [1, 2]\nclass = y[1]"] ;
8 -> 9 ;
10 [label="X[0] <= -2.072\nentropy = 1.0\nsamples = 2\nvalue = [1, 1]\nclass = y[0]"] ;
9 -> 10 ;
11 [label="entropy = 0.0\nsamples = 1\nvalue = [1, 0]\nclass = y[0]"] ;
10 -> 11 ;
12 [label="entropy = 0.0\nsamples = 1\nvalue = [0, 1]\nclass = y[1]"] ;
10 -> 12 ;
13 [label="entropy = 0.0\nsamples = 1\nvalue = [0, 1]\nclass = y[1]"] ;
9 -> 13 ;
14 [label="entropy = 0.0\nsamples = 1\nvalue = [0, 1]\nclass = y[1]"] ;
8 -> 14 ;
15 [label="X[0] <= -1.959\nentropy = 0.811\nsamples = 4\nvalue = [3, 1]\nclass = y[0]"] ;
7 -> 15 ;
16 [label="entropy = 0.0\nsamples = 3\nvalue = [3, 0]\nclass = y[0]"] ;
15 -> 16 ;
17 [label="entropy = 0.0\nsamples = 1\nvalue = [0, 1]\nclass = y[1]"] ;
15 -> 17 ;
18 [label="entropy = 0.0\nsamples = 5\nvalue = [5, 0]\nclass = y[0]"] ;
6 -> 18 ;
19 [label="X[6] <= -1.216\nentropy = 0.035\nsamples = 274\nvalue = [1, 273]\nclass = y[1]"] ;
5 -> 19 ;
20 [label="X[11] <= 0.968\nentropy = 0.216\nsamples = 29\nvalue = [1, 28]\nclass = y[1]"] ;
19 -> 20 ;
21 [label="entropy = 0.0\nsamples = 24\nvalue = [0, 24]\nclass = y[1]"] ;
20 -> 21 ;
22 [label="X[0] <= -2.11\nentropy = 0.722\nsamples = 5\nvalue = [1, 4]\nclass = y[1]"] ;
20 -> 22 ;
23 [label="X[9] <= 0.065\nentropy = 1.0\nsamples = 2\nvalue = [1, 1]\nclass = y[0]"] ;
22 -> 23 ;
24 [label="entropy = 0.0\nsamples = 1\nvalue = [1, 0]\nclass = y[0]"] ;
23 -> 24 ;
25 [label="entropy = 0.0\nsamples = 1\nvalue = [0, 1]\nclass = y[1]"] ;
23 -> 25 ;
26 [label="entropy = 0.0\nsamples = 3\nvalue = [0, 3]\nclass = y[1]"] ;
22 -> 26 ;
27 [label="entropy = 0.0\nsamples = 245\nvalue = [0, 245]\nclass = y[1]"] ;
19 -> 27 ;
28 [label="X[4] <= -0.822\nentropy = 0.941\nsamples = 405\nvalue = [260, 145]\nclass = y[0]"] ;
4 -> 28 ;
29 [label="X[6] <= -1.04\nentropy = 0.753\nsamples = 148\nvalue = [32, 116]\nclass = y[1]"] ;
28 -> 29 ;
30 [label="X[11] <= 0.855\nentropy = 0.918\nsamples = 21\nvalue = [14, 7]\nclass = y[0]"] ;
29 -> 30 ;
31 [label="X[1] <= -0.184\nentropy = 0.994\nsamples = 11\nvalue = [5, 6]\nclass = y[1]"] ;
30 -> 31 ;
32 [label="X[1] <= -1.209\nentropy = 0.918\nsamples = 9\nvalue = [3, 6]\nclass = y[1]"] ;
31 -> 32 ;
33 [label="entropy = 0.0\nsamples = 4\nvalue = [0, 4]\nclass = y[1]"] ;
32 -> 33 ;
34 [label="X[0] <= -0.837\nentropy = 0.971\nsamples = 5\nvalue = [3, 2]\nclass = y[0]"] ;
32 -> 34 ;
35 [label="X[1] <= -0.981\nentropy = 0.811\nsamples = 4\nvalue = [3, 1]\nclass = y[0]"] ;
34 -> 35 ;
36 [label="entropy = 0.0\nsamples = 1\nvalue = [0, 1]\nclass = y[1]"] ;
35 -> 36 ;
37 [label="entropy = 0.0\nsamples = 3\nvalue = [3, 0]\nclass = y[0]"] ;
35 -> 37 ;
38 [label="entropy = 0.0\nsamples = 1\nvalue = [0, 1]\nclass = y[1]"] ;
34 -> 38 ;
39 [label="entropy = 0.0\nsamples = 2\nvalue = [2, 0]\nclass = y[0]"] ;
31 -> 39 ;
40 [label="X[9] <= 0.238\nentropy = 0.469\nsamples = 10\nvalue = [9, 1]\nclass = y[0]"] ;
30 -> 40 ;
41 [label="entropy = 0.0\nsamples = 7\nvalue = [7, 0]\nclass = y[0]"] ;
40 -> 41 ;
42 [label="X[0] <= -1.261\nentropy = 0.918\nsamples = 3\nvalue = [2, 1]\nclass = y[0]"] ;
40 -> 42 ;
43 [label="entropy = 0.0\nsamples = 1\nvalue = [0, 1]\nclass = y[1]"] ;
42 -> 43 ;
44 [label="entropy = 0.0\nsamples = 2\nvalue = [2, 0]\nclass = y[0]"] ;
42 -> 44 ;
45 [label="X[0] <= -0.99\nentropy = 0.589\nsamples = 127\nvalue = [18, 109]\nclass = y[1]"] ;
29 -> 45 ;
46 [label="X[1] <= -1.074\nentropy = 0.209\nsamples = 91\nvalue = [3, 88]\nclass = y[1]"] ;
45 -> 46 ;
47 [label="entropy = 0.0\nsamples = 70\nvalue = [0, 70]\nclass = y[1]"] ;
46 -> 47 ;
48 [label="X[1] <= -0.668\nentropy = 0.592\nsamples = 21\nvalue = [3, 18]\nclass = y[1]"] ;
46 -> 48 ;
49 [label="X[22] <= 0.027\nentropy = 0.297\nsamples = 19\nvalue = [1, 18]\nclass = y[1]"] ;
48 -> 49 ;
50 [label="entropy = 0.0\nsamples = 17\nvalue = [0, 17]\nclass = y[1]"] ;
49 -> 50 ;
51 [label="X[11] <= 0.767\nentropy = 1.0\nsamples = 2\nvalue = [1, 1]\nclass = y[0]"] ;
49 -> 51 ;
52 [label="entropy = 0.0\nsamples = 1\nvalue = [0, 1]\nclass = y[1]"] ;
51 -> 52 ;
53 [label="entropy = 0.0\nsamples = 1\nvalue = [1, 0]\nclass = y[0]"] ;
51 -> 53 ;
54 [label="entropy = 0.0\nsamples = 2\nvalue = [2, 0]\nclass = y[0]"] ;
48 -> 54 ;
55 [label="X[1] <= -0.441\nentropy = 0.98\nsamples = 36\nvalue = [15, 21]\nclass = y[1]"] ;
45 -> 55 ;
56 [label="X[1] <= -0.896\nentropy = 0.85\nsamples = 29\nvalue = [8, 21]\nclass = y[1]"] ;
55 -> 56 ;
57 [label="X[6] <= -0.762\nentropy = 0.31\nsamples = 18\nvalue = [1, 17]\nclass = y[1]"] ;
56 -> 57 ;
58 [label="X[0] <= -0.371\nentropy = 0.811\nsamples = 4\nvalue = [1, 3]\nclass = y[1]"] ;
57 -> 58 ;
59 [label="entropy = 0.0\nsamples = 3\nvalue = [0, 3]\nclass = y[1]"] ;
58 -> 59 ;
60 [label="entropy = 0.0\nsamples = 1\nvalue = [1, 0]\nclass = y[0]"] ;
58 -> 60 ;
61 [label="entropy = 0.0\nsamples = 14\nvalue = [0, 14]\nclass = y[1]"] ;
57 -> 61 ;
62 [label="X[1] <= -0.604\nentropy = 0.946\nsamples = 11\nvalue = [7, 4]\nclass = y[0]"] ;
56 -> 62 ;
63 [label="X[12] <= 0.392\nentropy = 0.985\nsamples = 7\nvalue = [3, 4]\nclass = y[1]"] ;
62 -> 63 ;
64 [label="entropy = 0.0\nsamples = 3\nvalue = [0, 3]\nclass = y[1]"] ;
63 -> 64 ;
65 [label="X[9] <= 0.243\nentropy = 0.811\nsamples = 4\nvalue = [3, 1]\nclass = y[0]"] ;
63 -> 65 ;
66 [label="X[22] <= 0.152\nentropy = 1.0\nsamples = 2\nvalue = [1, 1]\nclass = y[0]"] ;
65 -> 66 ;
67 [label="entropy = 0.0\nsamples = 1\nvalue = [0, 1]\nclass = y[1]"] ;
66 -> 67 ;
68 [label="entropy = 0.0\nsamples = 1\nvalue = [1, 0]\nclass = y[0]"] ;
66 -> 68 ;
69 [label="entropy = 0.0\nsamples = 2\nvalue = [2, 0]\nclass = y[0]"] ;
65 -> 69 ;
70 [label="entropy = 0.0\nsamples = 4\nvalue = [4, 0]\nclass = y[0]"] ;
62 -> 70 ;
71 [label="entropy = 0.0\nsamples = 7\nvalue = [7, 0]\nclass = y[0]"] ;
55 -> 71 ;
72 [label="X[6] <= -0.768\nentropy = 0.508\nsamples = 257\nvalue = [228, 29]\nclass = y[0]"] ;
28 -> 72 ;
73 [label="X[6] <= -1.165\nentropy = 0.165\nsamples = 164\nvalue = [160, 4]\nclass = y[0]"] ;
72 -> 73 ;
74 [label="entropy = 0.0\nsamples = 93\nvalue = [93, 0]\nclass = y[0]"] ;
73 -> 74 ;
75 [label="X[25] <= 0.705\nentropy = 0.313\nsamples = 71\nvalue = [67, 4]\nclass = y[0]"] ;
73 -> 75 ;
76 [label="entropy = 0.0\nsamples = 31\nvalue = [31, 0]\nclass = y[0]"] ;
75 -> 76 ;
77 [label="X[1] <= -0.336\nentropy = 0.469\nsamples = 40\nvalue = [36, 4]\nclass = y[0]"] ;
75 -> 77 ;
78 [label="X[0] <= -1.345\nentropy = 0.811\nsamples = 16\nvalue = [12, 4]\nclass = y[0]"] ;
77 -> 78 ;
79 [label="X[1] <= -0.653\nentropy = 1.0\nsamples = 6\nvalue = [3, 3]\nclass = y[0]"] ;
78 -> 79 ;
80 [label="X[4] <= 0.033\nentropy = 0.811\nsamples = 4\nvalue = [1, 3]\nclass = y[1]"] ;
79 -> 80 ;
81 [label="entropy = 0.0\nsamples = 2\nvalue = [0, 2]\nclass = y[1]"] ;
80 -> 81 ;
82 [label="X[11] <= 0.235\nentropy = 1.0\nsamples = 2\nvalue = [1, 1]\nclass = y[0]"] ;
80 -> 82 ;
83 [label="entropy = 0.0\nsamples = 1\nvalue = [0, 1]\nclass = y[1]"] ;
82 -> 83 ;
84 [label="entropy = 0.0\nsamples = 1\nvalue = [1, 0]\nclass = y[0]"] ;
82 -> 84 ;
85 [label="entropy = 0.0\nsamples = 2\nvalue = [2, 0]\nclass = y[0]"] ;
79 -> 85 ;
86 [label="X[9] <= -0.598\nentropy = 0.469\nsamples = 10\nvalue = [9, 1]\nclass = y[0]"] ;
78 -> 86 ;
87 [label="entropy = 0.0\nsamples = 5\nvalue = [5, 0]\nclass = y[0]"] ;
86 -> 87 ;
88 [label="X[4] <= -0.272\nentropy = 0.722\nsamples = 5\nvalue = [4, 1]\nclass = y[0]"] ;
86 -> 88 ;
89 [label="entropy = 0.0\nsamples = 3\nvalue = [3, 0]\nclass = y[0]"] ;
88 -> 89 ;
90 [label="X[20] <= 0.609\nentropy = 1.0\nsamples = 2\nvalue = [1, 1]\nclass = y[0]"] ;
88 -> 90 ;
91 [label="entropy = 0.0\nsamples = 1\nvalue = [0, 1]\nclass = y[1]"] ;
90 -> 91 ;
92 [label="entropy = 0.0\nsamples = 1\nvalue = [1, 0]\nclass = y[0]"] ;
90 -> 92 ;
93 [label="entropy = 0.0\nsamples = 24\nvalue = [24, 0]\nclass = y[0]"] ;
77 -> 93 ;
94 [label="X[1] <= -0.991\nentropy = 0.84\nsamples = 93\nvalue = [68, 25]\nclass = y[0]"] ;
72 -> 94 ;
95 [label="X[1] <= -1.265\nentropy = 0.755\nsamples = 23\nvalue = [5, 18]\nclass = y[1]"] ;
94 -> 95 ;
96 [label="entropy = 0.0\nsamples = 7\nvalue = [0, 7]\nclass = y[1]"] ;
95 -> 96 ;
97 [label="X[4] <= 0.277\nentropy = 0.896\nsamples = 16\nvalue = [5, 11]\nclass = y[1]"] ;
95 -> 97 ;
98 [label="X[9] <= -0.323\nentropy = 0.779\nsamples = 13\nvalue = [3, 10]\nclass = y[1]"] ;
97 -> 98 ;
99 [label="X[9] <= -0.86\nentropy = 0.881\nsamples = 10\nvalue = [3, 7]\nclass = y[1]"] ;
98 -> 99 ;
100 [label="X[26] <= 0.028\nentropy = 0.971\nsamples = 5\nvalue = [3, 2]\nclass = y[0]"] ;
99 -> 100 ;
101 [label="X[12] <= 0.097\nentropy = 0.811\nsamples = 4\nvalue = [3, 1]\nclass = y[0]"] ;
100 -> 101 ;
102 [label="X[0] <= -0.924\nentropy = 1.0\nsamples = 2\nvalue = [1, 1]\nclass = y[0]"] ;
101 -> 102 ;
103 [label="entropy = 0.0\nsamples = 1\nvalue = [1, 0]\nclass = y[0]"] ;
102 -> 103 ;
104 [label="entropy = 0.0\nsamples = 1\nvalue = [0, 1]\nclass = y[1]"] ;
102 -> 104 ;
105 [label="entropy = 0.0\nsamples = 2\nvalue = [2, 0]\nclass = y[0]"] ;
101 -> 105 ;
106 [label="entropy = 0.0\nsamples = 1\nvalue = [0, 1]\nclass = y[1]"] ;
100 -> 106 ;
107 [label="entropy = 0.0\nsamples = 5\nvalue = [0, 5]\nclass = y[1]"] ;
99 -> 107 ;
108 [label="entropy = 0.0\nsamples = 3\nvalue = [0, 3]\nclass = y[1]"] ;
98 -> 108 ;
109 [label="X[11] <= 0.465\nentropy = 0.918\nsamples = 3\nvalue = [2, 1]\nclass = y[0]"] ;
97 -> 109 ;
110 [label="entropy = 0.0\nsamples = 1\nvalue = [0, 1]\nclass = y[1]"] ;
109 -> 110 ;
111 [label="entropy = 0.0\nsamples = 2\nvalue = [2, 0]\nclass = y[0]"] ;
109 -> 111 ;
112 [label="X[21] <= 0.718\nentropy = 0.469\nsamples = 70\nvalue = [63, 7]\nclass = y[0]"] ;
94 -> 112 ;
113 [label="X[11] <= 0.53\nentropy = 0.28\nsamples = 62\nvalue = [59, 3]\nclass = y[0]"] ;
112 -> 113 ;
114 [label="X[24] <= 0.774\nentropy = 0.48\nsamples = 29\nvalue = [26, 3]\nclass = y[0]"] ;
113 -> 114 ;
115 [label="X[9] <= -0.35\nentropy = 0.629\nsamples = 19\nvalue = [16, 3]\nclass = y[0]"] ;
114 -> 115 ;
116 [label="X[9] <= -0.55\nentropy = 0.503\nsamples = 18\nvalue = [16, 2]\nclass = y[0]"] ;
115 -> 116 ;
117 [label="entropy = 0.0\nsamples = 12\nvalue = [12, 0]\nclass = y[0]"] ;
116 -> 117 ;
118 [label="X[1] <= -0.351\nentropy = 0.918\nsamples = 6\nvalue = [4, 2]\nclass = y[0]"] ;
116 -> 118 ;
119 [label="X[0] <= -1.238\nentropy = 1.0\nsamples = 4\nvalue = [2, 2]\nclass = y[0]"] ;
118 -> 119 ;
120 [label="entropy = 0.0\nsamples = 1\nvalue = [0, 1]\nclass = y[1]"] ;
119 -> 120 ;
121 [label="X[0] <= -0.202\nentropy = 0.918\nsamples = 3\nvalue = [2, 1]\nclass = y[0]"] ;
119 -> 121 ;
122 [label="entropy = 0.0\nsamples = 2\nvalue = [2, 0]\nclass = y[0]"] ;
121 -> 122 ;
123 [label="entropy = 0.0\nsamples = 1\nvalue = [0, 1]\nclass = y[1]"] ;
121 -> 123 ;
124 [label="entropy = 0.0\nsamples = 2\nvalue = [2, 0]\nclass = y[0]"] ;
118 -> 124 ;
125 [label="entropy = 0.0\nsamples = 1\nvalue = [0, 1]\nclass = y[1]"] ;
115 -> 125 ;
126 [label="entropy = 0.0\nsamples = 10\nvalue = [10, 0]\nclass = y[0]"] ;
114 -> 126 ;
127 [label="entropy = 0.0\nsamples = 33\nvalue = [33, 0]\nclass = y[0]"] ;
113 -> 127 ;
128 [label="X[23] <= 0.932\nentropy = 1.0\nsamples = 8\nvalue = [4, 4]\nclass = y[0]"] ;
112 -> 128 ;
129 [label="entropy = 0.0\nsamples = 4\nvalue = [4, 0]\nclass = y[0]"] ;
128 -> 129 ;
130 [label="entropy = 0.0\nsamples = 4\nvalue = [0, 4]\nclass = y[1]"] ;
128 -> 130 ;
131 [label="X[6] <= -0.858\nentropy = 0.31\nsamples = 1779\nvalue = [1680, 99]\nclass = y[0]"] ;
3 -> 131 ;
132 [label="X[6] <= -1.133\nentropy = 0.168\nsamples = 1653\nvalue = [1612, 41]\nclass = y[0]"] ;
131 -> 132 ;
133 [label="X[6] <= -1.326\nentropy = 0.079\nsamples = 1449\nvalue = [1435, 14]\nclass = y[0]"] ;
132 -> 133 ;
134 [label="X[9] <= -0.786\nentropy = 0.021\nsamples = 1010\nvalue = [1008, 2]\nclass = y[0]"] ;
133 -> 134 ;
135 [label="entropy = 0.0\nsamples = 864\nvalue = [864, 0]\nclass = y[0]"] ;
134 -> 135 ;
136 [label="X[25] <= 0.283\nentropy = 0.104\nsamples = 146\nvalue = [144, 2]\nclass = y[0]"] ;
134 -> 136 ;
137 [label="entropy = 0.0\nsamples = 55\nvalue = [55, 0]\nclass = y[0]"] ;
136 -> 137 ;
138 [label="X[1] <= -0.827\nentropy = 0.152\nsamples = 91\nvalue = [89, 2]\nclass = y[0]"] ;
136 -> 138 ;
139 [label="X[23] <= 0.786\nentropy = 0.544\nsamples = 8\nvalue = [7, 1]\nclass = y[0]"] ;
138 -> 139 ;
140 [label="entropy = 0.0\nsamples = 7\nvalue = [7, 0]\nclass = y[0]"] ;
139 -> 140 ;
141 [label="entropy = 0.0\nsamples = 1\nvalue = [0, 1]\nclass = y[1]"] ;
139 -> 141 ;
142 [label="X[12] <= 0.54\nentropy = 0.094\nsamples = 83\nvalue = [82, 1]\nclass = y[0]"] ;
138 -> 142 ;
143 [label="entropy = 0.0\nsamples = 58\nvalue = [58, 0]\nclass = y[0]"] ;
142 -> 143 ;
144 [label="X[4] <= 0.209\nentropy = 0.242\nsamples = 25\nvalue = [24, 1]\nclass = y[0]"] ;
142 -> 144 ;
145 [label="X[4] <= -0.418\nentropy = 0.286\nsamples = 20\nvalue = [19, 1]\nclass = y[0]"] ;
144 -> 145 ;
146 [label="X[1] <= -0.714\nentropy = 0.592\nsamples = 7\nvalue = [6, 1]\nclass = y[0]"] ;
145 -> 146 ;
147 [label="X[0] <= -1.382\nentropy = 1.0\nsamples = 2\nvalue = [1, 1]\nclass = y[0]"] ;
146 -> 147 ;
148 [label="entropy = 0.0\nsamples = 1\nvalue = [1, 0]\nclass = y[0]"] ;
147 -> 148 ;
149 [label="entropy = 0.0\nsamples = 1\nvalue = [0, 1]\nclass = y[1]"] ;
147 -> 149 ;
150 [label="entropy = 0.0\nsamples = 5\nvalue = [5, 0]\nclass = y[0]"] ;
146 -> 150 ;
151 [label="entropy = 0.0\nsamples = 13\nvalue = [13, 0]\nclass = y[0]"] ;
145 -> 151 ;
152 [label="entropy = 0.0\nsamples = 5\nvalue = [5, 0]\nclass = y[0]"] ;
144 -> 152 ;
153 [label="X[11] <= 0.984\nentropy = 0.181\nsamples = 439\nvalue = [427, 12]\nclass = y[0]"] ;
133 -> 153 ;
154 [label="X[4] <= -0.146\nentropy = 0.381\nsamples = 135\nvalue = [125, 10]\nclass = y[0]"] ;
153 -> 154 ;
155 [label="X[1] <= -0.109\nentropy = 0.535\nsamples = 82\nvalue = [72, 10]\nclass = y[0]"] ;
154 -> 155 ;
156 [label="X[1] <= -0.809\nentropy = 0.608\nsamples = 67\nvalue = [57, 10]\nclass = y[0]"] ;
155 -> 156 ;
157 [label="X[24] <= 0.659\nentropy = 0.991\nsamples = 18\nvalue = [10, 8]\nclass = y[0]"] ;
156 -> 157 ;
158 [label="X[9] <= -0.776\nentropy = 0.811\nsamples = 12\nvalue = [9, 3]\nclass = y[0]"] ;
157 -> 158 ;
159 [label="entropy = 0.0\nsamples = 9\nvalue = [9, 0]\nclass = y[0]"] ;
158 -> 159 ;
160 [label="entropy = 0.0\nsamples = 3\nvalue = [0, 3]\nclass = y[1]"] ;
158 -> 160 ;
161 [label="X[25] <= 0.726\nentropy = 0.65\nsamples = 6\nvalue = [1, 5]\nclass = y[1]"] ;
157 -> 161 ;
162 [label="X[1] <= -1.233\nentropy = 1.0\nsamples = 2\nvalue = [1, 1]\nclass = y[0]"] ;
161 -> 162 ;
163 [label="entropy = 0.0\nsamples = 1\nvalue = [0, 1]\nclass = y[1]"] ;
162 -> 163 ;
164 [label="entropy = 0.0\nsamples = 1\nvalue = [1, 0]\nclass = y[0]"] ;
162 -> 164 ;
165 [label="entropy = 0.0\nsamples = 4\nvalue = [0, 4]\nclass = y[1]"] ;
161 -> 165 ;
166 [label="X[1] <= -0.733\nentropy = 0.246\nsamples = 49\nvalue = [47, 2]\nclass = y[0]"] ;
156 -> 166 ;
167 [label="X[0] <= -1.883\nentropy = 0.592\nsamples = 14\nvalue = [12, 2]\nclass = y[0]"] ;
166 -> 167 ;
168 [label="entropy = 0.0\nsamples = 6\nvalue = [6, 0]\nclass = y[0]"] ;
167 -> 168 ;
169 [label="X[27] <= 0.742\nentropy = 0.811\nsamples = 8\nvalue = [6, 2]\nclass = y[0]"] ;
167 -> 169 ;
170 [label="X[9] <= -0.414\nentropy = 0.592\nsamples = 7\nvalue = [6, 1]\nclass = y[0]"] ;
169 -> 170 ;
171 [label="entropy = 0.0\nsamples = 6\nvalue = [6, 0]\nclass = y[0]"] ;
170 -> 171 ;
172 [label="entropy = 0.0\nsamples = 1\nvalue = [0, 1]\nclass = y[1]"] ;
170 -> 172 ;
173 [label="entropy = 0.0\nsamples = 1\nvalue = [0, 1]\nclass = y[1]"] ;
169 -> 173 ;
174 [label="entropy = 0.0\nsamples = 35\nvalue = [35, 0]\nclass = y[0]"] ;
166 -> 174 ;
175 [label="entropy = 0.0\nsamples = 15\nvalue = [15, 0]\nclass = y[0]"] ;
155 -> 175 ;
176 [label="entropy = 0.0\nsamples = 53\nvalue = [53, 0]\nclass = y[0]"] ;
154 -> 176 ;
177 [label="X[21] <= 0.513\nentropy = 0.057\nsamples = 304\nvalue = [302, 2]\nclass = y[0]"] ;
153 -> 177 ;
178 [label="X[24] <= 0.276\nentropy = 0.032\nsamples = 302\nvalue = [301, 1]\nclass = y[0]"] ;
177 -> 178 ;
179 [label="entropy = 0.0\nsamples = 237\nvalue = [237, 0]\nclass = y[0]"] ;
178 -> 179 ;
180 [label="X[1] <= -0.535\nentropy = 0.115\nsamples = 65\nvalue = [64, 1]\nclass = y[0]"] ;
178 -> 180 ;
181 [label="X[0] <= -1.899\nentropy = 0.353\nsamples = 15\nvalue = [14, 1]\nclass = y[0]"] ;
180 -> 181 ;
182 [label="entropy = 0.0\nsamples = 1\nvalue = [0, 1]\nclass = y[1]"] ;
181 -> 182 ;
183 [label="entropy = 0.0\nsamples = 14\nvalue = [14, 0]\nclass = y[0]"] ;
181 -> 183 ;
184 [label="entropy = 0.0\nsamples = 50\nvalue = [50, 0]\nclass = y[0]"] ;
180 -> 184 ;
185 [label="X[4] <= 1.279\nentropy = 1.0\nsamples = 2\nvalue = [1, 1]\nclass = y[0]"] ;
177 -> 185 ;
186 [label="entropy = 0.0\nsamples = 1\nvalue = [0, 1]\nclass = y[1]"] ;
185 -> 186 ;
187 [label="entropy = 0.0\nsamples = 1\nvalue = [1, 0]\nclass = y[0]"] ;
185 -> 187 ;
188 [label="X[1] <= -0.677\nentropy = 0.564\nsamples = 204\nvalue = [177, 27]\nclass = y[0]"] ;
132 -> 188 ;
189 [label="X[1] <= -1.141\nentropy = 0.996\nsamples = 52\nvalue = [28, 24]\nclass = y[0]"] ;
188 -> 189 ;
190 [label="entropy = 0.0\nsamples = 11\nvalue = [0, 11]\nclass = y[1]"] ;
189 -> 190 ;
191 [label="X[1] <= -0.882\nentropy = 0.901\nsamples = 41\nvalue = [28, 13]\nclass = y[0]"] ;
189 -> 191 ;
192 [label="X[12] <= 0.021\nentropy = 0.971\nsamples = 15\nvalue = [6, 9]\nclass = y[1]"] ;
191 -> 192 ;
193 [label="X[24] <= 0.79\nentropy = 0.994\nsamples = 11\nvalue = [6, 5]\nclass = y[0]"] ;
192 -> 193 ;
194 [label="X[26] <= 1.0\nentropy = 0.863\nsamples = 7\nvalue = [5, 2]\nclass = y[0]"] ;
193 -> 194 ;
195 [label="X[0] <= -0.962\nentropy = 0.918\nsamples = 6\nvalue = [4, 2]\nclass = y[0]"] ;
194 -> 195 ;
196 [label="X[4] <= -0.826\nentropy = 0.971\nsamples = 5\nvalue = [3, 2]\nclass = y[0]"] ;
195 -> 196 ;
197 [label="X[0] <= -1.299\nentropy = 1.0\nsamples = 2\nvalue = [1, 1]\nclass = y[0]"] ;
196 -> 197 ;
198 [label="entropy = 0.0\nsamples = 1\nvalue = [1, 0]\nclass = y[0]"] ;
197 -> 198 ;
199 [label="entropy = 0.0\nsamples = 1\nvalue = [0, 1]\nclass = y[1]"] ;
197 -> 199 ;
200 [label="X[0] <= -1.399\nentropy = 0.918\nsamples = 3\nvalue = [2, 1]\nclass = y[0]"] ;
196 -> 200 ;
201 [label="X[0] <= -1.443\nentropy = 1.0\nsamples = 2\nvalue = [1, 1]\nclass = y[0]"] ;
200 -> 201 ;
202 [label="entropy = 0.0\nsamples = 1\nvalue = [1, 0]\nclass = y[0]"] ;
201 -> 202 ;
203 [label="entropy = 0.0\nsamples = 1\nvalue = [0, 1]\nclass = y[1]"] ;
201 -> 203 ;
204 [label="entropy = 0.0\nsamples = 1\nvalue = [1, 0]\nclass = y[0]"] ;
200 -> 204 ;
205 [label="entropy = 0.0\nsamples = 1\nvalue = [1, 0]\nclass = y[0]"] ;
195 -> 205 ;
206 [label="entropy = 0.0\nsamples = 1\nvalue = [1, 0]\nclass = y[0]"] ;
194 -> 206 ;
207 [label="X[0] <= -0.174\nentropy = 0.811\nsamples = 4\nvalue = [1, 3]\nclass = y[1]"] ;
193 -> 207 ;
208 [label="entropy = 0.0\nsamples = 3\nvalue = [0, 3]\nclass = y[1]"] ;
207 -> 208 ;
209 [label="entropy = 0.0\nsamples = 1\nvalue = [1, 0]\nclass = y[0]"] ;
207 -> 209 ;
210 [label="entropy = 0.0\nsamples = 4\nvalue = [0, 4]\nclass = y[1]"] ;
192 -> 210 ;
211 [label="X[5] <= 1.601\nentropy = 0.619\nsamples = 26\nvalue = [22, 4]\nclass = y[0]"] ;
191 -> 211 ;
212 [label="X[24] <= 0.183\nentropy = 0.297\nsamples = 19\nvalue = [18, 1]\nclass = y[0]"] ;
211 -> 212 ;
213 [label="entropy = 0.0\nsamples = 15\nvalue = [15, 0]\nclass = y[0]"] ;
212 -> 213 ;
214 [label="X[4] <= -0.495\nentropy = 0.811\nsamples = 4\nvalue = [3, 1]\nclass = y[0]"] ;
212 -> 214 ;
215 [label="entropy = 0.0\nsamples = 1\nvalue = [0, 1]\nclass = y[1]"] ;
214 -> 215 ;
216 [label="entropy = 0.0\nsamples = 3\nvalue = [3, 0]\nclass = y[0]"] ;
214 -> 216 ;
217 [label="X[9] <= -0.02\nentropy = 0.985\nsamples = 7\nvalue = [4, 3]\nclass = y[0]"] ;
211 -> 217 ;
218 [label="X[12] <= 0.116\nentropy = 0.722\nsamples = 5\nvalue = [4, 1]\nclass = y[0]"] ;
217 -> 218 ;
219 [label="X[0] <= -1.422\nentropy = 0.918\nsamples = 3\nvalue = [2, 1]\nclass = y[0]"] ;
218 -> 219 ;
220 [label="entropy = 0.0\nsamples = 1\nvalue = [0, 1]\nclass = y[1]"] ;
219 -> 220 ;
221 [label="entropy = 0.0\nsamples = 2\nvalue = [2, 0]\nclass = y[0]"] ;
219 -> 221 ;
222 [label="entropy = 0.0\nsamples = 2\nvalue = [2, 0]\nclass = y[0]"] ;
218 -> 222 ;
223 [label="entropy = 0.0\nsamples = 2\nvalue = [0, 2]\nclass = y[1]"] ;
217 -> 223 ;
224 [label="X[21] <= 0.431\nentropy = 0.14\nsamples = 152\nvalue = [149, 3]\nclass = y[0]"] ;
188 -> 224 ;
225 [label="X[1] <= -0.3\nentropy = 0.059\nsamples = 146\nvalue = [145, 1]\nclass = y[0]"] ;
224 -> 225 ;
226 [label="X[0] <= -0.97\nentropy = 0.154\nsamples = 45\nvalue = [44, 1]\nclass = y[0]"] ;
225 -> 226 ;
227 [label="entropy = 0.0\nsamples = 29\nvalue = [29, 0]\nclass = y[0]"] ;
226 -> 227 ;
228 [label="X[0] <= -0.168\nentropy = 0.337\nsamples = 16\nvalue = [15, 1]\nclass = y[0]"] ;
226 -> 228 ;
229 [label="entropy = 0.0\nsamples = 13\nvalue = [13, 0]\nclass = y[0]"] ;
228 -> 229 ;
230 [label="X[20] <= 0.162\nentropy = 0.918\nsamples = 3\nvalue = [2, 1]\nclass = y[0]"] ;
228 -> 230 ;
231 [label="X[9] <= -0.255\nentropy = 1.0\nsamples = 2\nvalue = [1, 1]\nclass = y[0]"] ;
230 -> 231 ;
232 [label="entropy = 0.0\nsamples = 1\nvalue = [0, 1]\nclass = y[1]"] ;
231 -> 232 ;
233 [label="entropy = 0.0\nsamples = 1\nvalue = [1, 0]\nclass = y[0]"] ;
231 -> 233 ;
234 [label="entropy = 0.0\nsamples = 1\nvalue = [1, 0]\nclass = y[0]"] ;
230 -> 234 ;
235 [label="entropy = 0.0\nsamples = 101\nvalue = [101, 0]\nclass = y[0]"] ;
225 -> 235 ;
236 [label="X[11] <= 0.738\nentropy = 0.918\nsamples = 6\nvalue = [4, 2]\nclass = y[0]"] ;
224 -> 236 ;
237 [label="X[1] <= -0.48\nentropy = 0.918\nsamples = 3\nvalue = [1, 2]\nclass = y[1]"] ;
236 -> 237 ;
238 [label="entropy = 0.0\nsamples = 2\nvalue = [0, 2]\nclass = y[1]"] ;
237 -> 238 ;
239 [label="entropy = 0.0\nsamples = 1\nvalue = [1, 0]\nclass = y[0]"] ;
237 -> 239 ;
240 [label="entropy = 0.0\nsamples = 3\nvalue = [3, 0]\nclass = y[0]"] ;
236 -> 240 ;
241 [label="X[3] <= -0.06\nentropy = 0.995\nsamples = 126\nvalue = [68, 58]\nclass = y[0]"] ;
131 -> 241 ;
242 [label="X[1] <= -0.241\nentropy = 0.984\nsamples = 101\nvalue = [43, 58]\nclass = y[1]"] ;
241 -> 242 ;
243 [label="X[1] <= -1.094\nentropy = 0.755\nsamples = 69\nvalue = [15, 54]\nclass = y[1]"] ;
242 -> 243 ;
244 [label="entropy = 0.0\nsamples = 24\nvalue = [0, 24]\nclass = y[1]"] ;
243 -> 244 ;
245 [label="X[1] <= -0.755\nentropy = 0.918\nsamples = 45\nvalue = [15, 30]\nclass = y[1]"] ;
243 -> 245 ;
246 [label="X[23] <= 0.633\nentropy = 0.661\nsamples = 35\nvalue = [6, 29]\nclass = y[1]"] ;
245 -> 246 ;
247 [label="entropy = 0.0\nsamples = 18\nvalue = [0, 18]\nclass = y[1]"] ;
246 -> 247 ;
248 [label="X[26] <= 0.655\nentropy = 0.937\nsamples = 17\nvalue = [6, 11]\nclass = y[1]"] ;
246 -> 248 ;
249 [label="X[9] <= -0.847\nentropy = 0.837\nsamples = 15\nvalue = [4, 11]\nclass = y[1]"] ;
248 -> 249 ;
250 [label="X[0] <= -0.609\nentropy = 0.991\nsamples = 9\nvalue = [4, 5]\nclass = y[1]"] ;
249 -> 250 ;
251 [label="X[0] <= -0.813\nentropy = 1.0\nsamples = 8\nvalue = [4, 4]\nclass = y[0]"] ;
250 -> 251 ;
252 [label="X[25] <= 0.464\nentropy = 0.985\nsamples = 7\nvalue = [3, 4]\nclass = y[1]"] ;
251 -> 252 ;
253 [label="entropy = 0.0\nsamples = 2\nvalue = [0, 2]\nclass = y[1]"] ;
252 -> 253 ;
254 [label="X[12] <= 0.074\nentropy = 0.971\nsamples = 5\nvalue = [3, 2]\nclass = y[0]"] ;
252 -> 254 ;
255 [label="entropy = 0.0\nsamples = 2\nvalue = [2, 0]\nclass = y[0]"] ;
254 -> 255 ;
256 [label="X[0] <= -1.211\nentropy = 0.918\nsamples = 3\nvalue = [1, 2]\nclass = y[1]"] ;
254 -> 256 ;
257 [label="entropy = 0.0\nsamples = 1\nvalue = [1, 0]\nclass = y[0]"] ;
256 -> 257 ;
258 [label="entropy = 0.0\nsamples = 2\nvalue = [0, 2]\nclass = y[1]"] ;
256 -> 258 ;
259 [label="entropy = 0.0\nsamples = 1\nvalue = [1, 0]\nclass = y[0]"] ;
251 -> 259 ;
260 [label="entropy = 0.0\nsamples = 1\nvalue = [0, 1]\nclass = y[1]"] ;
250 -> 260 ;
261 [label="entropy = 0.0\nsamples = 6\nvalue = [0, 6]\nclass = y[1]"] ;
249 -> 261 ;
262 [label="entropy = 0.0\nsamples = 2\nvalue = [2, 0]\nclass = y[0]"] ;
248 -> 262 ;
263 [label="X[0] <= 0.198\nentropy = 0.469\nsamples = 10\nvalue = [9, 1]\nclass = y[0]"] ;
245 -> 263 ;
264 [label="entropy = 0.0\nsamples = 7\nvalue = [7, 0]\nclass = y[0]"] ;
263 -> 264 ;
265 [label="X[9] <= 0.21\nentropy = 0.918\nsamples = 3\nvalue = [2, 1]\nclass = y[0]"] ;
263 -> 265 ;
266 [label="entropy = 0.0\nsamples = 2\nvalue = [2, 0]\nclass = y[0]"] ;
265 -> 266 ;
267 [label="entropy = 0.0\nsamples = 1\nvalue = [0, 1]\nclass = y[1]"] ;
265 -> 267 ;
268 [label="X[9] <= -0.37\nentropy = 0.544\nsamples = 32\nvalue = [28, 4]\nclass = y[0]"] ;
242 -> 268 ;
269 [label="entropy = 0.0\nsamples = 18\nvalue = [18, 0]\nclass = y[0]"] ;
268 -> 269 ;
270 [label="X[9] <= 0.883\nentropy = 0.863\nsamples = 14\nvalue = [10, 4]\nclass = y[0]"] ;
268 -> 270 ;
271 [label="X[8] <= 0.724\nentropy = 0.779\nsamples = 13\nvalue = [10, 3]\nclass = y[0]"] ;
270 -> 271 ;
272 [label="X[4] <= 0.415\nentropy = 0.65\nsamples = 12\nvalue = [10, 2]\nclass = y[0]"] ;
271 -> 272 ;
273 [label="entropy = 0.0\nsamples = 6\nvalue = [6, 0]\nclass = y[0]"] ;
272 -> 273 ;
274 [label="X[0] <= 0.348\nentropy = 0.918\nsamples = 6\nvalue = [4, 2]\nclass = y[0]"] ;
272 -> 274 ;
275 [label="X[12] <= 0.574\nentropy = 0.722\nsamples = 5\nvalue = [4, 1]\nclass = y[0]"] ;
274 -> 275 ;
276 [label="entropy = 0.0\nsamples = 4\nvalue = [4, 0]\nclass = y[0]"] ;
275 -> 276 ;
277 [label="entropy = 0.0\nsamples = 1\nvalue = [0, 1]\nclass = y[1]"] ;
275 -> 277 ;
278 [label="entropy = 0.0\nsamples = 1\nvalue = [0, 1]\nclass = y[1]"] ;
274 -> 278 ;
279 [label="entropy = 0.0\nsamples = 1\nvalue = [0, 1]\nclass = y[1]"] ;
271 -> 279 ;
280 [label="entropy = 0.0\nsamples = 1\nvalue = [0, 1]\nclass = y[1]"] ;
270 -> 280 ;
281 [label="entropy = 0.0\nsamples = 25\nvalue = [25, 0]\nclass = y[0]"] ;
241 -> 281 ;
282 [label="X[9] <= 0.416\nentropy = 0.008\nsamples = 12158\nvalue = [12150, 8]\nclass = y[0]"] ;
2 -> 282 ;
283 [label="X[6] <= -0.937\nentropy = 0.006\nsamples = 10792\nvalue = [10787, 5]\nclass = y[0]"] ;
282 -> 283 ;
284 [label="X[12] <= 0.01\nentropy = 0.003\nsamples = 8710\nvalue = [8708, 2]\nclass = y[0]"] ;
283 -> 284 ;
285 [label="entropy = 0.0\nsamples = 5793\nvalue = [5793, 0]\nclass = y[0]"] ;
284 -> 285 ;
286 [label="X[6] <= -1.317\nentropy = 0.008\nsamples = 2917\nvalue = [2915, 2]\nclass = y[0]"] ;
284 -> 286 ;
287 [label="X[19] <= 0.561\nentropy = 0.022\nsamples = 931\nvalue = [929, 2]\nclass = y[0]"] ;
286 -> 287 ;
288 [label="entropy = 0.0\nsamples = 337\nvalue = [337, 0]\nclass = y[0]"] ;
287 -> 288 ;
289 [label="X[9] <= -0.888\nentropy = 0.033\nsamples = 594\nvalue = [592, 2]\nclass = y[0]"] ;
287 -> 289 ;
290 [label="X[1] <= 0.191\nentropy = 0.04\nsamples = 465\nvalue = [463, 2]\nclass = y[0]"] ;
289 -> 290 ;
291 [label="X[25] <= 0.703\nentropy = 0.169\nsamples = 40\nvalue = [39, 1]\nclass = y[0]"] ;
290 -> 291 ;
292 [label="X[4] <= 0.412\nentropy = 0.323\nsamples = 17\nvalue = [16, 1]\nclass = y[0]"] ;
291 -> 292 ;
293 [label="entropy = 0.0\nsamples = 6\nvalue = [6, 0]\nclass = y[0]"] ;
292 -> 293 ;
294 [label="X[0] <= -0.551\nentropy = 0.439\nsamples = 11\nvalue = [10, 1]\nclass = y[0]"] ;
292 -> 294 ;
295 [label="X[0] <= -1.09\nentropy = 0.469\nsamples = 10\nvalue = [9, 1]\nclass = y[0]"] ;
294 -> 295 ;
296 [label="X[0] <= -1.422\nentropy = 0.544\nsamples = 8\nvalue = [7, 1]\nclass = y[0]"] ;
295 -> 296 ;
297 [label="entropy = 0.0\nsamples = 5\nvalue = [5, 0]\nclass = y[0]"] ;
296 -> 297 ;
298 [label="X[0] <= -1.368\nentropy = 0.918\nsamples = 3\nvalue = [2, 1]\nclass = y[0]"] ;
296 -> 298 ;
299 [label="entropy = 0.0\nsamples = 1\nvalue = [0, 1]\nclass = y[1]"] ;
298 -> 299 ;
300 [label="entropy = 0.0\nsamples = 2\nvalue = [2, 0]\nclass = y[0]"] ;
298 -> 300 ;
301 [label="entropy = 0.0\nsamples = 2\nvalue = [2, 0]\nclass = y[0]"] ;
295 -> 301 ;
302 [label="entropy = 0.0\nsamples = 1\nvalue = [1, 0]\nclass = y[0]"] ;
294 -> 302 ;
303 [label="entropy = 0.0\nsamples = 23\nvalue = [23, 0]\nclass = y[0]"] ;
291 -> 303 ;
304 [label="X[4] <= 0.163\nentropy = 0.024\nsamples = 425\nvalue = [424, 1]\nclass = y[0]"] ;
290 -> 304 ;
305 [label="X[0] <= -1.54\nentropy = 0.065\nsamples = 131\nvalue = [130, 1]\nclass = y[0]"] ;
304 -> 305 ;
306 [label="X[2] <= 0.587\nentropy = 0.183\nsamples = 36\nvalue = [35, 1]\nclass = y[0]"] ;
305 -> 306 ;
307 [label="X[0] <= -1.757\nentropy = 0.31\nsamples = 18\nvalue = [17, 1]\nclass = y[0]"] ;
306 -> 307 ;
308 [label="entropy = 0.0\nsamples = 11\nvalue = [11, 0]\nclass = y[0]"] ;
307 -> 308 ;
309 [label="X[0] <= -1.564\nentropy = 0.592\nsamples = 7\nvalue = [6, 1]\nclass = y[0]"] ;
307 -> 309 ;
310 [label="entropy = 0.0\nsamples = 5\nvalue = [5, 0]\nclass = y[0]"] ;
309 -> 310 ;
311 [label="X[0] <= -1.543\nentropy = 1.0\nsamples = 2\nvalue = [1, 1]\nclass = y[0]"] ;
309 -> 311 ;
312 [label="entropy = 0.0\nsamples = 1\nvalue = [0, 1]\nclass = y[1]"] ;
311 -> 312 ;
313 [label="entropy = 0.0\nsamples = 1\nvalue = [1, 0]\nclass = y[0]"] ;
311 -> 313 ;
314 [label="entropy = 0.0\nsamples = 18\nvalue = [18, 0]\nclass = y[0]"] ;
306 -> 314 ;
315 [label="entropy = 0.0\nsamples = 95\nvalue = [95, 0]\nclass = y[0]"] ;
305 -> 315 ;
316 [label="entropy = 0.0\nsamples = 294\nvalue = [294, 0]\nclass = y[0]"] ;
304 -> 316 ;
317 [label="entropy = 0.0\nsamples = 129\nvalue = [129, 0]\nclass = y[0]"] ;
289 -> 317 ;
318 [label="entropy = 0.0\nsamples = 1986\nvalue = [1986, 0]\nclass = y[0]"] ;
286 -> 318 ;
319 [label="X[25] <= 0.011\nentropy = 0.016\nsamples = 2082\nvalue = [2079, 3]\nclass = y[0]"] ;
283 -> 319 ;
320 [label="entropy = 0.0\nsamples = 1047\nvalue = [1047, 0]\nclass = y[0]"] ;
319 -> 320 ;
321 [label="X[11] <= 0.218\nentropy = 0.029\nsamples = 1035\nvalue = [1032, 3]\nclass = y[0]"] ;
319 -> 321 ;
322 [label="entropy = 0.0\nsamples = 447\nvalue = [447, 0]\nclass = y[0]"] ;
321 -> 322 ;
323 [label="X[20] <= 0.066\nentropy = 0.046\nsamples = 588\nvalue = [585, 3]\nclass = y[0]"] ;
321 -> 323 ;
324 [label="entropy = 0.0\nsamples = 252\nvalue = [252, 0]\nclass = y[0]"] ;
323 -> 324 ;
325 [label="X[1] <= 0.171\nentropy = 0.074\nsamples = 336\nvalue = [333, 3]\nclass = y[0]"] ;
323 -> 325 ;
326 [label="X[24] <= 0.406\nentropy = 0.371\nsamples = 14\nvalue = [13, 1]\nclass = y[0]"] ;
325 -> 326 ;
327 [label="entropy = 0.0\nsamples = 10\nvalue = [10, 0]\nclass = y[0]"] ;
326 -> 327 ;
328 [label="X[1] <= -0.034\nentropy = 0.811\nsamples = 4\nvalue = [3, 1]\nclass = y[0]"] ;
326 -> 328 ;
329 [label="entropy = 0.0\nsamples = 3\nvalue = [3, 0]\nclass = y[0]"] ;
328 -> 329 ;
330 [label="entropy = 0.0\nsamples = 1\nvalue = [0, 1]\nclass = y[1]"] ;
328 -> 330 ;
331 [label="X[1] <= 0.578\nentropy = 0.054\nsamples = 322\nvalue = [320, 2]\nclass = y[0]"] ;
325 -> 331 ;
332 [label="X[14] <= 0.342\nentropy = 0.323\nsamples = 17\nvalue = [16, 1]\nclass = y[0]"] ;
331 -> 332 ;
333 [label="X[23] <= 0.493\nentropy = 0.811\nsamples = 4\nvalue = [3, 1]\nclass = y[0]"] ;
332 -> 333 ;
334 [label="entropy = 0.0\nsamples = 2\nvalue = [2, 0]\nclass = y[0]"] ;
333 -> 334 ;
335 [label="X[0] <= -0.28\nentropy = 1.0\nsamples = 2\nvalue = [1, 1]\nclass = y[0]"] ;
333 -> 335 ;
336 [label="entropy = 0.0\nsamples = 1\nvalue = [1, 0]\nclass = y[0]"] ;
335 -> 336 ;
337 [label="entropy = 0.0\nsamples = 1\nvalue = [0, 1]\nclass = y[1]"] ;
335 -> 337 ;
338 [label="entropy = 0.0\nsamples = 13\nvalue = [13, 0]\nclass = y[0]"] ;
332 -> 338 ;
339 [label="X[4] <= 1.264\nentropy = 0.032\nsamples = 305\nvalue = [304, 1]\nclass = y[0]"] ;
331 -> 339 ;
340 [label="X[1] <= 1.158\nentropy = 0.068\nsamples = 124\nvalue = [123, 1]\nclass = y[0]"] ;
339 -> 340 ;
341 [label="entropy = 0.0\nsamples = 93\nvalue = [93, 0]\nclass = y[0]"] ;
340 -> 341 ;
342 [label="X[9] <= -0.628\nentropy = 0.206\nsamples = 31\nvalue = [30, 1]\nclass = y[0]"] ;
340 -> 342 ;
343 [label="X[0] <= -0.31\nentropy = 0.544\nsamples = 8\nvalue = [7, 1]\nclass = y[0]"] ;
342 -> 343 ;
344 [label="entropy = 0.0\nsamples = 1\nvalue = [1, 0]\nclass = y[0]"] ;
343 -> 344 ;
345 [label="X[0] <= -0.157\nentropy = 0.592\nsamples = 7\nvalue = [6, 1]\nclass = y[0]"] ;
343 -> 345 ;
346 [label="X[2] <= 0.65\nentropy = 1.0\nsamples = 2\nvalue = [1, 1]\nclass = y[0]"] ;
345 -> 346 ;
347 [label="entropy = 0.0\nsamples = 1\nvalue = [1, 0]\nclass = y[0]"] ;
346 -> 347 ;
348 [label="entropy = 0.0\nsamples = 1\nvalue = [0, 1]\nclass = y[1]"] ;
346 -> 348 ;
349 [label="entropy = 0.0\nsamples = 5\nvalue = [5, 0]\nclass = y[0]"] ;
345 -> 349 ;
350 [label="entropy = 0.0\nsamples = 23\nvalue = [23, 0]\nclass = y[0]"] ;
342 -> 350 ;
351 [label="entropy = 0.0\nsamples = 181\nvalue = [181, 0]\nclass = y[0]"] ;
339 -> 351 ;
352 [label="X[3] <= 3.951\nentropy = 0.023\nsamples = 1366\nvalue = [1363, 3]\nclass = y[0]"] ;
282 -> 352 ;
353 [label="X[21] <= 0.846\nentropy = 0.016\nsamples = 1358\nvalue = [1356, 2]\nclass = y[0]"] ;
352 -> 353 ;
354 [label="entropy = 0.0\nsamples = 1158\nvalue = [1158, 0]\nclass = y[0]"] ;
353 -> 354 ;
355 [label="X[2] <= 3.082\nentropy = 0.081\nsamples = 200\nvalue = [198, 2]\nclass = y[0]"] ;
353 -> 355 ;
356 [label="X[25] <= 0.316\nentropy = 0.047\nsamples = 192\nvalue = [191, 1]\nclass = y[0]"] ;
355 -> 356 ;
357 [label="entropy = 0.0\nsamples = 99\nvalue = [99, 0]\nclass = y[0]"] ;
356 -> 357 ;
358 [label="X[1] <= 0.71\nentropy = 0.086\nsamples = 93\nvalue = [92, 1]\nclass = y[0]"] ;
356 -> 358 ;
359 [label="X[1] <= 0.204\nentropy = 0.216\nsamples = 29\nvalue = [28, 1]\nclass = y[0]"] ;
358 -> 359 ;
360 [label="X[2] <= 0.254\nentropy = 1.0\nsamples = 2\nvalue = [1, 1]\nclass = y[0]"] ;
359 -> 360 ;
361 [label="entropy = 0.0\nsamples = 1\nvalue = [1, 0]\nclass = y[0]"] ;
360 -> 361 ;
362 [label="entropy = 0.0\nsamples = 1\nvalue = [0, 1]\nclass = y[1]"] ;
360 -> 362 ;
363 [label="entropy = 0.0\nsamples = 27\nvalue = [27, 0]\nclass = y[0]"] ;
359 -> 363 ;
364 [label="entropy = 0.0\nsamples = 64\nvalue = [64, 0]\nclass = y[0]"] ;
358 -> 364 ;
365 [label="X[24] <= 0.576\nentropy = 0.544\nsamples = 8\nvalue = [7, 1]\nclass = y[0]"] ;
355 -> 365 ;
366 [label="X[8] <= 2.367\nentropy = 1.0\nsamples = 2\nvalue = [1, 1]\nclass = y[0]"] ;
365 -> 366 ;
367 [label="entropy = 0.0\nsamples = 1\nvalue = [1, 0]\nclass = y[0]"] ;
366 -> 367 ;
368 [label="entropy = 0.0\nsamples = 1\nvalue = [0, 1]\nclass = y[1]"] ;
366 -> 368 ;
369 [label="entropy = 0.0\nsamples = 6\nvalue = [6, 0]\nclass = y[0]"] ;
365 -> 369 ;
370 [label="X[11] <= 0.839\nentropy = 0.544\nsamples = 8\nvalue = [7, 1]\nclass = y[0]"] ;
352 -> 370 ;
371 [label="entropy = 0.0\nsamples = 6\nvalue = [6, 0]\nclass = y[0]"] ;
370 -> 371 ;
372 [label="X[23] <= 0.844\nentropy = 1.0\nsamples = 2\nvalue = [1, 1]\nclass = y[0]"] ;
370 -> 372 ;
373 [label="entropy = 0.0\nsamples = 1\nvalue = [0, 1]\nclass = y[1]"] ;
372 -> 373 ;
374 [label="entropy = 0.0\nsamples = 1\nvalue = [1, 0]\nclass = y[0]"] ;
372 -> 374 ;
375 [label="X[1] <= -0.623\nentropy = 0.973\nsamples = 7831\nvalue = [4673, 3158]\nclass = y[0]"] ;
1 -> 375 ;
376 [label="X[1] <= -1.09\nentropy = 0.099\nsamples = 1404\nvalue = [18, 1386]\nclass = y[1]"] ;
375 -> 376 ;
377 [label="X[1] <= -1.336\nentropy = 0.02\nsamples = 1041\nvalue = [2, 1039]\nclass = y[1]"] ;
376 -> 377 ;
378 [label="entropy = 0.0\nsamples = 653\nvalue = [0, 653]\nclass = y[1]"] ;
377 -> 378 ;
379 [label="X[9] <= -1.124\nentropy = 0.047\nsamples = 388\nvalue = [2, 386]\nclass = y[1]"] ;
377 -> 379 ;
380 [label="X[11] <= 0.659\nentropy = 0.154\nsamples = 45\nvalue = [1, 44]\nclass = y[1]"] ;
379 -> 380 ;
381 [label="X[25] <= 0.544\nentropy = 0.229\nsamples = 27\nvalue = [1, 26]\nclass = y[1]"] ;
380 -> 381 ;
382 [label="entropy = 0.0\nsamples = 12\nvalue = [0, 12]\nclass = y[1]"] ;
381 -> 382 ;
383 [label="X[0] <= -0.927\nentropy = 0.353\nsamples = 15\nvalue = [1, 14]\nclass = y[1]"] ;
381 -> 383 ;
384 [label="X[15] <= 0.11\nentropy = 0.503\nsamples = 9\nvalue = [1, 8]\nclass = y[1]"] ;
383 -> 384 ;
385 [label="entropy = 0.0\nsamples = 3\nvalue = [0, 3]\nclass = y[1]"] ;
384 -> 385 ;
386 [label="X[0] <= -1.432\nentropy = 0.65\nsamples = 6\nvalue = [1, 5]\nclass = y[1]"] ;
384 -> 386 ;
387 [label="entropy = 0.0\nsamples = 2\nvalue = [0, 2]\nclass = y[1]"] ;
386 -> 387 ;
388 [label="X[0] <= -1.19\nentropy = 0.811\nsamples = 4\nvalue = [1, 3]\nclass = y[1]"] ;
386 -> 388 ;
389 [label="entropy = 0.0\nsamples = 3\nvalue = [0, 3]\nclass = y[1]"] ;
388 -> 389 ;
390 [label="entropy = 0.0\nsamples = 1\nvalue = [1, 0]\nclass = y[0]"] ;
388 -> 390 ;
391 [label="entropy = 0.0\nsamples = 6\nvalue = [0, 6]\nclass = y[1]"] ;
383 -> 391 ;
392 [label="entropy = 0.0\nsamples = 18\nvalue = [0, 18]\nclass = y[1]"] ;
380 -> 392 ;
393 [label="X[6] <= -0.309\nentropy = 0.029\nsamples = 343\nvalue = [1, 342]\nclass = y[1]"] ;
379 -> 393 ;
394 [label="X[11] <= 0.941\nentropy = 0.084\nsamples = 95\nvalue = [1, 94]\nclass = y[1]"] ;
393 -> 394 ;
395 [label="entropy = 0.0\nsamples = 64\nvalue = [0, 64]\nclass = y[1]"] ;
394 -> 395 ;
396 [label="X[10] <= 0.514\nentropy = 0.206\nsamples = 31\nvalue = [1, 30]\nclass = y[1]"] ;
394 -> 396 ;
397 [label="entropy = 0.0\nsamples = 21\nvalue = [0, 21]\nclass = y[1]"] ;
396 -> 397 ;
398 [label="X[9] <= 0.167\nentropy = 0.469\nsamples = 10\nvalue = [1, 9]\nclass = y[1]"] ;
396 -> 398 ;
399 [label="entropy = 0.0\nsamples = 4\nvalue = [0, 4]\nclass = y[1]"] ;
398 -> 399 ;
400 [label="X[14] <= 0.822\nentropy = 0.65\nsamples = 6\nvalue = [1, 5]\nclass = y[1]"] ;
398 -> 400 ;
401 [label="X[0] <= -0.882\nentropy = 0.811\nsamples = 4\nvalue = [1, 3]\nclass = y[1]"] ;
400 -> 401 ;
402 [label="X[0] <= -1.357\nentropy = 0.918\nsamples = 3\nvalue = [1, 2]\nclass = y[1]"] ;
401 -> 402 ;
403 [label="entropy = 0.0\nsamples = 1\nvalue = [0, 1]\nclass = y[1]"] ;
402 -> 403 ;
404 [label="X[0] <= -1.181\nentropy = 1.0\nsamples = 2\nvalue = [1, 1]\nclass = y[0]"] ;
402 -> 404 ;
405 [label="entropy = 0.0\nsamples = 1\nvalue = [0, 1]\nclass = y[1]"] ;
404 -> 405 ;
406 [label="entropy = 0.0\nsamples = 1\nvalue = [1, 0]\nclass = y[0]"] ;
404 -> 406 ;
407 [label="entropy = 0.0\nsamples = 1\nvalue = [0, 1]\nclass = y[1]"] ;
401 -> 407 ;
408 [label="entropy = 0.0\nsamples = 2\nvalue = [0, 2]\nclass = y[1]"] ;
400 -> 408 ;
409 [label="entropy = 0.0\nsamples = 248\nvalue = [0, 248]\nclass = y[1]"] ;
393 -> 409 ;
410 [label="X[20] <= 0.294\nentropy = 0.261\nsamples = 363\nvalue = [16, 347]\nclass = y[1]"] ;
376 -> 410 ;
411 [label="X[0] <= -0.498\nentropy = 0.2\nsamples = 354\nvalue = [11, 343]\nclass = y[1]"] ;
410 -> 411 ;
412 [label="X[9] <= -0.494\nentropy = 0.041\nsamples = 227\nvalue = [1, 226]\nclass = y[1]"] ;
411 -> 412 ;
413 [label="X[4] <= 0.226\nentropy = 0.276\nsamples = 21\nvalue = [1, 20]\nclass = y[1]"] ;
412 -> 413 ;
414 [label="entropy = 0.0\nsamples = 14\nvalue = [0, 14]\nclass = y[1]"] ;
413 -> 414 ;
415 [label="X[0] <= -0.801\nentropy = 0.592\nsamples = 7\nvalue = [1, 6]\nclass = y[1]"] ;
413 -> 415 ;
416 [label="X[1] <= -0.832\nentropy = 0.918\nsamples = 3\nvalue = [1, 2]\nclass = y[1]"] ;
415 -> 416 ;
417 [label="entropy = 0.0\nsamples = 2\nvalue = [0, 2]\nclass = y[1]"] ;
416 -> 417 ;
418 [label="entropy = 0.0\nsamples = 1\nvalue = [1, 0]\nclass = y[0]"] ;
416 -> 418 ;
419 [label="entropy = 0.0\nsamples = 4\nvalue = [0, 4]\nclass = y[1]"] ;
415 -> 419 ;
420 [label="entropy = 0.0\nsamples = 206\nvalue = [0, 206]\nclass = y[1]"] ;
412 -> 420 ;
421 [label="X[21] <= 0.685\nentropy = 0.398\nsamples = 127\nvalue = [10, 117]\nclass = y[1]"] ;
411 -> 421 ;
422 [label="X[6] <= 0.24\nentropy = 0.499\nsamples = 82\nvalue = [9, 73]\nclass = y[1]"] ;
421 -> 422 ;
423 [label="X[1] <= -0.983\nentropy = 0.554\nsamples = 70\nvalue = [9, 61]\nclass = y[1]"] ;
422 -> 423 ;
424 [label="X[6] <= -0.102\nentropy = 0.323\nsamples = 34\nvalue = [2, 32]\nclass = y[1]"] ;
423 -> 424 ;
425 [label="entropy = 0.0\nsamples = 18\nvalue = [0, 18]\nclass = y[1]"] ;
424 -> 425 ;
426 [label="X[4] <= -0.417\nentropy = 0.544\nsamples = 16\nvalue = [2, 14]\nclass = y[1]"] ;
424 -> 426 ;
427 [label="entropy = 0.0\nsamples = 8\nvalue = [0, 8]\nclass = y[1]"] ;
426 -> 427 ;
428 [label="X[11] <= 0.638\nentropy = 0.811\nsamples = 8\nvalue = [2, 6]\nclass = y[1]"] ;
426 -> 428 ;
429 [label="X[25] <= 0.65\nentropy = 0.918\nsamples = 3\nvalue = [2, 1]\nclass = y[0]"] ;
428 -> 429 ;
430 [label="entropy = 0.0\nsamples = 1\nvalue = [0, 1]\nclass = y[1]"] ;
429 -> 430 ;
431 [label="entropy = 0.0\nsamples = 2\nvalue = [2, 0]\nclass = y[0]"] ;
429 -> 431 ;
432 [label="entropy = 0.0\nsamples = 5\nvalue = [0, 5]\nclass = y[1]"] ;
428 -> 432 ;
433 [label="X[15] <= 0.639\nentropy = 0.711\nsamples = 36\nvalue = [7, 29]\nclass = y[1]"] ;
423 -> 433 ;
434 [label="X[27] <= 0.6\nentropy = 0.323\nsamples = 17\nvalue = [1, 16]\nclass = y[1]"] ;
433 -> 434 ;
435 [label="entropy = 0.0\nsamples = 13\nvalue = [0, 13]\nclass = y[1]"] ;
434 -> 435 ;
436 [label="X[6] <= -0.147\nentropy = 0.811\nsamples = 4\nvalue = [1, 3]\nclass = y[1]"] ;
434 -> 436 ;
437 [label="entropy = 0.0\nsamples = 1\nvalue = [1, 0]\nclass = y[0]"] ;
436 -> 437 ;
438 [label="entropy = 0.0\nsamples = 3\nvalue = [0, 3]\nclass = y[1]"] ;
436 -> 438 ;
439 [label="X[6] <= -0.213\nentropy = 0.9\nsamples = 19\nvalue = [6, 13]\nclass = y[1]"] ;
433 -> 439 ;
440 [label="X[9] <= -0.919\nentropy = 1.0\nsamples = 10\nvalue = [5, 5]\nclass = y[0]"] ;
439 -> 440 ;
441 [label="entropy = 0.0\nsamples = 1\nvalue = [1, 0]\nclass = y[0]"] ;
440 -> 441 ;
442 [label="X[4] <= -0.78\nentropy = 0.991\nsamples = 9\nvalue = [4, 5]\nclass = y[1]"] ;
440 -> 442 ;
443 [label="entropy = 0.0\nsamples = 1\nvalue = [0, 1]\nclass = y[1]"] ;
442 -> 443 ;
444 [label="X[4] <= 0.264\nentropy = 1.0\nsamples = 8\nvalue = [4, 4]\nclass = y[0]"] ;
442 -> 444 ;
445 [label="X[24] <= 0.203\nentropy = 0.985\nsamples = 7\nvalue = [3, 4]\nclass = y[1]"] ;
444 -> 445 ;
446 [label="entropy = 0.0\nsamples = 2\nvalue = [0, 2]\nclass = y[1]"] ;
445 -> 446 ;
447 [label="X[5] <= 1.004\nentropy = 0.971\nsamples = 5\nvalue = [3, 2]\nclass = y[0]"] ;
445 -> 447 ;
448 [label="entropy = 0.0\nsamples = 2\nvalue = [2, 0]\nclass = y[0]"] ;
447 -> 448 ;
449 [label="X[11] <= 0.475\nentropy = 0.918\nsamples = 3\nvalue = [1, 2]\nclass = y[1]"] ;
447 -> 449 ;
450 [label="entropy = 0.0\nsamples = 1\nvalue = [0, 1]\nclass = y[1]"] ;
449 -> 450 ;
451 [label="X[0] <= 0.338\nentropy = 1.0\nsamples = 2\nvalue = [1, 1]\nclass = y[0]"] ;
449 -> 451 ;
452 [label="entropy = 0.0\nsamples = 1\nvalue = [0, 1]\nclass = y[1]"] ;
451 -> 452 ;
453 [label="entropy = 0.0\nsamples = 1\nvalue = [1, 0]\nclass = y[0]"] ;
451 -> 453 ;
454 [label="entropy = 0.0\nsamples = 1\nvalue = [1, 0]\nclass = y[0]"] ;
444 -> 454 ;
455 [label="X[10] <= 0.063\nentropy = 0.503\nsamples = 9\nvalue = [1, 8]\nclass = y[1]"] ;
439 -> 455 ;
456 [label="entropy = 0.0\nsamples = 7\nvalue = [0, 7]\nclass = y[1]"] ;
455 -> 456 ;
457 [label="X[6] <= -0.008\nentropy = 1.0\nsamples = 2\nvalue = [1, 1]\nclass = y[0]"] ;
455 -> 457 ;
458 [label="entropy = 0.0\nsamples = 1\nvalue = [1, 0]\nclass = y[0]"] ;
457 -> 458 ;
459 [label="entropy = 0.0\nsamples = 1\nvalue = [0, 1]\nclass = y[1]"] ;
457 -> 459 ;
460 [label="entropy = 0.0\nsamples = 12\nvalue = [0, 12]\nclass = y[1]"] ;
422 -> 460 ;
461 [label="X[10] <= -0.092\nentropy = 0.154\nsamples = 45\nvalue = [1, 44]\nclass = y[1]"] ;
421 -> 461 ;
462 [label="entropy = 0.0\nsamples = 34\nvalue = [0, 34]\nclass = y[1]"] ;
461 -> 462 ;
463 [label="X[6] <= 0.309\nentropy = 0.439\nsamples = 11\nvalue = [1, 10]\nclass = y[1]"] ;
461 -> 463 ;
464 [label="entropy = 0.0\nsamples = 7\nvalue = [0, 7]\nclass = y[1]"] ;
463 -> 464 ;
465 [label="X[1] <= -0.892\nentropy = 0.811\nsamples = 4\nvalue = [1, 3]\nclass = y[1]"] ;
463 -> 465 ;
466 [label="X[0] <= -0.082\nentropy = 1.0\nsamples = 2\nvalue = [1, 1]\nclass = y[0]"] ;
465 -> 466 ;
467 [label="entropy = 0.0\nsamples = 1\nvalue = [1, 0]\nclass = y[0]"] ;
466 -> 467 ;
468 [label="entropy = 0.0\nsamples = 1\nvalue = [0, 1]\nclass = y[1]"] ;
466 -> 468 ;
469 [label="entropy = 0.0\nsamples = 2\nvalue = [0, 2]\nclass = y[1]"] ;
465 -> 469 ;
470 [label="X[9] <= 0.843\nentropy = 0.991\nsamples = 9\nvalue = [5, 4]\nclass = y[0]"] ;
410 -> 470 ;
471 [label="entropy = 0.0\nsamples = 3\nvalue = [3, 0]\nclass = y[0]"] ;
470 -> 471 ;
472 [label="X[1] <= -0.908\nentropy = 0.918\nsamples = 6\nvalue = [2, 4]\nclass = y[1]"] ;
470 -> 472 ;
473 [label="entropy = 0.0\nsamples = 2\nvalue = [2, 0]\nclass = y[0]"] ;
472 -> 473 ;
474 [label="entropy = 0.0\nsamples = 4\nvalue = [0, 4]\nclass = y[1]"] ;
472 -> 474 ;
475 [label="X[6] <= 0.755\nentropy = 0.85\nsamples = 6427\nvalue = [4655, 1772]\nclass = y[0]"] ;
375 -> 475 ;
476 [label="X[7] <= -0.326\nentropy = 0.624\nsamples = 5423\nvalue = [4578, 845]\nclass = y[0]"] ;
475 -> 476 ;
477 [label="X[17] <= 0.637\nentropy = 0.197\nsamples = 4174\nvalue = [4047, 127]\nclass = y[0]"] ;
476 -> 477 ;
478 [label="X[3] <= 0.849\nentropy = 0.993\nsamples = 193\nvalue = [87, 106]\nclass = y[1]"] ;
477 -> 478 ;
479 [label="X[15] <= 0.394\nentropy = 0.843\nsamples = 129\nvalue = [35, 94]\nclass = y[1]"] ;
478 -> 479 ;
480 [label="X[4] <= 0.775\nentropy = 0.631\nsamples = 82\nvalue = [13, 69]\nclass = y[1]"] ;
479 -> 480 ;
481 [label="X[22] <= 0.254\nentropy = 0.508\nsamples = 71\nvalue = [8, 63]\nclass = y[1]"] ;
480 -> 481 ;
482 [label="X[21] <= 0.783\nentropy = 0.469\nsamples = 70\nvalue = [7, 63]\nclass = y[1]"] ;
481 -> 482 ;
483 [label="X[1] <= -0.094\nentropy = 0.629\nsamples = 38\nvalue = [6, 32]\nclass = y[1]"] ;
482 -> 483 ;
484 [label="X[4] <= -0.113\nentropy = 0.345\nsamples = 31\nvalue = [2, 29]\nclass = y[1]"] ;
483 -> 484 ;
485 [label="entropy = 0.0\nsamples = 25\nvalue = [0, 25]\nclass = y[1]"] ;
484 -> 485 ;
486 [label="X[0] <= 0.449\nentropy = 0.918\nsamples = 6\nvalue = [2, 4]\nclass = y[1]"] ;
484 -> 486 ;
487 [label="X[11] <= 0.604\nentropy = 0.722\nsamples = 5\nvalue = [1, 4]\nclass = y[1]"] ;
486 -> 487 ;
488 [label="X[24] <= 0.516\nentropy = 0.918\nsamples = 3\nvalue = [1, 2]\nclass = y[1]"] ;
487 -> 488 ;
489 [label="X[0] <= -0.342\nentropy = 1.0\nsamples = 2\nvalue = [1, 1]\nclass = y[0]"] ;
488 -> 489 ;
490 [label="entropy = 0.0\nsamples = 1\nvalue = [0, 1]\nclass = y[1]"] ;
489 -> 490 ;
491 [label="entropy = 0.0\nsamples = 1\nvalue = [1, 0]\nclass = y[0]"] ;
489 -> 491 ;
492 [label="entropy = 0.0\nsamples = 1\nvalue = [0, 1]\nclass = y[1]"] ;
488 -> 492 ;
493 [label="entropy = 0.0\nsamples = 2\nvalue = [0, 2]\nclass = y[1]"] ;
487 -> 493 ;
494 [label="entropy = 0.0\nsamples = 1\nvalue = [1, 0]\nclass = y[0]"] ;
486 -> 494 ;
495 [label="X[6] <= -0.051\nentropy = 0.985\nsamples = 7\nvalue = [4, 3]\nclass = y[0]"] ;
483 -> 495 ;
496 [label="X[1] <= 0.474\nentropy = 0.722\nsamples = 5\nvalue = [4, 1]\nclass = y[0]"] ;
495 -> 496 ;
497 [label="entropy = 0.0\nsamples = 4\nvalue = [4, 0]\nclass = y[0]"] ;
496 -> 497 ;
498 [label="entropy = 0.0\nsamples = 1\nvalue = [0, 1]\nclass = y[1]"] ;
496 -> 498 ;
499 [label="entropy = 0.0\nsamples = 2\nvalue = [0, 2]\nclass = y[1]"] ;
495 -> 499 ;
500 [label="X[24] <= 0.475\nentropy = 0.201\nsamples = 32\nvalue = [1, 31]\nclass = y[1]"] ;
482 -> 500 ;
501 [label="entropy = 0.0\nsamples = 18\nvalue = [0, 18]\nclass = y[1]"] ;
500 -> 501 ;
502 [label="X[0] <= -0.18\nentropy = 0.371\nsamples = 14\nvalue = [1, 13]\nclass = y[1]"] ;
500 -> 502 ;
503 [label="entropy = 0.0\nsamples = 9\nvalue = [0, 9]\nclass = y[1]"] ;
502 -> 503 ;
504 [label="X[11] <= 0.318\nentropy = 0.722\nsamples = 5\nvalue = [1, 4]\nclass = y[1]"] ;
502 -> 504 ;
505 [label="entropy = 0.0\nsamples = 3\nvalue = [0, 3]\nclass = y[1]"] ;
504 -> 505 ;
506 [label="X[26] <= 0.687\nentropy = 1.0\nsamples = 2\nvalue = [1, 1]\nclass = y[0]"] ;
504 -> 506 ;
507 [label="entropy = 0.0\nsamples = 1\nvalue = [1, 0]\nclass = y[0]"] ;
506 -> 507 ;
508 [label="entropy = 0.0\nsamples = 1\nvalue = [0, 1]\nclass = y[1]"] ;
506 -> 508 ;
509 [label="entropy = 0.0\nsamples = 1\nvalue = [1, 0]\nclass = y[0]"] ;
481 -> 509 ;
510 [label="X[1] <= -0.414\nentropy = 0.994\nsamples = 11\nvalue = [5, 6]\nclass = y[1]"] ;
480 -> 510 ;
511 [label="X[9] <= -0.744\nentropy = 0.592\nsamples = 7\nvalue = [1, 6]\nclass = y[1]"] ;
510 -> 511 ;
512 [label="X[0] <= 0.365\nentropy = 0.811\nsamples = 4\nvalue = [1, 3]\nclass = y[1]"] ;
511 -> 512 ;
513 [label="entropy = 0.0\nsamples = 3\nvalue = [0, 3]\nclass = y[1]"] ;
512 -> 513 ;
514 [label="entropy = 0.0\nsamples = 1\nvalue = [1, 0]\nclass = y[0]"] ;
512 -> 514 ;
515 [label="entropy = 0.0\nsamples = 3\nvalue = [0, 3]\nclass = y[1]"] ;
511 -> 515 ;
516 [label="entropy = 0.0\nsamples = 4\nvalue = [4, 0]\nclass = y[0]"] ;
510 -> 516 ;
517 [label="X[6] <= -0.11\nentropy = 0.997\nsamples = 47\nvalue = [22, 25]\nclass = y[1]"] ;
479 -> 517 ;
518 [label="X[4] <= -0.608\nentropy = 0.881\nsamples = 30\nvalue = [21, 9]\nclass = y[0]"] ;
517 -> 518 ;
519 [label="X[6] <= -0.221\nentropy = 0.65\nsamples = 6\nvalue = [1, 5]\nclass = y[1]"] ;
518 -> 519 ;
520 [label="entropy = 0.0\nsamples = 1\nvalue = [1, 0]\nclass = y[0]"] ;
519 -> 520 ;
521 [label="entropy = 0.0\nsamples = 5\nvalue = [0, 5]\nclass = y[1]"] ;
519 -> 521 ;
522 [label="X[21] <= 0.537\nentropy = 0.65\nsamples = 24\nvalue = [20, 4]\nclass = y[0]"] ;
518 -> 522 ;
523 [label="X[27] <= 0.166\nentropy = 0.297\nsamples = 19\nvalue = [18, 1]\nclass = y[0]"] ;
522 -> 523 ;
524 [label="entropy = 0.0\nsamples = 14\nvalue = [14, 0]\nclass = y[0]"] ;
523 -> 524 ;
525 [label="X[1] <= -0.466\nentropy = 0.722\nsamples = 5\nvalue = [4, 1]\nclass = y[0]"] ;
523 -> 525 ;
526 [label="entropy = 0.0\nsamples = 3\nvalue = [3, 0]\nclass = y[0]"] ;
525 -> 526 ;
527 [label="X[11] <= 0.288\nentropy = 1.0\nsamples = 2\nvalue = [1, 1]\nclass = y[0]"] ;
525 -> 527 ;
528 [label="entropy = 0.0\nsamples = 1\nvalue = [1, 0]\nclass = y[0]"] ;
527 -> 528 ;
529 [label="entropy = 0.0\nsamples = 1\nvalue = [0, 1]\nclass = y[1]"] ;
527 -> 529 ;
530 [label="X[1] <= -0.192\nentropy = 0.971\nsamples = 5\nvalue = [2, 3]\nclass = y[1]"] ;
522 -> 530 ;
531 [label="entropy = 0.0\nsamples = 3\nvalue = [0, 3]\nclass = y[1]"] ;
530 -> 531 ;
532 [label="entropy = 0.0\nsamples = 2\nvalue = [2, 0]\nclass = y[0]"] ;
530 -> 532 ;
533 [label="X[1] <= -0.136\nentropy = 0.323\nsamples = 17\nvalue = [1, 16]\nclass = y[1]"] ;
517 -> 533 ;
534 [label="entropy = 0.0\nsamples = 15\nvalue = [0, 15]\nclass = y[1]"] ;
533 -> 534 ;
535 [label="X[0] <= 0.126\nentropy = 1.0\nsamples = 2\nvalue = [1, 1]\nclass = y[0]"] ;
533 -> 535 ;
536 [label="entropy = 0.0\nsamples = 1\nvalue = [1, 0]\nclass = y[0]"] ;
535 -> 536 ;
537 [label="entropy = 0.0\nsamples = 1\nvalue = [0, 1]\nclass = y[1]"] ;
535 -> 537 ;
538 [label="X[6] <= 0.154\nentropy = 0.696\nsamples = 64\nvalue = [52, 12]\nclass = y[0]"] ;
478 -> 538 ;
539 [label="X[4] <= -0.561\nentropy = 0.637\nsamples = 62\nvalue = [52, 10]\nclass = y[0]"] ;
538 -> 539 ;
540 [label="X[27] <= 0.177\nentropy = 0.811\nsamples = 4\nvalue = [1, 3]\nclass = y[1]"] ;
539 -> 540 ;
541 [label="entropy = 0.0\nsamples = 3\nvalue = [0, 3]\nclass = y[1]"] ;
540 -> 541 ;
542 [label="entropy = 0.0\nsamples = 1\nvalue = [1, 0]\nclass = y[0]"] ;
540 -> 542 ;
543 [label="X[6] <= -0.165\nentropy = 0.531\nsamples = 58\nvalue = [51, 7]\nclass = y[0]"] ;
539 -> 543 ;
544 [label="X[25] <= 0.165\nentropy = 0.414\nsamples = 48\nvalue = [44, 4]\nclass = y[0]"] ;
543 -> 544 ;
545 [label="entropy = 0.0\nsamples = 23\nvalue = [23, 0]\nclass = y[0]"] ;
544 -> 545 ;
546 [label="X[9] <= -0.53\nentropy = 0.634\nsamples = 25\nvalue = [21, 4]\nclass = y[0]"] ;
544 -> 546 ;
547 [label="entropy = 0.0\nsamples = 6\nvalue = [6, 0]\nclass = y[0]"] ;
546 -> 547 ;
548 [label="X[4] <= 1.942\nentropy = 0.742\nsamples = 19\nvalue = [15, 4]\nclass = y[0]"] ;
546 -> 548 ;
549 [label="X[3] <= 2.543\nentropy = 0.65\nsamples = 18\nvalue = [15, 3]\nclass = y[0]"] ;
548 -> 549 ;
550 [label="X[14] <= 0.736\nentropy = 0.696\nsamples = 16\nvalue = [13, 3]\nclass = y[0]"] ;
549 -> 550 ;
551 [label="X[0] <= 0.69\nentropy = 0.503\nsamples = 9\nvalue = [8, 1]\nclass = y[0]"] ;
550 -> 551 ;
552 [label="entropy = 0.0\nsamples = 7\nvalue = [7, 0]\nclass = y[0]"] ;
551 -> 552 ;
553 [label="X[1] <= -0.023\nentropy = 1.0\nsamples = 2\nvalue = [1, 1]\nclass = y[0]"] ;
551 -> 553 ;
554 [label="entropy = 0.0\nsamples = 1\nvalue = [1, 0]\nclass = y[0]"] ;
553 -> 554 ;
555 [label="entropy = 0.0\nsamples = 1\nvalue = [0, 1]\nclass = y[1]"] ;
553 -> 555 ;
556 [label="X[6] <= -0.216\nentropy = 0.863\nsamples = 7\nvalue = [5, 2]\nclass = y[0]"] ;
550 -> 556 ;
557 [label="X[24] <= 0.158\nentropy = 0.65\nsamples = 6\nvalue = [5, 1]\nclass = y[0]"] ;
556 -> 557 ;
558 [label="entropy = 0.0\nsamples = 3\nvalue = [3, 0]\nclass = y[0]"] ;
557 -> 558 ;
559 [label="X[1] <= -0.012\nentropy = 0.918\nsamples = 3\nvalue = [2, 1]\nclass = y[0]"] ;
557 -> 559 ;
560 [label="X[0] <= -0.659\nentropy = 1.0\nsamples = 2\nvalue = [1, 1]\nclass = y[0]"] ;
559 -> 560 ;
561 [label="entropy = 0.0\nsamples = 1\nvalue = [1, 0]\nclass = y[0]"] ;
560 -> 561 ;
562 [label="entropy = 0.0\nsamples = 1\nvalue = [0, 1]\nclass = y[1]"] ;
560 -> 562 ;
563 [label="entropy = 0.0\nsamples = 1\nvalue = [1, 0]\nclass = y[0]"] ;
559 -> 563 ;
564 [label="entropy = 0.0\nsamples = 1\nvalue = [0, 1]\nclass = y[1]"] ;
556 -> 564 ;
565 [label="entropy = 0.0\nsamples = 2\nvalue = [2, 0]\nclass = y[0]"] ;
549 -> 565 ;
566 [label="entropy = 0.0\nsamples = 1\nvalue = [0, 1]\nclass = y[1]"] ;
548 -> 566 ;
567 [label="X[1] <= 0.089\nentropy = 0.881\nsamples = 10\nvalue = [7, 3]\nclass = y[0]"] ;
543 -> 567 ;
568 [label="X[8] <= 0.661\nentropy = 0.764\nsamples = 9\nvalue = [7, 2]\nclass = y[0]"] ;
567 -> 568 ;
569 [label="entropy = 0.0\nsamples = 6\nvalue = [6, 0]\nclass = y[0]"] ;
568 -> 569 ;
570 [label="X[23] <= 0.683\nentropy = 0.918\nsamples = 3\nvalue = [1, 2]\nclass = y[1]"] ;
568 -> 570 ;
571 [label="entropy = 0.0\nsamples = 1\nvalue = [1, 0]\nclass = y[0]"] ;
570 -> 571 ;
572 [label="entropy = 0.0\nsamples = 2\nvalue = [0, 2]\nclass = y[1]"] ;
570 -> 572 ;
573 [label="entropy = 0.0\nsamples = 1\nvalue = [0, 1]\nclass = y[1]"] ;
567 -> 573 ;
574 [label="entropy = 0.0\nsamples = 2\nvalue = [0, 2]\nclass = y[1]"] ;
538 -> 574 ;
575 [label="X[21] <= 0.911\nentropy = 0.048\nsamples = 3981\nvalue = [3960, 21]\nclass = y[0]"] ;
477 -> 575 ;
576 [label="X[24] <= 0.052\nentropy = 0.011\nsamples = 3067\nvalue = [3064, 3]\nclass = y[0]"] ;
575 -> 576 ;
577 [label="entropy = 0.0\nsamples = 1714\nvalue = [1714, 0]\nclass = y[0]"] ;
576 -> 577 ;
578 [label="X[8] <= -0.527\nentropy = 0.023\nsamples = 1353\nvalue = [1350, 3]\nclass = y[0]"] ;
576 -> 578 ;
579 [label="entropy = 0.0\nsamples = 1269\nvalue = [1269, 0]\nclass = y[0]"] ;
578 -> 579 ;
580 [label="X[1] <= 0.506\nentropy = 0.222\nsamples = 84\nvalue = [81, 3]\nclass = y[0]"] ;
578 -> 580 ;
581 [label="X[6] <= -0.27\nentropy = 0.971\nsamples = 5\nvalue = [3, 2]\nclass = y[0]"] ;
580 -> 581 ;
582 [label="entropy = 0.0\nsamples = 2\nvalue = [2, 0]\nclass = y[0]"] ;
581 -> 582 ;
583 [label="X[12] <= 0.513\nentropy = 0.918\nsamples = 3\nvalue = [1, 2]\nclass = y[1]"] ;
581 -> 583 ;
584 [label="entropy = 0.0\nsamples = 1\nvalue = [1, 0]\nclass = y[0]"] ;
583 -> 584 ;
585 [label="entropy = 0.0\nsamples = 2\nvalue = [0, 2]\nclass = y[1]"] ;
583 -> 585 ;
586 [label="X[26] <= 0.189\nentropy = 0.098\nsamples = 79\nvalue = [78, 1]\nclass = y[0]"] ;
580 -> 586 ;
587 [label="entropy = 0.0\nsamples = 55\nvalue = [55, 0]\nclass = y[0]"] ;
586 -> 587 ;
588 [label="X[1] <= 0.967\nentropy = 0.25\nsamples = 24\nvalue = [23, 1]\nclass = y[0]"] ;
586 -> 588 ;
589 [label="X[15] <= 0.659\nentropy = 0.503\nsamples = 9\nvalue = [8, 1]\nclass = y[0]"] ;
588 -> 589 ;
590 [label="X[11] <= 0.525\nentropy = 1.0\nsamples = 2\nvalue = [1, 1]\nclass = y[0]"] ;
589 -> 590 ;
591 [label="entropy = 0.0\nsamples = 1\nvalue = [1, 0]\nclass = y[0]"] ;
590 -> 591 ;
592 [label="entropy = 0.0\nsamples = 1\nvalue = [0, 1]\nclass = y[1]"] ;
590 -> 592 ;
593 [label="entropy = 0.0\nsamples = 7\nvalue = [7, 0]\nclass = y[0]"] ;
589 -> 593 ;
594 [label="entropy = 0.0\nsamples = 15\nvalue = [15, 0]\nclass = y[0]"] ;
588 -> 594 ;
595 [label="X[1] <= 1.06\nentropy = 0.14\nsamples = 914\nvalue = [896, 18]\nclass = y[0]"] ;
575 -> 595 ;
596 [label="X[1] <= -0.418\nentropy = 0.211\nsamples = 540\nvalue = [522, 18]\nclass = y[0]"] ;
595 -> 596 ;
597 [label="entropy = 0.0\nsamples = 2\nvalue = [0, 2]\nclass = y[1]"] ;
596 -> 597 ;
598 [label="X[1] <= 0.729\nentropy = 0.193\nsamples = 538\nvalue = [522, 16]\nclass = y[0]"] ;
596 -> 598 ;
599 [label="X[1] <= 0.396\nentropy = 0.28\nsamples = 330\nvalue = [314, 16]\nclass = y[0]"] ;
598 -> 599 ;
600 [label="X[3] <= -0.027\nentropy = 0.447\nsamples = 150\nvalue = [136, 14]\nclass = y[0]"] ;
599 -> 600 ;
601 [label="X[1] <= 0.208\nentropy = 0.547\nsamples = 111\nvalue = [97, 14]\nclass = y[0]"] ;
600 -> 601 ;
602 [label="X[23] <= 0.084\nentropy = 0.885\nsamples = 33\nvalue = [23, 10]\nclass = y[0]"] ;
601 -> 602 ;
603 [label="X[11] <= 0.362\nentropy = 0.523\nsamples = 17\nvalue = [15, 2]\nclass = y[0]"] ;
602 -> 603 ;
604 [label="X[9] <= 0.833\nentropy = 0.764\nsamples = 9\nvalue = [7, 2]\nclass = y[0]"] ;
603 -> 604 ;
605 [label="entropy = 0.0\nsamples = 5\nvalue = [5, 0]\nclass = y[0]"] ;
604 -> 605 ;
606 [label="X[5] <= 0.814\nentropy = 1.0\nsamples = 4\nvalue = [2, 2]\nclass = y[0]"] ;
604 -> 606 ;
607 [label="X[4] <= -0.466\nentropy = 0.918\nsamples = 3\nvalue = [2, 1]\nclass = y[0]"] ;
606 -> 607 ;
608 [label="X[6] <= 0.189\nentropy = 1.0\nsamples = 2\nvalue = [1, 1]\nclass = y[0]"] ;
607 -> 608 ;
609 [label="entropy = 0.0\nsamples = 1\nvalue = [1, 0]\nclass = y[0]"] ;
608 -> 609 ;
610 [label="entropy = 0.0\nsamples = 1\nvalue = [0, 1]\nclass = y[1]"] ;
608 -> 610 ;
611 [label="entropy = 0.0\nsamples = 1\nvalue = [1, 0]\nclass = y[0]"] ;
607 -> 611 ;
612 [label="entropy = 0.0\nsamples = 1\nvalue = [0, 1]\nclass = y[1]"] ;
606 -> 612 ;
613 [label="entropy = 0.0\nsamples = 8\nvalue = [8, 0]\nclass = y[0]"] ;
603 -> 613 ;
614 [label="X[25] <= 0.046\nentropy = 1.0\nsamples = 16\nvalue = [8, 8]\nclass = y[0]"] ;
602 -> 614 ;
615 [label="X[4] <= 0.87\nentropy = 0.544\nsamples = 8\nvalue = [7, 1]\nclass = y[0]"] ;
614 -> 615 ;
616 [label="entropy = 0.0\nsamples = 5\nvalue = [5, 0]\nclass = y[0]"] ;
615 -> 616 ;
617 [label="X[9] <= -0.319\nentropy = 0.918\nsamples = 3\nvalue = [2, 1]\nclass = y[0]"] ;
615 -> 617 ;
618 [label="X[0] <= 0.428\nentropy = 1.0\nsamples = 2\nvalue = [1, 1]\nclass = y[0]"] ;
617 -> 618 ;
619 [label="entropy = 0.0\nsamples = 1\nvalue = [0, 1]\nclass = y[1]"] ;
618 -> 619 ;
620 [label="entropy = 0.0\nsamples = 1\nvalue = [1, 0]\nclass = y[0]"] ;
618 -> 620 ;
621 [label="entropy = 0.0\nsamples = 1\nvalue = [1, 0]\nclass = y[0]"] ;
617 -> 621 ;
622 [label="X[0] <= 1.139\nentropy = 0.544\nsamples = 8\nvalue = [1, 7]\nclass = y[1]"] ;
614 -> 622 ;
623 [label="entropy = 0.0\nsamples = 6\nvalue = [0, 6]\nclass = y[1]"] ;
622 -> 623 ;
624 [label="X[1] <= -0.026\nentropy = 1.0\nsamples = 2\nvalue = [1, 1]\nclass = y[0]"] ;
622 -> 624 ;
625 [label="entropy = 0.0\nsamples = 1\nvalue = [0, 1]\nclass = y[1]"] ;
624 -> 625 ;
626 [label="entropy = 0.0\nsamples = 1\nvalue = [1, 0]\nclass = y[0]"] ;
624 -> 626 ;
627 [label="X[8] <= 3.74\nentropy = 0.292\nsamples = 78\nvalue = [74, 4]\nclass = y[0]"] ;
601 -> 627 ;
628 [label="X[15] <= 0.147\nentropy = 0.238\nsamples = 77\nvalue = [74, 3]\nclass = y[0]"] ;
627 -> 628 ;
629 [label="X[6] <= 0.321\nentropy = 0.406\nsamples = 37\nvalue = [34, 3]\nclass = y[0]"] ;
628 -> 629 ;
630 [label="X[24] <= 0.301\nentropy = 0.31\nsamples = 36\nvalue = [34, 2]\nclass = y[0]"] ;
629 -> 630 ;
631 [label="X[6] <= -0.29\nentropy = 0.439\nsamples = 22\nvalue = [20, 2]\nclass = y[0]"] ;
630 -> 631 ;
632 [label="entropy = 0.0\nsamples = 11\nvalue = [11, 0]\nclass = y[0]"] ;
631 -> 632 ;
633 [label="X[2] <= 0.202\nentropy = 0.684\nsamples = 11\nvalue = [9, 2]\nclass = y[0]"] ;
631 -> 633 ;
634 [label="X[9] <= 0.827\nentropy = 0.811\nsamples = 8\nvalue = [6, 2]\nclass = y[0]"] ;
633 -> 634 ;
635 [label="X[12] <= 0.773\nentropy = 0.592\nsamples = 7\nvalue = [6, 1]\nclass = y[0]"] ;
634 -> 635 ;
636 [label="X[4] <= 0.7\nentropy = 1.0\nsamples = 2\nvalue = [1, 1]\nclass = y[0]"] ;
635 -> 636 ;
637 [label="entropy = 0.0\nsamples = 1\nvalue = [1, 0]\nclass = y[0]"] ;
636 -> 637 ;
638 [label="entropy = 0.0\nsamples = 1\nvalue = [0, 1]\nclass = y[1]"] ;
636 -> 638 ;
639 [label="entropy = 0.0\nsamples = 5\nvalue = [5, 0]\nclass = y[0]"] ;
635 -> 639 ;
640 [label="entropy = 0.0\nsamples = 1\nvalue = [0, 1]\nclass = y[1]"] ;
634 -> 640 ;
641 [label="entropy = 0.0\nsamples = 3\nvalue = [3, 0]\nclass = y[0]"] ;
633 -> 641 ;
642 [label="entropy = 0.0\nsamples = 14\nvalue = [14, 0]\nclass = y[0]"] ;
630 -> 642 ;
643 [label="entropy = 0.0\nsamples = 1\nvalue = [0, 1]\nclass = y[1]"] ;
629 -> 643 ;
644 [label="entropy = 0.0\nsamples = 40\nvalue = [40, 0]\nclass = y[0]"] ;
628 -> 644 ;
645 [label="entropy = 0.0\nsamples = 1\nvalue = [0, 1]\nclass = y[1]"] ;
627 -> 645 ;
646 [label="entropy = 0.0\nsamples = 39\nvalue = [39, 0]\nclass = y[0]"] ;
600 -> 646 ;
647 [label="X[2] <= 1.325\nentropy = 0.088\nsamples = 180\nvalue = [178, 2]\nclass = y[0]"] ;
599 -> 647 ;
648 [label="X[26] <= 0.926\nentropy = 0.051\nsamples = 173\nvalue = [172, 1]\nclass = y[0]"] ;
647 -> 648 ;
649 [label="entropy = 0.0\nsamples = 134\nvalue = [134, 0]\nclass = y[0]"] ;
648 -> 649 ;
650 [label="X[9] <= -0.387\nentropy = 0.172\nsamples = 39\nvalue = [38, 1]\nclass = y[0]"] ;
648 -> 650 ;
651 [label="X[4] <= 0.612\nentropy = 0.592\nsamples = 7\nvalue = [6, 1]\nclass = y[0]"] ;
650 -> 651 ;
652 [label="X[14] <= 0.826\nentropy = 1.0\nsamples = 2\nvalue = [1, 1]\nclass = y[0]"] ;
651 -> 652 ;
653 [label="entropy = 0.0\nsamples = 1\nvalue = [1, 0]\nclass = y[0]"] ;
652 -> 653 ;
654 [label="entropy = 0.0\nsamples = 1\nvalue = [0, 1]\nclass = y[1]"] ;
652 -> 654 ;
655 [label="entropy = 0.0\nsamples = 5\nvalue = [5, 0]\nclass = y[0]"] ;
651 -> 655 ;
656 [label="entropy = 0.0\nsamples = 32\nvalue = [32, 0]\nclass = y[0]"] ;
650 -> 656 ;
657 [label="X[3] <= -0.385\nentropy = 0.592\nsamples = 7\nvalue = [6, 1]\nclass = y[0]"] ;
647 -> 657 ;
658 [label="entropy = 0.0\nsamples = 5\nvalue = [5, 0]\nclass = y[0]"] ;
657 -> 658 ;
659 [label="X[4] <= 0.402\nentropy = 1.0\nsamples = 2\nvalue = [1, 1]\nclass = y[0]"] ;
657 -> 659 ;
660 [label="entropy = 0.0\nsamples = 1\nvalue = [1, 0]\nclass = y[0]"] ;
659 -> 660 ;
661 [label="entropy = 0.0\nsamples = 1\nvalue = [0, 1]\nclass = y[1]"] ;
659 -> 661 ;
662 [label="entropy = 0.0\nsamples = 208\nvalue = [208, 0]\nclass = y[0]"] ;
598 -> 662 ;
663 [label="entropy = 0.0\nsamples = 374\nvalue = [374, 0]\nclass = y[0]"] ;
595 -> 663 ;
664 [label="X[1] <= 0.8\nentropy = 0.984\nsamples = 1249\nvalue = [531, 718]\nclass = y[1]"] ;
476 -> 664 ;
665 [label="X[1] <= 0.084\nentropy = 0.694\nsamples = 622\nvalue = [116, 506]\nclass = y[1]"] ;
664 -> 665 ;
666 [label="X[21] <= 0.833\nentropy = 0.226\nsamples = 192\nvalue = [7, 185]\nclass = y[1]"] ;
665 -> 666 ;
667 [label="X[6] <= 0.225\nentropy = 0.52\nsamples = 60\nvalue = [7, 53]\nclass = y[1]"] ;
666 -> 667 ;
668 [label="X[26] <= 0.643\nentropy = 0.994\nsamples = 11\nvalue = [5, 6]\nclass = y[1]"] ;
667 -> 668 ;
669 [label="X[8] <= 0.004\nentropy = 0.954\nsamples = 8\nvalue = [5, 3]\nclass = y[0]"] ;
668 -> 669 ;
670 [label="X[24] <= 0.698\nentropy = 0.863\nsamples = 7\nvalue = [5, 2]\nclass = y[0]"] ;
669 -> 670 ;
671 [label="entropy = 0.0\nsamples = 3\nvalue = [3, 0]\nclass = y[0]"] ;
670 -> 671 ;
672 [label="X[0] <= -0.021\nentropy = 1.0\nsamples = 4\nvalue = [2, 2]\nclass = y[0]"] ;
670 -> 672 ;
673 [label="X[0] <= -0.443\nentropy = 0.918\nsamples = 3\nvalue = [2, 1]\nclass = y[0]"] ;
672 -> 673 ;
674 [label="entropy = 0.0\nsamples = 2\nvalue = [2, 0]\nclass = y[0]"] ;
673 -> 674 ;
675 [label="entropy = 0.0\nsamples = 1\nvalue = [0, 1]\nclass = y[1]"] ;
673 -> 675 ;
676 [label="entropy = 0.0\nsamples = 1\nvalue = [0, 1]\nclass = y[1]"] ;
672 -> 676 ;
677 [label="entropy = 0.0\nsamples = 1\nvalue = [0, 1]\nclass = y[1]"] ;
669 -> 677 ;
678 [label="entropy = 0.0\nsamples = 3\nvalue = [0, 3]\nclass = y[1]"] ;
668 -> 678 ;
679 [label="X[10] <= 0.81\nentropy = 0.246\nsamples = 49\nvalue = [2, 47]\nclass = y[1]"] ;
667 -> 679 ;
680 [label="entropy = 0.0\nsamples = 39\nvalue = [0, 39]\nclass = y[1]"] ;
679 -> 680 ;
681 [label="X[2] <= 0.378\nentropy = 0.722\nsamples = 10\nvalue = [2, 8]\nclass = y[1]"] ;
679 -> 681 ;
682 [label="entropy = 0.0\nsamples = 7\nvalue = [0, 7]\nclass = y[1]"] ;
681 -> 682 ;
683 [label="X[15] <= 0.842\nentropy = 0.918\nsamples = 3\nvalue = [2, 1]\nclass = y[0]"] ;
681 -> 683 ;
684 [label="entropy = 0.0\nsamples = 1\nvalue = [0, 1]\nclass = y[1]"] ;
683 -> 684 ;
685 [label="entropy = 0.0\nsamples = 2\nvalue = [2, 0]\nclass = y[0]"] ;
683 -> 685 ;
686 [label="entropy = 0.0\nsamples = 132\nvalue = [0, 132]\nclass = y[1]"] ;
666 -> 686 ;
687 [label="X[1] <= 0.553\nentropy = 0.817\nsamples = 430\nvalue = [109, 321]\nclass = y[1]"] ;
665 -> 687 ;
688 [label="X[6] <= 0.207\nentropy = 0.65\nsamples = 216\nvalue = [36, 180]\nclass = y[1]"] ;
687 -> 688 ;
689 [label="X[14] <= 0.565\nentropy = 0.989\nsamples = 32\nvalue = [14, 18]\nclass = y[1]"] ;
688 -> 689 ;
690 [label="X[8] <= 1.984\nentropy = 0.65\nsamples = 12\nvalue = [10, 2]\nclass = y[0]"] ;
689 -> 690 ;
691 [label="X[24] <= 0.74\nentropy = 0.439\nsamples = 11\nvalue = [10, 1]\nclass = y[0]"] ;
690 -> 691 ;
692 [label="entropy = 0.0\nsamples = 7\nvalue = [7, 0]\nclass = y[0]"] ;
691 -> 692 ;
693 [label="X[12] <= 0.205\nentropy = 0.811\nsamples = 4\nvalue = [3, 1]\nclass = y[0]"] ;
691 -> 693 ;
694 [label="entropy = 0.0\nsamples = 1\nvalue = [0, 1]\nclass = y[1]"] ;
693 -> 694 ;
695 [label="entropy = 0.0\nsamples = 3\nvalue = [3, 0]\nclass = y[0]"] ;
693 -> 695 ;
696 [label="entropy = 0.0\nsamples = 1\nvalue = [0, 1]\nclass = y[1]"] ;
690 -> 696 ;
697 [label="X[6] <= -0.346\nentropy = 0.722\nsamples = 20\nvalue = [4, 16]\nclass = y[1]"] ;
689 -> 697 ;
698 [label="entropy = 0.0\nsamples = 2\nvalue = [2, 0]\nclass = y[0]"] ;
697 -> 698 ;
699 [label="X[23] <= 0.975\nentropy = 0.503\nsamples = 18\nvalue = [2, 16]\nclass = y[1]"] ;
697 -> 699 ;
700 [label="entropy = 0.0\nsamples = 6\nvalue = [0, 6]\nclass = y[1]"] ;
699 -> 700 ;
701 [label="X[2] <= 0.064\nentropy = 0.65\nsamples = 12\nvalue = [2, 10]\nclass = y[1]"] ;
699 -> 701 ;
702 [label="entropy = 0.0\nsamples = 9\nvalue = [0, 9]\nclass = y[1]"] ;
701 -> 702 ;
703 [label="X[8] <= 1.973\nentropy = 0.918\nsamples = 3\nvalue = [2, 1]\nclass = y[0]"] ;
701 -> 703 ;
704 [label="entropy = 0.0\nsamples = 2\nvalue = [2, 0]\nclass = y[0]"] ;
703 -> 704 ;
705 [label="entropy = 0.0\nsamples = 1\nvalue = [0, 1]\nclass = y[1]"] ;
703 -> 705 ;
706 [label="X[2] <= 0.514\nentropy = 0.528\nsamples = 184\nvalue = [22, 162]\nclass = y[1]"] ;
688 -> 706 ;
707 [label="X[8] <= -0.016\nentropy = 0.288\nsamples = 119\nvalue = [6, 113]\nclass = y[1]"] ;
706 -> 707 ;
708 [label="X[9] <= 1.705\nentropy = 0.65\nsamples = 24\nvalue = [4, 20]\nclass = y[1]"] ;
707 -> 708 ;
709 [label="X[5] <= 1.096\nentropy = 0.559\nsamples = 23\nvalue = [3, 20]\nclass = y[1]"] ;
708 -> 709 ;
710 [label="X[0] <= 0.325\nentropy = 0.672\nsamples = 17\nvalue = [3, 14]\nclass = y[1]"] ;
709 -> 710 ;
711 [label="entropy = 0.0\nsamples = 1\nvalue = [1, 0]\nclass = y[0]"] ;
710 -> 711 ;
712 [label="X[14] <= 0.985\nentropy = 0.544\nsamples = 16\nvalue = [2, 14]\nclass = y[1]"] ;
710 -> 712 ;
713 [label="X[0] <= 1.181\nentropy = 0.863\nsamples = 7\nvalue = [2, 5]\nclass = y[1]"] ;
712 -> 713 ;
714 [label="X[11] <= 0.804\nentropy = 0.918\nsamples = 3\nvalue = [2, 1]\nclass = y[0]"] ;
713 -> 714 ;
715 [label="entropy = 0.0\nsamples = 1\nvalue = [0, 1]\nclass = y[1]"] ;
714 -> 715 ;
716 [label="entropy = 0.0\nsamples = 2\nvalue = [2, 0]\nclass = y[0]"] ;
714 -> 716 ;
717 [label="entropy = 0.0\nsamples = 4\nvalue = [0, 4]\nclass = y[1]"] ;
713 -> 717 ;
718 [label="entropy = 0.0\nsamples = 9\nvalue = [0, 9]\nclass = y[1]"] ;
712 -> 718 ;
719 [label="entropy = 0.0\nsamples = 6\nvalue = [0, 6]\nclass = y[1]"] ;
709 -> 719 ;
720 [label="entropy = 0.0\nsamples = 1\nvalue = [1, 0]\nclass = y[0]"] ;
708 -> 720 ;
721 [label="X[6] <= 0.415\nentropy = 0.147\nsamples = 95\nvalue = [2, 93]\nclass = y[1]"] ;
707 -> 721 ;
722 [label="entropy = 0.0\nsamples = 48\nvalue = [0, 48]\nclass = y[1]"] ;
721 -> 722 ;
723 [label="X[23] <= 0.528\nentropy = 0.254\nsamples = 47\nvalue = [2, 45]\nclass = y[1]"] ;
721 -> 723 ;
724 [label="X[0] <= 1.253\nentropy = 0.381\nsamples = 27\nvalue = [2, 25]\nclass = y[1]"] ;
723 -> 724 ;
725 [label="X[26] <= 0.263\nentropy = 0.503\nsamples = 18\nvalue = [2, 16]\nclass = y[1]"] ;
724 -> 725 ;
726 [label="X[0] <= 0.967\nentropy = 0.619\nsamples = 13\nvalue = [2, 11]\nclass = y[1]"] ;
725 -> 726 ;
727 [label="X[0] <= 0.076\nentropy = 0.811\nsamples = 8\nvalue = [2, 6]\nclass = y[1]"] ;
726 -> 727 ;
728 [label="entropy = 0.0\nsamples = 1\nvalue = [1, 0]\nclass = y[0]"] ;
727 -> 728 ;
729 [label="X[4] <= -0.14\nentropy = 0.592\nsamples = 7\nvalue = [1, 6]\nclass = y[1]"] ;
727 -> 729 ;
730 [label="X[25] <= 0.607\nentropy = 0.811\nsamples = 4\nvalue = [1, 3]\nclass = y[1]"] ;
729 -> 730 ;
731 [label="entropy = 0.0\nsamples = 2\nvalue = [0, 2]\nclass = y[1]"] ;
730 -> 731 ;
732 [label="X[0] <= 0.45\nentropy = 1.0\nsamples = 2\nvalue = [1, 1]\nclass = y[0]"] ;
730 -> 732 ;
733 [label="entropy = 0.0\nsamples = 1\nvalue = [1, 0]\nclass = y[0]"] ;
732 -> 733 ;
734 [label="entropy = 0.0\nsamples = 1\nvalue = [0, 1]\nclass = y[1]"] ;
732 -> 734 ;
735 [label="entropy = 0.0\nsamples = 3\nvalue = [0, 3]\nclass = y[1]"] ;
729 -> 735 ;
736 [label="entropy = 0.0\nsamples = 5\nvalue = [0, 5]\nclass = y[1]"] ;
726 -> 736 ;
737 [label="entropy = 0.0\nsamples = 5\nvalue = [0, 5]\nclass = y[1]"] ;
725 -> 737 ;
738 [label="entropy = 0.0\nsamples = 9\nvalue = [0, 9]\nclass = y[1]"] ;
724 -> 738 ;
739 [label="entropy = 0.0\nsamples = 20\nvalue = [0, 20]\nclass = y[1]"] ;
723 -> 739 ;
740 [label="X[15] <= 0.888\nentropy = 0.805\nsamples = 65\nvalue = [16, 49]\nclass = y[1]"] ;
706 -> 740 ;
741 [label="X[3] <= 1.674\nentropy = 0.632\nsamples = 44\nvalue = [7, 37]\nclass = y[1]"] ;
740 -> 741 ;
742 [label="X[7] <= 1.173\nentropy = 0.535\nsamples = 41\nvalue = [5, 36]\nclass = y[1]"] ;
741 -> 742 ;
743 [label="X[9] <= 0.778\nentropy = 0.469\nsamples = 40\nvalue = [4, 36]\nclass = y[1]"] ;
742 -> 743 ;
744 [label="X[25] <= 0.225\nentropy = 0.235\nsamples = 26\nvalue = [1, 25]\nclass = y[1]"] ;
743 -> 744 ;
745 [label="entropy = 0.0\nsamples = 15\nvalue = [0, 15]\nclass = y[1]"] ;
744 -> 745 ;
746 [label="X[2] <= 0.871\nentropy = 0.439\nsamples = 11\nvalue = [1, 10]\nclass = y[1]"] ;
744 -> 746 ;
747 [label="entropy = 0.0\nsamples = 7\nvalue = [0, 7]\nclass = y[1]"] ;
746 -> 747 ;
748 [label="X[0] <= 0.896\nentropy = 0.811\nsamples = 4\nvalue = [1, 3]\nclass = y[1]"] ;
746 -> 748 ;
749 [label="entropy = 0.0\nsamples = 1\nvalue = [1, 0]\nclass = y[0]"] ;
748 -> 749 ;
750 [label="entropy = 0.0\nsamples = 3\nvalue = [0, 3]\nclass = y[1]"] ;
748 -> 750 ;
751 [label="X[20] <= 0.532\nentropy = 0.75\nsamples = 14\nvalue = [3, 11]\nclass = y[1]"] ;
743 -> 751 ;
752 [label="X[7] <= 0.071\nentropy = 0.439\nsamples = 11\nvalue = [1, 10]\nclass = y[1]"] ;
751 -> 752 ;
753 [label="entropy = 0.0\nsamples = 10\nvalue = [0, 10]\nclass = y[1]"] ;
752 -> 753 ;
754 [label="entropy = 0.0\nsamples = 1\nvalue = [1, 0]\nclass = y[0]"] ;
752 -> 754 ;
755 [label="X[4] <= -0.085\nentropy = 0.918\nsamples = 3\nvalue = [2, 1]\nclass = y[0]"] ;
751 -> 755 ;
756 [label="entropy = 0.0\nsamples = 2\nvalue = [2, 0]\nclass = y[0]"] ;
755 -> 756 ;
757 [label="entropy = 0.0\nsamples = 1\nvalue = [0, 1]\nclass = y[1]"] ;
755 -> 757 ;
758 [label="entropy = 0.0\nsamples = 1\nvalue = [1, 0]\nclass = y[0]"] ;
742 -> 758 ;
759 [label="X[7] <= 0.645\nentropy = 0.918\nsamples = 3\nvalue = [2, 1]\nclass = y[0]"] ;
741 -> 759 ;
760 [label="entropy = 0.0\nsamples = 2\nvalue = [2, 0]\nclass = y[0]"] ;
759 -> 760 ;
761 [label="entropy = 0.0\nsamples = 1\nvalue = [0, 1]\nclass = y[1]"] ;
759 -> 761 ;
762 [label="X[9] <= 1.364\nentropy = 0.985\nsamples = 21\nvalue = [9, 12]\nclass = y[1]"] ;
740 -> 762 ;
763 [label="X[3] <= 1.28\nentropy = 0.949\nsamples = 19\nvalue = [7, 12]\nclass = y[1]"] ;
762 -> 763 ;
764 [label="X[23] <= 0.623\nentropy = 0.874\nsamples = 17\nvalue = [5, 12]\nclass = y[1]"] ;
763 -> 764 ;
765 [label="X[8] <= 1.484\nentropy = 0.991\nsamples = 9\nvalue = [5, 4]\nclass = y[0]"] ;
764 -> 765 ;
766 [label="X[25] <= 0.516\nentropy = 1.0\nsamples = 8\nvalue = [4, 4]\nclass = y[0]"] ;
765 -> 766 ;
767 [label="X[4] <= -0.124\nentropy = 0.918\nsamples = 6\nvalue = [4, 2]\nclass = y[0]"] ;
766 -> 767 ;
768 [label="entropy = 0.0\nsamples = 3\nvalue = [3, 0]\nclass = y[0]"] ;
767 -> 768 ;
769 [label="X[6] <= 0.462\nentropy = 0.918\nsamples = 3\nvalue = [1, 2]\nclass = y[1]"] ;
767 -> 769 ;
770 [label="entropy = 0.0\nsamples = 2\nvalue = [0, 2]\nclass = y[1]"] ;
769 -> 770 ;
771 [label="entropy = 0.0\nsamples = 1\nvalue = [1, 0]\nclass = y[0]"] ;
769 -> 771 ;
772 [label="entropy = 0.0\nsamples = 2\nvalue = [0, 2]\nclass = y[1]"] ;
766 -> 772 ;
773 [label="entropy = 0.0\nsamples = 1\nvalue = [1, 0]\nclass = y[0]"] ;
765 -> 773 ;
774 [label="entropy = 0.0\nsamples = 8\nvalue = [0, 8]\nclass = y[1]"] ;
764 -> 774 ;
775 [label="entropy = 0.0\nsamples = 2\nvalue = [2, 0]\nclass = y[0]"] ;
763 -> 775 ;
776 [label="entropy = 0.0\nsamples = 2\nvalue = [2, 0]\nclass = y[0]"] ;
762 -> 776 ;
777 [label="X[6] <= 0.375\nentropy = 0.926\nsamples = 214\nvalue = [73, 141]\nclass = y[1]"] ;
687 -> 777 ;
778 [label="X[2] <= 0.009\nentropy = 0.979\nsamples = 128\nvalue = [53, 75]\nclass = y[1]"] ;
777 -> 778 ;
779 [label="X[6] <= -0.083\nentropy = 0.827\nsamples = 50\nvalue = [13, 37]\nclass = y[1]"] ;
778 -> 779 ;
780 [label="entropy = 0.0\nsamples = 5\nvalue = [5, 0]\nclass = y[0]"] ;
779 -> 780 ;
781 [label="X[19] <= 0.994\nentropy = 0.675\nsamples = 45\nvalue = [8, 37]\nclass = y[1]"] ;
779 -> 781 ;
782 [label="X[0] <= 1.122\nentropy = 0.583\nsamples = 43\nvalue = [6, 37]\nclass = y[1]"] ;
781 -> 782 ;
783 [label="X[8] <= 0.251\nentropy = 0.764\nsamples = 27\nvalue = [6, 21]\nclass = y[1]"] ;
782 -> 783 ;
784 [label="X[14] <= 0.969\nentropy = 0.971\nsamples = 10\nvalue = [4, 6]\nclass = y[1]"] ;
783 -> 784 ;
785 [label="X[10] <= 0.347\nentropy = 1.0\nsamples = 8\nvalue = [4, 4]\nclass = y[0]"] ;
784 -> 785 ;
786 [label="X[3] <= 1.362\nentropy = 0.985\nsamples = 7\nvalue = [3, 4]\nclass = y[1]"] ;
785 -> 786 ;
787 [label="X[6] <= 0.081\nentropy = 0.918\nsamples = 6\nvalue = [2, 4]\nclass = y[1]"] ;
786 -> 787 ;
788 [label="entropy = 0.0\nsamples = 1\nvalue = [1, 0]\nclass = y[0]"] ;
787 -> 788 ;
789 [label="X[4] <= 1.256\nentropy = 0.722\nsamples = 5\nvalue = [1, 4]\nclass = y[1]"] ;
787 -> 789 ;
790 [label="entropy = 0.0\nsamples = 4\nvalue = [0, 4]\nclass = y[1]"] ;
789 -> 790 ;
791 [label="entropy = 0.0\nsamples = 1\nvalue = [1, 0]\nclass = y[0]"] ;
789 -> 791 ;
792 [label="entropy = 0.0\nsamples = 1\nvalue = [1, 0]\nclass = y[0]"] ;
786 -> 792 ;
793 [label="entropy = 0.0\nsamples = 1\nvalue = [1, 0]\nclass = y[0]"] ;
785 -> 793 ;
794 [label="entropy = 0.0\nsamples = 2\nvalue = [0, 2]\nclass = y[1]"] ;
784 -> 794 ;
795 [label="X[0] <= 0.822\nentropy = 0.523\nsamples = 17\nvalue = [2, 15]\nclass = y[1]"] ;
783 -> 795 ;
796 [label="X[10] <= 0.475\nentropy = 0.65\nsamples = 12\nvalue = [2, 10]\nclass = y[1]"] ;
795 -> 796 ;
797 [label="X[8] <= 1.223\nentropy = 0.469\nsamples = 10\nvalue = [1, 9]\nclass = y[1]"] ;
796 -> 797 ;
798 [label="entropy = 0.0\nsamples = 7\nvalue = [0, 7]\nclass = y[1]"] ;
797 -> 798 ;
799 [label="X[23] <= 0.976\nentropy = 0.918\nsamples = 3\nvalue = [1, 2]\nclass = y[1]"] ;
797 -> 799 ;
800 [label="entropy = 0.0\nsamples = 1\nvalue = [1, 0]\nclass = y[0]"] ;
799 -> 800 ;
801 [label="entropy = 0.0\nsamples = 2\nvalue = [0, 2]\nclass = y[1]"] ;
799 -> 801 ;
802 [label="X[12] <= 0.025\nentropy = 1.0\nsamples = 2\nvalue = [1, 1]\nclass = y[0]"] ;
796 -> 802 ;
803 [label="entropy = 0.0\nsamples = 1\nvalue = [1, 0]\nclass = y[0]"] ;
802 -> 803 ;
804 [label="entropy = 0.0\nsamples = 1\nvalue = [0, 1]\nclass = y[1]"] ;
802 -> 804 ;
805 [label="entropy = 0.0\nsamples = 5\nvalue = [0, 5]\nclass = y[1]"] ;
795 -> 805 ;
806 [label="entropy = 0.0\nsamples = 16\nvalue = [0, 16]\nclass = y[1]"] ;
782 -> 806 ;
807 [label="entropy = 0.0\nsamples = 2\nvalue = [2, 0]\nclass = y[0]"] ;
781 -> 807 ;
808 [label="X[6] <= 0.125\nentropy = 1.0\nsamples = 78\nvalue = [40, 38]\nclass = y[0]"] ;
778 -> 808 ;
809 [label="X[5] <= 0.399\nentropy = 0.831\nsamples = 38\nvalue = [28, 10]\nclass = y[0]"] ;
808 -> 809 ;
810 [label="X[8] <= 2.101\nentropy = 0.634\nsamples = 25\nvalue = [21, 4]\nclass = y[0]"] ;
809 -> 810 ;
811 [label="X[6] <= -0.011\nentropy = 0.439\nsamples = 22\nvalue = [20, 2]\nclass = y[0]"] ;
810 -> 811 ;
812 [label="entropy = 0.0\nsamples = 10\nvalue = [10, 0]\nclass = y[0]"] ;
811 -> 812 ;
813 [label="X[11] <= 0.35\nentropy = 0.65\nsamples = 12\nvalue = [10, 2]\nclass = y[0]"] ;
811 -> 813 ;
814 [label="entropy = 0.0\nsamples = 7\nvalue = [7, 0]\nclass = y[0]"] ;
813 -> 814 ;
815 [label="X[0] <= 0.993\nentropy = 0.971\nsamples = 5\nvalue = [3, 2]\nclass = y[0]"] ;
813 -> 815 ;
816 [label="X[7] <= 0.112\nentropy = 0.918\nsamples = 3\nvalue = [1, 2]\nclass = y[1]"] ;
815 -> 816 ;
817 [label="entropy = 0.0\nsamples = 2\nvalue = [0, 2]\nclass = y[1]"] ;
816 -> 817 ;
818 [label="entropy = 0.0\nsamples = 1\nvalue = [1, 0]\nclass = y[0]"] ;
816 -> 818 ;
819 [label="entropy = 0.0\nsamples = 2\nvalue = [2, 0]\nclass = y[0]"] ;
815 -> 819 ;
820 [label="X[10] <= 1.602\nentropy = 0.918\nsamples = 3\nvalue = [1, 2]\nclass = y[1]"] ;
810 -> 820 ;
821 [label="entropy = 0.0\nsamples = 2\nvalue = [0, 2]\nclass = y[1]"] ;
820 -> 821 ;
822 [label="entropy = 0.0\nsamples = 1\nvalue = [1, 0]\nclass = y[0]"] ;
820 -> 822 ;
823 [label="X[9] <= -1.034\nentropy = 0.996\nsamples = 13\nvalue = [7, 6]\nclass = y[0]"] ;
809 -> 823 ;
824 [label="X[3] <= 2.424\nentropy = 0.811\nsamples = 8\nvalue = [6, 2]\nclass = y[0]"] ;
823 -> 824 ;
825 [label="X[4] <= 1.749\nentropy = 0.592\nsamples = 7\nvalue = [6, 1]\nclass = y[0]"] ;
824 -> 825 ;
826 [label="X[8] <= 1.482\nentropy = 0.918\nsamples = 3\nvalue = [2, 1]\nclass = y[0]"] ;
825 -> 826 ;
827 [label="entropy = 0.0\nsamples = 2\nvalue = [2, 0]\nclass = y[0]"] ;
826 -> 827 ;
828 [label="entropy = 0.0\nsamples = 1\nvalue = [0, 1]\nclass = y[1]"] ;
826 -> 828 ;
829 [label="entropy = 0.0\nsamples = 4\nvalue = [4, 0]\nclass = y[0]"] ;
825 -> 829 ;
830 [label="entropy = 0.0\nsamples = 1\nvalue = [0, 1]\nclass = y[1]"] ;
824 -> 830 ;
831 [label="X[19] <= 0.481\nentropy = 0.722\nsamples = 5\nvalue = [1, 4]\nclass = y[1]"] ;
823 -> 831 ;
832 [label="entropy = 0.0\nsamples = 4\nvalue = [0, 4]\nclass = y[1]"] ;
831 -> 832 ;
833 [label="entropy = 0.0\nsamples = 1\nvalue = [1, 0]\nclass = y[0]"] ;
831 -> 833 ;
834 [label="X[14] <= 0.812\nentropy = 0.881\nsamples = 40\nvalue = [12, 28]\nclass = y[1]"] ;
808 -> 834 ;
835 [label="X[2] <= 1.813\nentropy = 0.989\nsamples = 16\nvalue = [7, 9]\nclass = y[1]"] ;
834 -> 835 ;
836 [label="X[9] <= -0.647\nentropy = 1.0\nsamples = 14\nvalue = [7, 7]\nclass = y[0]"] ;
835 -> 836 ;
837 [label="entropy = 0.0\nsamples = 2\nvalue = [0, 2]\nclass = y[1]"] ;
836 -> 837 ;
838 [label="X[8] <= 1.561\nentropy = 0.98\nsamples = 12\nvalue = [7, 5]\nclass = y[0]"] ;
836 -> 838 ;
839 [label="X[7] <= 0.078\nentropy = 0.946\nsamples = 11\nvalue = [7, 4]\nclass = y[0]"] ;
838 -> 839 ;
840 [label="X[3] <= 0.271\nentropy = 0.991\nsamples = 9\nvalue = [5, 4]\nclass = y[0]"] ;
839 -> 840 ;
841 [label="entropy = 0.0\nsamples = 2\nvalue = [0, 2]\nclass = y[1]"] ;
840 -> 841 ;
842 [label="X[11] <= 0.636\nentropy = 0.863\nsamples = 7\nvalue = [5, 2]\nclass = y[0]"] ;
840 -> 842 ;
843 [label="entropy = 0.0\nsamples = 4\nvalue = [4, 0]\nclass = y[0]"] ;
842 -> 843 ;
844 [label="X[10] <= 1.267\nentropy = 0.918\nsamples = 3\nvalue = [1, 2]\nclass = y[1]"] ;
842 -> 844 ;
845 [label="entropy = 0.0\nsamples = 2\nvalue = [0, 2]\nclass = y[1]"] ;
844 -> 845 ;
846 [label="entropy = 0.0\nsamples = 1\nvalue = [1, 0]\nclass = y[0]"] ;
844 -> 846 ;
847 [label="entropy = 0.0\nsamples = 2\nvalue = [2, 0]\nclass = y[0]"] ;
839 -> 847 ;
848 [label="entropy = 0.0\nsamples = 1\nvalue = [0, 1]\nclass = y[1]"] ;
838 -> 848 ;
849 [label="entropy = 0.0\nsamples = 2\nvalue = [0, 2]\nclass = y[1]"] ;
835 -> 849 ;
850 [label="X[8] <= 4.144\nentropy = 0.738\nsamples = 24\nvalue = [5, 19]\nclass = y[1]"] ;
834 -> 850 ;
851 [label="X[24] <= 0.37\nentropy = 0.667\nsamples = 23\nvalue = [4, 19]\nclass = y[1]"] ;
850 -> 851 ;
852 [label="entropy = 0.0\nsamples = 11\nvalue = [0, 11]\nclass = y[1]"] ;
851 -> 852 ;
853 [label="X[4] <= -0.602\nentropy = 0.918\nsamples = 12\nvalue = [4, 8]\nclass = y[1]"] ;
851 -> 853 ;
854 [label="entropy = 0.0\nsamples = 2\nvalue = [0, 2]\nclass = y[1]"] ;
853 -> 854 ;
855 [label="X[8] <= -0.147\nentropy = 0.971\nsamples = 10\nvalue = [4, 6]\nclass = y[1]"] ;
853 -> 855 ;
856 [label="entropy = 0.0\nsamples = 1\nvalue = [1, 0]\nclass = y[0]"] ;
855 -> 856 ;
857 [label="X[9] <= 1.865\nentropy = 0.918\nsamples = 9\nvalue = [3, 6]\nclass = y[1]"] ;
855 -> 857 ;
858 [label="X[12] <= 0.333\nentropy = 0.811\nsamples = 8\nvalue = [2, 6]\nclass = y[1]"] ;
857 -> 858 ;
859 [label="entropy = 0.0\nsamples = 4\nvalue = [0, 4]\nclass = y[1]"] ;
858 -> 859 ;
860 [label="X[5] <= 0.241\nentropy = 1.0\nsamples = 4\nvalue = [2, 2]\nclass = y[0]"] ;
858 -> 860 ;
861 [label="entropy = 0.0\nsamples = 2\nvalue = [2, 0]\nclass = y[0]"] ;
860 -> 861 ;
862 [label="entropy = 0.0\nsamples = 2\nvalue = [0, 2]\nclass = y[1]"] ;
860 -> 862 ;
863 [label="entropy = 0.0\nsamples = 1\nvalue = [1, 0]\nclass = y[0]"] ;
857 -> 863 ;
864 [label="entropy = 0.0\nsamples = 1\nvalue = [1, 0]\nclass = y[0]"] ;
850 -> 864 ;
865 [label="X[7] <= 0.325\nentropy = 0.782\nsamples = 86\nvalue = [20, 66]\nclass = y[1]"] ;
777 -> 865 ;
866 [label="X[10] <= 0.886\nentropy = 0.58\nsamples = 65\nvalue = [9, 56]\nclass = y[1]"] ;
865 -> 866 ;
867 [label="X[3] <= 1.612\nentropy = 0.713\nsamples = 46\nvalue = [9, 37]\nclass = y[1]"] ;
866 -> 867 ;
868 [label="X[9] <= 0.275\nentropy = 0.79\nsamples = 38\nvalue = [9, 29]\nclass = y[1]"] ;
867 -> 868 ;
869 [label="X[12] <= 0.632\nentropy = 0.544\nsamples = 16\nvalue = [2, 14]\nclass = y[1]"] ;
868 -> 869 ;
870 [label="X[23] <= 0.675\nentropy = 0.764\nsamples = 9\nvalue = [2, 7]\nclass = y[1]"] ;
869 -> 870 ;
871 [label="entropy = 0.0\nsamples = 4\nvalue = [0, 4]\nclass = y[1]"] ;
870 -> 871 ;
872 [label="X[9] <= -0.994\nentropy = 0.971\nsamples = 5\nvalue = [2, 3]\nclass = y[1]"] ;
870 -> 872 ;
873 [label="entropy = 0.0\nsamples = 3\nvalue = [0, 3]\nclass = y[1]"] ;
872 -> 873 ;
874 [label="entropy = 0.0\nsamples = 2\nvalue = [2, 0]\nclass = y[0]"] ;
872 -> 874 ;
875 [label="entropy = 0.0\nsamples = 7\nvalue = [0, 7]\nclass = y[1]"] ;
869 -> 875 ;
876 [label="X[24] <= 0.742\nentropy = 0.902\nsamples = 22\nvalue = [7, 15]\nclass = y[1]"] ;
868 -> 876 ;
877 [label="entropy = 0.0\nsamples = 3\nvalue = [0, 3]\nclass = y[1]"] ;
876 -> 877 ;
878 [label="X[11] <= 0.702\nentropy = 0.949\nsamples = 19\nvalue = [7, 12]\nclass = y[1]"] ;
876 -> 878 ;
879 [label="X[0] <= 1.797\nentropy = 0.994\nsamples = 11\nvalue = [6, 5]\nclass = y[0]"] ;
878 -> 879 ;
880 [label="X[14] <= 0.919\nentropy = 1.0\nsamples = 10\nvalue = [5, 5]\nclass = y[0]"] ;
879 -> 880 ;
881 [label="X[4] <= 0.518\nentropy = 0.811\nsamples = 4\nvalue = [3, 1]\nclass = y[0]"] ;
880 -> 881 ;
882 [label="entropy = 0.0\nsamples = 3\nvalue = [3, 0]\nclass = y[0]"] ;
881 -> 882 ;
883 [label="entropy = 0.0\nsamples = 1\nvalue = [0, 1]\nclass = y[1]"] ;
881 -> 883 ;
884 [label="X[9] <= 1.026\nentropy = 0.918\nsamples = 6\nvalue = [2, 4]\nclass = y[1]"] ;
880 -> 884 ;
885 [label="entropy = 0.0\nsamples = 2\nvalue = [2, 0]\nclass = y[0]"] ;
884 -> 885 ;
886 [label="entropy = 0.0\nsamples = 4\nvalue = [0, 4]\nclass = y[1]"] ;
884 -> 886 ;
887 [label="entropy = 0.0\nsamples = 1\nvalue = [1, 0]\nclass = y[0]"] ;
879 -> 887 ;
888 [label="X[26] <= 0.195\nentropy = 0.544\nsamples = 8\nvalue = [1, 7]\nclass = y[1]"] ;
878 -> 888 ;
889 [label="entropy = 0.0\nsamples = 5\nvalue = [0, 5]\nclass = y[1]"] ;
888 -> 889 ;
890 [label="X[3] <= 0.311\nentropy = 0.918\nsamples = 3\nvalue = [1, 2]\nclass = y[1]"] ;
888 -> 890 ;
891 [label="entropy = 0.0\nsamples = 2\nvalue = [0, 2]\nclass = y[1]"] ;
890 -> 891 ;
892 [label="entropy = 0.0\nsamples = 1\nvalue = [1, 0]\nclass = y[0]"] ;
890 -> 892 ;
893 [label="entropy = 0.0\nsamples = 8\nvalue = [0, 8]\nclass = y[1]"] ;
867 -> 893 ;
894 [label="entropy = 0.0\nsamples = 19\nvalue = [0, 19]\nclass = y[1]"] ;
866 -> 894 ;
895 [label="X[3] <= 0.715\nentropy = 0.998\nsamples = 21\nvalue = [11, 10]\nclass = y[0]"] ;
865 -> 895 ;
896 [label="X[7] <= 0.785\nentropy = 0.811\nsamples = 8\nvalue = [2, 6]\nclass = y[1]"] ;
895 -> 896 ;
897 [label="X[0] <= 3.802\nentropy = 0.592\nsamples = 7\nvalue = [1, 6]\nclass = y[1]"] ;
896 -> 897 ;
898 [label="entropy = 0.0\nsamples = 6\nvalue = [0, 6]\nclass = y[1]"] ;
897 -> 898 ;
899 [label="entropy = 0.0\nsamples = 1\nvalue = [1, 0]\nclass = y[0]"] ;
897 -> 899 ;
900 [label="entropy = 0.0\nsamples = 1\nvalue = [1, 0]\nclass = y[0]"] ;
896 -> 900 ;
901 [label="X[11] <= 0.644\nentropy = 0.89\nsamples = 13\nvalue = [9, 4]\nclass = y[0]"] ;
895 -> 901 ;
902 [label="entropy = 0.0\nsamples = 5\nvalue = [5, 0]\nclass = y[0]"] ;
901 -> 902 ;
903 [label="X[8] <= 1.631\nentropy = 1.0\nsamples = 8\nvalue = [4, 4]\nclass = y[0]"] ;
901 -> 903 ;
904 [label="X[8] <= 0.283\nentropy = 0.985\nsamples = 7\nvalue = [4, 3]\nclass = y[0]"] ;
903 -> 904 ;
905 [label="entropy = 0.0\nsamples = 3\nvalue = [3, 0]\nclass = y[0]"] ;
904 -> 905 ;
906 [label="X[15] <= 0.073\nentropy = 0.811\nsamples = 4\nvalue = [1, 3]\nclass = y[1]"] ;
904 -> 906 ;
907 [label="entropy = 0.0\nsamples = 2\nvalue = [0, 2]\nclass = y[1]"] ;
906 -> 907 ;
908 [label="X[0] <= 2.436\nentropy = 1.0\nsamples = 2\nvalue = [1, 1]\nclass = y[0]"] ;
906 -> 908 ;
909 [label="entropy = 0.0\nsamples = 1\nvalue = [0, 1]\nclass = y[1]"] ;
908 -> 909 ;
910 [label="entropy = 0.0\nsamples = 1\nvalue = [1, 0]\nclass = y[0]"] ;
908 -> 910 ;
911 [label="entropy = 0.0\nsamples = 1\nvalue = [0, 1]\nclass = y[1]"] ;
903 -> 911 ;
912 [label="X[6] <= -0.064\nentropy = 0.923\nsamples = 627\nvalue = [415, 212]\nclass = y[0]"] ;
664 -> 912 ;
913 [label="X[6] <= -0.387\nentropy = 0.437\nsamples = 122\nvalue = [111, 11]\nclass = y[0]"] ;
912 -> 913 ;
914 [label="entropy = 0.0\nsamples = 33\nvalue = [33, 0]\nclass = y[0]"] ;
913 -> 914 ;
915 [label="X[14] <= 0.703\nentropy = 0.54\nsamples = 89\nvalue = [78, 11]\nclass = y[0]"] ;
913 -> 915 ;
916 [label="X[5] <= 1.261\nentropy = 0.216\nsamples = 29\nvalue = [28, 1]\nclass = y[0]"] ;
915 -> 916 ;
917 [label="entropy = 0.0\nsamples = 18\nvalue = [18, 0]\nclass = y[0]"] ;
916 -> 917 ;
918 [label="X[3] <= 1.229\nentropy = 0.439\nsamples = 11\nvalue = [10, 1]\nclass = y[0]"] ;
916 -> 918 ;
919 [label="entropy = 0.0\nsamples = 8\nvalue = [8, 0]\nclass = y[0]"] ;
918 -> 919 ;
920 [label="X[0] <= 1.481\nentropy = 0.918\nsamples = 3\nvalue = [2, 1]\nclass = y[0]"] ;
918 -> 920 ;
921 [label="entropy = 0.0\nsamples = 1\nvalue = [0, 1]\nclass = y[1]"] ;
920 -> 921 ;
922 [label="entropy = 0.0\nsamples = 2\nvalue = [2, 0]\nclass = y[0]"] ;
920 -> 922 ;
923 [label="X[1] <= 0.931\nentropy = 0.65\nsamples = 60\nvalue = [50, 10]\nclass = y[0]"] ;
915 -> 923 ;
924 [label="X[23] <= 0.361\nentropy = 0.94\nsamples = 14\nvalue = [9, 5]\nclass = y[0]"] ;
923 -> 924 ;
925 [label="entropy = 0.0\nsamples = 4\nvalue = [4, 0]\nclass = y[0]"] ;
924 -> 925 ;
926 [label="X[8] <= -0.181\nentropy = 1.0\nsamples = 10\nvalue = [5, 5]\nclass = y[0]"] ;
924 -> 926 ;
927 [label="X[4] <= 0.927\nentropy = 0.722\nsamples = 5\nvalue = [4, 1]\nclass = y[0]"] ;
926 -> 927 ;
928 [label="X[2] <= 1.41\nentropy = 1.0\nsamples = 2\nvalue = [1, 1]\nclass = y[0]"] ;
927 -> 928 ;
929 [label="entropy = 0.0\nsamples = 1\nvalue = [1, 0]\nclass = y[0]"] ;
928 -> 929 ;
930 [label="entropy = 0.0\nsamples = 1\nvalue = [0, 1]\nclass = y[1]"] ;
928 -> 930 ;
931 [label="entropy = 0.0\nsamples = 3\nvalue = [3, 0]\nclass = y[0]"] ;
927 -> 931 ;
932 [label="X[27] <= 0.363\nentropy = 0.722\nsamples = 5\nvalue = [1, 4]\nclass = y[1]"] ;
926 -> 932 ;
933 [label="entropy = 0.0\nsamples = 4\nvalue = [0, 4]\nclass = y[1]"] ;
932 -> 933 ;
934 [label="entropy = 0.0\nsamples = 1\nvalue = [1, 0]\nclass = y[0]"] ;
932 -> 934 ;
935 [label="X[10] <= 1.035\nentropy = 0.496\nsamples = 46\nvalue = [41, 5]\nclass = y[0]"] ;
923 -> 935 ;
936 [label="X[0] <= 2.691\nentropy = 0.544\nsamples = 40\nvalue = [35, 5]\nclass = y[0]"] ;
935 -> 936 ;
937 [label="X[8] <= 0.932\nentropy = 0.477\nsamples = 39\nvalue = [35, 4]\nclass = y[0]"] ;
936 -> 937 ;
938 [label="X[2] <= 1.035\nentropy = 0.406\nsamples = 37\nvalue = [34, 3]\nclass = y[0]"] ;
937 -> 938 ;
939 [label="X[9] <= -1.075\nentropy = 0.722\nsamples = 10\nvalue = [8, 2]\nclass = y[0]"] ;
938 -> 939 ;
940 [label="entropy = 0.0\nsamples = 6\nvalue = [6, 0]\nclass = y[0]"] ;
939 -> 940 ;
941 [label="X[9] <= 0.154\nentropy = 1.0\nsamples = 4\nvalue = [2, 2]\nclass = y[0]"] ;
939 -> 941 ;
942 [label="X[21] <= 0.026\nentropy = 0.918\nsamples = 3\nvalue = [2, 1]\nclass = y[0]"] ;
941 -> 942 ;
943 [label="entropy = 0.0\nsamples = 2\nvalue = [2, 0]\nclass = y[0]"] ;
942 -> 943 ;
944 [label="entropy = 0.0\nsamples = 1\nvalue = [0, 1]\nclass = y[1]"] ;
942 -> 944 ;
945 [label="entropy = 0.0\nsamples = 1\nvalue = [0, 1]\nclass = y[1]"] ;
941 -> 945 ;
946 [label="X[11] <= 0.854\nentropy = 0.229\nsamples = 27\nvalue = [26, 1]\nclass = y[0]"] ;
938 -> 946 ;
947 [label="X[9] <= 1.117\nentropy = 0.414\nsamples = 12\nvalue = [11, 1]\nclass = y[0]"] ;
946 -> 947 ;
948 [label="entropy = 0.0\nsamples = 9\nvalue = [9, 0]\nclass = y[0]"] ;
947 -> 948 ;
949 [label="X[25] <= 0.884\nentropy = 0.918\nsamples = 3\nvalue = [2, 1]\nclass = y[0]"] ;
947 -> 949 ;
950 [label="entropy = 0.0\nsamples = 1\nvalue = [0, 1]\nclass = y[1]"] ;
949 -> 950 ;
951 [label="entropy = 0.0\nsamples = 2\nvalue = [2, 0]\nclass = y[0]"] ;
949 -> 951 ;
952 [label="entropy = 0.0\nsamples = 15\nvalue = [15, 0]\nclass = y[0]"] ;
946 -> 952 ;
953 [label="X[3] <= 0.228\nentropy = 1.0\nsamples = 2\nvalue = [1, 1]\nclass = y[0]"] ;
937 -> 953 ;
954 [label="entropy = 0.0\nsamples = 1\nvalue = [0, 1]\nclass = y[1]"] ;
953 -> 954 ;
955 [label="entropy = 0.0\nsamples = 1\nvalue = [1, 0]\nclass = y[0]"] ;
953 -> 955 ;
956 [label="entropy = 0.0\nsamples = 1\nvalue = [0, 1]\nclass = y[1]"] ;
936 -> 956 ;
957 [label="entropy = 0.0\nsamples = 6\nvalue = [6, 0]\nclass = y[0]"] ;
935 -> 957 ;
958 [label="X[6] <= 0.361\nentropy = 0.97\nsamples = 505\nvalue = [304, 201]\nclass = y[0]"] ;
912 -> 958 ;
959 [label="X[6] <= 0.196\nentropy = 0.893\nsamples = 342\nvalue = [236, 106]\nclass = y[0]"] ;
958 -> 959 ;
960 [label="X[10] <= 0.624\nentropy = 0.653\nsamples = 137\nvalue = [114, 23]\nclass = y[0]"] ;
959 -> 960 ;
961 [label="X[1] <= 1.093\nentropy = 0.718\nsamples = 111\nvalue = [89, 22]\nclass = y[0]"] ;
960 -> 961 ;
962 [label="X[8] <= -0.086\nentropy = 0.926\nsamples = 44\nvalue = [29, 15]\nclass = y[0]"] ;
961 -> 962 ;
963 [label="X[9] <= 0.724\nentropy = 0.371\nsamples = 14\nvalue = [13, 1]\nclass = y[0]"] ;
962 -> 963 ;
964 [label="entropy = 0.0\nsamples = 11\nvalue = [11, 0]\nclass = y[0]"] ;
963 -> 964 ;
965 [label="X[0] <= 1.916\nentropy = 0.918\nsamples = 3\nvalue = [2, 1]\nclass = y[0]"] ;
963 -> 965 ;
966 [label="entropy = 0.0\nsamples = 1\nvalue = [0, 1]\nclass = y[1]"] ;
965 -> 966 ;
967 [label="entropy = 0.0\nsamples = 2\nvalue = [2, 0]\nclass = y[0]"] ;
965 -> 967 ;
968 [label="X[20] <= 0.229\nentropy = 0.997\nsamples = 30\nvalue = [16, 14]\nclass = y[0]"] ;
962 -> 968 ;
969 [label="X[11] <= 0.893\nentropy = 0.902\nsamples = 22\nvalue = [15, 7]\nclass = y[0]"] ;
968 -> 969 ;
970 [label="X[23] <= 0.018\nentropy = 0.544\nsamples = 8\nvalue = [7, 1]\nclass = y[0]"] ;
969 -> 970 ;
971 [label="X[14] <= 0.896\nentropy = 0.918\nsamples = 3\nvalue = [2, 1]\nclass = y[0]"] ;
970 -> 971 ;
972 [label="entropy = 0.0\nsamples = 1\nvalue = [1, 0]\nclass = y[0]"] ;
971 -> 972 ;
973 [label="X[2] <= 0.079\nentropy = 1.0\nsamples = 2\nvalue = [1, 1]\nclass = y[0]"] ;
971 -> 973 ;
974 [label="entropy = 0.0\nsamples = 1\nvalue = [0, 1]\nclass = y[1]"] ;
973 -> 974 ;
975 [label="entropy = 0.0\nsamples = 1\nvalue = [1, 0]\nclass = y[0]"] ;
973 -> 975 ;
976 [label="entropy = 0.0\nsamples = 5\nvalue = [5, 0]\nclass = y[0]"] ;
970 -> 976 ;
977 [label="X[3] <= 2.692\nentropy = 0.985\nsamples = 14\nvalue = [8, 6]\nclass = y[0]"] ;
969 -> 977 ;
978 [label="X[3] <= -0.521\nentropy = 1.0\nsamples = 12\nvalue = [6, 6]\nclass = y[0]"] ;
977 -> 978 ;
979 [label="X[0] <= 1.186\nentropy = 0.971\nsamples = 10\nvalue = [4, 6]\nclass = y[1]"] ;
978 -> 979 ;
980 [label="X[14] <= 0.51\nentropy = 0.65\nsamples = 6\nvalue = [1, 5]\nclass = y[1]"] ;
979 -> 980 ;
981 [label="entropy = 0.0\nsamples = 1\nvalue = [1, 0]\nclass = y[0]"] ;
980 -> 981 ;
982 [label="entropy = 0.0\nsamples = 5\nvalue = [0, 5]\nclass = y[1]"] ;
980 -> 982 ;
983 [label="X[26] <= 0.745\nentropy = 0.811\nsamples = 4\nvalue = [3, 1]\nclass = y[0]"] ;
979 -> 983 ;
984 [label="entropy = 0.0\nsamples = 3\nvalue = [3, 0]\nclass = y[0]"] ;
983 -> 984 ;
985 [label="entropy = 0.0\nsamples = 1\nvalue = [0, 1]\nclass = y[1]"] ;
983 -> 985 ;
986 [label="entropy = 0.0\nsamples = 2\nvalue = [2, 0]\nclass = y[0]"] ;
978 -> 986 ;
987 [label="entropy = 0.0\nsamples = 2\nvalue = [2, 0]\nclass = y[0]"] ;
977 -> 987 ;
988 [label="X[8] <= 0.985\nentropy = 0.544\nsamples = 8\nvalue = [1, 7]\nclass = y[1]"] ;
968 -> 988 ;
989 [label="entropy = 0.0\nsamples = 7\nvalue = [0, 7]\nclass = y[1]"] ;
988 -> 989 ;
990 [label="entropy = 0.0\nsamples = 1\nvalue = [1, 0]\nclass = y[0]"] ;
988 -> 990 ;
991 [label="X[4] <= -0.343\nentropy = 0.483\nsamples = 67\nvalue = [60, 7]\nclass = y[0]"] ;
961 -> 991 ;
992 [label="entropy = 0.0\nsamples = 11\nvalue = [11, 0]\nclass = y[0]"] ;
991 -> 992 ;
993 [label="X[9] <= -0.54\nentropy = 0.544\nsamples = 56\nvalue = [49, 7]\nclass = y[0]"] ;
991 -> 993 ;
994 [label="entropy = 0.0\nsamples = 17\nvalue = [17, 0]\nclass = y[0]"] ;
993 -> 994 ;
995 [label="X[12] <= 0.403\nentropy = 0.679\nsamples = 39\nvalue = [32, 7]\nclass = y[0]"] ;
993 -> 995 ;
996 [label="X[1] <= 1.277\nentropy = 0.426\nsamples = 23\nvalue = [21, 2]\nclass = y[0]"] ;
995 -> 996 ;
997 [label="entropy = 0.0\nsamples = 11\nvalue = [11, 0]\nclass = y[0]"] ;
996 -> 997 ;
998 [label="X[0] <= 2.627\nentropy = 0.65\nsamples = 12\nvalue = [10, 2]\nclass = y[0]"] ;
996 -> 998 ;
999 [label="entropy = 0.0\nsamples = 9\nvalue = [9, 0]\nclass = y[0]"] ;
998 -> 999 ;
1000 [label="X[8] <= 1.575\nentropy = 0.918\nsamples = 3\nvalue = [1, 2]\nclass = y[1]"] ;
998 -> 1000 ;
1001 [label="entropy = 0.0\nsamples = 2\nvalue = [0, 2]\nclass = y[1]"] ;
1000 -> 1001 ;
1002 [label="entropy = 0.0\nsamples = 1\nvalue = [1, 0]\nclass = y[0]"] ;
1000 -> 1002 ;
1003 [label="X[20] <= 0.189\nentropy = 0.896\nsamples = 16\nvalue = [11, 5]\nclass = y[0]"] ;
995 -> 1003 ;
1004 [label="entropy = 0.0\nsamples = 6\nvalue = [6, 0]\nclass = y[0]"] ;
1003 -> 1004 ;
1005 [label="X[24] <= 0.887\nentropy = 1.0\nsamples = 10\nvalue = [5, 5]\nclass = y[0]"] ;
1003 -> 1005 ;
1006 [label="X[8] <= 0.084\nentropy = 0.722\nsamples = 5\nvalue = [1, 4]\nclass = y[1]"] ;
1005 -> 1006 ;
1007 [label="entropy = 0.0\nsamples = 1\nvalue = [1, 0]\nclass = y[0]"] ;
1006 -> 1007 ;
1008 [label="entropy = 0.0\nsamples = 4\nvalue = [0, 4]\nclass = y[1]"] ;
1006 -> 1008 ;
1009 [label="X[14] <= 0.02\nentropy = 0.722\nsamples = 5\nvalue = [4, 1]\nclass = y[0]"] ;
1005 -> 1009 ;
1010 [label="X[25] <= 0.682\nentropy = 1.0\nsamples = 2\nvalue = [1, 1]\nclass = y[0]"] ;
1009 -> 1010 ;
1011 [label="entropy = 0.0\nsamples = 1\nvalue = [1, 0]\nclass = y[0]"] ;
1010 -> 1011 ;
1012 [label="entropy = 0.0\nsamples = 1\nvalue = [0, 1]\nclass = y[1]"] ;
1010 -> 1012 ;
1013 [label="entropy = 0.0\nsamples = 3\nvalue = [3, 0]\nclass = y[0]"] ;
1009 -> 1013 ;
1014 [label="X[4] <= -0.333\nentropy = 0.235\nsamples = 26\nvalue = [25, 1]\nclass = y[0]"] ;
960 -> 1014 ;
1015 [label="X[8] <= 1.055\nentropy = 0.811\nsamples = 4\nvalue = [3, 1]\nclass = y[0]"] ;
1014 -> 1015 ;
1016 [label="entropy = 0.0\nsamples = 3\nvalue = [3, 0]\nclass = y[0]"] ;
1015 -> 1016 ;
1017 [label="entropy = 0.0\nsamples = 1\nvalue = [0, 1]\nclass = y[1]"] ;
1015 -> 1017 ;
1018 [label="entropy = 0.0\nsamples = 22\nvalue = [22, 0]\nclass = y[0]"] ;
1014 -> 1018 ;
1019 [label="X[0] <= 2.077\nentropy = 0.974\nsamples = 205\nvalue = [122, 83]\nclass = y[0]"] ;
959 -> 1019 ;
1020 [label="X[1] <= 1.293\nentropy = 0.997\nsamples = 159\nvalue = [85, 74]\nclass = y[0]"] ;
1019 -> 1020 ;
1021 [label="X[10] <= 1.511\nentropy = 0.996\nsamples = 125\nvalue = [58, 67]\nclass = y[1]"] ;
1020 -> 1021 ;
1022 [label="X[8] <= -0.117\nentropy = 0.966\nsamples = 102\nvalue = [40, 62]\nclass = y[1]"] ;
1021 -> 1022 ;
1023 [label="X[1] <= 0.858\nentropy = 0.971\nsamples = 35\nvalue = [21, 14]\nclass = y[0]"] ;
1022 -> 1023 ;
1024 [label="X[0] <= 0.473\nentropy = 1.0\nsamples = 22\nvalue = [11, 11]\nclass = y[0]"] ;
1023 -> 1024 ;
1025 [label="entropy = 0.0\nsamples = 5\nvalue = [0, 5]\nclass = y[1]"] ;
1024 -> 1025 ;
1026 [label="X[3] <= 1.445\nentropy = 0.937\nsamples = 17\nvalue = [11, 6]\nclass = y[0]"] ;
1024 -> 1026 ;
1027 [label="X[23] <= 0.321\nentropy = 0.503\nsamples = 9\nvalue = [8, 1]\nclass = y[0]"] ;
1026 -> 1027 ;
1028 [label="X[25] <= 0.459\nentropy = 0.918\nsamples = 3\nvalue = [2, 1]\nclass = y[0]"] ;
1027 -> 1028 ;
1029 [label="entropy = 0.0\nsamples = 2\nvalue = [2, 0]\nclass = y[0]"] ;
1028 -> 1029 ;
1030 [label="entropy = 0.0\nsamples = 1\nvalue = [0, 1]\nclass = y[1]"] ;
1028 -> 1030 ;
1031 [label="entropy = 0.0\nsamples = 6\nvalue = [6, 0]\nclass = y[0]"] ;
1027 -> 1031 ;
1032 [label="X[4] <= -0.109\nentropy = 0.954\nsamples = 8\nvalue = [3, 5]\nclass = y[1]"] ;
1026 -> 1032 ;
1033 [label="entropy = 0.0\nsamples = 2\nvalue = [0, 2]\nclass = y[1]"] ;
1032 -> 1033 ;
1034 [label="X[4] <= 1.193\nentropy = 1.0\nsamples = 6\nvalue = [3, 3]\nclass = y[0]"] ;
1032 -> 1034 ;
1035 [label="entropy = 0.0\nsamples = 3\nvalue = [0, 3]\nclass = y[1]"] ;
1034 -> 1035 ;
1036 [label="entropy = 0.0\nsamples = 3\nvalue = [3, 0]\nclass = y[0]"] ;
1034 -> 1036 ;
1037 [label="X[14] <= 0.452\nentropy = 0.779\nsamples = 13\nvalue = [10, 3]\nclass = y[0]"] ;
1023 -> 1037 ;
1038 [label="entropy = 0.0\nsamples = 7\nvalue = [7, 0]\nclass = y[0]"] ;
1037 -> 1038 ;
1039 [label="X[12] <= 0.095\nentropy = 1.0\nsamples = 6\nvalue = [3, 3]\nclass = y[0]"] ;
1037 -> 1039 ;
1040 [label="entropy = 0.0\nsamples = 1\nvalue = [1, 0]\nclass = y[0]"] ;
1039 -> 1040 ;
1041 [label="X[9] <= -0.839\nentropy = 0.971\nsamples = 5\nvalue = [2, 3]\nclass = y[1]"] ;
1039 -> 1041 ;
1042 [label="entropy = 0.0\nsamples = 2\nvalue = [0, 2]\nclass = y[1]"] ;
1041 -> 1042 ;
1043 [label="X[25] <= 0.516\nentropy = 0.918\nsamples = 3\nvalue = [2, 1]\nclass = y[0]"] ;
1041 -> 1043 ;
1044 [label="entropy = 0.0\nsamples = 2\nvalue = [2, 0]\nclass = y[0]"] ;
1043 -> 1044 ;
