digraph Tree {
node [shape=box, fontname="helvetica"] ;
edge [fontname="helvetica"] ;
0 [label="X[6] <= 0.212\ngini = 0.5\nsamples = 40228\nvalue = [20309, 19919]\nclass = y[0]"] ;
1 [label="X[1] <= -0.892\ngini = 0.207\nsamples = 21223\nvalue = [18733, 2490]\nclass = y[0]"] ;
0 -> 1 [labeldistance=2.5, labelangle=45, headlabel="True"] ;
2 [label="X[6] <= -1.103\ngini = 0.193\nsamples = 2097\nvalue = [227, 1870]\nclass = y[1]"] ;
1 -> 2 ;
3 [label="X[9] <= -0.77\ngini = 0.309\nsamples = 251\nvalue = [203, 48]\nclass = y[0]"] ;
2 -> 3 ;
4 [label="X[1] <= -1.427\ngini = 0.113\nsamples = 199\nvalue = [187, 12]\nclass = y[0]"] ;
3 -> 4 ;
5 [label="X[15] <= 0.5\ngini = 0.49\nsamples = 21\nvalue = [9, 12]\nclass = y[1]"] ;
4 -> 5 ;
6 [label="X[4] <= -0.765\ngini = 0.32\nsamples = 10\nvalue = [8, 2]\nclass = y[0]"] ;
5 -> 6 ;
7 [label="X[12] <= 0.5\ngini = 0.48\nsamples = 5\nvalue = [3, 2]\nclass = y[0]"] ;
6 -> 7 ;
8 [label="X[0] <= -1.964\ngini = 0.375\nsamples = 4\nvalue = [3, 1]\nclass = y[0]"] ;
7 -> 8 ;
9 [label="gini = 0.0\nsamples = 3\nvalue = [3, 0]\nclass = y[0]"] ;
8 -> 9 ;
10 [label="gini = 0.0\nsamples = 1\nvalue = [0, 1]\nclass = y[1]"] ;
8 -> 10 ;
11 [label="gini = 0.0\nsamples = 1\nvalue = [0, 1]\nclass = y[1]"] ;
7 -> 11 ;
12 [label="gini = 0.0\nsamples = 5\nvalue = [5, 0]\nclass = y[0]"] ;
6 -> 12 ;
13 [label="X[0] <= -2.126\ngini = 0.165\nsamples = 11\nvalue = [1, 10]\nclass = y[1]"] ;
5 -> 13 ;
14 [label="gini = 0.0\nsamples = 1\nvalue = [1, 0]\nclass = y[0]"] ;
13 -> 14 ;
15 [label="gini = 0.0\nsamples = 10\nvalue = [0, 10]\nclass = y[1]"] ;
13 -> 15 ;
16 [label="gini = 0.0\nsamples = 178\nvalue = [178, 0]\nclass = y[0]"] ;
4 -> 16 ;
17 [label="X[6] <= -1.366\ngini = 0.426\nsamples = 52\nvalue = [16, 36]\nclass = y[1]"] ;
3 -> 17 ;
18 [label="X[1] <= -1.427\ngini = 0.337\nsamples = 14\nvalue = [11, 3]\nclass = y[0]"] ;
17 -> 18 ;
19 [label="X[0] <= -2.059\ngini = 0.444\nsamples = 3\nvalue = [1, 2]\nclass = y[1]"] ;
18 -> 19 ;
20 [label="gini = 0.0\nsamples = 1\nvalue = [1, 0]\nclass = y[0]"] ;
19 -> 20 ;
21 [label="gini = 0.0\nsamples = 2\nvalue = [0, 2]\nclass = y[1]"] ;
19 -> 21 ;
22 [label="X[23] <= 0.5\ngini = 0.165\nsamples = 11\nvalue = [10, 1]\nclass = y[0]"] ;
18 -> 22 ;
23 [label="gini = 0.0\nsamples = 9\nvalue = [9, 0]\nclass = y[0]"] ;
22 -> 23 ;
24 [label="X[25] <= 0.5\ngini = 0.5\nsamples = 2\nvalue = [1, 1]\nclass = y[0]"] ;
22 -> 24 ;
25 [label="gini = 0.0\nsamples = 1\nvalue = [1, 0]\nclass = y[0]"] ;
24 -> 25 ;
26 [label="gini = 0.0\nsamples = 1\nvalue = [0, 1]\nclass = y[1]"] ;
24 -> 26 ;
27 [label="X[0] <= -1.372\ngini = 0.229\nsamples = 38\nvalue = [5, 33]\nclass = y[1]"] ;
17 -> 27 ;
28 [label="X[5] <= 0.557\ngini = 0.062\nsamples = 31\nvalue = [1, 30]\nclass = y[1]"] ;
27 -> 28 ;
29 [label="gini = 0.0\nsamples = 29\nvalue = [0, 29]\nclass = y[1]"] ;
28 -> 29 ;
30 [label="X[15] <= 0.5\ngini = 0.5\nsamples = 2\nvalue = [1, 1]\nclass = y[0]"] ;
28 -> 30 ;
31 [label="gini = 0.0\nsamples = 1\nvalue = [1, 0]\nclass = y[0]"] ;
30 -> 31 ;
32 [label="gini = 0.0\nsamples = 1\nvalue = [0, 1]\nclass = y[1]"] ;
30 -> 32 ;
33 [label="X[12] <= 0.5\ngini = 0.49\nsamples = 7\nvalue = [4, 3]\nclass = y[0]"] ;
27 -> 33 ;
34 [label="gini = 0.0\nsamples = 3\nvalue = [3, 0]\nclass = y[0]"] ;
33 -> 34 ;
35 [label="X[0] <= -1.299\ngini = 0.375\nsamples = 4\nvalue = [1, 3]\nclass = y[1]"] ;
33 -> 35 ;
36 [label="gini = 0.0\nsamples = 1\nvalue = [1, 0]\nclass = y[0]"] ;
35 -> 36 ;
37 [label="gini = 0.0\nsamples = 3\nvalue = [0, 3]\nclass = y[1]"] ;
35 -> 37 ;
38 [label="X[1] <= -1.159\ngini = 0.026\nsamples = 1846\nvalue = [24, 1822]\nclass = y[1]"] ;
2 -> 38 ;
39 [label="X[9] <= -0.77\ngini = 0.005\nsamples = 1509\nvalue = [4, 1505]\nclass = y[1]"] ;
38 -> 39 ;
40 [label="X[0] <= -1.08\ngini = 0.026\nsamples = 232\nvalue = [3, 229]\nclass = y[1]"] ;
39 -> 40 ;
41 [label="gini = 0.0\nsamples = 193\nvalue = [0, 193]\nclass = y[1]"] ;
40 -> 41 ;
42 [label="X[6] <= -0.84\ngini = 0.142\nsamples = 39\nvalue = [3, 36]\nclass = y[1]"] ;
40 -> 42 ;
43 [label="gini = 0.0\nsamples = 1\nvalue = [1, 0]\nclass = y[0]"] ;
42 -> 43 ;
44 [label="X[0] <= -0.998\ngini = 0.1\nsamples = 38\nvalue = [2, 36]\nclass = y[1]"] ;
42 -> 44 ;
45 [label="X[25] <= 0.5\ngini = 0.48\nsamples = 5\nvalue = [2, 3]\nclass = y[1]"] ;
44 -> 45 ;
46 [label="gini = 0.0\nsamples = 2\nvalue = [0, 2]\nclass = y[1]"] ;
45 -> 46 ;
47 [label="X[8] <= 0.115\ngini = 0.444\nsamples = 3\nvalue = [2, 1]\nclass = y[0]"] ;
45 -> 47 ;
48 [label="gini = 0.0\nsamples = 2\nvalue = [2, 0]\nclass = y[0]"] ;
47 -> 48 ;
49 [label="gini = 0.0\nsamples = 1\nvalue = [0, 1]\nclass = y[1]"] ;
47 -> 49 ;
50 [label="gini = 0.0\nsamples = 33\nvalue = [0, 33]\nclass = y[1]"] ;
44 -> 50 ;
51 [label="X[0] <= -1.122\ngini = 0.002\nsamples = 1277\nvalue = [1, 1276]\nclass = y[1]"] ;
39 -> 51 ;
52 [label="gini = 0.0\nsamples = 874\nvalue = [0, 874]\nclass = y[1]"] ;
51 -> 52 ;
53 [label="X[0] <= -1.12\ngini = 0.005\nsamples = 403\nvalue = [1, 402]\nclass = y[1]"] ;
51 -> 53 ;
54 [label="X[10] <= 0.593\ngini = 0.278\nsamples = 6\nvalue = [1, 5]\nclass = y[1]"] ;
53 -> 54 ;
55 [label="gini = 0.0\nsamples = 4\nvalue = [0, 4]\nclass = y[1]"] ;
54 -> 55 ;
56 [label="X[1] <= -1.427\ngini = 0.5\nsamples = 2\nvalue = [1, 1]\nclass = y[0]"] ;
54 -> 56 ;
57 [label="gini = 0.0\nsamples = 1\nvalue = [0, 1]\nclass = y[1]"] ;
56 -> 57 ;
58 [label="gini = 0.0\nsamples = 1\nvalue = [1, 0]\nclass = y[0]"] ;
56 -> 58 ;
59 [label="gini = 0.0\nsamples = 397\nvalue = [0, 397]\nclass = y[1]"] ;
53 -> 59 ;
60 [label="X[6] <= -0.84\ngini = 0.112\nsamples = 337\nvalue = [20, 317]\nclass = y[1]"] ;
38 -> 60 ;
61 [label="X[12] <= 0.5\ngini = 0.491\nsamples = 23\nvalue = [10, 13]\nclass = y[1]"] ;
60 -> 61 ;
62 [label="X[9] <= -0.77\ngini = 0.473\nsamples = 13\nvalue = [8, 5]\nclass = y[0]"] ;
61 -> 62 ;
63 [label="X[0] <= -1.433\ngini = 0.346\nsamples = 9\nvalue = [7, 2]\nclass = y[0]"] ;
62 -> 63 ;
64 [label="gini = 0.0\nsamples = 3\nvalue = [3, 0]\nclass = y[0]"] ;
63 -> 64 ;
65 [label="X[0] <= -1.415\ngini = 0.444\nsamples = 6\nvalue = [4, 2]\nclass = y[0]"] ;
63 -> 65 ;
66 [label="gini = 0.0\nsamples = 1\nvalue = [0, 1]\nclass = y[1]"] ;
65 -> 66 ;
67 [label="X[22] <= 0.5\ngini = 0.32\nsamples = 5\nvalue = [4, 1]\nclass = y[0]"] ;
65 -> 67 ;
68 [label="gini = 0.0\nsamples = 3\nvalue = [3, 0]\nclass = y[0]"] ;
67 -> 68 ;
69 [label="X[0] <= -1.353\ngini = 0.5\nsamples = 2\nvalue = [1, 1]\nclass = y[0]"] ;
67 -> 69 ;
70 [label="gini = 0.0\nsamples = 1\nvalue = [1, 0]\nclass = y[0]"] ;
69 -> 70 ;
71 [label="gini = 0.0\nsamples = 1\nvalue = [0, 1]\nclass = y[1]"] ;
69 -> 71 ;
72 [label="X[0] <= -0.46\ngini = 0.375\nsamples = 4\nvalue = [1, 3]\nclass = y[1]"] ;
62 -> 72 ;
73 [label="gini = 0.0\nsamples = 3\nvalue = [0, 3]\nclass = y[1]"] ;
72 -> 73 ;
74 [label="gini = 0.0\nsamples = 1\nvalue = [1, 0]\nclass = y[0]"] ;
72 -> 74 ;
75 [label="X[0] <= -0.376\ngini = 0.32\nsamples = 10\nvalue = [2, 8]\nclass = y[1]"] ;
61 -> 75 ;
76 [label="X[4] <= 0.064\ngini = 0.198\nsamples = 9\nvalue = [1, 8]\nclass = y[1]"] ;
75 -> 76 ;
77 [label="gini = 0.0\nsamples = 6\nvalue = [0, 6]\nclass = y[1]"] ;
76 -> 77 ;
78 [label="X[9] <= -0.77\ngini = 0.444\nsamples = 3\nvalue = [1, 2]\nclass = y[1]"] ;
76 -> 78 ;
79 [label="gini = 0.0\nsamples = 2\nvalue = [0, 2]\nclass = y[1]"] ;
78 -> 79 ;
80 [label="gini = 0.0\nsamples = 1\nvalue = [1, 0]\nclass = y[0]"] ;
78 -> 80 ;
81 [label="gini = 0.0\nsamples = 1\nvalue = [1, 0]\nclass = y[0]"] ;
75 -> 81 ;
82 [label="X[3] <= 0.204\ngini = 0.062\nsamples = 314\nvalue = [10, 304]\nclass = y[1]"] ;
60 -> 82 ;
83 [label="X[6] <= -0.577\ngini = 0.051\nsamples = 308\nvalue = [8, 300]\nclass = y[1]"] ;
82 -> 83 ;
84 [label="X[9] <= -0.77\ngini = 0.211\nsamples = 50\nvalue = [6, 44]\nclass = y[1]"] ;
83 -> 84 ;
85 [label="X[26] <= 0.5\ngini = 0.5\nsamples = 8\nvalue = [4, 4]\nclass = y[0]"] ;
84 -> 85 ;
86 [label="X[12] <= 0.5\ngini = 0.444\nsamples = 6\nvalue = [4, 2]\nclass = y[0]"] ;
85 -> 86 ;
87 [label="X[10] <= 0.593\ngini = 0.444\nsamples = 3\nvalue = [1, 2]\nclass = y[1]"] ;
86 -> 87 ;
88 [label="X[0] <= -1.101\ngini = 0.5\nsamples = 2\nvalue = [1, 1]\nclass = y[0]"] ;
87 -> 88 ;
89 [label="gini = 0.0\nsamples = 1\nvalue = [1, 0]\nclass = y[0]"] ;
88 -> 89 ;
90 [label="gini = 0.0\nsamples = 1\nvalue = [0, 1]\nclass = y[1]"] ;
88 -> 90 ;
91 [label="gini = 0.0\nsamples = 1\nvalue = [0, 1]\nclass = y[1]"] ;
87 -> 91 ;
92 [label="gini = 0.0\nsamples = 3\nvalue = [3, 0]\nclass = y[0]"] ;
86 -> 92 ;
93 [label="gini = 0.0\nsamples = 2\nvalue = [0, 2]\nclass = y[1]"] ;
85 -> 93 ;
94 [label="X[4] <= 0.064\ngini = 0.091\nsamples = 42\nvalue = [2, 40]\nclass = y[1]"] ;
84 -> 94 ;
95 [label="gini = 0.0\nsamples = 39\nvalue = [0, 39]\nclass = y[1]"] ;
94 -> 95 ;
96 [label="X[8] <= 0.115\ngini = 0.444\nsamples = 3\nvalue = [2, 1]\nclass = y[0]"] ;
94 -> 96 ;
97 [label="gini = 0.0\nsamples = 2\nvalue = [2, 0]\nclass = y[0]"] ;
96 -> 97 ;
98 [label="gini = 0.0\nsamples = 1\nvalue = [0, 1]\nclass = y[1]"] ;
96 -> 98 ;
99 [label="X[0] <= -0.421\ngini = 0.015\nsamples = 258\nvalue = [2, 256]\nclass = y[1]"] ;
83 -> 99 ;
100 [label="gini = 0.0\nsamples = 198\nvalue = [0, 198]\nclass = y[1]"] ;
99 -> 100 ;
101 [label="X[0] <= -0.417\ngini = 0.064\nsamples = 60\nvalue = [2, 58]\nclass = y[1]"] ;
99 -> 101 ;
102 [label="gini = 0.0\nsamples = 1\nvalue = [1, 0]\nclass = y[0]"] ;
101 -> 102 ;
103 [label="X[4] <= 0.064\ngini = 0.033\nsamples = 59\nvalue = [1, 58]\nclass = y[1]"] ;
101 -> 103 ;
104 [label="gini = 0.0\nsamples = 48\nvalue = [0, 48]\nclass = y[1]"] ;
103 -> 104 ;
105 [label="X[6] <= -0.051\ngini = 0.165\nsamples = 11\nvalue = [1, 10]\nclass = y[1]"] ;
103 -> 105 ;
106 [label="gini = 0.0\nsamples = 7\nvalue = [0, 7]\nclass = y[1]"] ;
105 -> 106 ;
107 [label="X[18] <= 0.5\ngini = 0.375\nsamples = 4\nvalue = [1, 3]\nclass = y[1]"] ;
105 -> 107 ;
108 [label="X[21] <= 0.5\ngini = 0.5\nsamples = 2\nvalue = [1, 1]\nclass = y[0]"] ;
107 -> 108 ;
109 [label="gini = 0.0\nsamples = 1\nvalue = [1, 0]\nclass = y[0]"] ;
108 -> 109 ;
110 [label="gini = 0.0\nsamples = 1\nvalue = [0, 1]\nclass = y[1]"] ;
108 -> 110 ;
111 [label="gini = 0.0\nsamples = 2\nvalue = [0, 2]\nclass = y[1]"] ;
107 -> 111 ;
112 [label="X[18] <= 0.5\ngini = 0.444\nsamples = 6\nvalue = [2, 4]\nclass = y[1]"] ;
82 -> 112 ;
113 [label="gini = 0.0\nsamples = 2\nvalue = [2, 0]\nclass = y[0]"] ;
112 -> 113 ;
114 [label="gini = 0.0\nsamples = 4\nvalue = [0, 4]\nclass = y[1]"] ;
112 -> 114 ;
115 [label="X[1] <= -0.357\ngini = 0.063\nsamples = 19126\nvalue = [18506, 620]\nclass = y[0]"] ;
1 -> 115 ;
116 [label="X[6] <= -0.577\ngini = 0.421\nsamples = 1169\nvalue = [817, 352]\nclass = y[0]"] ;
115 -> 116 ;
117 [label="X[6] <= -0.84\ngini = 0.087\nsamples = 813\nvalue = [776, 37]\nclass = y[0]"] ;
116 -> 117 ;
118 [label="X[21] <= 0.5\ngini = 0.032\nsamples = 736\nvalue = [724, 12]\nclass = y[0]"] ;
117 -> 118 ;
119 [label="X[9] <= 0.869\ngini = 0.024\nsamples = 732\nvalue = [723, 9]\nclass = y[0]"] ;
118 -> 119 ;
120 [label="X[0] <= 0.372\ngini = 0.022\nsamples = 731\nvalue = [723, 8]\nclass = y[0]"] ;
119 -> 120 ;
121 [label="X[9] <= 0.05\ngini = 0.019\nsamples = 729\nvalue = [722, 7]\nclass = y[0]"] ;
120 -> 121 ;
122 [label="X[0] <= -0.38\ngini = 0.014\nsamples = 714\nvalue = [709, 5]\nclass = y[0]"] ;
121 -> 122 ;
123 [label="X[1] <= -0.624\ngini = 0.011\nsamples = 703\nvalue = [699, 4]\nclass = y[0]"] ;
122 -> 123 ;
124 [label="X[0] <= -1.445\ngini = 0.028\nsamples = 283\nvalue = [279, 4]\nclass = y[0]"] ;
123 -> 124 ;
125 [label="gini = 0.0\nsamples = 156\nvalue = [156, 0]\nclass = y[0]"] ;
124 -> 125 ;
126 [label="X[0] <= -1.441\ngini = 0.061\nsamples = 127\nvalue = [123, 4]\nclass = y[0]"] ;
124 -> 126 ;
127 [label="X[5] <= 0.557\ngini = 0.375\nsamples = 4\nvalue = [3, 1]\nclass = y[0]"] ;
126 -> 127 ;
128 [label="gini = 0.0\nsamples = 3\nvalue = [3, 0]\nclass = y[0]"] ;
127 -> 128 ;
129 [label="gini = 0.0\nsamples = 1\nvalue = [0, 1]\nclass = y[1]"] ;
127 -> 129 ;
130 [label="X[11] <= 0.5\ngini = 0.048\nsamples = 123\nvalue = [120, 3]\nclass = y[0]"] ;
126 -> 130 ;
131 [label="X[9] <= -0.77\ngini = 0.133\nsamples = 42\nvalue = [39, 3]\nclass = y[0]"] ;
130 -> 131 ;
132 [label="X[27] <= 0.5\ngini = 0.057\nsamples = 34\nvalue = [33, 1]\nclass = y[0]"] ;
131 -> 132 ;
133 [label="gini = 0.0\nsamples = 32\nvalue = [32, 0]\nclass = y[0]"] ;
132 -> 133 ;
134 [label="X[0] <= -1.323\ngini = 0.5\nsamples = 2\nvalue = [1, 1]\nclass = y[0]"] ;
132 -> 134 ;
135 [label="gini = 0.0\nsamples = 1\nvalue = [1, 0]\nclass = y[0]"] ;
134 -> 135 ;
136 [label="gini = 0.0\nsamples = 1\nvalue = [0, 1]\nclass = y[1]"] ;
134 -> 136 ;
137 [label="X[0] <= -1.274\ngini = 0.375\nsamples = 8\nvalue = [6, 2]\nclass = y[0]"] ;
131 -> 137 ;
138 [label="X[0] <= -1.362\ngini = 0.444\nsamples = 3\nvalue = [1, 2]\nclass = y[1]"] ;
137 -> 138 ;
139 [label="gini = 0.0\nsamples = 1\nvalue = [1, 0]\nclass = y[0]"] ;
138 -> 139 ;
140 [label="gini = 0.0\nsamples = 2\nvalue = [0, 2]\nclass = y[1]"] ;
138 -> 140 ;
141 [label="gini = 0.0\nsamples = 5\nvalue = [5, 0]\nclass = y[0]"] ;
137 -> 141 ;
142 [label="gini = 0.0\nsamples = 81\nvalue = [81, 0]\nclass = y[0]"] ;
130 -> 142 ;
143 [label="gini = 0.0\nsamples = 420\nvalue = [420, 0]\nclass = y[0]"] ;
123 -> 143 ;
144 [label="X[0] <= -0.362\ngini = 0.165\nsamples = 11\nvalue = [10, 1]\nclass = y[0]"] ;
122 -> 144 ;
145 [label="gini = 0.0\nsamples = 1\nvalue = [0, 1]\nclass = y[1]"] ;
144 -> 145 ;
146 [label="gini = 0.0\nsamples = 10\nvalue = [10, 0]\nclass = y[0]"] ;
144 -> 146 ;
147 [label="X[5] <= 0.557\ngini = 0.231\nsamples = 15\nvalue = [13, 2]\nclass = y[0]"] ;
121 -> 147 ;
148 [label="gini = 0.0\nsamples = 11\nvalue = [11, 0]\nclass = y[0]"] ;
147 -> 148 ;
149 [label="X[14] <= 0.5\ngini = 0.5\nsamples = 4\nvalue = [2, 2]\nclass = y[0]"] ;
147 -> 149 ;
150 [label="gini = 0.0\nsamples = 1\nvalue = [1, 0]\nclass = y[0]"] ;
149 -> 150 ;
151 [label="X[0] <= -1.218\ngini = 0.444\nsamples = 3\nvalue = [1, 2]\nclass = y[1]"] ;
149 -> 151 ;
152 [label="gini = 0.0\nsamples = 1\nvalue = [1, 0]\nclass = y[0]"] ;
151 -> 152 ;
153 [label="gini = 0.0\nsamples = 2\nvalue = [0, 2]\nclass = y[1]"] ;
151 -> 153 ;
154 [label="X[0] <= 0.409\ngini = 0.5\nsamples = 2\nvalue = [1, 1]\nclass = y[0]"] ;
120 -> 154 ;
155 [label="gini = 0.0\nsamples = 1\nvalue = [0, 1]\nclass = y[1]"] ;
154 -> 155 ;
156 [label="gini = 0.0\nsamples = 1\nvalue = [1, 0]\nclass = y[0]"] ;
154 -> 156 ;
157 [label="gini = 0.0\nsamples = 1\nvalue = [0, 1]\nclass = y[1]"] ;
119 -> 157 ;
158 [label="X[10] <= 0.593\ngini = 0.375\nsamples = 4\nvalue = [1, 3]\nclass = y[1]"] ;
118 -> 158 ;
159 [label="gini = 0.0\nsamples = 3\nvalue = [0, 3]\nclass = y[1]"] ;
158 -> 159 ;
160 [label="gini = 0.0\nsamples = 1\nvalue = [1, 0]\nclass = y[0]"] ;
158 -> 160 ;
161 [label="X[1] <= -0.624\ngini = 0.439\nsamples = 77\nvalue = [52, 25]\nclass = y[0]"] ;
117 -> 161 ;
162 [label="X[4] <= -0.765\ngini = 0.499\nsamples = 42\nvalue = [20, 22]\nclass = y[1]"] ;
161 -> 162 ;
163 [label="X[0] <= -0.524\ngini = 0.305\nsamples = 16\nvalue = [3, 13]\nclass = y[1]"] ;
162 -> 163 ;
164 [label="X[26] <= 0.5\ngini = 0.133\nsamples = 14\nvalue = [1, 13]\nclass = y[1]"] ;
163 -> 164 ;
165 [label="gini = 0.0\nsamples = 10\nvalue = [0, 10]\nclass = y[1]"] ;
164 -> 165 ;
166 [label="X[15] <= 0.5\ngini = 0.375\nsamples = 4\nvalue = [1, 3]\nclass = y[1]"] ;
164 -> 166 ;
167 [label="gini = 0.0\nsamples = 3\nvalue = [0, 3]\nclass = y[1]"] ;
166 -> 167 ;
168 [label="gini = 0.0\nsamples = 1\nvalue = [1, 0]\nclass = y[0]"] ;
166 -> 168 ;
169 [label="gini = 0.0\nsamples = 2\nvalue = [2, 0]\nclass = y[0]"] ;
163 -> 169 ;
170 [label="X[20] <= 0.5\ngini = 0.453\nsamples = 26\nvalue = [17, 9]\nclass = y[0]"] ;
162 -> 170 ;
171 [label="X[0] <= -0.961\ngini = 0.483\nsamples = 22\nvalue = [13, 9]\nclass = y[0]"] ;
170 -> 171 ;
172 [label="X[27] <= 0.5\ngini = 0.397\nsamples = 11\nvalue = [8, 3]\nclass = y[0]"] ;
171 -> 172 ;
173 [label="X[0] <= -1.374\ngini = 0.219\nsamples = 8\nvalue = [7, 1]\nclass = y[0]"] ;
172 -> 173 ;
174 [label="X[14] <= 0.5\ngini = 0.5\nsamples = 2\nvalue = [1, 1]\nclass = y[0]"] ;
173 -> 174 ;
175 [label="gini = 0.0\nsamples = 1\nvalue = [0, 1]\nclass = y[1]"] ;
174 -> 175 ;
176 [label="gini = 0.0\nsamples = 1\nvalue = [1, 0]\nclass = y[0]"] ;
174 -> 176 ;
177 [label="gini = 0.0\nsamples = 6\nvalue = [6, 0]\nclass = y[0]"] ;
173 -> 177 ;
178 [label="X[14] <= 0.5\ngini = 0.444\nsamples = 3\nvalue = [1, 2]\nclass = y[1]"] ;
172 -> 178 ;
179 [label="gini = 0.0\nsamples = 1\nvalue = [1, 0]\nclass = y[0]"] ;
178 -> 179 ;
180 [label="gini = 0.0\nsamples = 2\nvalue = [0, 2]\nclass = y[1]"] ;
178 -> 180 ;
181 [label="X[14] <= 0.5\ngini = 0.496\nsamples = 11\nvalue = [5, 6]\nclass = y[1]"] ;
171 -> 181 ;
182 [label="X[9] <= 0.05\ngini = 0.408\nsamples = 7\nvalue = [5, 2]\nclass = y[0]"] ;
181 -> 182 ;
183 [label="X[21] <= 0.5\ngini = 0.278\nsamples = 6\nvalue = [5, 1]\nclass = y[0]"] ;
182 -> 183 ;
184 [label="gini = 0.0\nsamples = 5\nvalue = [5, 0]\nclass = y[0]"] ;
183 -> 184 ;
185 [label="gini = 0.0\nsamples = 1\nvalue = [0, 1]\nclass = y[1]"] ;
183 -> 185 ;
186 [label="gini = 0.0\nsamples = 1\nvalue = [0, 1]\nclass = y[1]"] ;
182 -> 186 ;
187 [label="gini = 0.0\nsamples = 4\nvalue = [0, 4]\nclass = y[1]"] ;
181 -> 187 ;
188 [label="gini = 0.0\nsamples = 4\nvalue = [4, 0]\nclass = y[0]"] ;
170 -> 188 ;
189 [label="X[7] <= -0.404\ngini = 0.157\nsamples = 35\nvalue = [32, 3]\nclass = y[0]"] ;
161 -> 189 ;
190 [label="X[0] <= 0.659\ngini = 0.111\nsamples = 34\nvalue = [32, 2]\nclass = y[0]"] ;
189 -> 190 ;
191 [label="X[0] <= -0.171\ngini = 0.061\nsamples = 32\nvalue = [31, 1]\nclass = y[0]"] ;
190 -> 191 ;
192 [label="gini = 0.0\nsamples = 25\nvalue = [25, 0]\nclass = y[0]"] ;
191 -> 192 ;
193 [label="X[0] <= -0.053\ngini = 0.245\nsamples = 7\nvalue = [6, 1]\nclass = y[0]"] ;
191 -> 193 ;
194 [label="gini = 0.0\nsamples = 1\nvalue = [0, 1]\nclass = y[1]"] ;
193 -> 194 ;
195 [label="gini = 0.0\nsamples = 6\nvalue = [6, 0]\nclass = y[0]"] ;
193 -> 195 ;
196 [label="X[4] <= 0.064\ngini = 0.5\nsamples = 2\nvalue = [1, 1]\nclass = y[0]"] ;
190 -> 196 ;
197 [label="gini = 0.0\nsamples = 1\nvalue = [0, 1]\nclass = y[1]"] ;
196 -> 197 ;
198 [label="gini = 0.0\nsamples = 1\nvalue = [1, 0]\nclass = y[0]"] ;
196 -> 198 ;
199 [label="gini = 0.0\nsamples = 1\nvalue = [0, 1]\nclass = y[1]"] ;
189 -> 199 ;
200 [label="X[20] <= 0.5\ngini = 0.204\nsamples = 356\nvalue = [41, 315]\nclass = y[1]"] ;
116 -> 200 ;
201 [label="X[6] <= -0.314\ngini = 0.133\nsamples = 322\nvalue = [23, 299]\nclass = y[1]"] ;
200 -> 201 ;
202 [label="X[15] <= 0.5\ngini = 0.364\nsamples = 71\nvalue = [17, 54]\nclass = y[1]"] ;
201 -> 202 ;
203 [label="X[0] <= 0.451\ngini = 0.145\nsamples = 38\nvalue = [3, 35]\nclass = y[1]"] ;
202 -> 203 ;
204 [label="X[4] <= 0.064\ngini = 0.056\nsamples = 35\nvalue = [1, 34]\nclass = y[1]"] ;
203 -> 204 ;
205 [label="gini = 0.0\nsamples = 27\nvalue = [0, 27]\nclass = y[1]"] ;
204 -> 205 ;
206 [label="X[11] <= 0.5\ngini = 0.219\nsamples = 8\nvalue = [1, 7]\nclass = y[1]"] ;
204 -> 206 ;
207 [label="X[0] <= -0.226\ngini = 0.444\nsamples = 3\nvalue = [1, 2]\nclass = y[1]"] ;
206 -> 207 ;
208 [label="gini = 0.0\nsamples = 1\nvalue = [1, 0]\nclass = y[0]"] ;
207 -> 208 ;
209 [label="gini = 0.0\nsamples = 2\nvalue = [0, 2]\nclass = y[1]"] ;
207 -> 209 ;
210 [label="gini = 0.0\nsamples = 5\nvalue = [0, 5]\nclass = y[1]"] ;
206 -> 210 ;
211 [label="X[1] <= -0.624\ngini = 0.444\nsamples = 3\nvalue = [2, 1]\nclass = y[0]"] ;
203 -> 211 ;
212 [label="gini = 0.0\nsamples = 1\nvalue = [0, 1]\nclass = y[1]"] ;
211 -> 212 ;
213 [label="gini = 0.0\nsamples = 2\nvalue = [2, 0]\nclass = y[0]"] ;
211 -> 213 ;
214 [label="X[1] <= -0.624\ngini = 0.489\nsamples = 33\nvalue = [14, 19]\nclass = y[1]"] ;
202 -> 214 ;
215 [label="X[9] <= 0.05\ngini = 0.375\nsamples = 24\nvalue = [6, 18]\nclass = y[1]"] ;
214 -> 215 ;
216 [label="X[24] <= 0.5\ngini = 0.486\nsamples = 12\nvalue = [5, 7]\nclass = y[1]"] ;
215 -> 216 ;
217 [label="X[4] <= 0.064\ngini = 0.42\nsamples = 10\nvalue = [3, 7]\nclass = y[1]"] ;
216 -> 217 ;
218 [label="gini = 0.0\nsamples = 5\nvalue = [0, 5]\nclass = y[1]"] ;
217 -> 218 ;
219 [label="X[0] <= -0.565\ngini = 0.48\nsamples = 5\nvalue = [3, 2]\nclass = y[0]"] ;
217 -> 219 ;
220 [label="X[0] <= -0.815\ngini = 0.444\nsamples = 3\nvalue = [1, 2]\nclass = y[1]"] ;
219 -> 220 ;
221 [label="gini = 0.0\nsamples = 1\nvalue = [1, 0]\nclass = y[0]"] ;
220 -> 221 ;
222 [label="gini = 0.0\nsamples = 2\nvalue = [0, 2]\nclass = y[1]"] ;
220 -> 222 ;
223 [label="gini = 0.0\nsamples = 2\nvalue = [2, 0]\nclass = y[0]"] ;
219 -> 223 ;
224 [label="gini = 0.0\nsamples = 2\nvalue = [2, 0]\nclass = y[0]"] ;
216 -> 224 ;
225 [label="X[0] <= 0.322\ngini = 0.153\nsamples = 12\nvalue = [1, 11]\nclass = y[1]"] ;
215 -> 225 ;
226 [label="gini = 0.0\nsamples = 11\nvalue = [0, 11]\nclass = y[1]"] ;
225 -> 226 ;
227 [label="gini = 0.0\nsamples = 1\nvalue = [1, 0]\nclass = y[0]"] ;
225 -> 227 ;
228 [label="X[8] <= 0.115\ngini = 0.198\nsamples = 9\nvalue = [8, 1]\nclass = y[0]"] ;
214 -> 228 ;
229 [label="gini = 0.0\nsamples = 8\nvalue = [8, 0]\nclass = y[0]"] ;
228 -> 229 ;
230 [label="gini = 0.0\nsamples = 1\nvalue = [0, 1]\nclass = y[1]"] ;
228 -> 230 ;
231 [label="X[6] <= -0.051\ngini = 0.047\nsamples = 251\nvalue = [6, 245]\nclass = y[1]"] ;
201 -> 231 ;
232 [label="X[0] <= -0.024\ngini = 0.103\nsamples = 92\nvalue = [5, 87]\nclass = y[1]"] ;
231 -> 232 ;
233 [label="X[0] <= -0.905\ngini = 0.029\nsamples = 68\nvalue = [1, 67]\nclass = y[1]"] ;
232 -> 233 ;
234 [label="X[0] <= -0.943\ngini = 0.117\nsamples = 16\nvalue = [1, 15]\nclass = y[1]"] ;
233 -> 234 ;
235 [label="gini = 0.0\nsamples = 15\nvalue = [0, 15]\nclass = y[1]"] ;
234 -> 235 ;
236 [label="gini = 0.0\nsamples = 1\nvalue = [1, 0]\nclass = y[0]"] ;
234 -> 236 ;
237 [label="gini = 0.0\nsamples = 52\nvalue = [0, 52]\nclass = y[1]"] ;
233 -> 237 ;
238 [label="X[23] <= 0.5\ngini = 0.278\nsamples = 24\nvalue = [4, 20]\nclass = y[1]"] ;
232 -> 238 ;
239 [label="X[9] <= 0.869\ngini = 0.48\nsamples = 10\nvalue = [4, 6]\nclass = y[1]"] ;
238 -> 239 ;
240 [label="X[16] <= 0.5\ngini = 0.32\nsamples = 5\nvalue = [4, 1]\nclass = y[0]"] ;
239 -> 240 ;
241 [label="gini = 0.0\nsamples = 1\nvalue = [0, 1]\nclass = y[1]"] ;
240 -> 241 ;
242 [label="gini = 0.0\nsamples = 4\nvalue = [4, 0]\nclass = y[0]"] ;
240 -> 242 ;
243 [label="gini = 0.0\nsamples = 5\nvalue = [0, 5]\nclass = y[1]"] ;
239 -> 243 ;
244 [label="gini = 0.0\nsamples = 14\nvalue = [0, 14]\nclass = y[1]"] ;
238 -> 244 ;
245 [label="X[9] <= 0.869\ngini = 0.012\nsamples = 159\nvalue = [1, 158]\nclass = y[1]"] ;
231 -> 245 ;
246 [label="gini = 0.0\nsamples = 120\nvalue = [0, 120]\nclass = y[1]"] ;
245 -> 246 ;
247 [label="X[0] <= -0.363\ngini = 0.05\nsamples = 39\nvalue = [1, 38]\nclass = y[1]"] ;
245 -> 247 ;
248 [label="X[0] <= -0.391\ngini = 0.18\nsamples = 10\nvalue = [1, 9]\nclass = y[1]"] ;
247 -> 248 ;
249 [label="gini = 0.0\nsamples = 9\nvalue = [0, 9]\nclass = y[1]"] ;
248 -> 249 ;
250 [label="gini = 0.0\nsamples = 1\nvalue = [1, 0]\nclass = y[0]"] ;
248 -> 250 ;
251 [label="gini = 0.0\nsamples = 29\nvalue = [0, 29]\nclass = y[1]"] ;
247 -> 251 ;
252 [label="X[10] <= 0.593\ngini = 0.498\nsamples = 34\nvalue = [18, 16]\nclass = y[0]"] ;
200 -> 252 ;
253 [label="X[6] <= -0.314\ngini = 0.461\nsamples = 25\nvalue = [9, 16]\nclass = y[1]"] ;
252 -> 253 ;
254 [label="X[11] <= 0.5\ngini = 0.278\nsamples = 6\nvalue = [5, 1]\nclass = y[0]"] ;
253 -> 254 ;
255 [label="X[0] <= -0.651\ngini = 0.5\nsamples = 2\nvalue = [1, 1]\nclass = y[0]"] ;
254 -> 255 ;
256 [label="gini = 0.0\nsamples = 1\nvalue = [1, 0]\nclass = y[0]"] ;
255 -> 256 ;
257 [label="gini = 0.0\nsamples = 1\nvalue = [0, 1]\nclass = y[1]"] ;
255 -> 257 ;
258 [label="gini = 0.0\nsamples = 4\nvalue = [4, 0]\nclass = y[0]"] ;
254 -> 258 ;
259 [label="X[23] <= 0.5\ngini = 0.332\nsamples = 19\nvalue = [4, 15]\nclass = y[1]"] ;
253 -> 259 ;
260 [label="X[3] <= 1.909\ngini = 0.142\nsamples = 13\nvalue = [1, 12]\nclass = y[1]"] ;
259 -> 260 ;
261 [label="gini = 0.0\nsamples = 12\nvalue = [0, 12]\nclass = y[1]"] ;
260 -> 261 ;
262 [label="gini = 0.0\nsamples = 1\nvalue = [1, 0]\nclass = y[0]"] ;
260 -> 262 ;
263 [label="X[26] <= 0.5\ngini = 0.5\nsamples = 6\nvalue = [3, 3]\nclass = y[0]"] ;
259 -> 263 ;
264 [label="X[1] <= -0.624\ngini = 0.375\nsamples = 4\nvalue = [1, 3]\nclass = y[1]"] ;
263 -> 264 ;
265 [label="gini = 0.0\nsamples = 2\nvalue = [0, 2]\nclass = y[1]"] ;
264 -> 265 ;
266 [label="X[11] <= 0.5\ngini = 0.5\nsamples = 2\nvalue = [1, 1]\nclass = y[0]"] ;
264 -> 266 ;
267 [label="gini = 0.0\nsamples = 1\nvalue = [1, 0]\nclass = y[0]"] ;
266 -> 267 ;
268 [label="gini = 0.0\nsamples = 1\nvalue = [0, 1]\nclass = y[1]"] ;
266 -> 268 ;
269 [label="gini = 0.0\nsamples = 2\nvalue = [2, 0]\nclass = y[0]"] ;
263 -> 269 ;
270 [label="gini = 0.0\nsamples = 9\nvalue = [9, 0]\nclass = y[0]"] ;
252 -> 270 ;
271 [label="X[7] <= -0.404\ngini = 0.029\nsamples = 17957\nvalue = [17689, 268]\nclass = y[0]"] ;
115 -> 271 ;
272 [label="X[2] <= -0.425\ngini = 0.009\nsamples = 16959\nvalue = [16886, 73]\nclass = y[0]"] ;
271 -> 272 ;
273 [label="X[6] <= -0.577\ngini = 0.086\nsamples = 1088\nvalue = [1039, 49]\nclass = y[0]"] ;
272 -> 273 ;
274 [label="X[21] <= 0.5\ngini = 0.018\nsamples = 983\nvalue = [974, 9]\nclass = y[0]"] ;
273 -> 274 ;
275 [label="X[9] <= 0.869\ngini = 0.008\nsamples = 966\nvalue = [962, 4]\nclass = y[0]"] ;
274 -> 275 ;
276 [label="X[0] <= 0.748\ngini = 0.006\nsamples = 961\nvalue = [958, 3]\nclass = y[0]"] ;
275 -> 276 ;
277 [label="X[9] <= 0.05\ngini = 0.004\nsamples = 951\nvalue = [949, 2]\nclass = y[0]"] ;
276 -> 277 ;
278 [label="X[0] <= -0.224\ngini = 0.002\nsamples = 903\nvalue = [902, 1]\nclass = y[0]"] ;
277 -> 278 ;
279 [label="gini = 0.0\nsamples = 845\nvalue = [845, 0]\nclass = y[0]"] ;
278 -> 279 ;
280 [label="X[0] <= -0.217\ngini = 0.034\nsamples = 58\nvalue = [57, 1]\nclass = y[0]"] ;
278 -> 280 ;
281 [label="X[24] <= 0.5\ngini = 0.5\nsamples = 2\nvalue = [1, 1]\nclass = y[0]"] ;
280 -> 281 ;
282 [label="gini = 0.0\nsamples = 1\nvalue = [1, 0]\nclass = y[0]"] ;
281 -> 282 ;
283 [label="gini = 0.0\nsamples = 1\nvalue = [0, 1]\nclass = y[1]"] ;
281 -> 283 ;
284 [label="gini = 0.0\nsamples = 56\nvalue = [56, 0]\nclass = y[0]"] ;
280 -> 284 ;
285 [label="X[14] <= 0.5\ngini = 0.041\nsamples = 48\nvalue = [47, 1]\nclass = y[0]"] ;
277 -> 285 ;
286 [label="X[6] <= -1.103\ngini = 0.142\nsamples = 13\nvalue = [12, 1]\nclass = y[0]"] ;
285 -> 286 ;
287 [label="X[11] <= 0.5\ngini = 0.375\nsamples = 4\nvalue = [3, 1]\nclass = y[0]"] ;
286 -> 287 ;
288 [label="X[25] <= 0.5\ngini = 0.5\nsamples = 2\nvalue = [1, 1]\nclass = y[0]"] ;
287 -> 288 ;
289 [label="gini = 0.0\nsamples = 1\nvalue = [1, 0]\nclass = y[0]"] ;
288 -> 289 ;
290 [label="gini = 0.0\nsamples = 1\nvalue = [0, 1]\nclass = y[1]"] ;
288 -> 290 ;
291 [label="gini = 0.0\nsamples = 2\nvalue = [2, 0]\nclass = y[0]"] ;
287 -> 291 ;
292 [label="gini = 0.0\nsamples = 9\nvalue = [9, 0]\nclass = y[0]"] ;
286 -> 292 ;
293 [label="gini = 0.0\nsamples = 35\nvalue = [35, 0]\nclass = y[0]"] ;
285 -> 293 ;
294 [label="X[0] <= 0.842\ngini = 0.18\nsamples = 10\nvalue = [9, 1]\nclass = y[0]"] ;
276 -> 294 ;
295 [label="gini = 0.0\nsamples = 1\nvalue = [0, 1]\nclass = y[1]"] ;
294 -> 295 ;
296 [label="gini = 0.0\nsamples = 9\nvalue = [9, 0]\nclass = y[0]"] ;
294 -> 296 ;
297 [label="X[3] <= 0.204\ngini = 0.32\nsamples = 5\nvalue = [4, 1]\nclass = y[0]"] ;
275 -> 297 ;
298 [label="X[25] <= 0.5\ngini = 0.5\nsamples = 2\nvalue = [1, 1]\nclass = y[0]"] ;
297 -> 298 ;
299 [label="gini = 0.0\nsamples = 1\nvalue = [1, 0]\nclass = y[0]"] ;
298 -> 299 ;
300 [label="gini = 0.0\nsamples = 1\nvalue = [0, 1]\nclass = y[1]"] ;
298 -> 300 ;
301 [label="gini = 0.0\nsamples = 3\nvalue = [3, 0]\nclass = y[0]"] ;
297 -> 301 ;
302 [label="X[1] <= -0.089\ngini = 0.415\nsamples = 17\nvalue = [12, 5]\nclass = y[0]"] ;
274 -> 302 ;
303 [label="X[12] <= 0.5\ngini = 0.408\nsamples = 7\nvalue = [2, 5]\nclass = y[1]"] ;
302 -> 303 ;
304 [label="gini = 0.0\nsamples = 5\nvalue = [0, 5]\nclass = y[1]"] ;
303 -> 304 ;
305 [label="gini = 0.0\nsamples = 2\nvalue = [2, 0]\nclass = y[0]"] ;
303 -> 305 ;
306 [label="gini = 0.0\nsamples = 10\nvalue = [10, 0]\nclass = y[0]"] ;
302 -> 306 ;
307 [label="X[3] <= 0.204\ngini = 0.472\nsamples = 105\nvalue = [65, 40]\nclass = y[0]"] ;
273 -> 307 ;
308 [label="X[9] <= -0.77\ngini = 0.483\nsamples = 54\nvalue = [22, 32]\nclass = y[1]"] ;
307 -> 308 ;
309 [label="X[21] <= 0.5\ngini = 0.32\nsamples = 10\nvalue = [8, 2]\nclass = y[0]"] ;
308 -> 309 ;
310 [label="gini = 0.0\nsamples = 7\nvalue = [7, 0]\nclass = y[0]"] ;
309 -> 310 ;
311 [label="X[11] <= 0.5\ngini = 0.444\nsamples = 3\nvalue = [1, 2]\nclass = y[1]"] ;
309 -> 311 ;
312 [label="gini = 0.0\nsamples = 1\nvalue = [1, 0]\nclass = y[0]"] ;
311 -> 312 ;
313 [label="gini = 0.0\nsamples = 2\nvalue = [0, 2]\nclass = y[1]"] ;
311 -> 313 ;
314 [label="X[15] <= 0.5\ngini = 0.434\nsamples = 44\nvalue = [14, 30]\nclass = y[1]"] ;
308 -> 314 ;
315 [label="X[4] <= 0.894\ngini = 0.285\nsamples = 29\nvalue = [5, 24]\nclass = y[1]"] ;
314 -> 315 ;
316 [label="X[0] <= -0.613\ngini = 0.198\nsamples = 27\nvalue = [3, 24]\nclass = y[1]"] ;
315 -> 316 ;
317 [label="X[19] <= 0.5\ngini = 0.5\nsamples = 4\nvalue = [2, 2]\nclass = y[0]"] ;
316 -> 317 ;
318 [label="gini = 0.0\nsamples = 2\nvalue = [0, 2]\nclass = y[1]"] ;
317 -> 318 ;
319 [label="gini = 0.0\nsamples = 2\nvalue = [2, 0]\nclass = y[0]"] ;
317 -> 319 ;
320 [label="X[6] <= -0.051\ngini = 0.083\nsamples = 23\nvalue = [1, 22]\nclass = y[1]"] ;
316 -> 320 ;
321 [label="gini = 0.0\nsamples = 15\nvalue = [0, 15]\nclass = y[1]"] ;
320 -> 321 ;
322 [label="X[0] <= 0.076\ngini = 0.219\nsamples = 8\nvalue = [1, 7]\nclass = y[1]"] ;
320 -> 322 ;
323 [label="X[0] <= 0.039\ngini = 0.444\nsamples = 3\nvalue = [1, 2]\nclass = y[1]"] ;
322 -> 323 ;
324 [label="gini = 0.0\nsamples = 2\nvalue = [0, 2]\nclass = y[1]"] ;
323 -> 324 ;
325 [label="gini = 0.0\nsamples = 1\nvalue = [1, 0]\nclass = y[0]"] ;
323 -> 325 ;
326 [label="gini = 0.0\nsamples = 5\nvalue = [0, 5]\nclass = y[1]"] ;
322 -> 326 ;
327 [label="gini = 0.0\nsamples = 2\nvalue = [2, 0]\nclass = y[0]"] ;
315 -> 327 ;
328 [label="X[1] <= -0.089\ngini = 0.48\nsamples = 15\nvalue = [9, 6]\nclass = y[0]"] ;
314 -> 328 ;
329 [label="X[11] <= 0.5\ngini = 0.496\nsamples = 11\nvalue = [5, 6]\nclass = y[1]"] ;
328 -> 329 ;
330 [label="X[6] <= -0.182\ngini = 0.408\nsamples = 7\nvalue = [5, 2]\nclass = y[0]"] ;
329 -> 330 ;
331 [label="gini = 0.0\nsamples = 5\nvalue = [5, 0]\nclass = y[0]"] ;
330 -> 331 ;
332 [label="gini = 0.0\nsamples = 2\nvalue = [0, 2]\nclass = y[1]"] ;
330 -> 332 ;
333 [label="gini = 0.0\nsamples = 4\nvalue = [0, 4]\nclass = y[1]"] ;
329 -> 333 ;
334 [label="gini = 0.0\nsamples = 4\nvalue = [4, 0]\nclass = y[0]"] ;
328 -> 334 ;
335 [label="X[9] <= 1.689\ngini = 0.265\nsamples = 51\nvalue = [43, 8]\nclass = y[0]"] ;
307 -> 335 ;
336 [label="X[0] <= 1.295\ngini = 0.215\nsamples = 49\nvalue = [43, 6]\nclass = y[0]"] ;
335 -> 336 ;
337 [label="X[8] <= 0.115\ngini = 0.159\nsamples = 46\nvalue = [42, 4]\nclass = y[0]"] ;
336 -> 337 ;
338 [label="X[0] <= 0.804\ngini = 0.095\nsamples = 40\nvalue = [38, 2]\nclass = y[0]"] ;
337 -> 338 ;
339 [label="X[1] <= -0.089\ngini = 0.054\nsamples = 36\nvalue = [35, 1]\nclass = y[0]"] ;
338 -> 339 ;
340 [label="X[0] <= 0.176\ngini = 0.18\nsamples = 10\nvalue = [9, 1]\nclass = y[0]"] ;
339 -> 340 ;
341 [label="gini = 0.0\nsamples = 8\nvalue = [8, 0]\nclass = y[0]"] ;
340 -> 341 ;
342 [label="X[6] <= -0.314\ngini = 0.5\nsamples = 2\nvalue = [1, 1]\nclass = y[0]"] ;
340 -> 342 ;
343 [label="gini = 0.0\nsamples = 1\nvalue = [1, 0]\nclass = y[0]"] ;
342 -> 343 ;
344 [label="gini = 0.0\nsamples = 1\nvalue = [0, 1]\nclass = y[1]"] ;
342 -> 344 ;
345 [label="gini = 0.0\nsamples = 26\nvalue = [26, 0]\nclass = y[0]"] ;
339 -> 345 ;
346 [label="X[24] <= 0.5\ngini = 0.375\nsamples = 4\nvalue = [3, 1]\nclass = y[0]"] ;
338 -> 346 ;
347 [label="gini = 0.0\nsamples = 3\nvalue = [3, 0]\nclass = y[0]"] ;
346 -> 347 ;
348 [label="gini = 0.0\nsamples = 1\nvalue = [0, 1]\nclass = y[1]"] ;
346 -> 348 ;
349 [label="X[20] <= 0.5\ngini = 0.444\nsamples = 6\nvalue = [4, 2]\nclass = y[0]"] ;
337 -> 349 ;
350 [label="gini = 0.0\nsamples = 4\nvalue = [4, 0]\nclass = y[0]"] ;
349 -> 350 ;
351 [label="gini = 0.0\nsamples = 2\nvalue = [0, 2]\nclass = y[1]"] ;
349 -> 351 ;
352 [label="X[24] <= 0.5\ngini = 0.444\nsamples = 3\nvalue = [1, 2]\nclass = y[1]"] ;
336 -> 352 ;
353 [label="gini = 0.0\nsamples = 2\nvalue = [0, 2]\nclass = y[1]"] ;
352 -> 353 ;
354 [label="gini = 0.0\nsamples = 1\nvalue = [1, 0]\nclass = y[0]"] ;
352 -> 354 ;
355 [label="gini = 0.0\nsamples = 2\nvalue = [0, 2]\nclass = y[1]"] ;
335 -> 355 ;
356 [label="X[1] <= 0.178\ngini = 0.003\nsamples = 15871\nvalue = [15847, 24]\nclass = y[0]"] ;
272 -> 356 ;
357 [label="X[21] <= 0.5\ngini = 0.034\nsamples = 691\nvalue = [679, 12]\nclass = y[0]"] ;
356 -> 357 ;
358 [label="X[0] <= -1.408\ngini = 0.006\nsamples = 646\nvalue = [644, 2]\nclass = y[0]"] ;
357 -> 358 ;
359 [label="X[0] <= -1.41\ngini = 0.018\nsamples = 111\nvalue = [110, 1]\nclass = y[0]"] ;
358 -> 359 ;
360 [label="gini = 0.0\nsamples = 110\nvalue = [110, 0]\nclass = y[0]"] ;
359 -> 360 ;
361 [label="gini = 0.0\nsamples = 1\nvalue = [0, 1]\nclass = y[1]"] ;
359 -> 361 ;
362 [label="X[0] <= -0.093\ngini = 0.004\nsamples = 535\nvalue = [534, 1]\nclass = y[0]"] ;
358 -> 362 ;
363 [label="gini = 0.0\nsamples = 400\nvalue = [400, 0]\nclass = y[0]"] ;
362 -> 363 ;
364 [label="X[0] <= -0.088\ngini = 0.015\nsamples = 135\nvalue = [134, 1]\nclass = y[0]"] ;
362 -> 364 ;
365 [label="X[23] <= 0.5\ngini = 0.5\nsamples = 2\nvalue = [1, 1]\nclass = y[0]"] ;
364 -> 365 ;
366 [label="gini = 0.0\nsamples = 1\nvalue = [0, 1]\nclass = y[1]"] ;
365 -> 366 ;
367 [label="gini = 0.0\nsamples = 1\nvalue = [1, 0]\nclass = y[0]"] ;
365 -> 367 ;
368 [label="gini = 0.0\nsamples = 133\nvalue = [133, 0]\nclass = y[0]"] ;
364 -> 368 ;
369 [label="X[23] <= 0.5\ngini = 0.346\nsamples = 45\nvalue = [35, 10]\nclass = y[0]"] ;
357 -> 369 ;
370 [label="X[6] <= -0.84\ngini = 0.159\nsamples = 23\nvalue = [21, 2]\nclass = y[0]"] ;
369 -> 370 ;
371 [label="gini = 0.0\nsamples = 1\nvalue = [0, 1]\nclass = y[1]"] ;
370 -> 371 ;
372 [label="X[5] <= 0.557\ngini = 0.087\nsamples = 22\nvalue = [21, 1]\nclass = y[0]"] ;
370 -> 372 ;
373 [label="gini = 0.0\nsamples = 19\nvalue = [19, 0]\nclass = y[0]"] ;
372 -> 373 ;
374 [label="X[11] <= 0.5\ngini = 0.444\nsamples = 3\nvalue = [2, 1]\nclass = y[0]"] ;
372 -> 374 ;
375 [label="gini = 0.0\nsamples = 1\nvalue = [0, 1]\nclass = y[1]"] ;
374 -> 375 ;
376 [label="gini = 0.0\nsamples = 2\nvalue = [2, 0]\nclass = y[0]"] ;
374 -> 376 ;
377 [label="X[0] <= 0.29\ngini = 0.463\nsamples = 22\nvalue = [14, 8]\nclass = y[0]"] ;
369 -> 377 ;
378 [label="gini = 0.0\nsamples = 7\nvalue = [7, 0]\nclass = y[0]"] ;
377 -> 378 ;
379 [label="X[25] <= 0.5\ngini = 0.498\nsamples = 15\nvalue = [7, 8]\nclass = y[1]"] ;
377 -> 379 ;
380 [label="X[0] <= 0.457\ngini = 0.278\nsamples = 6\nvalue = [5, 1]\nclass = y[0]"] ;
379 -> 380 ;
381 [label="gini = 0.0\nsamples = 1\nvalue = [0, 1]\nclass = y[1]"] ;
380 -> 381 ;
382 [label="gini = 0.0\nsamples = 5\nvalue = [5, 0]\nclass = y[0]"] ;
380 -> 382 ;
383 [label="X[6] <= -0.577\ngini = 0.346\nsamples = 9\nvalue = [2, 7]\nclass = y[1]"] ;
379 -> 383 ;
384 [label="gini = 0.0\nsamples = 1\nvalue = [1, 0]\nclass = y[0]"] ;
383 -> 384 ;
385 [label="X[0] <= 1.366\ngini = 0.219\nsamples = 8\nvalue = [1, 7]\nclass = y[1]"] ;
383 -> 385 ;
386 [label="gini = 0.0\nsamples = 6\nvalue = [0, 6]\nclass = y[1]"] ;
385 -> 386 ;
387 [label="X[1] <= -0.089\ngini = 0.5\nsamples = 2\nvalue = [1, 1]\nclass = y[0]"] ;
385 -> 387 ;
388 [label="gini = 0.0\nsamples = 1\nvalue = [0, 1]\nclass = y[1]"] ;
387 -> 388 ;
389 [label="gini = 0.0\nsamples = 1\nvalue = [1, 0]\nclass = y[0]"] ;
387 -> 389 ;
390 [label="X[8] <= 3.344\ngini = 0.002\nsamples = 15180\nvalue = [15168, 12]\nclass = y[0]"] ;
356 -> 390 ;
391 [label="X[0] <= 1.682\ngini = 0.001\nsamples = 15173\nvalue = [15162, 11]\nclass = y[0]"] ;
390 -> 391 ;
392 [label="X[9] <= 1.689\ngini = 0.001\nsamples = 14792\nvalue = [14786, 6]\nclass = y[0]"] ;
391 -> 392 ;
393 [label="X[8] <= 1.73\ngini = 0.001\nsamples = 14702\nvalue = [14697, 5]\nclass = y[0]"] ;
392 -> 393 ;
394 [label="X[0] <= -1.557\ngini = 0.001\nsamples = 14603\nvalue = [14599, 4]\nclass = y[0]"] ;
393 -> 394 ;
395 [label="X[0] <= -1.559\ngini = 0.006\nsamples = 330\nvalue = [329, 1]\nclass = y[0]"] ;
394 -> 395 ;
396 [label="gini = 0.0\nsamples = 324\nvalue = [324, 0]\nclass = y[0]"] ;
395 -> 396 ;
397 [label="X[11] <= 0.5\ngini = 0.278\nsamples = 6\nvalue = [5, 1]\nclass = y[0]"] ;
395 -> 397 ;
398 [label="X[6] <= -1.366\ngini = 0.5\nsamples = 2\nvalue = [1, 1]\nclass = y[0]"] ;
397 -> 398 ;
399 [label="gini = 0.0\nsamples = 1\nvalue = [0, 1]\nclass = y[1]"] ;
398 -> 399 ;
400 [label="gini = 0.0\nsamples = 1\nvalue = [1, 0]\nclass = y[0]"] ;
398 -> 400 ;
401 [label="gini = 0.0\nsamples = 4\nvalue = [4, 0]\nclass = y[0]"] ;
397 -> 401 ;
402 [label="X[6] <= -0.84\ngini = 0.0\nsamples = 14273\nvalue = [14270, 3]\nclass = y[0]"] ;
394 -> 402 ;
403 [label="gini = 0.0\nsamples = 8603\nvalue = [8603, 0]\nclass = y[0]"] ;
402 -> 403 ;
404 [label="X[0] <= -0.215\ngini = 0.001\nsamples = 5670\nvalue = [5667, 3]\nclass = y[0]"] ;
402 -> 404 ;
405 [label="X[0] <= -0.217\ngini = 0.004\nsamples = 1021\nvalue = [1019, 2]\nclass = y[0]"] ;
404 -> 405 ;
406 [label="X[8] <= 0.115\ngini = 0.002\nsamples = 1011\nvalue = [1010, 1]\nclass = y[0]"] ;
405 -> 406 ;
407 [label="gini = 0.0\nsamples = 955\nvalue = [955, 0]\nclass = y[0]"] ;
406 -> 407 ;
408 [label="X[6] <= -0.314\ngini = 0.035\nsamples = 56\nvalue = [55, 1]\nclass = y[0]"] ;
406 -> 408 ;
409 [label="gini = 0.0\nsamples = 44\nvalue = [44, 0]\nclass = y[0]"] ;
408 -> 409 ;
410 [label="X[9] <= -0.77\ngini = 0.153\nsamples = 12\nvalue = [11, 1]\nclass = y[0]"] ;
408 -> 410 ;
411 [label="X[0] <= -0.372\ngini = 0.375\nsamples = 4\nvalue = [3, 1]\nclass = y[0]"] ;
410 -> 411 ;
412 [label="gini = 0.0\nsamples = 2\nvalue = [2, 0]\nclass = y[0]"] ;
411 -> 412 ;
413 [label="X[5] <= 0.557\ngini = 0.5\nsamples = 2\nvalue = [1, 1]\nclass = y[0]"] ;
411 -> 413 ;
414 [label="gini = 0.0\nsamples = 1\nvalue = [1, 0]\nclass = y[0]"] ;
413 -> 414 ;
415 [label="gini = 0.0\nsamples = 1\nvalue = [0, 1]\nclass = y[1]"] ;
413 -> 415 ;
416 [label="gini = 0.0\nsamples = 8\nvalue = [8, 0]\nclass = y[0]"] ;
410 -> 416 ;
417 [label="X[1] <= 1.248\ngini = 0.18\nsamples = 10\nvalue = [9, 1]\nclass = y[0]"] ;
405 -> 417 ;
418 [label="gini = 0.0\nsamples = 8\nvalue = [8, 0]\nclass = y[0]"] ;
417 -> 418 ;
419 [label="X[11] <= 0.5\ngini = 0.5\nsamples = 2\nvalue = [1, 1]\nclass = y[0]"] ;
417 -> 419 ;
420 [label="gini = 0.0\nsamples = 1\nvalue = [1, 0]\nclass = y[0]"] ;
419 -> 420 ;
421 [label="gini = 0.0\nsamples = 1\nvalue = [0, 1]\nclass = y[1]"] ;
419 -> 421 ;
422 [label="X[1] <= 0.446\ngini = 0.0\nsamples = 4649\nvalue = [4648, 1]\nclass = y[0]"] ;
404 -> 422 ;
423 [label="X[0] <= 0.954\ngini = 0.004\nsamples = 458\nvalue = [457, 1]\nclass = y[0]"] ;
422 -> 423 ;
424 [label="gini = 0.0\nsamples = 402\nvalue = [402, 0]\nclass = y[0]"] ;
423 -> 424 ;
425 [label="X[0] <= 0.964\ngini = 0.035\nsamples = 56\nvalue = [55, 1]\nclass = y[0]"] ;
423 -> 425 ;
426 [label="gini = 0.0\nsamples = 1\nvalue = [0, 1]\nclass = y[1]"] ;
425 -> 426 ;
427 [label="gini = 0.0\nsamples = 55\nvalue = [55, 0]\nclass = y[0]"] ;
425 -> 427 ;
428 [label="gini = 0.0\nsamples = 4191\nvalue = [4191, 0]\nclass = y[0]"] ;
422 -> 428 ;
429 [label="X[2] <= 2.725\ngini = 0.02\nsamples = 99\nvalue = [98, 1]\nclass = y[0]"] ;
393 -> 429 ;
430 [label="gini = 0.0\nsamples = 93\nvalue = [93, 0]\nclass = y[0]"] ;
429 -> 430 ;
431 [label="X[1] <= 1.248\ngini = 0.278\nsamples = 6\nvalue = [5, 1]\nclass = y[0]"] ;
429 -> 431 ;
432 [label="X[23] <= 0.5\ngini = 0.5\nsamples = 2\nvalue = [1, 1]\nclass = y[0]"] ;
431 -> 432 ;
433 [label="gini = 0.0\nsamples = 1\nvalue = [1, 0]\nclass = y[0]"] ;
432 -> 433 ;
434 [label="gini = 0.0\nsamples = 1\nvalue = [0, 1]\nclass = y[1]"] ;
432 -> 434 ;
435 [label="gini = 0.0\nsamples = 4\nvalue = [4, 0]\nclass = y[0]"] ;
431 -> 435 ;
436 [label="X[0] <= 1.215\ngini = 0.022\nsamples = 90\nvalue = [89, 1]\nclass = y[0]"] ;
392 -> 436 ;
437 [label="gini = 0.0\nsamples = 76\nvalue = [76, 0]\nclass = y[0]"] ;
436 -> 437 ;
438 [label="X[1] <= 0.713\ngini = 0.133\nsamples = 14\nvalue = [13, 1]\nclass = y[0]"] ;
436 -> 438 ;
439 [label="gini = 0.0\nsamples = 1\nvalue = [0, 1]\nclass = y[1]"] ;
438 -> 439 ;
440 [label="gini = 0.0\nsamples = 13\nvalue = [13, 0]\nclass = y[0]"] ;
438 -> 440 ;
441 [label="X[1] <= 0.446\ngini = 0.026\nsamples = 381\nvalue = [376, 5]\nclass = y[0]"] ;
391 -> 441 ;
442 [label="X[27] <= 0.5\ngini = 0.36\nsamples = 17\nvalue = [13, 4]\nclass = y[0]"] ;
441 -> 442 ;
443 [label="X[8] <= 0.115\ngini = 0.305\nsamples = 16\nvalue = [13, 3]\nclass = y[0]"] ;
442 -> 443 ;
444 [label="gini = 0.0\nsamples = 6\nvalue = [6, 0]\nclass = y[0]"] ;
443 -> 444 ;
445 [label="X[9] <= 0.869\ngini = 0.42\nsamples = 10\nvalue = [7, 3]\nclass = y[0]"] ;
443 -> 445 ;
446 [label="X[0] <= 1.838\ngini = 0.346\nsamples = 9\nvalue = [7, 2]\nclass = y[0]"] ;
445 -> 446 ;
447 [label="X[0] <= 1.792\ngini = 0.444\nsamples = 6\nvalue = [4, 2]\nclass = y[0]"] ;
446 -> 447 ;
448 [label="X[15] <= 0.5\ngini = 0.32\nsamples = 5\nvalue = [4, 1]\nclass = y[0]"] ;
447 -> 448 ;
449 [label="X[3] <= 0.204\ngini = 0.444\nsamples = 3\nvalue = [2, 1]\nclass = y[0]"] ;
448 -> 449 ;
450 [label="X[4] <= 2.138\ngini = 0.5\nsamples = 2\nvalue = [1, 1]\nclass = y[0]"] ;
449 -> 450 ;
451 [label="gini = 0.0\nsamples = 1\nvalue = [0, 1]\nclass = y[1]"] ;
450 -> 451 ;
452 [label="gini = 0.0\nsamples = 1\nvalue = [1, 0]\nclass = y[0]"] ;
450 -> 452 ;
453 [label="gini = 0.0\nsamples = 1\nvalue = [1, 0]\nclass = y[0]"] ;
449 -> 453 ;
454 [label="gini = 0.0\nsamples = 2\nvalue = [2, 0]\nclass = y[0]"] ;
448 -> 454 ;
455 [label="gini = 0.0\nsamples = 1\nvalue = [0, 1]\nclass = y[1]"] ;
447 -> 455 ;
456 [label="gini = 0.0\nsamples = 3\nvalue = [3, 0]\nclass = y[0]"] ;
446 -> 456 ;
457 [label="gini = 0.0\nsamples = 1\nvalue = [0, 1]\nclass = y[1]"] ;
445 -> 457 ;
458 [label="gini = 0.0\nsamples = 1\nvalue = [0, 1]\nclass = y[1]"] ;
442 -> 458 ;
459 [label="X[0] <= 1.684\ngini = 0.005\nsamples = 364\nvalue = [363, 1]\nclass = y[0]"] ;
441 -> 459 ;
460 [label="X[15] <= 0.5\ngini = 0.444\nsamples = 3\nvalue = [2, 1]\nclass = y[0]"] ;
459 -> 460 ;
461 [label="gini = 0.0\nsamples = 1\nvalue = [0, 1]\nclass = y[1]"] ;
460 -> 461 ;
462 [label="gini = 0.0\nsamples = 2\nvalue = [2, 0]\nclass = y[0]"] ;
460 -> 462 ;
463 [label="gini = 0.0\nsamples = 361\nvalue = [361, 0]\nclass = y[0]"] ;
459 -> 463 ;
464 [label="X[27] <= 0.5\ngini = 0.245\nsamples = 7\nvalue = [6, 1]\nclass = y[0]"] ;
390 -> 464 ;
465 [label="gini = 0.0\nsamples = 6\nvalue = [6, 0]\nclass = y[0]"] ;
464 -> 465 ;
466 [label="gini = 0.0\nsamples = 1\nvalue = [0, 1]\nclass = y[1]"] ;
464 -> 466 ;
467 [label="X[2] <= -0.425\ngini = 0.314\nsamples = 998\nvalue = [803, 195]\nclass = y[0]"] ;
271 -> 467 ;
468 [label="X[0] <= 1.146\ngini = 0.042\nsamples = 94\nvalue = [2, 92]\nclass = y[1]"] ;
467 -> 468 ;
469 [label="gini = 0.0\nsamples = 83\nvalue = [0, 83]\nclass = y[1]"] ;
468 -> 469 ;
470 [label="X[0] <= 1.163\ngini = 0.298\nsamples = 11\nvalue = [2, 9]\nclass = y[1]"] ;
468 -> 470 ;
471 [label="gini = 0.0\nsamples = 1\nvalue = [1, 0]\nclass = y[0]"] ;
470 -> 471 ;
472 [label="X[26] <= 0.5\ngini = 0.18\nsamples = 10\nvalue = [1, 9]\nclass = y[1]"] ;
470 -> 472 ;
473 [label="gini = 0.0\nsamples = 8\nvalue = [0, 8]\nclass = y[1]"] ;
472 -> 473 ;
474 [label="X[12] <= 0.5\ngini = 0.5\nsamples = 2\nvalue = [1, 1]\nclass = y[0]"] ;
472 -> 474 ;
475 [label="gini = 0.0\nsamples = 1\nvalue = [1, 0]\nclass = y[0]"] ;
474 -> 475 ;
476 [label="gini = 0.0\nsamples = 1\nvalue = [0, 1]\nclass = y[1]"] ;
474 -> 476 ;
477 [label="X[17] <= 0.5\ngini = 0.202\nsamples = 904\nvalue = [801, 103]\nclass = y[0]"] ;
467 -> 477 ;
478 [label="X[0] <= -0.206\ngini = 0.038\nsamples = 522\nvalue = [512, 10]\nclass = y[0]"] ;
477 -> 478 ;
479 [label="X[1] <= 0.446\ngini = 0.278\nsamples = 24\nvalue = [20, 4]\nclass = y[0]"] ;
478 -> 479 ;
480 [label="X[3] <= 0.204\ngini = 0.444\nsamples = 6\nvalue = [2, 4]\nclass = y[1]"] ;
479 -> 480 ;
481 [label="gini = 0.0\nsamples = 4\nvalue = [0, 4]\nclass = y[1]"] ;
480 -> 481 ;
482 [label="gini = 0.0\nsamples = 2\nvalue = [2, 0]\nclass = y[0]"] ;
480 -> 482 ;
483 [label="gini = 0.0\nsamples = 18\nvalue = [18, 0]\nclass = y[0]"] ;
479 -> 483 ;
484 [label="X[1] <= 0.713\ngini = 0.024\nsamples = 498\nvalue = [492, 6]\nclass = y[0]"] ;
478 -> 484 ;
485 [label="X[2] <= 1.15\ngini = 0.08\nsamples = 143\nvalue = [137, 6]\nclass = y[0]"] ;
484 -> 485 ;
486 [label="X[0] <= 2.421\ngini = 0.068\nsamples = 142\nvalue = [137, 5]\nclass = y[0]"] ;
485 -> 486 ;
487 [label="X[7] <= 1.176\ngini = 0.056\nsamples = 139\nvalue = [135, 4]\nclass = y[0]"] ;
486 -> 487 ;
488 [label="X[8] <= 0.115\ngini = 0.043\nsamples = 136\nvalue = [133, 3]\nclass = y[0]"] ;
487 -> 488 ;
489 [label="gini = 0.0\nsamples = 92\nvalue = [92, 0]\nclass = y[0]"] ;
488 -> 489 ;
490 [label="X[0] <= 0.087\ngini = 0.127\nsamples = 44\nvalue = [41, 3]\nclass = y[0]"] ;
488 -> 490 ;
491 [label="X[6] <= -0.051\ngini = 0.5\nsamples = 2\nvalue = [1, 1]\nclass = y[0]"] ;
490 -> 491 ;
492 [label="gini = 0.0\nsamples = 1\nvalue = [1, 0]\nclass = y[0]"] ;
491 -> 492 ;
493 [label="gini = 0.0\nsamples = 1\nvalue = [0, 1]\nclass = y[1]"] ;
491 -> 493 ;
494 [label="X[20] <= 0.5\ngini = 0.091\nsamples = 42\nvalue = [40, 2]\nclass = y[0]"] ;
490 -> 494 ;
495 [label="X[2] <= 0.363\ngini = 0.05\nsamples = 39\nvalue = [38, 1]\nclass = y[0]"] ;
494 -> 495 ;
496 [label="gini = 0.0\nsamples = 35\nvalue = [35, 0]\nclass = y[0]"] ;
495 -> 496 ;
497 [label="X[3] <= 0.204\ngini = 0.375\nsamples = 4\nvalue = [3, 1]\nclass = y[0]"] ;
495 -> 497 ;
498 [label="gini = 0.0\nsamples = 1\nvalue = [0, 1]\nclass = y[1]"] ;
497 -> 498 ;
499 [label="gini = 0.0\nsamples = 3\nvalue = [3, 0]\nclass = y[0]"] ;
497 -> 499 ;
500 [label="X[0] <= 0.829\ngini = 0.444\nsamples = 3\nvalue = [2, 1]\nclass = y[0]"] ;
494 -> 500 ;
501 [label="gini = 0.0\nsamples = 1\nvalue = [0, 1]\nclass = y[1]"] ;
500 -> 501 ;
502 [label="gini = 0.0\nsamples = 2\nvalue = [2, 0]\nclass = y[0]"] ;
500 -> 502 ;
503 [label="X[0] <= 1.336\ngini = 0.444\nsamples = 3\nvalue = [2, 1]\nclass = y[0]"] ;
487 -> 503 ;
504 [label="gini = 0.0\nsamples = 1\nvalue = [0, 1]\nclass = y[1]"] ;
503 -> 504 ;
505 [label="gini = 0.0\nsamples = 2\nvalue = [2, 0]\nclass = y[0]"] ;
503 -> 505 ;
506 [label="X[12] <= 0.5\ngini = 0.444\nsamples = 3\nvalue = [2, 1]\nclass = y[0]"] ;
486 -> 506 ;
507 [label="gini = 0.0\nsamples = 2\nvalue = [2, 0]\nclass = y[0]"] ;
506 -> 507 ;
508 [label="gini = 0.0\nsamples = 1\nvalue = [0, 1]\nclass = y[1]"] ;
506 -> 508 ;
509 [label="gini = 0.0\nsamples = 1\nvalue = [0, 1]\nclass = y[1]"] ;
485 -> 509 ;
510 [label="gini = 0.0\nsamples = 355\nvalue = [355, 0]\nclass = y[0]"] ;
484 -> 510 ;
511 [label="X[2] <= 0.363\ngini = 0.368\nsamples = 382\nvalue = [289, 93]\nclass = y[0]"] ;
477 -> 511 ;
512 [label="X[8] <= 0.115\ngini = 0.448\nsamples = 71\nvalue = [24, 47]\nclass = y[1]"] ;
511 -> 512 ;
513 [label="X[0] <= 0.561\ngini = 0.417\nsamples = 27\nvalue = [19, 8]\nclass = y[0]"] ;
512 -> 513 ;
514 [label="X[1] <= -0.089\ngini = 0.198\nsamples = 18\nvalue = [16, 2]\nclass = y[0]"] ;
513 -> 514 ;
515 [label="X[11] <= 0.5\ngini = 0.444\nsamples = 3\nvalue = [1, 2]\nclass = y[1]"] ;
514 -> 515 ;
516 [label="gini = 0.0\nsamples = 1\nvalue = [1, 0]\nclass = y[0]"] ;
515 -> 516 ;
517 [label="gini = 0.0\nsamples = 2\nvalue = [0, 2]\nclass = y[1]"] ;
515 -> 517 ;
518 [label="gini = 0.0\nsamples = 15\nvalue = [15, 0]\nclass = y[0]"] ;
514 -> 518 ;
519 [label="X[0] <= 1.01\ngini = 0.444\nsamples = 9\nvalue = [3, 6]\nclass = y[1]"] ;
513 -> 519 ;
520 [label="gini = 0.0\nsamples = 4\nvalue = [0, 4]\nclass = y[1]"] ;
519 -> 520 ;
521 [label="X[0] <= 1.194\ngini = 0.48\nsamples = 5\nvalue = [3, 2]\nclass = y[0]"] ;
519 -> 521 ;
522 [label="gini = 0.0\nsamples = 2\nvalue = [2, 0]\nclass = y[0]"] ;
521 -> 522 ;
523 [label="X[5] <= 0.557\ngini = 0.444\nsamples = 3\nvalue = [1, 2]\nclass = y[1]"] ;
521 -> 523 ;
524 [label="gini = 0.0\nsamples = 2\nvalue = [0, 2]\nclass = y[1]"] ;
523 -> 524 ;
525 [label="gini = 0.0\nsamples = 1\nvalue = [1, 0]\nclass = y[0]"] ;
523 -> 525 ;
526 [label="X[6] <= -0.314\ngini = 0.201\nsamples = 44\nvalue = [5, 39]\nclass = y[1]"] ;
512 -> 526 ;
527 [label="gini = 0.0\nsamples = 2\nvalue = [2, 0]\nclass = y[0]"] ;
526 -> 527 ;
528 [label="X[6] <= -0.051\ngini = 0.133\nsamples = 42\nvalue = [3, 39]\nclass = y[1]"] ;
526 -> 528 ;
529 [label="X[1] <= 0.446\ngini = 0.444\nsamples = 6\nvalue = [2, 4]\nclass = y[1]"] ;
528 -> 529 ;
530 [label="gini = 0.0\nsamples = 3\nvalue = [0, 3]\nclass = y[1]"] ;
529 -> 530 ;
531 [label="X[0] <= 0.491\ngini = 0.444\nsamples = 3\nvalue = [2, 1]\nclass = y[0]"] ;
529 -> 531 ;
532 [label="gini = 0.0\nsamples = 2\nvalue = [2, 0]\nclass = y[0]"] ;
531 -> 532 ;
533 [label="gini = 0.0\nsamples = 1\nvalue = [0, 1]\nclass = y[1]"] ;
531 -> 533 ;
534 [label="X[27] <= 0.5\ngini = 0.054\nsamples = 36\nvalue = [1, 35]\nclass = y[1]"] ;
528 -> 534 ;
535 [label="gini = 0.0\nsamples = 32\nvalue = [0, 32]\nclass = y[1]"] ;
534 -> 535 ;
536 [label="X[0] <= 0.132\ngini = 0.375\nsamples = 4\nvalue = [1, 3]\nclass = y[1]"] ;
534 -> 536 ;
537 [label="gini = 0.0\nsamples = 1\nvalue = [1, 0]\nclass = y[0]"] ;
536 -> 537 ;
538 [label="gini = 0.0\nsamples = 3\nvalue = [0, 3]\nclass = y[1]"] ;
536 -> 538 ;
539 [label="X[1] <= 0.981\ngini = 0.252\nsamples = 311\nvalue = [265, 46]\nclass = y[0]"] ;
511 -> 539 ;
540 [label="X[5] <= 0.557\ngini = 0.379\nsamples = 134\nvalue = [100, 34]\nclass = y[0]"] ;
539 -> 540 ;
541 [label="X[2] <= 1.15\ngini = 0.294\nsamples = 95\nvalue = [78, 17]\nclass = y[0]"] ;
540 -> 541 ;
542 [label="X[1] <= 0.178\ngini = 0.183\nsamples = 59\nvalue = [53, 6]\nclass = y[0]"] ;
541 -> 542 ;
543 [label="X[4] <= 0.064\ngini = 0.5\nsamples = 4\nvalue = [2, 2]\nclass = y[0]"] ;
542 -> 543 ;
544 [label="gini = 0.0\nsamples = 2\nvalue = [0, 2]\nclass = y[1]"] ;
543 -> 544 ;
545 [label="gini = 0.0\nsamples = 2\nvalue = [2, 0]\nclass = y[0]"] ;
543 -> 545 ;
546 [label="X[7] <= 0.386\ngini = 0.135\nsamples = 55\nvalue = [51, 4]\nclass = y[0]"] ;
542 -> 546 ;
547 [label="X[12] <= 0.5\ngini = 0.107\nsamples = 53\nvalue = [50, 3]\nclass = y[0]"] ;
546 -> 547 ;
548 [label="X[0] <= 1.054\ngini = 0.185\nsamples = 29\nvalue = [26, 3]\nclass = y[0]"] ;
547 -> 548 ;
549 [label="X[0] <= 0.932\ngini = 0.305\nsamples = 16\nvalue = [13, 3]\nclass = y[0]"] ;
548 -> 549 ;
550 [label="X[6] <= -0.051\ngini = 0.133\nsamples = 14\nvalue = [13, 1]\nclass = y[0]"] ;
549 -> 550 ;
551 [label="gini = 0.0\nsamples = 12\nvalue = [12, 0]\nclass = y[0]"] ;
550 -> 551 ;
552 [label="X[3] <= 0.204\ngini = 0.5\nsamples = 2\nvalue = [1, 1]\nclass = y[0]"] ;
550 -> 552 ;
553 [label="gini = 0.0\nsamples = 1\nvalue = [0, 1]\nclass = y[1]"] ;
552 -> 553 ;
554 [label="gini = 0.0\nsamples = 1\nvalue = [1, 0]\nclass = y[0]"] ;
552 -> 554 ;
555 [label="gini = 0.0\nsamples = 2\nvalue = [0, 2]\nclass = y[1]"] ;
549 -> 555 ;
556 [label="gini = 0.0\nsamples = 13\nvalue = [13, 0]\nclass = y[0]"] ;
548 -> 556 ;
557 [label="gini = 0.0\nsamples = 24\nvalue = [24, 0]\nclass = y[0]"] ;
547 -> 557 ;
558 [label="X[21] <= 0.5\ngini = 0.5\nsamples = 2\nvalue = [1, 1]\nclass = y[0]"] ;
546 -> 558 ;
559 [label="gini = 0.0\nsamples = 1\nvalue = [1, 0]\nclass = y[0]"] ;
558 -> 559 ;
560 [label="gini = 0.0\nsamples = 1\nvalue = [0, 1]\nclass = y[1]"] ;
558 -> 560 ;
561 [label="X[4] <= 0.064\ngini = 0.424\nsamples = 36\nvalue = [25, 11]\nclass = y[0]"] ;
541 -> 561 ;
562 [label="X[8] <= 1.73\ngini = 0.496\nsamples = 11\nvalue = [5, 6]\nclass = y[1]"] ;
561 -> 562 ;
563 [label="X[0] <= 1.701\ngini = 0.469\nsamples = 8\nvalue = [5, 3]\nclass = y[0]"] ;
562 -> 563 ;
564 [label="X[15] <= 0.5\ngini = 0.48\nsamples = 5\nvalue = [2, 3]\nclass = y[1]"] ;
563 -> 564 ;
565 [label="gini = 0.0\nsamples = 3\nvalue = [0, 3]\nclass = y[1]"] ;
564 -> 565 ;
566 [label="gini = 0.0\nsamples = 2\nvalue = [2, 0]\nclass = y[0]"] ;
564 -> 566 ;
567 [label="gini = 0.0\nsamples = 3\nvalue = [3, 0]\nclass = y[0]"] ;
563 -> 567 ;
568 [label="gini = 0.0\nsamples = 3\nvalue = [0, 3]\nclass = y[1]"] ;
562 -> 568 ;
569 [label="X[9] <= -0.77\ngini = 0.32\nsamples = 25\nvalue = [20, 5]\nclass = y[0]"] ;
561 -> 569 ;
570 [label="X[8] <= 0.115\ngini = 0.49\nsamples = 7\nvalue = [4, 3]\nclass = y[0]"] ;
569 -> 570 ;
571 [label="gini = 0.0\nsamples = 3\nvalue = [3, 0]\nclass = y[0]"] ;
570 -> 571 ;
572 [label="X[20] <= 0.5\ngini = 0.375\nsamples = 4\nvalue = [1, 3]\nclass = y[1]"] ;
570 -> 572 ;
573 [label="X[12] <= 0.5\ngini = 0.5\nsamples = 2\nvalue = [1, 1]\nclass = y[0]"] ;
572 -> 573 ;
574 [label="gini = 0.0\nsamples = 1\nvalue = [0, 1]\nclass = y[1]"] ;
573 -> 574 ;
575 [label="gini = 0.0\nsamples = 1\nvalue = [1, 0]\nclass = y[0]"] ;
573 -> 575 ;
576 [label="gini = 0.0\nsamples = 2\nvalue = [0, 2]\nclass = y[1]"] ;
572 -> 576 ;
577 [label="X[20] <= 0.5\ngini = 0.198\nsamples = 18\nvalue = [16, 2]\nclass = y[0]"] ;
569 -> 577 ;
578 [label="gini = 0.0\nsamples = 8\nvalue = [8, 0]\nclass = y[0]"] ;
577 -> 578 ;
579 [label="X[15] <= 0.5\ngini = 0.32\nsamples = 10\nvalue = [8, 2]\nclass = y[0]"] ;
577 -> 579 ;
580 [label="X[3] <= 1.909\ngini = 0.444\nsamples = 6\nvalue = [4, 2]\nclass = y[0]"] ;
579 -> 580 ;
581 [label="X[12] <= 0.5\ngini = 0.32\nsamples = 5\nvalue = [4, 1]\nclass = y[0]"] ;
580 -> 581 ;
582 [label="gini = 0.0\nsamples = 1\nvalue = [0, 1]\nclass = y[1]"] ;
581 -> 582 ;
583 [label="gini = 0.0\nsamples = 4\nvalue = [4, 0]\nclass = y[0]"] ;
581 -> 583 ;
584 [label="gini = 0.0\nsamples = 1\nvalue = [0, 1]\nclass = y[1]"] ;
580 -> 584 ;
585 [label="gini = 0.0\nsamples = 4\nvalue = [4, 0]\nclass = y[0]"] ;
579 -> 585 ;
586 [label="X[0] <= 0.339\ngini = 0.492\nsamples = 39\nvalue = [22, 17]\nclass = y[0]"] ;
540 -> 586 ;
587 [label="gini = 0.0\nsamples = 8\nvalue = [8, 0]\nclass = y[0]"] ;
586 -> 587 ;
588 [label="X[19] <= 0.5\ngini = 0.495\nsamples = 31\nvalue = [14, 17]\nclass = y[1]"] ;
586 -> 588 ;
589 [label="X[0] <= 0.543\ngini = 0.477\nsamples = 28\nvalue = [11, 17]\nclass = y[1]"] ;
588 -> 589 ;
590 [label="gini = 0.0\nsamples = 4\nvalue = [0, 4]\nclass = y[1]"] ;
589 -> 590 ;
591 [label="X[0] <= 2.029\ngini = 0.497\nsamples = 24\nvalue = [11, 13]\nclass = y[1]"] ;
589 -> 591 ;
592 [label="X[23] <= 0.5\ngini = 0.495\nsamples = 20\nvalue = [11, 9]\nclass = y[0]"] ;
591 -> 592 ;
593 [label="X[2] <= 1.938\ngini = 0.278\nsamples = 6\nvalue = [5, 1]\nclass = y[0]"] ;
592 -> 593 ;
594 [label="gini = 0.0\nsamples = 5\nvalue = [5, 0]\nclass = y[0]"] ;
593 -> 594 ;
595 [label="gini = 0.0\nsamples = 1\nvalue = [0, 1]\nclass = y[1]"] ;
593 -> 595 ;
596 [label="X[1] <= 0.713\ngini = 0.49\nsamples = 14\nvalue = [6, 8]\nclass = y[1]"] ;
592 -> 596 ;
597 [label="X[9] <= -0.77\ngini = 0.408\nsamples = 7\nvalue = [5, 2]\nclass = y[0]"] ;
596 -> 597 ;
598 [label="gini = 0.0\nsamples = 5\nvalue = [5, 0]\nclass = y[0]"] ;
597 -> 598 ;
599 [label="gini = 0.0\nsamples = 2\nvalue = [0, 2]\nclass = y[1]"] ;
597 -> 599 ;
600 [label="X[0] <= 1.569\ngini = 0.245\nsamples = 7\nvalue = [1, 6]\nclass = y[1]"] ;
596 -> 600 ;
601 [label="gini = 0.0\nsamples = 6\nvalue = [0, 6]\nclass = y[1]"] ;
600 -> 601 ;
602 [label="gini = 0.0\nsamples = 1\nvalue = [1, 0]\nclass = y[0]"] ;
600 -> 602 ;
603 [label="gini = 0.0\nsamples = 4\nvalue = [0, 4]\nclass = y[1]"] ;
591 -> 603 ;
604 [label="gini = 0.0\nsamples = 3\nvalue = [3, 0]\nclass = y[0]"] ;
588 -> 604 ;
605 [label="X[2] <= 6.664\ngini = 0.126\nsamples = 177\nvalue = [165, 12]\nclass = y[0]"] ;
539 -> 605 ;
606 [label="X[0] <= 2.753\ngini = 0.117\nsamples = 176\nvalue = [165, 11]\nclass = y[0]"] ;
605 -> 606 ;
607 [label="X[0] <= 1.557\ngini = 0.094\nsamples = 161\nvalue = [153, 8]\nclass = y[0]"] ;
606 -> 607 ;
608 [label="X[0] <= 0.724\ngini = 0.137\nsamples = 108\nvalue = [100, 8]\nclass = y[0]"] ;
607 -> 608 ;
609 [label="gini = 0.0\nsamples = 46\nvalue = [46, 0]\nclass = y[0]"] ;
608 -> 609 ;
610 [label="X[0] <= 0.737\ngini = 0.225\nsamples = 62\nvalue = [54, 8]\nclass = y[0]"] ;
608 -> 610 ;
611 [label="X[1] <= 1.248\ngini = 0.444\nsamples = 3\nvalue = [1, 2]\nclass = y[1]"] ;
610 -> 611 ;
612 [label="gini = 0.0\nsamples = 2\nvalue = [0, 2]\nclass = y[1]"] ;
611 -> 612 ;
613 [label="gini = 0.0\nsamples = 1\nvalue = [1, 0]\nclass = y[0]"] ;
611 -> 613 ;
614 [label="X[0] <= 1.464\ngini = 0.183\nsamples = 59\nvalue = [53, 6]\nclass = y[0]"] ;
610 -> 614 ;
615 [label="X[20] <= 0.5\ngini = 0.14\nsamples = 53\nvalue = [49, 4]\nclass = y[0]"] ;
614 -> 615 ;
616 [label="gini = 0.0\nsamples = 23\nvalue = [23, 0]\nclass = y[0]"] ;
615 -> 616 ;
617 [label="X[8] <= 0.115\ngini = 0.231\nsamples = 30\nvalue = [26, 4]\nclass = y[0]"] ;
615 -> 617 ;
618 [label="X[2] <= 1.15\ngini = 0.087\nsamples = 22\nvalue = [21, 1]\nclass = y[0]"] ;
617 -> 618 ;
619 [label="X[24] <= 0.5\ngini = 0.5\nsamples = 2\nvalue = [1, 1]\nclass = y[0]"] ;
618 -> 619 ;
620 [label="gini = 0.0\nsamples = 1\nvalue = [1, 0]\nclass = y[0]"] ;
619 -> 620 ;
621 [label="gini = 0.0\nsamples = 1\nvalue = [0, 1]\nclass = y[1]"] ;
619 -> 621 ;
622 [label="gini = 0.0\nsamples = 20\nvalue = [20, 0]\nclass = y[0]"] ;
618 -> 622 ;
623 [label="X[0] <= 1.176\ngini = 0.469\nsamples = 8\nvalue = [5, 3]\nclass = y[0]"] ;
617 -> 623 ;
624 [label="gini = 0.0\nsamples = 2\nvalue = [0, 2]\nclass = y[1]"] ;
623 -> 624 ;
625 [label="X[0] <= 1.388\ngini = 0.278\nsamples = 6\nvalue = [5, 1]\nclass = y[0]"] ;
623 -> 625 ;
626 [label="gini = 0.0\nsamples = 4\nvalue = [4, 0]\nclass = y[0]"] ;
625 -> 626 ;
627 [label="X[0] <= 1.424\ngini = 0.5\nsamples = 2\nvalue = [1, 1]\nclass = y[0]"] ;
625 -> 627 ;
628 [label="gini = 0.0\nsamples = 1\nvalue = [0, 1]\nclass = y[1]"] ;
627 -> 628 ;
629 [label="gini = 0.0\nsamples = 1\nvalue = [1, 0]\nclass = y[0]"] ;
627 -> 629 ;
630 [label="X[24] <= 0.5\ngini = 0.444\nsamples = 6\nvalue = [4, 2]\nclass = y[0]"] ;
614 -> 630 ;
631 [label="gini = 0.0\nsamples = 3\nvalue = [3, 0]\nclass = y[0]"] ;
630 -> 631 ;
632 [label="X[4] <= -0.351\ngini = 0.444\nsamples = 3\nvalue = [1, 2]\nclass = y[1]"] ;
630 -> 632 ;
633 [label="gini = 0.0\nsamples = 1\nvalue = [1, 0]\nclass = y[0]"] ;
632 -> 633 ;
634 [label="gini = 0.0\nsamples = 2\nvalue = [0, 2]\nclass = y[1]"] ;
632 -> 634 ;
635 [label="gini = 0.0\nsamples = 53\nvalue = [53, 0]\nclass = y[0]"] ;
607 -> 635 ;
636 [label="X[0] <= 2.853\ngini = 0.32\nsamples = 15\nvalue = [12, 3]\nclass = y[0]"] ;
606 -> 636 ;
637 [label="X[14] <= 0.5\ngini = 0.444\nsamples = 3\nvalue = [1, 2]\nclass = y[1]"] ;
636 -> 637 ;
638 [label="gini = 0.0\nsamples = 1\nvalue = [1, 0]\nclass = y[0]"] ;
637 -> 638 ;
639 [label="gini = 0.0\nsamples = 2\nvalue = [0, 2]\nclass = y[1]"] ;
637 -> 639 ;
640 [label="X[9] <= 0.869\ngini = 0.153\nsamples = 12\nvalue = [11, 1]\nclass = y[0]"] ;
636 -> 640 ;
641 [label="gini = 0.0\nsamples = 9\nvalue = [9, 0]\nclass = y[0]"] ;
640 -> 641 ;
642 [label="X[24] <= 0.5\ngini = 0.444\nsamples = 3\nvalue = [2, 1]\nclass = y[0]"] ;
640 -> 642 ;
643 [label="gini = 0.0\nsamples = 1\nvalue = [0, 1]\nclass = y[1]"] ;
642 -> 643 ;
644 [label="gini = 0.0\nsamples = 2\nvalue = [2, 0]\nclass = y[0]"] ;
642 -> 644 ;
645 [label="gini = 0.0\nsamples = 1\nvalue = [0, 1]\nclass = y[1]"] ;
605 -> 645 ;
646 [label="X[1] <= 0.446\ngini = 0.152\nsamples = 19005\nvalue = [1576, 17429]\nclass = y[1]"] ;
0 -> 646 [labeldistance=2.5, labelangle=-45, headlabel="False"] ;
647 [label="X[1] <= 0.178\ngini = 0.038\nsamples = 16928\nvalue = [327, 16601]\nclass = y[1]"] ;
646 -> 647 ;
648 [label="X[2] <= -0.425\ngini = 0.011\nsamples = 15951\nvalue = [86, 15865]\nclass = y[1]"] ;
647 -> 648 ;
649 [label="X[6] <= 0.475\ngini = 0.001\nsamples = 14995\nvalue = [8, 14987]\nclass = y[1]"] ;
648 -> 649 ;
650 [label="X[7] <= 1.176\ngini = 0.008\nsamples = 1529\nvalue = [6, 1523]\nclass = y[1]"] ;
649 -> 650 ;
651 [label="X[0] <= 1.188\ngini = 0.007\nsamples = 1524\nvalue = [5, 1519]\nclass = y[1]"] ;
650 -> 651 ;
652 [label="X[0] <= 0.853\ngini = 0.004\nsamples = 1472\nvalue = [3, 1469]\nclass = y[1]"] ;
651 -> 652 ;
653 [label="X[0] <= -0.277\ngini = 0.003\nsamples = 1393\nvalue = [2, 1391]\nclass = y[1]"] ;
652 -> 653 ;
654 [label="gini = 0.0\nsamples = 788\nvalue = [0, 788]\nclass = y[1]"] ;
653 -> 654 ;
655 [label="X[0] <= -0.275\ngini = 0.007\nsamples = 605\nvalue = [2, 603]\nclass = y[1]"] ;
653 -> 655 ;
656 [label="X[21] <= 0.5\ngini = 0.444\nsamples = 3\nvalue = [1, 2]\nclass = y[1]"] ;
655 -> 656 ;
657 [label="gini = 0.0\nsamples = 1\nvalue = [1, 0]\nclass = y[0]"] ;
656 -> 657 ;
658 [label="gini = 0.0\nsamples = 2\nvalue = [0, 2]\nclass = y[1]"] ;
656 -> 658 ;
659 [label="X[16] <= 0.5\ngini = 0.003\nsamples = 602\nvalue = [1, 601]\nclass = y[1]"] ;
655 -> 659 ;
660 [label="gini = 0.0\nsamples = 569\nvalue = [0, 569]\nclass = y[1]"] ;
659 -> 660 ;
661 [label="X[0] <= -0.094\ngini = 0.059\nsamples = 33\nvalue = [1, 32]\nclass = y[1]"] ;
659 -> 661 ;
662 [label="X[0] <= -0.127\ngini = 0.198\nsamples = 9\nvalue = [1, 8]\nclass = y[1]"] ;
661 -> 662 ;
663 [label="gini = 0.0\nsamples = 8\nvalue = [0, 8]\nclass = y[1]"] ;
662 -> 663 ;
664 [label="gini = 0.0\nsamples = 1\nvalue = [1, 0]\nclass = y[0]"] ;
662 -> 664 ;
665 [label="gini = 0.0\nsamples = 24\nvalue = [0, 24]\nclass = y[1]"] ;
661 -> 665 ;
666 [label="X[0] <= 0.859\ngini = 0.025\nsamples = 79\nvalue = [1, 78]\nclass = y[1]"] ;
652 -> 666 ;
667 [label="X[8] <= 0.115\ngini = 0.444\nsamples = 3\nvalue = [1, 2]\nclass = y[1]"] ;
666 -> 667 ;
668 [label="gini = 0.0\nsamples = 2\nvalue = [0, 2]\nclass = y[1]"] ;
667 -> 668 ;
669 [label="gini = 0.0\nsamples = 1\nvalue = [1, 0]\nclass = y[0]"] ;
667 -> 669 ;
670 [label="gini = 0.0\nsamples = 76\nvalue = [0, 76]\nclass = y[1]"] ;
666 -> 670 ;
671 [label="X[0] <= 1.193\ngini = 0.074\nsamples = 52\nvalue = [2, 50]\nclass = y[1]"] ;
651 -> 671 ;
672 [label="X[8] <= 0.115\ngini = 0.5\nsamples = 2\nvalue = [1, 1]\nclass = y[0]"] ;
671 -> 672 ;
673 [label="gini = 0.0\nsamples = 1\nvalue = [0, 1]\nclass = y[1]"] ;
672 -> 673 ;
674 [label="gini = 0.0\nsamples = 1\nvalue = [1, 0]\nclass = y[0]"] ;
672 -> 674 ;
675 [label="X[4] <= -0.765\ngini = 0.039\nsamples = 50\nvalue = [1, 49]\nclass = y[1]"] ;
671 -> 675 ;
676 [label="X[10] <= 0.593\ngini = 0.32\nsamples = 5\nvalue = [1, 4]\nclass = y[1]"] ;
675 -> 676 ;
677 [label="gini = 0.0\nsamples = 3\nvalue = [0, 3]\nclass = y[1]"] ;
676 -> 677 ;
678 [label="X[8] <= 1.73\ngini = 0.5\nsamples = 2\nvalue = [1, 1]\nclass = y[0]"] ;
676 -> 678 ;
679 [label="gini = 0.0\nsamples = 1\nvalue = [1, 0]\nclass = y[0]"] ;
678 -> 679 ;
680 [label="gini = 0.0\nsamples = 1\nvalue = [0, 1]\nclass = y[1]"] ;
678 -> 680 ;
681 [label="gini = 0.0\nsamples = 45\nvalue = [0, 45]\nclass = y[1]"] ;
675 -> 681 ;
682 [label="X[4] <= 0.894\ngini = 0.32\nsamples = 5\nvalue = [1, 4]\nclass = y[1]"] ;
650 -> 682 ;
683 [label="gini = 0.0\nsamples = 4\nvalue = [0, 4]\nclass = y[1]"] ;
682 -> 683 ;
684 [label="gini = 0.0\nsamples = 1\nvalue = [1, 0]\nclass = y[0]"] ;
682 -> 684 ;
685 [label="X[0] <= 1.803\ngini = 0.0\nsamples = 13466\nvalue = [2, 13464]\nclass = y[1]"] ;
649 -> 685 ;
686 [label="X[1] <= -0.089\ngini = 0.0\nsamples = 13184\nvalue = [1, 13183]\nclass = y[1]"] ;
685 -> 686 ;
687 [label="gini = 0.0\nsamples = 12721\nvalue = [0, 12721]\nclass = y[1]"] ;
686 -> 687 ;
688 [label="X[7] <= 1.176\ngini = 0.004\nsamples = 463\nvalue = [1, 462]\nclass = y[1]"] ;
686 -> 688 ;
689 [label="gini = 0.0\nsamples = 352\nvalue = [0, 352]\nclass = y[1]"] ;
688 -> 689 ;
690 [label="X[6] <= 0.738\ngini = 0.018\nsamples = 111\nvalue = [1, 110]\nclass = y[1]"] ;
688 -> 690 ;
691 [label="X[25] <= 0.5\ngini = 0.32\nsamples = 5\nvalue = [1, 4]\nclass = y[1]"] ;
690 -> 691 ;
692 [label="gini = 0.0\nsamples = 4\nvalue = [0, 4]\nclass = y[1]"] ;
691 -> 692 ;
693 [label="gini = 0.0\nsamples = 1\nvalue = [1, 0]\nclass = y[0]"] ;
691 -> 693 ;
694 [label="gini = 0.0\nsamples = 106\nvalue = [0, 106]\nclass = y[1]"] ;
690 -> 694 ;
695 [label="X[0] <= 1.806\ngini = 0.007\nsamples = 282\nvalue = [1, 281]\nclass = y[1]"] ;
685 -> 695 ;
696 [label="gini = 0.0\nsamples = 1\nvalue = [1, 0]\nclass = y[0]"] ;
695 -> 696 ;
697 [label="gini = 0.0\nsamples = 281\nvalue = [0, 281]\nclass = y[1]"] ;
695 -> 697 ;
698 [label="X[7] <= -0.404\ngini = 0.15\nsamples = 956\nvalue = [78, 878]\nclass = y[1]"] ;
648 -> 698 ;
699 [label="X[6] <= 0.738\ngini = 0.32\nsamples = 10\nvalue = [8, 2]\nclass = y[0]"] ;
698 -> 699 ;
700 [label="X[4] <= -0.765\ngini = 0.198\nsamples = 9\nvalue = [8, 1]\nclass = y[0]"] ;
699 -> 700 ;
701 [label="gini = 0.0\nsamples = 1\nvalue = [0, 1]\nclass = y[1]"] ;
700 -> 701 ;
702 [label="gini = 0.0\nsamples = 8\nvalue = [8, 0]\nclass = y[0]"] ;
700 -> 702 ;
703 [label="gini = 0.0\nsamples = 1\nvalue = [0, 1]\nclass = y[1]"] ;
699 -> 703 ;
704 [label="X[18] <= 0.5\ngini = 0.137\nsamples = 946\nvalue = [70, 876]\nclass = y[1]"] ;
698 -> 704 ;
705 [label="X[2] <= 0.363\ngini = 0.018\nsamples = 555\nvalue = [5, 550]\nclass = y[1]"] ;
704 -> 705 ;
706 [label="X[3] <= 0.204\ngini = 0.009\nsamples = 454\nvalue = [2, 452]\nclass = y[1]"] ;
705 -> 706 ;
707 [label="gini = 0.0\nsamples = 314\nvalue = [0, 314]\nclass = y[1]"] ;
706 -> 707 ;
708 [label="X[20] <= 0.5\ngini = 0.028\nsamples = 140\nvalue = [2, 138]\nclass = y[1]"] ;
706 -> 708 ;
709 [label="X[0] <= 0.615\ngini = 0.114\nsamples = 33\nvalue = [2, 31]\nclass = y[1]"] ;
708 -> 709 ;
710 [label="gini = 0.0\nsamples = 1\nvalue = [1, 0]\nclass = y[0]"] ;
709 -> 710 ;
711 [label="X[0] <= 0.978\ngini = 0.061\nsamples = 32\nvalue = [1, 31]\nclass = y[1]"] ;
709 -> 711 ;
712 [label="X[0] <= 0.959\ngini = 0.375\nsamples = 4\nvalue = [1, 3]\nclass = y[1]"] ;
711 -> 712 ;
713 [label="gini = 0.0\nsamples = 3\nvalue = [0, 3]\nclass = y[1]"] ;
712 -> 713 ;
714 [label="gini = 0.0\nsamples = 1\nvalue = [1, 0]\nclass = y[0]"] ;
712 -> 714 ;
715 [label="gini = 0.0\nsamples = 28\nvalue = [0, 28]\nclass = y[1]"] ;
711 -> 715 ;
716 [label="gini = 0.0\nsamples = 107\nvalue = [0, 107]\nclass = y[1]"] ;
708 -> 716 ;
717 [label="X[27] <= 0.5\ngini = 0.058\nsamples = 101\nvalue = [3, 98]\nclass = y[1]"] ;
705 -> 717 ;
718 [label="gini = 0.0\nsamples = 81\nvalue = [0, 81]\nclass = y[1]"] ;
717 -> 718 ;
719 [label="X[8] <= 0.115\ngini = 0.255\nsamples = 20\nvalue = [3, 17]\nclass = y[1]"] ;
717 -> 719 ;
720 [label="X[6] <= 0.475\ngini = 0.5\nsamples = 4\nvalue = [2, 2]\nclass = y[0]"] ;
719 -> 720 ;
721 [label="gini = 0.0\nsamples = 1\nvalue = [0, 1]\nclass = y[1]"] ;
720 -> 721 ;
722 [label="X[6] <= 0.87\ngini = 0.444\nsamples = 3\nvalue = [2, 1]\nclass = y[0]"] ;
720 -> 722 ;
723 [label="gini = 0.0\nsamples = 2\nvalue = [2, 0]\nclass = y[0]"] ;
722 -> 723 ;
724 [label="gini = 0.0\nsamples = 1\nvalue = [0, 1]\nclass = y[1]"] ;
722 -> 724 ;
725 [label="X[9] <= 1.689\ngini = 0.117\nsamples = 16\nvalue = [1, 15]\nclass = y[1]"] ;
719 -> 725 ;
726 [label="gini = 0.0\nsamples = 11\nvalue = [0, 11]\nclass = y[1]"] ;
725 -> 726 ;
727 [label="X[11] <= 0.5\ngini = 0.32\nsamples = 5\nvalue = [1, 4]\nclass = y[1]"] ;
725 -> 727 ;
728 [label="gini = 0.0\nsamples = 1\nvalue = [1, 0]\nclass = y[0]"] ;
727 -> 728 ;
729 [label="gini = 0.0\nsamples = 4\nvalue = [0, 4]\nclass = y[1]"] ;
727 -> 729 ;
730 [label="X[7] <= 0.386\ngini = 0.277\nsamples = 391\nvalue = [65, 326]\nclass = y[1]"] ;
704 -> 730 ;
731 [label="X[3] <= 0.204\ngini = 0.493\nsamples = 66\nvalue = [29, 37]\nclass = y[1]"] ;
730 -> 731 ;
732 [label="X[0] <= 0.963\ngini = 0.219\nsamples = 32\nvalue = [4, 28]\nclass = y[1]"] ;
731 -> 732 ;
733 [label="X[0] <= 0.756\ngini = 0.071\nsamples = 27\nvalue = [1, 26]\nclass = y[1]"] ;
732 -> 733 ;
734 [label="gini = 0.0\nsamples = 22\nvalue = [0, 22]\nclass = y[1]"] ;
733 -> 734 ;
735 [label="X[0] <= 0.836\ngini = 0.32\nsamples = 5\nvalue = [1, 4]\nclass = y[1]"] ;
733 -> 735 ;
736 [label="gini = 0.0\nsamples = 1\nvalue = [1, 0]\nclass = y[0]"] ;
735 -> 736 ;
737 [label="gini = 0.0\nsamples = 4\nvalue = [0, 4]\nclass = y[1]"] ;
735 -> 737 ;
738 [label="X[0] <= 1.231\ngini = 0.48\nsamples = 5\nvalue = [3, 2]\nclass = y[0]"] ;
732 -> 738 ;
739 [label="gini = 0.0\nsamples = 2\nvalue = [2, 0]\nclass = y[0]"] ;
738 -> 739 ;
740 [label="X[9] <= 0.05\ngini = 0.444\nsamples = 3\nvalue = [1, 2]\nclass = y[1]"] ;
738 -> 740 ;
741 [label="gini = 0.0\nsamples = 1\nvalue = [1, 0]\nclass = y[0]"] ;
740 -> 741 ;
742 [label="gini = 0.0\nsamples = 2\nvalue = [0, 2]\nclass = y[1]"] ;
740 -> 742 ;
743 [label="X[0] <= 0.521\ngini = 0.389\nsamples = 34\nvalue = [25, 9]\nclass = y[0]"] ;
731 -> 743 ;
744 [label="gini = 0.0\nsamples = 12\nvalue = [12, 0]\nclass = y[0]"] ;
743 -> 744 ;
745 [label="X[26] <= 0.5\ngini = 0.483\nsamples = 22\nvalue = [13, 9]\nclass = y[0]"] ;
743 -> 745 ;
746 [label="X[8] <= 0.115\ngini = 0.432\nsamples = 19\nvalue = [13, 6]\nclass = y[0]"] ;
745 -> 746 ;
747 [label="X[6] <= 0.475\ngini = 0.5\nsamples = 12\nvalue = [6, 6]\nclass = y[0]"] ;
746 -> 747 ;
748 [label="X[15] <= 0.5\ngini = 0.278\nsamples = 6\nvalue = [5, 1]\nclass = y[0]"] ;
747 -> 748 ;
749 [label="gini = 0.0\nsamples = 1\nvalue = [0, 1]\nclass = y[1]"] ;
748 -> 749 ;
750 [label="gini = 0.0\nsamples = 5\nvalue = [5, 0]\nclass = y[0]"] ;
748 -> 750 ;
751 [label="X[4] <= 0.064\ngini = 0.278\nsamples = 6\nvalue = [1, 5]\nclass = y[1]"] ;
747 -> 751 ;
752 [label="gini = 0.0\nsamples = 4\nvalue = [0, 4]\nclass = y[1]"] ;
751 -> 752 ;
753 [label="X[9] <= 0.05\ngini = 0.5\nsamples = 2\nvalue = [1, 1]\nclass = y[0]"] ;
751 -> 753 ;
754 [label="gini = 0.0\nsamples = 1\nvalue = [0, 1]\nclass = y[1]"] ;
753 -> 754 ;
755 [label="gini = 0.0\nsamples = 1\nvalue = [1, 0]\nclass = y[0]"] ;
753 -> 755 ;
756 [label="gini = 0.0\nsamples = 7\nvalue = [7, 0]\nclass = y[0]"] ;
746 -> 756 ;
757 [label="gini = 0.0\nsamples = 3\nvalue = [0, 3]\nclass = y[1]"] ;
745 -> 757 ;
758 [label="X[1] <= -0.089\ngini = 0.197\nsamples = 325\nvalue = [36, 289]\nclass = y[1]"] ;
730 -> 758 ;
759 [label="X[20] <= 0.5\ngini = 0.079\nsamples = 145\nvalue = [6, 139]\nclass = y[1]"] ;
758 -> 759 ;
760 [label="X[6] <= 0.738\ngini = 0.02\nsamples = 100\nvalue = [1, 99]\nclass = y[1]"] ;
759 -> 760 ;
761 [label="X[4] <= -0.765\ngini = 0.219\nsamples = 8\nvalue = [1, 7]\nclass = y[1]"] ;
760 -> 761 ;
762 [label="X[15] <= 0.5\ngini = 0.5\nsamples = 2\nvalue = [1, 1]\nclass = y[0]"] ;
761 -> 762 ;
763 [label="gini = 0.0\nsamples = 1\nvalue = [1, 0]\nclass = y[0]"] ;
762 -> 763 ;
764 [label="gini = 0.0\nsamples = 1\nvalue = [0, 1]\nclass = y[1]"] ;
762 -> 764 ;
765 [label="gini = 0.0\nsamples = 6\nvalue = [0, 6]\nclass = y[1]"] ;
761 -> 765 ;
766 [label="gini = 0.0\nsamples = 92\nvalue = [0, 92]\nclass = y[1]"] ;
760 -> 766 ;
767 [label="X[4] <= 0.064\ngini = 0.198\nsamples = 45\nvalue = [5, 40]\nclass = y[1]"] ;
759 -> 767 ;
768 [label="X[0] <= 0.943\ngini = 0.32\nsamples = 25\nvalue = [5, 20]\nclass = y[1]"] ;
767 -> 768 ;
769 [label="X[0] <= 0.333\ngini = 0.124\nsamples = 15\nvalue = [1, 14]\nclass = y[1]"] ;
768 -> 769 ;
770 [label="X[0] <= 0.208\ngini = 0.278\nsamples = 6\nvalue = [1, 5]\nclass = y[1]"] ;
769 -> 770 ;
771 [label="gini = 0.0\nsamples = 5\nvalue = [0, 5]\nclass = y[1]"] ;
770 -> 771 ;
772 [label="gini = 0.0\nsamples = 1\nvalue = [1, 0]\nclass = y[0]"] ;
770 -> 772 ;
773 [label="gini = 0.0\nsamples = 9\nvalue = [0, 9]\nclass = y[1]"] ;
769 -> 773 ;
774 [label="X[7] <= 1.176\ngini = 0.48\nsamples = 10\nvalue = [4, 6]\nclass = y[1]"] ;
768 -> 774 ;
775 [label="gini = 0.0\nsamples = 3\nvalue = [3, 0]\nclass = y[0]"] ;
774 -> 775 ;
776 [label="X[9] <= 1.279\ngini = 0.245\nsamples = 7\nvalue = [1, 6]\nclass = y[1]"] ;
774 -> 776 ;
777 [label="gini = 0.0\nsamples = 1\nvalue = [1, 0]\nclass = y[0]"] ;
776 -> 777 ;
778 [label="gini = 0.0\nsamples = 6\nvalue = [0, 6]\nclass = y[1]"] ;
776 -> 778 ;
779 [label="gini = 0.0\nsamples = 20\nvalue = [0, 20]\nclass = y[1]"] ;
767 -> 779 ;
780 [label="X[9] <= 2.509\ngini = 0.278\nsamples = 180\nvalue = [30, 150]\nclass = y[1]"] ;
758 -> 780 ;
781 [label="X[27] <= 0.5\ngini = 0.247\nsamples = 166\nvalue = [24, 142]\nclass = y[1]"] ;
780 -> 781 ;
782 [label="X[7] <= 5.127\ngini = 0.157\nsamples = 105\nvalue = [9, 96]\nclass = y[1]"] ;
781 -> 782 ;
783 [label="X[3] <= 0.204\ngini = 0.142\nsamples = 104\nvalue = [8, 96]\nclass = y[1]"] ;
782 -> 783 ;
784 [label="X[4] <= -0.765\ngini = 0.042\nsamples = 47\nvalue = [1, 46]\nclass = y[1]"] ;
783 -> 784 ;
785 [label="X[0] <= 0.776\ngini = 0.219\nsamples = 8\nvalue = [1, 7]\nclass = y[1]"] ;
784 -> 785 ;
786 [label="gini = 0.0\nsamples = 6\nvalue = [0, 6]\nclass = y[1]"] ;
785 -> 786 ;
787 [label="X[14] <= 0.5\ngini = 0.5\nsamples = 2\nvalue = [1, 1]\nclass = y[0]"] ;
785 -> 787 ;
788 [label="gini = 0.0\nsamples = 1\nvalue = [1, 0]\nclass = y[0]"] ;
787 -> 788 ;
789 [label="gini = 0.0\nsamples = 1\nvalue = [0, 1]\nclass = y[1]"] ;
787 -> 789 ;
790 [label="gini = 0.0\nsamples = 39\nvalue = [0, 39]\nclass = y[1]"] ;
784 -> 790 ;
791 [label="X[0] <= 1.4\ngini = 0.215\nsamples = 57\nvalue = [7, 50]\nclass = y[1]"] ;
783 -> 791 ;
792 [label="X[4] <= 0.064\ngini = 0.328\nsamples = 29\nvalue = [6, 23]\nclass = y[1]"] ;
791 -> 792 ;
793 [label="X[7] <= 1.966\ngini = 0.18\nsamples = 20\nvalue = [2, 18]\nclass = y[1]"] ;
792 -> 793 ;
794 [label="gini = 0.0\nsamples = 14\nvalue = [0, 14]\nclass = y[1]"] ;
793 -> 794 ;
795 [label="X[0] <= 0.98\ngini = 0.444\nsamples = 6\nvalue = [2, 4]\nclass = y[1]"] ;
793 -> 795 ;
796 [label="gini = 0.0\nsamples = 2\nvalue = [2, 0]\nclass = y[0]"] ;
795 -> 796 ;
797 [label="gini = 0.0\nsamples = 4\nvalue = [0, 4]\nclass = y[1]"] ;
795 -> 797 ;
798 [label="X[4] <= 0.894\ngini = 0.494\nsamples = 9\nvalue = [4, 5]\nclass = y[1]"] ;
792 -> 798 ;
799 [label="X[24] <= 0.5\ngini = 0.444\nsamples = 6\nvalue = [4, 2]\nclass = y[0]"] ;
798 -> 799 ;
800 [label="gini = 0.0\nsamples = 3\nvalue = [3, 0]\nclass = y[0]"] ;
799 -> 800 ;
801 [label="X[0] <= 1.12\ngini = 0.444\nsamples = 3\nvalue = [1, 2]\nclass = y[1]"] ;
799 -> 801 ;
802 [label="gini = 0.0\nsamples = 2\nvalue = [0, 2]\nclass = y[1]"] ;
801 -> 802 ;
803 [label="gini = 0.0\nsamples = 1\nvalue = [1, 0]\nclass = y[0]"] ;
801 -> 803 ;
804 [label="gini = 0.0\nsamples = 3\nvalue = [0, 3]\nclass = y[1]"] ;
798 -> 804 ;
805 [label="X[26] <= 0.5\ngini = 0.069\nsamples = 28\nvalue = [1, 27]\nclass = y[1]"] ;
791 -> 805 ;
806 [label="gini = 0.0\nsamples = 21\nvalue = [0, 21]\nclass = y[1]"] ;
805 -> 806 ;
807 [label="X[12] <= 0.5\ngini = 0.245\nsamples = 7\nvalue = [1, 6]\nclass = y[1]"] ;
805 -> 807 ;
808 [label="gini = 0.0\nsamples = 5\nvalue = [0, 5]\nclass = y[1]"] ;
807 -> 808 ;
809 [label="X[8] <= 2.537\ngini = 0.5\nsamples = 2\nvalue = [1, 1]\nclass = y[0]"] ;
807 -> 809 ;
810 [label="gini = 0.0\nsamples = 1\nvalue = [1, 0]\nclass = y[0]"] ;
809 -> 810 ;
811 [label="gini = 0.0\nsamples = 1\nvalue = [0, 1]\nclass = y[1]"] ;
809 -> 811 ;
812 [label="gini = 0.0\nsamples = 1\nvalue = [1, 0]\nclass = y[0]"] ;
782 -> 812 ;
813 [label="X[6] <= 0.475\ngini = 0.371\nsamples = 61\nvalue = [15, 46]\nclass = y[1]"] ;
781 -> 813 ;
814 [label="X[0] <= 1.036\ngini = 0.444\nsamples = 6\nvalue = [4, 2]\nclass = y[0]"] ;
813 -> 814 ;
815 [label="X[4] <= 0.479\ngini = 0.444\nsamples = 3\nvalue = [1, 2]\nclass = y[1]"] ;
814 -> 815 ;
816 [label="gini = 0.0\nsamples = 1\nvalue = [1, 0]\nclass = y[0]"] ;
815 -> 816 ;
817 [label="gini = 0.0\nsamples = 2\nvalue = [0, 2]\nclass = y[1]"] ;
815 -> 817 ;
818 [label="gini = 0.0\nsamples = 3\nvalue = [3, 0]\nclass = y[0]"] ;
814 -> 818 ;
819 [label="X[19] <= 0.5\ngini = 0.32\nsamples = 55\nvalue = [11, 44]\nclass = y[1]"] ;
813 -> 819 ;
820 [label="X[6] <= 1.264\ngini = 0.302\nsamples = 54\nvalue = [10, 44]\nclass = y[1]"] ;
819 -> 820 ;
821 [label="X[7] <= 1.966\ngini = 0.375\nsamples = 36\nvalue = [9, 27]\nclass = y[1]"] ;
820 -> 821 ;
822 [label="X[23] <= 0.5\ngini = 0.305\nsamples = 32\nvalue = [6, 26]\nclass = y[1]"] ;
821 -> 822 ;
823 [label="X[7] <= 1.176\ngini = 0.165\nsamples = 22\nvalue = [2, 20]\nclass = y[1]"] ;
822 -> 823 ;
824 [label="X[0] <= 0.721\ngini = 0.26\nsamples = 13\nvalue = [2, 11]\nclass = y[1]"] ;
823 -> 824 ;
825 [label="X[4] <= -0.765\ngini = 0.5\nsamples = 2\nvalue = [1, 1]\nclass = y[0]"] ;
824 -> 825 ;
826 [label="gini = 0.0\nsamples = 1\nvalue = [1, 0]\nclass = y[0]"] ;
825 -> 826 ;
827 [label="gini = 0.0\nsamples = 1\nvalue = [0, 1]\nclass = y[1]"] ;
825 -> 827 ;
828 [label="X[0] <= 1.452\ngini = 0.165\nsamples = 11\nvalue = [1, 10]\nclass = y[1]"] ;
824 -> 828 ;
829 [label="gini = 0.0\nsamples = 8\nvalue = [0, 8]\nclass = y[1]"] ;
828 -> 829 ;
830 [label="X[0] <= 1.467\ngini = 0.444\nsamples = 3\nvalue = [1, 2]\nclass = y[1]"] ;
828 -> 830 ;
831 [label="gini = 0.0\nsamples = 1\nvalue = [1, 0]\nclass = y[0]"] ;
830 -> 831 ;
832 [label="gini = 0.0\nsamples = 2\nvalue = [0, 2]\nclass = y[1]"] ;
830 -> 832 ;
833 [label="gini = 0.0\nsamples = 9\nvalue = [0, 9]\nclass = y[1]"] ;
823 -> 833 ;
834 [label="X[12] <= 0.5\ngini = 0.48\nsamples = 10\nvalue = [4, 6]\nclass = y[1]"] ;
822 -> 834 ;
835 [label="X[20] <= 0.5\ngini = 0.48\nsamples = 5\nvalue = [3, 2]\nclass = y[0]"] ;
834 -> 835 ;
836 [label="X[0] <= 1.654\ngini = 0.444\nsamples = 3\nvalue = [1, 2]\nclass = y[1]"] ;
835 -> 836 ;
837 [label="gini = 0.0\nsamples = 2\nvalue = [0, 2]\nclass = y[1]"] ;
836 -> 837 ;
838 [label="gini = 0.0\nsamples = 1\nvalue = [1, 0]\nclass = y[0]"] ;
836 -> 838 ;
839 [label="gini = 0.0\nsamples = 2\nvalue = [2, 0]\nclass = y[0]"] ;
835 -> 839 ;
840 [label="X[3] <= 1.909\ngini = 0.32\nsamples = 5\nvalue = [1, 4]\nclass = y[1]"] ;
834 -> 840 ;
841 [label="gini = 0.0\nsamples = 4\nvalue = [0, 4]\nclass = y[1]"] ;
840 -> 841 ;
842 [label="gini = 0.0\nsamples = 1\nvalue = [1, 0]\nclass = y[0]"] ;
840 -> 842 ;
843 [label="X[0] <= 0.423\ngini = 0.375\nsamples = 4\nvalue = [3, 1]\nclass = y[0]"] ;
821 -> 843 ;
844 [label="gini = 0.0\nsamples = 1\nvalue = [0, 1]\nclass = y[1]"] ;
843 -> 844 ;
845 [label="gini = 0.0\nsamples = 3\nvalue = [3, 0]\nclass = y[0]"] ;
843 -> 845 ;
846 [label="X[7] <= 4.337\ngini = 0.105\nsamples = 18\nvalue = [1, 17]\nclass = y[1]"] ;
820 -> 846 ;
847 [label="gini = 0.0\nsamples = 16\nvalue = [0, 16]\nclass = y[1]"] ;
846 -> 847 ;
848 [label="X[2] <= 0.363\ngini = 0.5\nsamples = 2\nvalue = [1, 1]\nclass = y[0]"] ;
846 -> 848 ;
849 [label="gini = 0.0\nsamples = 1\nvalue = [1, 0]\nclass = y[0]"] ;
848 -> 849 ;
850 [label="gini = 0.0\nsamples = 1\nvalue = [0, 1]\nclass = y[1]"] ;
848 -> 850 ;
851 [label="gini = 0.0\nsamples = 1\nvalue = [1, 0]\nclass = y[0]"] ;
819 -> 851 ;
852 [label="X[0] <= 1.558\ngini = 0.49\nsamples = 14\nvalue = [6, 8]\nclass = y[1]"] ;
780 -> 852 ;
853 [label="X[14] <= 0.5\ngini = 0.32\nsamples = 5\nvalue = [4, 1]\nclass = y[0]"] ;
852 -> 853 ;
854 [label="gini = 0.0\nsamples = 4\nvalue = [4, 0]\nclass = y[0]"] ;
853 -> 854 ;
855 [label="gini = 0.0\nsamples = 1\nvalue = [0, 1]\nclass = y[1]"] ;
853 -> 855 ;
856 [label="X[0] <= 3.199\ngini = 0.346\nsamples = 9\nvalue = [2, 7]\nclass = y[1]"] ;
852 -> 856 ;
857 [label="X[7] <= 1.966\ngini = 0.219\nsamples = 8\nvalue = [1, 7]\nclass = y[1]"] ;
856 -> 857 ;
858 [label="gini = 0.0\nsamples = 1\nvalue = [1, 0]\nclass = y[0]"] ;
857 -> 858 ;
859 [label="gini = 0.0\nsamples = 7\nvalue = [0, 7]\nclass = y[1]"] ;
857 -> 859 ;
860 [label="gini = 0.0\nsamples = 1\nvalue = [1, 0]\nclass = y[0]"] ;
856 -> 860 ;
861 [label="X[7] <= -0.404\ngini = 0.372\nsamples = 977\nvalue = [241, 736]\nclass = y[1]"] ;
647 -> 861 ;
862 [label="X[14] <= 0.5\ngini = 0.054\nsamples = 36\nvalue = [35, 1]\nclass = y[0]"] ;
861 -> 862 ;
863 [label="gini = 0.0\nsamples = 28\nvalue = [28, 0]\nclass = y[0]"] ;
862 -> 863 ;
864 [label="X[3] <= 0.204\ngini = 0.219\nsamples = 8\nvalue = [7, 1]\nclass = y[0]"] ;
862 -> 864 ;
865 [label="gini = 0.0\nsamples = 1\nvalue = [0, 1]\nclass = y[1]"] ;
864 -> 865 ;
866 [label="gini = 0.0\nsamples = 7\nvalue = [7, 0]\nclass = y[0]"] ;
864 -> 866 ;
867 [label="X[18] <= 0.5\ngini = 0.342\nsamples = 941\nvalue = [206, 735]\nclass = y[1]"] ;
861 -> 867 ;
868 [label="X[2] <= 0.363\ngini = 0.124\nsamples = 422\nvalue = [28, 394]\nclass = y[1]"] ;
867 -> 868 ;
869 [label="X[0] <= -0.025\ngini = 0.05\nsamples = 271\nvalue = [7, 264]\nclass = y[1]"] ;
868 -> 869 ;
870 [label="X[0] <= -0.056\ngini = 0.346\nsamples = 9\nvalue = [2, 7]\nclass = y[1]"] ;
869 -> 870 ;
871 [label="X[3] <= 0.204\ngini = 0.219\nsamples = 8\nvalue = [1, 7]\nclass = y[1]"] ;
870 -> 871 ;
872 [label="gini = 0.0\nsamples = 7\nvalue = [0, 7]\nclass = y[1]"] ;
871 -> 872 ;
873 [label="gini = 0.0\nsamples = 1\nvalue = [1, 0]\nclass = y[0]"] ;
871 -> 873 ;
874 [label="gini = 0.0\nsamples = 1\nvalue = [1, 0]\nclass = y[0]"] ;
870 -> 874 ;
875 [label="X[19] <= 0.5\ngini = 0.037\nsamples = 262\nvalue = [5, 257]\nclass = y[1]"] ;
869 -> 875 ;
876 [label="X[0] <= 0.82\ngini = 0.024\nsamples = 251\nvalue = [3, 248]\nclass = y[1]"] ;
875 -> 876 ;
877 [label="X[0] <= 0.817\ngini = 0.067\nsamples = 86\nvalue = [3, 83]\nclass = y[1]"] ;
876 -> 877 ;
878 [label="X[9] <= 0.869\ngini = 0.046\nsamples = 84\nvalue = [2, 82]\nclass = y[1]"] ;
877 -> 878 ;
879 [label="gini = 0.0\nsamples = 55\nvalue = [0, 55]\nclass = y[1]"] ;
878 -> 879 ;
880 [label="X[7] <= 0.386\ngini = 0.128\nsamples = 29\nvalue = [2, 27]\nclass = y[1]"] ;
878 -> 880 ;
881 [label="X[6] <= 0.738\ngini = 0.278\nsamples = 12\nvalue = [2, 10]\nclass = y[1]"] ;
880 -> 881 ;
882 [label="X[0] <= 0.434\ngini = 0.18\nsamples = 10\nvalue = [1, 9]\nclass = y[1]"] ;
881 -> 882 ;
883 [label="X[0] <= 0.384\ngini = 0.444\nsamples = 3\nvalue = [1, 2]\nclass = y[1]"] ;
882 -> 883 ;
884 [label="gini = 0.0\nsamples = 2\nvalue = [0, 2]\nclass = y[1]"] ;
883 -> 884 ;
885 [label="gini = 0.0\nsamples = 1\nvalue = [1, 0]\nclass = y[0]"] ;
883 -> 885 ;
886 [label="gini = 0.0\nsamples = 7\nvalue = [0, 7]\nclass = y[1]"] ;
882 -> 886 ;
887 [label="X[24] <= 0.5\ngini = 0.5\nsamples = 2\nvalue = [1, 1]\nclass = y[0]"] ;
881 -> 887 ;
888 [label="gini = 0.0\nsamples = 1\nvalue = [0, 1]\nclass = y[1]"] ;
887 -> 888 ;
889 [label="gini = 0.0\nsamples = 1\nvalue = [1, 0]\nclass = y[0]"] ;
887 -> 889 ;
890 [label="gini = 0.0\nsamples = 17\nvalue = [0, 17]\nclass = y[1]"] ;
880 -> 890 ;
891 [label="X[14] <= 0.5\ngini = 0.5\nsamples = 2\nvalue = [1, 1]\nclass = y[0]"] ;
877 -> 891 ;
892 [label="gini = 0.0\nsamples = 1\nvalue = [1, 0]\nclass = y[0]"] ;
891 -> 892 ;
893 [label="gini = 0.0\nsamples = 1\nvalue = [0, 1]\nclass = y[1]"] ;
891 -> 893 ;
894 [label="gini = 0.0\nsamples = 165\nvalue = [0, 165]\nclass = y[1]"] ;
876 -> 894 ;
895 [label="X[9] <= 1.689\ngini = 0.298\nsamples = 11\nvalue = [2, 9]\nclass = y[1]"] ;
875 -> 895 ;
896 [label="X[10] <= 0.593\ngini = 0.18\nsamples = 10\nvalue = [1, 9]\nclass = y[1]"] ;
895 -> 896 ;
897 [label="gini = 0.0\nsamples = 7\nvalue = [0, 7]\nclass = y[1]"] ;
896 -> 897 ;
898 [label="X[12] <= 0.5\ngini = 0.444\nsamples = 3\nvalue = [1, 2]\nclass = y[1]"] ;
896 -> 898 ;
899 [label="gini = 0.0\nsamples = 1\nvalue = [1, 0]\nclass = y[0]"] ;
898 -> 899 ;
900 [label="gini = 0.0\nsamples = 2\nvalue = [0, 2]\nclass = y[1]"] ;
898 -> 900 ;
901 [label="gini = 0.0\nsamples = 1\nvalue = [1, 0]\nclass = y[0]"] ;
895 -> 901 ;
902 [label="X[6] <= 0.738\ngini = 0.239\nsamples = 151\nvalue = [21, 130]\nclass = y[1]"] ;
868 -> 902 ;
903 [label="X[3] <= 1.909\ngini = 0.371\nsamples = 65\nvalue = [16, 49]\nclass = y[1]"] ;
902 -> 903 ;
904 [label="X[15] <= 0.5\ngini = 0.32\nsamples = 60\nvalue = [12, 48]\nclass = y[1]"] ;
903 -> 904 ;
905 [label="X[7] <= 1.176\ngini = 0.214\nsamples = 41\nvalue = [5, 36]\nclass = y[1]"] ;
904 -> 905 ;
906 [label="X[9] <= 0.869\ngini = 0.18\nsamples = 40\nvalue = [4, 36]\nclass = y[1]"] ;
905 -> 906 ;
907 [label="X[0] <= 0.583\ngini = 0.074\nsamples = 26\nvalue = [1, 25]\nclass = y[1]"] ;
906 -> 907 ;
908 [label="X[24] <= 0.5\ngini = 0.32\nsamples = 5\nvalue = [1, 4]\nclass = y[1]"] ;
907 -> 908 ;
909 [label="gini = 0.0\nsamples = 1\nvalue = [1, 0]\nclass = y[0]"] ;
908 -> 909 ;
910 [label="gini = 0.0\nsamples = 4\nvalue = [0, 4]\nclass = y[1]"] ;
908 -> 910 ;
911 [label="gini = 0.0\nsamples = 21\nvalue = [0, 21]\nclass = y[1]"] ;
907 -> 911 ;
912 [label="X[20] <= 0.5\ngini = 0.337\nsamples = 14\nvalue = [3, 11]\nclass = y[1]"] ;
906 -> 912 ;
913 [label="X[7] <= 0.386\ngini = 0.165\nsamples = 11\nvalue = [1, 10]\nclass = y[1]"] ;
912 -> 913 ;
914 [label="gini = 0.0\nsamples = 10\nvalue = [0, 10]\nclass = y[1]"] ;
913 -> 914 ;
915 [label="gini = 0.0\nsamples = 1\nvalue = [1, 0]\nclass = y[0]"] ;
913 -> 915 ;
916 [label="X[6] <= 0.475\ngini = 0.444\nsamples = 3\nvalue = [2, 1]\nclass = y[0]"] ;
912 -> 916 ;
917 [label="gini = 0.0\nsamples = 2\nvalue = [2, 0]\nclass = y[0]"] ;
916 -> 917 ;
918 [label="gini = 0.0\nsamples = 1\nvalue = [0, 1]\nclass = y[1]"] ;
916 -> 918 ;
919 [label="gini = 0.0\nsamples = 1\nvalue = [1, 0]\nclass = y[0]"] ;
905 -> 919 ;
920 [label="X[24] <= 0.5\ngini = 0.465\nsamples = 19\nvalue = [7, 12]\nclass = y[1]"] ;
904 -> 920 ;
921 [label="X[9] <= 1.689\ngini = 0.198\nsamples = 9\nvalue = [1, 8]\nclass = y[1]"] ;
920 -> 921 ;
922 [label="gini = 0.0\nsamples = 8\nvalue = [0, 8]\nclass = y[1]"] ;
921 -> 922 ;
923 [label="gini = 0.0\nsamples = 1\nvalue = [1, 0]\nclass = y[0]"] ;
921 -> 923 ;
924 [label="X[0] <= 2.374\ngini = 0.48\nsamples = 10\nvalue = [6, 4]\nclass = y[0]"] ;
920 -> 924 ;
925 [label="X[25] <= 0.5\ngini = 0.5\nsamples = 8\nvalue = [4, 4]\nclass = y[0]"] ;
924 -> 925 ;
926 [label="X[4] <= 0.064\ngini = 0.444\nsamples = 6\nvalue = [4, 2]\nclass = y[0]"] ;
925 -> 926 ;
927 [label="gini = 0.0\nsamples = 3\nvalue = [3, 0]\nclass = y[0]"] ;
926 -> 927 ;
928 [label="X[0] <= 1.693\ngini = 0.444\nsamples = 3\nvalue = [1, 2]\nclass = y[1]"] ;
926 -> 928 ;
929 [label="gini = 0.0\nsamples = 2\nvalue = [0, 2]\nclass = y[1]"] ;
928 -> 929 ;
930 [label="gini = 0.0\nsamples = 1\nvalue = [1, 0]\nclass = y[0]"] ;
928 -> 930 ;
931 [label="gini = 0.0\nsamples = 2\nvalue = [0, 2]\nclass = y[1]"] ;
925 -> 931 ;
932 [label="gini = 0.0\nsamples = 2\nvalue = [2, 0]\nclass = y[0]"] ;
924 -> 932 ;
933 [label="X[4] <= 2.138\ngini = 0.32\nsamples = 5\nvalue = [4, 1]\nclass = y[0]"] ;
903 -> 933 ;
934 [label="gini = 0.0\nsamples = 4\nvalue = [4, 0]\nclass = y[0]"] ;
933 -> 934 ;
935 [label="gini = 0.0\nsamples = 1\nvalue = [0, 1]\nclass = y[1]"] ;
933 -> 935 ;
936 [label="X[24] <= 0.5\ngini = 0.11\nsamples = 86\nvalue = [5, 81]\nclass = y[1]"] ;
902 -> 936 ;
937 [label="X[3] <= 1.909\ngini = 0.206\nsamples = 43\nvalue = [5, 38]\nclass = y[1]"] ;
936 -> 937 ;
938 [label="X[0] <= 2.519\ngini = 0.145\nsamples = 38\nvalue = [3, 35]\nclass = y[1]"] ;
937 -> 938 ;
939 [label="X[6] <= 1.001\ngini = 0.059\nsamples = 33\nvalue = [1, 32]\nclass = y[1]"] ;
938 -> 939 ;
940 [label="X[20] <= 0.5\ngini = 0.165\nsamples = 11\nvalue = [1, 10]\nclass = y[1]"] ;
939 -> 940 ;
941 [label="gini = 0.0\nsamples = 7\nvalue = [0, 7]\nclass = y[1]"] ;
940 -> 941 ;
942 [label="X[9] <= 0.869\ngini = 0.375\nsamples = 4\nvalue = [1, 3]\nclass = y[1]"] ;
940 -> 942 ;
943 [label="X[25] <= 0.5\ngini = 0.5\nsamples = 2\nvalue = [1, 1]\nclass = y[0]"] ;
942 -> 943 ;
944 [label="gini = 0.0\nsamples = 1\nvalue = [1, 0]\nclass = y[0]"] ;
943 -> 944 ;
945 [label="gini = 0.0\nsamples = 1\nvalue = [0, 1]\nclass = y[1]"] ;
943 -> 945 ;
946 [label="gini = 0.0\nsamples = 2\nvalue = [0, 2]\nclass = y[1]"] ;
942 -> 946 ;
947 [label="gini = 0.0\nsamples = 22\nvalue = [0, 22]\nclass = y[1]"] ;
939 -> 947 ;
948 [label="X[4] <= 0.894\ngini = 0.48\nsamples = 5\nvalue = [2, 3]\nclass = y[1]"] ;
938 -> 948 ;
949 [label="gini = 0.0\nsamples = 2\nvalue = [2, 0]\nclass = y[0]"] ;
948 -> 949 ;
950 [label="gini = 0.0\nsamples = 3\nvalue = [0, 3]\nclass = y[1]"] ;
948 -> 950 ;
951 [label="X[6] <= 1.001\ngini = 0.48\nsamples = 5\nvalue = [2, 3]\nclass = y[1]"] ;
937 -> 951 ;
952 [label="X[3] <= 3.614\ngini = 0.444\nsamples = 3\nvalue = [2, 1]\nclass = y[0]"] ;
951 -> 952 ;
953 [label="gini = 0.0\nsamples = 2\nvalue = [2, 0]\nclass = y[0]"] ;
952 -> 953 ;
954 [label="gini = 0.0\nsamples = 1\nvalue = [0, 1]\nclass = y[1]"] ;
952 -> 954 ;
955 [label="gini = 0.0\nsamples = 2\nvalue = [0, 2]\nclass = y[1]"] ;
951 -> 955 ;
956 [label="gini = 0.0\nsamples = 43\nvalue = [0, 43]\nclass = y[1]"] ;
936 -> 956 ;
957 [label="X[2] <= -0.425\ngini = 0.451\nsamples = 519\nvalue = [178, 341]\nclass = y[1]"] ;
867 -> 957 ;
958 [label="X[3] <= 1.909\ngini = 0.019\nsamples = 207\nvalue = [2, 205]\nclass = y[1]"] ;
957 -> 958 ;
959 [label="gini = 0.0\nsamples = 187\nvalue = [0, 187]\nclass = y[1]"] ;
958 -> 959 ;
960 [label="X[6] <= 0.475\ngini = 0.18\nsamples = 20\nvalue = [2, 18]\nclass = y[1]"] ;
958 -> 960 ;
961 [label="X[7] <= 0.781\ngini = 0.48\nsamples = 5\nvalue = [2, 3]\nclass = y[1]"] ;
960 -> 961 ;
962 [label="gini = 0.0\nsamples = 3\nvalue = [0, 3]\nclass = y[1]"] ;
961 -> 962 ;
963 [label="gini = 0.0\nsamples = 2\nvalue = [2, 0]\nclass = y[0]"] ;
961 -> 963 ;
964 [label="gini = 0.0\nsamples = 15\nvalue = [0, 15]\nclass = y[1]"] ;
960 -> 964 ;
965 [label="X[6] <= 0.738\ngini = 0.492\nsamples = 312\nvalue = [176, 136]\nclass = y[0]"] ;
957 -> 965 ;
966 [label="X[6] <= 0.475\ngini = 0.342\nsamples = 151\nvalue = [118, 33]\nclass = y[0]"] ;
965 -> 966 ;
967 [label="X[0] <= 0.177\ngini = 0.232\nsamples = 82\nvalue = [71, 11]\nclass = y[0]"] ;
966 -> 967 ;
968 [label="X[4] <= 0.894\ngini = 0.48\nsamples = 10\nvalue = [6, 4]\nclass = y[0]"] ;
967 -> 968 ;
969 [label="X[7] <= 0.386\ngini = 0.375\nsamples = 8\nvalue = [6, 2]\nclass = y[0]"] ;
968 -> 969 ;
970 [label="X[0] <= 0.131\ngini = 0.245\nsamples = 7\nvalue = [6, 1]\nclass = y[0]"] ;
969 -> 970 ;
971 [label="gini = 0.0\nsamples = 6\nvalue = [6, 0]\nclass = y[0]"] ;
970 -> 971 ;
972 [label="gini = 0.0\nsamples = 1\nvalue = [0, 1]\nclass = y[1]"] ;
970 -> 972 ;
973 [label="gini = 0.0\nsamples = 1\nvalue = [0, 1]\nclass = y[1]"] ;
969 -> 973 ;
974 [label="gini = 0.0\nsamples = 2\nvalue = [0, 2]\nclass = y[1]"] ;
968 -> 974 ;
975 [label="X[0] <= 1.674\ngini = 0.176\nsamples = 72\nvalue = [65, 7]\nclass = y[0]"] ;
967 -> 975 ;
976 [label="X[9] <= 0.869\ngini = 0.119\nsamples = 63\nvalue = [59, 4]\nclass = y[0]"] ;
975 -> 976 ;
977 [label="X[14] <= 0.5\ngini = 0.188\nsamples = 38\nvalue = [34, 4]\nclass = y[0]"] ;
976 -> 977 ;
978 [label="X[7] <= 0.386\ngini = 0.087\nsamples = 22\nvalue = [21, 1]\nclass = y[0]"] ;
977 -> 978 ;
979 [label="gini = 0.0\nsamples = 15\nvalue = [15, 0]\nclass = y[0]"] ;
978 -> 979 ;
980 [label="X[4] <= 0.894\ngini = 0.245\nsamples = 7\nvalue = [6, 1]\nclass = y[0]"] ;
978 -> 980 ;
981 [label="gini = 0.0\nsamples = 5\nvalue = [5, 0]\nclass = y[0]"] ;
980 -> 981 ;
982 [label="X[20] <= 0.5\ngini = 0.5\nsamples = 2\nvalue = [1, 1]\nclass = y[0]"] ;
980 -> 982 ;
983 [label="gini = 0.0\nsamples = 1\nvalue = [1, 0]\nclass = y[0]"] ;
982 -> 983 ;
984 [label="gini = 0.0\nsamples = 1\nvalue = [0, 1]\nclass = y[1]"] ;
982 -> 984 ;
985 [label="X[4] <= 0.894\ngini = 0.305\nsamples = 16\nvalue = [13, 3]\nclass = y[0]"] ;
977 -> 985 ;
986 [label="X[12] <= 0.5\ngini = 0.42\nsamples = 10\nvalue = [7, 3]\nclass = y[0]"] ;
985 -> 986 ;
987 [label="X[3] <= 0.204\ngini = 0.346\nsamples = 9\nvalue = [7, 2]\nclass = y[0]"] ;
986 -> 987 ;
988 [label="X[9] <= 0.05\ngini = 0.5\nsamples = 4\nvalue = [2, 2]\nclass = y[0]"] ;
987 -> 988 ;
989 [label="gini = 0.0\nsamples = 2\nvalue = [2, 0]\nclass = y[0]"] ;
988 -> 989 ;
990 [label="gini = 0.0\nsamples = 2\nvalue = [0, 2]\nclass = y[1]"] ;
988 -> 990 ;
991 [label="gini = 0.0\nsamples = 5\nvalue = [5, 0]\nclass = y[0]"] ;
987 -> 991 ;
992 [label="gini = 0.0\nsamples = 1\nvalue = [0, 1]\nclass = y[1]"] ;
986 -> 992 ;
993 [label="gini = 0.0\nsamples = 6\nvalue = [6, 0]\nclass = y[0]"] ;
985 -> 993 ;
994 [label="gini = 0.0\nsamples = 25\nvalue = [25, 0]\nclass = y[0]"] ;
976 -> 994 ;
995 [label="X[0] <= 1.762\ngini = 0.444\nsamples = 9\nvalue = [6, 3]\nclass = y[0]"] ;
975 -> 995 ;
996 [label="gini = 0.0\nsamples = 2\nvalue = [0, 2]\nclass = y[1]"] ;
995 -> 996 ;
997 [label="X[5] <= 0.557\ngini = 0.245\nsamples = 7\nvalue = [6, 1]\nclass = y[0]"] ;
995 -> 997 ;
998 [label="gini = 0.0\nsamples = 5\nvalue = [5, 0]\nclass = y[0]"] ;
997 -> 998 ;
999 [label="X[14] <= 0.5\ngini = 0.5\nsamples = 2\nvalue = [1, 1]\nclass = y[0]"] ;
997 -> 999 ;
1000 [label="gini = 0.0\nsamples = 1\nvalue = [1, 0]\nclass = y[0]"] ;
999 -> 1000 ;
1001 [label="gini = 0.0\nsamples = 1\nvalue = [0, 1]\nclass = y[1]"] ;
999 -> 1001 ;
1002 [label="X[20] <= 0.5\ngini = 0.434\nsamples = 69\nvalue = [47, 22]\nclass = y[0]"] ;
966 -> 1002 ;
1003 [label="X[4] <= 0.894\ngini = 0.482\nsamples = 37\nvalue = [22, 15]\nclass = y[0]"] ;
1002 -> 1003 ;
1004 [label="X[9] <= 0.05\ngini = 0.417\nsamples = 27\nvalue = [19, 8]\nclass = y[0]"] ;
1003 -> 1004 ;
1005 [label="gini = 0.0\nsamples = 5\nvalue = [5, 0]\nclass = y[0]"] ;
1004 -> 1005 ;
1006 [label="X[0] <= 0.744\ngini = 0.463\nsamples = 22\nvalue = [14, 8]\nclass = y[0]"] ;
1004 -> 1006 ;
1007 [label="gini = 0.0\nsamples = 3\nvalue = [0, 3]\nclass = y[1]"] ;
1006 -> 1007 ;
1008 [label="X[8] <= 3.344\ngini = 0.388\nsamples = 19\nvalue = [14, 5]\nclass = y[0]"] ;
1006 -> 1008 ;
1009 [label="X[23] <= 0.5\ngini = 0.346\nsamples = 18\nvalue = [14, 4]\nclass = y[0]"] ;
1008 -> 1009 ;
1010 [label="X[9] <= 0.869\ngini = 0.165\nsamples = 11\nvalue = [10, 1]\nclass = y[0]"] ;
1009 -> 1010 ;
1011 [label="X[3] <= 0.204\ngini = 0.444\nsamples = 3\nvalue = [2, 1]\nclass = y[0]"] ;
1010 -> 1011 ;
1012 [label="gini = 0.0\nsamples = 1\nvalue = [0, 1]\nclass = y[1]"] ;
1011 -> 1012 ;
1013 [label="gini = 0.0\nsamples = 2\nvalue = [2, 0]\nclass = y[0]"] ;
1011 -> 1013 ;
1014 [label="gini = 0.0\nsamples = 8\nvalue = [8, 0]\nclass = y[0]"] ;
1010 -> 1014 ;
1015 [label="X[0] <= 0.953\ngini = 0.49\nsamples = 7\nvalue = [4, 3]\nclass = y[0]"] ;
1009 -> 1015 ;
1016 [label="gini = 0.0\nsamples = 3\nvalue = [3, 0]\nclass = y[0]"] ;
1015 -> 1016 ;
1017 [label="X[25] <= 0.5\ngini = 0.375\nsamples = 4\nvalue = [1, 3]\nclass = y[1]"] ;
1015 -> 1017 ;
1018 [label="gini = 0.0\nsamples = 1\nvalue = [1, 0]\nclass = y[0]"] ;
1017 -> 1018 ;
1019 [label="gini = 0.0\nsamples = 3\nvalue = [0, 3]\nclass = y[1]"] ;
1017 -> 1019 ;
1020 [label="gini = 0.0\nsamples = 1\nvalue = [0, 1]\nclass = y[1]"] ;
1008 -> 1020 ;
1021 [label="X[0] <= 0.688\ngini = 0.42\nsamples = 10\nvalue = [3, 7]\nclass = y[1]"] ;
1003 -> 1021 ;
1022 [label="gini = 0.0\nsamples = 2\nvalue = [2, 0]\nclass = y[0]"] ;
1021 -> 1022 ;
1023 [label="X[11] <= 0.5\ngini = 0.219\nsamples = 8\nvalue = [1, 7]\nclass = y[1]"] ;
1021 -> 1023 ;
1024 [label="gini = 0.0\nsamples = 4\nvalue = [0, 4]\nclass = y[1]"] ;
1023 -> 1024 ;
1025 [label="X[3] <= 0.204\ngini = 0.375\nsamples = 4\nvalue = [1, 3]\nclass = y[1]"] ;
1023 -> 1025 ;
1026 [label="X[27] <= 0.5\ngini = 0.5\nsamples = 2\nvalue = [1, 1]\nclass = y[0]"] ;
1025 -> 1026 ;
1027 [label="gini = 0.0\nsamples = 1\nvalue = [1, 0]\nclass = y[0]"] ;
1026 -> 1027 ;
1028 [label="gini = 0.0\nsamples = 1\nvalue = [0, 1]\nclass = y[1]"] ;
1026 -> 1028 ;
1029 [label="gini = 0.0\nsamples = 2\nvalue = [0, 2]\nclass = y[1]"] ;
1025 -> 1029 ;
1030 [label="X[0] <= 0.404\ngini = 0.342\nsamples = 32\nvalue = [25, 7]\nclass = y[0]"] ;
1002 -> 1030 ;
1031 [label="X[5] <= 0.557\ngini = 0.5\nsamples = 4\nvalue = [2, 2]\nclass = y[0]"] ;
1030 -> 1031 ;
1032 [label="X[0] <= 0.139\ngini = 0.444\nsamples = 3\nvalue = [2, 1]\nclass = y[0]"] ;
1031 -> 1032 ;
1033 [label="gini = 0.0\nsamples = 1\nvalue = [1, 0]\nclass = y[0]"] ;
1032 -> 1033 ;
1034 [label="X[14] <= 0.5\ngini = 0.5\nsamples = 2\nvalue = [1, 1]\nclass = y[0]"] ;
1032 -> 1034 ;
1035 [label="gini = 0.0\nsamples = 1\nvalue = [0, 1]\nclass = y[1]"] ;
1034 -> 1035 ;
1036 [label="gini = 0.0\nsamples = 1\nvalue = [1, 0]\nclass = y[0]"] ;
1034 -> 1036 ;
1037 [label="gini = 0.0\nsamples = 1\nvalue = [0, 1]\nclass = y[1]"] ;
1031 -> 1037 ;
1038 [label="X[14] <= 0.5\ngini = 0.293\nsamples = 28\nvalue = [23, 5]\nclass = y[0]"] ;
1030 -> 1038 ;
1039 [label="X[9] <= 0.05\ngini = 0.188\nsamples = 19\nvalue = [17, 2]\nclass = y[0]"] ;
1038 -> 1039 ;
1040 [label="X[24] <= 0.5\ngini = 0.408\nsamples = 7\nvalue = [5, 2]\nclass = y[0]"] ;
1039 -> 1040 ;
1041 [label="X[0] <= 1.456\ngini = 0.278\nsamples = 6\nvalue = [5, 1]\nclass = y[0]"] ;
1040 -> 1041 ;
1042 [label="gini = 0.0\nsamples = 4\nvalue = [4, 0]\nclass = y[0]"] ;
1041 -> 1042 ;
1043 [label="X[2] <= 0.363\ngini = 0.5\nsamples = 2\nvalue = [1, 1]\nclass = y[0]"] ;
1041 -> 1043 ;
1044 [label="gini = 0.0\nsamples = 1\nvalue = [0, 1]\nclass = y[1]"] ;
1043 -> 1044 ;
1045 [label="gini = 0.0\nsamples = 1\nvalue = [1, 0]\nclass = y[0]"] ;
1043 -> 1045 ;
1046 [label="gini = 0.0\nsamples = 1\nvalue = [0, 1]\nclass = y[1]"] ;
1040 -> 1046 ;
1047 [label="gini = 0.0\nsamples = 12\nvalue = [12, 0]\nclass = y[0]"] ;
1039 -> 1047 ;
1048 [label="X[24] <= 0.5\ngini = 0.444\nsamples = 9\nvalue = [6, 3]\nclass = y[0]"] ;
1038 -> 1048 ;
1049 [label="gini = 0.0\nsamples = 4\nvalue = [4, 0]\nclass = y[0]"] ;
1048 -> 1049 ;
1050 [label="X[7] <= 0.386\ngini = 0.48\nsamples = 5\nvalue = [2, 3]\nclass = y[1]"] ;
1048 -> 1050 ;
1051 [label="gini = 0.0\nsamples = 2\nvalue = [0, 2]\nclass = y[1]"] ;
1050 -> 1051 ;
1052 [label="X[8] <= 0.115\ngini = 0.444\nsamples = 3\nvalue = [2, 1]\nclass = y[0]"] ;
1050 -> 1052 ;
1053 [label="gini = 0.0\nsamples = 2\nvalue = [2, 0]\nclass = y[0]"] ;
1052 -> 1053 ;
1054 [label="gini = 0.0\nsamples = 1\nvalue = [0, 1]\nclass = y[1]"] ;
1052 -> 1054 ;
1055 [label="X[6] <= 1.001\ngini = 0.461\nsamples = 161\nvalue = [58, 103]\nclass = y[1]"] ;
965 -> 1055 ;
1056 [label="X[10] <= 0.593\ngini = 0.5\nsamples = 75\nvalue = [37, 38]\nclass = y[1]"] ;
1055 -> 1056 ;
1057 [label="X[9] <= 1.689\ngini = 0.462\nsamples = 47\nvalue = [17, 30]\nclass = y[1]"] ;
1056 -> 1057 ;
1058 [label="X[2] <= 0.363\ngini = 0.496\nsamples = 35\nvalue = [16, 19]\nclass = y[1]"] ;
1057 -> 1058 ;
1059 [label="X[12] <= 0.5\ngini = 0.488\nsamples = 26\nvalue = [15, 11]\nclass = y[0]"] ;
1058 -> 1059 ;
1060 [label="X[4] <= 0.894\ngini = 0.473\nsamples = 13\nvalue = [5, 8]\nclass = y[1]"] ;
1059 -> 1060 ;
1061 [label="X[23] <= 0.5\ngini = 0.5\nsamples = 10\nvalue = [5, 5]\nclass = y[0]"] ;
1060 -> 1061 ;
1062 [label="X[20] <= 0.5\ngini = 0.408\nsamples = 7\nvalue = [2, 5]\nclass = y[1]"] ;
1061 -> 1062 ;
1063 [label="X[4] <= 0.064\ngini = 0.444\nsamples = 3\nvalue = [2, 1]\nclass = y[0]"] ;
1062 -> 1063 ;
1064 [label="gini = 0.0\nsamples = 1\nvalue = [0, 1]\nclass = y[1]"] ;
1063 -> 1064 ;
1065 [label="gini = 0.0\nsamples = 2\nvalue = [2, 0]\nclass = y[0]"] ;
1063 -> 1065 ;
1066 [label="gini = 0.0\nsamples = 4\nvalue = [0, 4]\nclass = y[1]"] ;
1062 -> 1066 ;
1067 [label="gini = 0.0\nsamples = 3\nvalue = [3, 0]\nclass = y[0]"] ;
1061 -> 1067 ;
1068 [label="gini = 0.0\nsamples = 3\nvalue = [0, 3]\nclass = y[1]"] ;
1060 -> 1068 ;
1069 [label="X[7] <= 2.756\ngini = 0.355\nsamples = 13\nvalue = [10, 3]\nclass = y[0]"] ;
1059 -> 1069 ;
1070 [label="X[0] <= 0.039\ngini = 0.278\nsamples = 12\nvalue = [10, 2]\nclass = y[0]"] ;
1069 -> 1070 ;
1071 [label="gini = 0.0\nsamples = 1\nvalue = [0, 1]\nclass = y[1]"] ;
1070 -> 1071 ;
1072 [label="X[8] <= 0.115\ngini = 0.165\nsamples = 11\nvalue = [10, 1]\nclass = y[0]"] ;
1070 -> 1072 ;
1073 [label="gini = 0.0\nsamples = 7\nvalue = [7, 0]\nclass = y[0]"] ;
1072 -> 1073 ;
1074 [label="X[21] <= 0.5\ngini = 0.375\nsamples = 4\nvalue = [3, 1]\nclass = y[0]"] ;
1072 -> 1074 ;
1075 [label="gini = 0.0\nsamples = 1\nvalue = [0, 1]\nclass = y[1]"] ;
1074 -> 1075 ;
1076 [label="gini = 0.0\nsamples = 3\nvalue = [3, 0]\nclass = y[0]"] ;
1074 -> 1076 ;
1077 [label="gini = 0.0\nsamples = 1\nvalue = [0, 1]\nclass = y[1]"] ;
1069 -> 1077 ;
1078 [label="X[0] <= 2.538\ngini = 0.198\nsamples = 9\nvalue = [1, 8]\nclass = y[1]"] ;
1058 -> 1078 ;
1079 [label="gini = 0.0\nsamples = 7\nvalue = [0, 7]\nclass = y[1]"] ;
1078 -> 1079 ;
