digraph Tree {
node [shape=box, fontname="helvetica"] ;
edge [fontname="helvetica"] ;
0 [label="X[6] <= 0.212\nentropy = 1.0\nsamples = 40228\nvalue = [20309, 19919]\nclass = y[0]"] ;
1 [label="X[1] <= -0.624\nentropy = 0.522\nsamples = 21223\nvalue = [18733, 2490]\nclass = y[0]"] ;
0 -> 1 [labeldistance=2.5, labelangle=45, headlabel="True"] ;
2 [label="X[6] <= -1.103\nentropy = 0.733\nsamples = 2647\nvalue = [544, 2103]\nclass = y[1]"] ;
1 -> 2 ;
3 [label="X[1] <= -1.427\nentropy = 0.469\nsamples = 510\nvalue = [459, 51]\nclass = y[0]"] ;
2 -> 3 ;
4 [label="X[13] <= 0.5\nentropy = 0.792\nsamples = 42\nvalue = [10, 32]\nclass = y[1]"] ;
3 -> 4 ;
5 [label="X[0] <= -2.126\nentropy = 0.216\nsamples = 29\nvalue = [1, 28]\nclass = y[1]"] ;
4 -> 5 ;
6 [label="X[9] <= -0.77\nentropy = 0.918\nsamples = 3\nvalue = [1, 2]\nclass = y[1]"] ;
5 -> 6 ;
7 [label="entropy = 0.0\nsamples = 1\nvalue = [1, 0]\nclass = y[0]"] ;
6 -> 7 ;
8 [label="entropy = 0.0\nsamples = 2\nvalue = [0, 2]\nclass = y[1]"] ;
6 -> 8 ;
9 [label="entropy = 0.0\nsamples = 26\nvalue = [0, 26]\nclass = y[1]"] ;
5 -> 9 ;
10 [label="X[23] <= 0.5\nentropy = 0.89\nsamples = 13\nvalue = [9, 4]\nclass = y[0]"] ;
4 -> 10 ;
11 [label="X[0] <= -2.08\nentropy = 1.0\nsamples = 8\nvalue = [4, 4]\nclass = y[0]"] ;
10 -> 11 ;
12 [label="entropy = 0.0\nsamples = 2\nvalue = [2, 0]\nclass = y[0]"] ;
11 -> 12 ;
13 [label="X[12] <= 0.5\nentropy = 0.918\nsamples = 6\nvalue = [2, 4]\nclass = y[1]"] ;
11 -> 13 ;
14 [label="X[0] <= -1.964\nentropy = 0.918\nsamples = 3\nvalue = [2, 1]\nclass = y[0]"] ;
13 -> 14 ;
15 [label="entropy = 0.0\nsamples = 2\nvalue = [2, 0]\nclass = y[0]"] ;
14 -> 15 ;
16 [label="entropy = 0.0\nsamples = 1\nvalue = [0, 1]\nclass = y[1]"] ;
14 -> 16 ;
17 [label="entropy = 0.0\nsamples = 3\nvalue = [0, 3]\nclass = y[1]"] ;
13 -> 17 ;
18 [label="entropy = 0.0\nsamples = 5\nvalue = [5, 0]\nclass = y[0]"] ;
10 -> 18 ;
19 [label="X[9] <= -0.77\nentropy = 0.245\nsamples = 468\nvalue = [449, 19]\nclass = y[0]"] ;
3 -> 19 ;
20 [label="X[27] <= 0.5\nentropy = 0.025\nsamples = 395\nvalue = [394, 1]\nclass = y[0]"] ;
19 -> 20 ;
21 [label="entropy = 0.0\nsamples = 383\nvalue = [383, 0]\nclass = y[0]"] ;
20 -> 21 ;
22 [label="X[12] <= 0.5\nentropy = 0.414\nsamples = 12\nvalue = [11, 1]\nclass = y[0]"] ;
20 -> 22 ;
23 [label="entropy = 0.0\nsamples = 9\nvalue = [9, 0]\nclass = y[0]"] ;
22 -> 23 ;
24 [label="X[0] <= -1.323\nentropy = 0.918\nsamples = 3\nvalue = [2, 1]\nclass = y[0]"] ;
22 -> 24 ;
25 [label="entropy = 0.0\nsamples = 2\nvalue = [2, 0]\nclass = y[0]"] ;
24 -> 25 ;
26 [label="entropy = 0.0\nsamples = 1\nvalue = [0, 1]\nclass = y[1]"] ;
24 -> 26 ;
27 [label="X[1] <= -1.159\nentropy = 0.806\nsamples = 73\nvalue = [55, 18]\nclass = y[0]"] ;
19 -> 27 ;
28 [label="X[6] <= -1.366\nentropy = 0.9\nsamples = 19\nvalue = [6, 13]\nclass = y[1]"] ;
27 -> 28 ;
29 [label="X[4] <= -0.765\nentropy = 0.65\nsamples = 6\nvalue = [5, 1]\nclass = y[0]"] ;
28 -> 29 ;
30 [label="entropy = 0.0\nsamples = 4\nvalue = [4, 0]\nclass = y[0]"] ;
29 -> 30 ;
31 [label="X[26] <= 0.5\nentropy = 1.0\nsamples = 2\nvalue = [1, 1]\nclass = y[0]"] ;
29 -> 31 ;
32 [label="entropy = 0.0\nsamples = 1\nvalue = [0, 1]\nclass = y[1]"] ;
31 -> 32 ;
33 [label="entropy = 0.0\nsamples = 1\nvalue = [1, 0]\nclass = y[0]"] ;
31 -> 33 ;
34 [label="X[5] <= 0.557\nentropy = 0.391\nsamples = 13\nvalue = [1, 12]\nclass = y[1]"] ;
28 -> 34 ;
35 [label="entropy = 0.0\nsamples = 11\nvalue = [0, 11]\nclass = y[1]"] ;
34 -> 35 ;
36 [label="X[4] <= -0.765\nentropy = 1.0\nsamples = 2\nvalue = [1, 1]\nclass = y[0]"] ;
34 -> 36 ;
37 [label="entropy = 0.0\nsamples = 1\nvalue = [0, 1]\nclass = y[1]"] ;
36 -> 37 ;
38 [label="entropy = 0.0\nsamples = 1\nvalue = [1, 0]\nclass = y[0]"] ;
36 -> 38 ;
39 [label="X[12] <= 0.5\nentropy = 0.445\nsamples = 54\nvalue = [49, 5]\nclass = y[0]"] ;
27 -> 39 ;
40 [label="entropy = 0.0\nsamples = 39\nvalue = [39, 0]\nclass = y[0]"] ;
39 -> 40 ;
41 [label="X[0] <= -1.639\nentropy = 0.918\nsamples = 15\nvalue = [10, 5]\nclass = y[0]"] ;
39 -> 41 ;
42 [label="entropy = 0.0\nsamples = 6\nvalue = [6, 0]\nclass = y[0]"] ;
41 -> 42 ;
43 [label="X[6] <= -1.366\nentropy = 0.991\nsamples = 9\nvalue = [4, 5]\nclass = y[1]"] ;
41 -> 43 ;
44 [label="X[4] <= -0.765\nentropy = 0.722\nsamples = 5\nvalue = [4, 1]\nclass = y[0]"] ;
43 -> 44 ;
45 [label="entropy = 0.0\nsamples = 1\nvalue = [0, 1]\nclass = y[1]"] ;
44 -> 45 ;
46 [label="entropy = 0.0\nsamples = 4\nvalue = [4, 0]\nclass = y[0]"] ;
44 -> 46 ;
47 [label="entropy = 0.0\nsamples = 4\nvalue = [0, 4]\nclass = y[1]"] ;
43 -> 47 ;
48 [label="X[1] <= -1.159\nentropy = 0.241\nsamples = 2137\nvalue = [85, 2052]\nclass = y[1]"] ;
2 -> 48 ;
49 [label="X[0] <= -1.122\nentropy = 0.027\nsamples = 1509\nvalue = [4, 1505]\nclass = y[1]"] ;
48 -> 49 ;
50 [label="entropy = 0.0\nsamples = 1063\nvalue = [0, 1063]\nclass = y[1]"] ;
49 -> 50 ;
51 [label="X[9] <= -0.77\nentropy = 0.074\nsamples = 446\nvalue = [4, 442]\nclass = y[1]"] ;
49 -> 51 ;
52 [label="X[6] <= -0.84\nentropy = 0.365\nsamples = 43\nvalue = [3, 40]\nclass = y[1]"] ;
51 -> 52 ;
53 [label="entropy = 0.0\nsamples = 1\nvalue = [1, 0]\nclass = y[0]"] ;
52 -> 53 ;
54 [label="X[0] <= -0.998\nentropy = 0.276\nsamples = 42\nvalue = [2, 40]\nclass = y[1]"] ;
52 -> 54 ;
55 [label="X[16] <= 0.5\nentropy = 0.764\nsamples = 9\nvalue = [2, 7]\nclass = y[1]"] ;
54 -> 55 ;
56 [label="entropy = 0.0\nsamples = 1\nvalue = [1, 0]\nclass = y[0]"] ;
55 -> 56 ;
57 [label="X[6] <= -0.314\nentropy = 0.544\nsamples = 8\nvalue = [1, 7]\nclass = y[1]"] ;
55 -> 57 ;
58 [label="X[6] <= -0.577\nentropy = 0.918\nsamples = 3\nvalue = [1, 2]\nclass = y[1]"] ;
57 -> 58 ;
59 [label="entropy = 0.0\nsamples = 2\nvalue = [0, 2]\nclass = y[1]"] ;
58 -> 59 ;
60 [label="entropy = 0.0\nsamples = 1\nvalue = [1, 0]\nclass = y[0]"] ;
58 -> 60 ;
61 [label="entropy = 0.0\nsamples = 5\nvalue = [0, 5]\nclass = y[1]"] ;
57 -> 61 ;
62 [label="entropy = 0.0\nsamples = 33\nvalue = [0, 33]\nclass = y[1]"] ;
54 -> 62 ;
63 [label="X[0] <= -1.12\nentropy = 0.025\nsamples = 403\nvalue = [1, 402]\nclass = y[1]"] ;
51 -> 63 ;
64 [label="X[10] <= 0.593\nentropy = 0.65\nsamples = 6\nvalue = [1, 5]\nclass = y[1]"] ;
63 -> 64 ;
65 [label="entropy = 0.0\nsamples = 4\nvalue = [0, 4]\nclass = y[1]"] ;
64 -> 65 ;
66 [label="X[6] <= -0.314\nentropy = 1.0\nsamples = 2\nvalue = [1, 1]\nclass = y[0]"] ;
64 -> 66 ;
67 [label="entropy = 0.0\nsamples = 1\nvalue = [1, 0]\nclass = y[0]"] ;
66 -> 67 ;
68 [label="entropy = 0.0\nsamples = 1\nvalue = [0, 1]\nclass = y[1]"] ;
66 -> 68 ;
69 [label="entropy = 0.0\nsamples = 397\nvalue = [0, 397]\nclass = y[1]"] ;
63 -> 69 ;
70 [label="X[6] <= -0.577\nentropy = 0.555\nsamples = 628\nvalue = [81, 547]\nclass = y[1]"] ;
48 -> 70 ;
71 [label="X[4] <= -0.765\nentropy = 0.99\nsamples = 150\nvalue = [66, 84]\nclass = y[1]"] ;
70 -> 71 ;
72 [label="X[22] <= 0.5\nentropy = 0.61\nsamples = 60\nvalue = [9, 51]\nclass = y[1]"] ;
71 -> 72 ;
73 [label="X[0] <= -0.756\nentropy = 0.397\nsamples = 51\nvalue = [4, 47]\nclass = y[1]"] ;
72 -> 73 ;
74 [label="entropy = 0.0\nsamples = 38\nvalue = [0, 38]\nclass = y[1]"] ;
73 -> 74 ;
75 [label="X[21] <= 0.5\nentropy = 0.89\nsamples = 13\nvalue = [4, 9]\nclass = y[1]"] ;
73 -> 75 ;
76 [label="X[9] <= 0.05\nentropy = 0.971\nsamples = 10\nvalue = [4, 6]\nclass = y[1]"] ;
75 -> 76 ;
77 [label="entropy = 0.0\nsamples = 2\nvalue = [0, 2]\nclass = y[1]"] ;
76 -> 77 ;
78 [label="X[15] <= 0.5\nentropy = 1.0\nsamples = 8\nvalue = [4, 4]\nclass = y[0]"] ;
76 -> 78 ;
79 [label="X[0] <= -0.12\nentropy = 0.811\nsamples = 4\nvalue = [1, 3]\nclass = y[1]"] ;
78 -> 79 ;
80 [label="entropy = 0.0\nsamples = 2\nvalue = [0, 2]\nclass = y[1]"] ;
79 -> 80 ;
81 [label="X[0] <= 0.188\nentropy = 1.0\nsamples = 2\nvalue = [1, 1]\nclass = y[0]"] ;
79 -> 81 ;
82 [label="entropy = 0.0\nsamples = 1\nvalue = [1, 0]\nclass = y[0]"] ;
81 -> 82 ;
83 [label="entropy = 0.0\nsamples = 1\nvalue = [0, 1]\nclass = y[1]"] ;
81 -> 83 ;
84 [label="X[12] <= 0.5\nentropy = 0.811\nsamples = 4\nvalue = [3, 1]\nclass = y[0]"] ;
78 -> 84 ;
85 [label="entropy = 0.0\nsamples = 1\nvalue = [0, 1]\nclass = y[1]"] ;
84 -> 85 ;
86 [label="entropy = 0.0\nsamples = 3\nvalue = [3, 0]\nclass = y[0]"] ;
84 -> 86 ;
87 [label="entropy = 0.0\nsamples = 3\nvalue = [0, 3]\nclass = y[1]"] ;
75 -> 87 ;
88 [label="X[0] <= -0.681\nentropy = 0.991\nsamples = 9\nvalue = [5, 4]\nclass = y[0]"] ;
72 -> 88 ;
89 [label="X[11] <= 0.5\nentropy = 0.985\nsamples = 7\nvalue = [3, 4]\nclass = y[1]"] ;
88 -> 89 ;
90 [label="entropy = 0.0\nsamples = 3\nvalue = [0, 3]\nclass = y[1]"] ;
89 -> 90 ;
91 [label="X[0] <= -1.353\nentropy = 0.811\nsamples = 4\nvalue = [3, 1]\nclass = y[0]"] ;
89 -> 91 ;
92 [label="entropy = 0.0\nsamples = 3\nvalue = [3, 0]\nclass = y[0]"] ;
91 -> 92 ;
93 [label="entropy = 0.0\nsamples = 1\nvalue = [0, 1]\nclass = y[1]"] ;
91 -> 93 ;
94 [label="entropy = 0.0\nsamples = 2\nvalue = [2, 0]\nclass = y[0]"] ;
88 -> 94 ;
95 [label="X[1] <= -0.892\nentropy = 0.948\nsamples = 90\nvalue = [57, 33]\nclass = y[0]"] ;
71 -> 95 ;
96 [label="X[0] <= -0.595\nentropy = 0.928\nsamples = 35\nvalue = [12, 23]\nclass = y[1]"] ;
95 -> 96 ;
97 [label="X[0] <= -0.825\nentropy = 0.978\nsamples = 29\nvalue = [12, 17]\nclass = y[1]"] ;
96 -> 97 ;
98 [label="X[11] <= 0.5\nentropy = 0.918\nsamples = 24\nvalue = [8, 16]\nclass = y[1]"] ;
97 -> 98 ;
99 [label="X[10] <= 0.593\nentropy = 0.439\nsamples = 11\nvalue = [1, 10]\nclass = y[1]"] ;
98 -> 99 ;
100 [label="entropy = 0.0\nsamples = 7\nvalue = [0, 7]\nclass = y[1]"] ;
99 -> 100 ;
101 [label="X[9] <= -0.77\nentropy = 0.811\nsamples = 4\nvalue = [1, 3]\nclass = y[1]"] ;
99 -> 101 ;
102 [label="entropy = 0.0\nsamples = 1\nvalue = [1, 0]\nclass = y[0]"] ;
101 -> 102 ;
103 [label="entropy = 0.0\nsamples = 3\nvalue = [0, 3]\nclass = y[1]"] ;
101 -> 103 ;
104 [label="X[4] <= 0.064\nentropy = 0.996\nsamples = 13\nvalue = [7, 6]\nclass = y[0]"] ;
98 -> 104 ;
105 [label="X[0] <= -1.167\nentropy = 0.971\nsamples = 10\nvalue = [4, 6]\nclass = y[1]"] ;
104 -> 105 ;
106 [label="X[0] <= -1.363\nentropy = 0.918\nsamples = 6\nvalue = [4, 2]\nclass = y[0]"] ;
105 -> 106 ;
107 [label="X[0] <= -1.445\nentropy = 0.918\nsamples = 3\nvalue = [1, 2]\nclass = y[1]"] ;
106 -> 107 ;
108 [label="entropy = 0.0\nsamples = 1\nvalue = [1, 0]\nclass = y[0]"] ;
107 -> 108 ;
109 [label="entropy = 0.0\nsamples = 2\nvalue = [0, 2]\nclass = y[1]"] ;
107 -> 109 ;
110 [label="entropy = 0.0\nsamples = 3\nvalue = [3, 0]\nclass = y[0]"] ;
106 -> 110 ;
111 [label="entropy = 0.0\nsamples = 4\nvalue = [0, 4]\nclass = y[1]"] ;
105 -> 111 ;
112 [label="entropy = 0.0\nsamples = 3\nvalue = [3, 0]\nclass = y[0]"] ;
104 -> 112 ;
113 [label="X[9] <= 0.05\nentropy = 0.722\nsamples = 5\nvalue = [4, 1]\nclass = y[0]"] ;
97 -> 113 ;
114 [label="entropy = 0.0\nsamples = 4\nvalue = [4, 0]\nclass = y[0]"] ;
113 -> 114 ;
115 [label="entropy = 0.0\nsamples = 1\nvalue = [0, 1]\nclass = y[1]"] ;
113 -> 115 ;
116 [label="entropy = 0.0\nsamples = 6\nvalue = [0, 6]\nclass = y[1]"] ;
96 -> 116 ;
117 [label="X[6] <= -0.84\nentropy = 0.684\nsamples = 55\nvalue = [45, 10]\nclass = y[0]"] ;
95 -> 117 ;
118 [label="X[0] <= -1.421\nentropy = 0.216\nsamples = 29\nvalue = [28, 1]\nclass = y[0]"] ;
117 -> 118 ;
119 [label="X[0] <= -1.457\nentropy = 0.811\nsamples = 4\nvalue = [3, 1]\nclass = y[0]"] ;
118 -> 119 ;
120 [label="entropy = 0.0\nsamples = 3\nvalue = [3, 0]\nclass = y[0]"] ;
119 -> 120 ;
121 [label="entropy = 0.0\nsamples = 1\nvalue = [0, 1]\nclass = y[1]"] ;
119 -> 121 ;
122 [label="entropy = 0.0\nsamples = 25\nvalue = [25, 0]\nclass = y[0]"] ;
118 -> 122 ;
123 [label="X[20] <= 0.5\nentropy = 0.931\nsamples = 26\nvalue = [17, 9]\nclass = y[0]"] ;
117 -> 123 ;
124 [label="X[0] <= -0.225\nentropy = 0.976\nsamples = 22\nvalue = [13, 9]\nclass = y[0]"] ;
123 -> 124 ;
125 [label="X[12] <= 0.5\nentropy = 0.959\nsamples = 21\nvalue = [13, 8]\nclass = y[0]"] ;
124 -> 125 ;
126 [label="X[0] <= -0.533\nentropy = 0.592\nsamples = 7\nvalue = [6, 1]\nclass = y[0]"] ;
125 -> 126 ;
127 [label="entropy = 0.0\nsamples = 5\nvalue = [5, 0]\nclass = y[0]"] ;
126 -> 127 ;
128 [label="X[0] <= -0.469\nentropy = 1.0\nsamples = 2\nvalue = [1, 1]\nclass = y[0]"] ;
126 -> 128 ;
129 [label="entropy = 0.0\nsamples = 1\nvalue = [0, 1]\nclass = y[1]"] ;
128 -> 129 ;
130 [label="entropy = 0.0\nsamples = 1\nvalue = [1, 0]\nclass = y[0]"] ;
128 -> 130 ;
131 [label="X[0] <= -1.322\nentropy = 1.0\nsamples = 14\nvalue = [7, 7]\nclass = y[0]"] ;
125 -> 131 ;
132 [label="entropy = 0.0\nsamples = 2\nvalue = [0, 2]\nclass = y[1]"] ;
131 -> 132 ;
133 [label="X[15] <= 0.5\nentropy = 0.98\nsamples = 12\nvalue = [7, 5]\nclass = y[0]"] ;
131 -> 133 ;
134 [label="X[0] <= -1.213\nentropy = 0.811\nsamples = 4\nvalue = [1, 3]\nclass = y[1]"] ;
133 -> 134 ;
135 [label="entropy = 0.0\nsamples = 1\nvalue = [1, 0]\nclass = y[0]"] ;
134 -> 135 ;
136 [label="entropy = 0.0\nsamples = 3\nvalue = [0, 3]\nclass = y[1]"] ;
134 -> 136 ;
137 [label="X[0] <= -0.763\nentropy = 0.811\nsamples = 8\nvalue = [6, 2]\nclass = y[0]"] ;
133 -> 137 ;
138 [label="entropy = 0.0\nsamples = 4\nvalue = [4, 0]\nclass = y[0]"] ;
137 -> 138 ;
139 [label="X[25] <= 0.5\nentropy = 1.0\nsamples = 4\nvalue = [2, 2]\nclass = y[0]"] ;
137 -> 139 ;
140 [label="entropy = 0.0\nsamples = 2\nvalue = [0, 2]\nclass = y[1]"] ;
139 -> 140 ;
141 [label="entropy = 0.0\nsamples = 2\nvalue = [2, 0]\nclass = y[0]"] ;
139 -> 141 ;
142 [label="entropy = 0.0\nsamples = 1\nvalue = [0, 1]\nclass = y[1]"] ;
124 -> 142 ;
143 [label="entropy = 0.0\nsamples = 4\nvalue = [4, 0]\nclass = y[0]"] ;
123 -> 143 ;
144 [label="X[20] <= 0.5\nentropy = 0.201\nsamples = 478\nvalue = [15, 463]\nclass = y[1]"] ;
70 -> 144 ;
145 [label="X[0] <= -0.459\nentropy = 0.151\nsamples = 461\nvalue = [10, 451]\nclass = y[1]"] ;
144 -> 145 ;
146 [label="X[4] <= 0.064\nentropy = 0.033\nsamples = 294\nvalue = [1, 293]\nclass = y[1]"] ;
145 -> 146 ;
147 [label="entropy = 0.0\nsamples = 275\nvalue = [0, 275]\nclass = y[1]"] ;
146 -> 147 ;
148 [label="X[0] <= -0.861\nentropy = 0.297\nsamples = 19\nvalue = [1, 18]\nclass = y[1]"] ;
146 -> 148 ;
149 [label="X[1] <= -0.892\nentropy = 0.722\nsamples = 5\nvalue = [1, 4]\nclass = y[1]"] ;
148 -> 149 ;
150 [label="entropy = 0.0\nsamples = 4\nvalue = [0, 4]\nclass = y[1]"] ;
149 -> 150 ;
151 [label="entropy = 0.0\nsamples = 1\nvalue = [1, 0]\nclass = y[0]"] ;
149 -> 151 ;
152 [label="entropy = 0.0\nsamples = 14\nvalue = [0, 14]\nclass = y[1]"] ;
148 -> 152 ;
153 [label="X[21] <= 0.5\nentropy = 0.303\nsamples = 167\nvalue = [9, 158]\nclass = y[1]"] ;
145 -> 153 ;
154 [label="X[18] <= 0.5\nentropy = 0.469\nsamples = 90\nvalue = [9, 81]\nclass = y[1]"] ;
153 -> 154 ;
155 [label="X[1] <= -0.892\nentropy = 0.586\nsamples = 64\nvalue = [9, 55]\nclass = y[1]"] ;
154 -> 155 ;
156 [label="X[6] <= -0.051\nentropy = 0.337\nsamples = 32\nvalue = [2, 30]\nclass = y[1]"] ;
155 -> 156 ;
157 [label="entropy = 0.0\nsamples = 16\nvalue = [0, 16]\nclass = y[1]"] ;
156 -> 157 ;
158 [label="X[4] <= 0.064\nentropy = 0.544\nsamples = 16\nvalue = [2, 14]\nclass = y[1]"] ;
156 -> 158 ;
159 [label="X[0] <= -0.41\nentropy = 0.353\nsamples = 15\nvalue = [1, 14]\nclass = y[1]"] ;
158 -> 159 ;
160 [label="X[10] <= 0.593\nentropy = 1.0\nsamples = 2\nvalue = [1, 1]\nclass = y[0]"] ;
159 -> 160 ;
161 [label="entropy = 0.0\nsamples = 1\nvalue = [1, 0]\nclass = y[0]"] ;
160 -> 161 ;
162 [label="entropy = 0.0\nsamples = 1\nvalue = [0, 1]\nclass = y[1]"] ;
160 -> 162 ;
163 [label="entropy = 0.0\nsamples = 13\nvalue = [0, 13]\nclass = y[1]"] ;
159 -> 163 ;
164 [label="entropy = 0.0\nsamples = 1\nvalue = [1, 0]\nclass = y[0]"] ;
158 -> 164 ;
165 [label="X[25] <= 0.5\nentropy = 0.758\nsamples = 32\nvalue = [7, 25]\nclass = y[1]"] ;
155 -> 165 ;
166 [label="X[6] <= -0.051\nentropy = 0.954\nsamples = 16\nvalue = [6, 10]\nclass = y[1]"] ;
165 -> 166 ;
167 [label="X[0] <= -0.387\nentropy = 1.0\nsamples = 12\nvalue = [6, 6]\nclass = y[0]"] ;
166 -> 167 ;
168 [label="entropy = 0.0\nsamples = 2\nvalue = [2, 0]\nclass = y[0]"] ;
167 -> 168 ;
169 [label="X[0] <= -0.1\nentropy = 0.971\nsamples = 10\nvalue = [4, 6]\nclass = y[1]"] ;
167 -> 169 ;
170 [label="entropy = 0.0\nsamples = 4\nvalue = [0, 4]\nclass = y[1]"] ;
169 -> 170 ;
171 [label="X[0] <= 0.083\nentropy = 0.918\nsamples = 6\nvalue = [4, 2]\nclass = y[0]"] ;
169 -> 171 ;
172 [label="entropy = 0.0\nsamples = 3\nvalue = [3, 0]\nclass = y[0]"] ;
171 -> 172 ;
173 [label="X[0] <= 0.342\nentropy = 0.918\nsamples = 3\nvalue = [1, 2]\nclass = y[1]"] ;
171 -> 173 ;
174 [label="entropy = 0.0\nsamples = 2\nvalue = [0, 2]\nclass = y[1]"] ;
173 -> 174 ;
175 [label="entropy = 0.0\nsamples = 1\nvalue = [1, 0]\nclass = y[0]"] ;
173 -> 175 ;
176 [label="entropy = 0.0\nsamples = 4\nvalue = [0, 4]\nclass = y[1]"] ;
166 -> 176 ;
177 [label="X[15] <= 0.5\nentropy = 0.337\nsamples = 16\nvalue = [1, 15]\nclass = y[1]"] ;
165 -> 177 ;
178 [label="entropy = 0.0\nsamples = 11\nvalue = [0, 11]\nclass = y[1]"] ;
177 -> 178 ;
179 [label="X[24] <= 0.5\nentropy = 0.722\nsamples = 5\nvalue = [1, 4]\nclass = y[1]"] ;
177 -> 179 ;
180 [label="entropy = 0.0\nsamples = 2\nvalue = [0, 2]\nclass = y[1]"] ;
179 -> 180 ;
181 [label="X[9] <= 0.46\nentropy = 0.918\nsamples = 3\nvalue = [1, 2]\nclass = y[1]"] ;
179 -> 181 ;
182 [label="X[0] <= -0.219\nentropy = 1.0\nsamples = 2\nvalue = [1, 1]\nclass = y[0]"] ;
181 -> 182 ;
183 [label="entropy = 0.0\nsamples = 1\nvalue = [0, 1]\nclass = y[1]"] ;
182 -> 183 ;
184 [label="entropy = 0.0\nsamples = 1\nvalue = [1, 0]\nclass = y[0]"] ;
182 -> 184 ;
185 [label="entropy = 0.0\nsamples = 1\nvalue = [0, 1]\nclass = y[1]"] ;
181 -> 185 ;
186 [label="entropy = 0.0\nsamples = 26\nvalue = [0, 26]\nclass = y[1]"] ;
154 -> 186 ;
187 [label="entropy = 0.0\nsamples = 77\nvalue = [0, 77]\nclass = y[1]"] ;
153 -> 187 ;
188 [label="X[7] <= -0.404\nentropy = 0.874\nsamples = 17\nvalue = [5, 12]\nclass = y[1]"] ;
144 -> 188 ;
189 [label="X[0] <= -0.053\nentropy = 0.954\nsamples = 8\nvalue = [5, 3]\nclass = y[0]"] ;
188 -> 189 ;
190 [label="entropy = 0.0\nsamples = 4\nvalue = [4, 0]\nclass = y[0]"] ;
189 -> 190 ;
191 [label="X[6] <= -0.314\nentropy = 0.811\nsamples = 4\nvalue = [1, 3]\nclass = y[1]"] ;
189 -> 191 ;
192 [label="entropy = 0.0\nsamples = 1\nvalue = [1, 0]\nclass = y[0]"] ;
191 -> 192 ;
193 [label="entropy = 0.0\nsamples = 3\nvalue = [0, 3]\nclass = y[1]"] ;
191 -> 193 ;
194 [label="entropy = 0.0\nsamples = 9\nvalue = [0, 9]\nclass = y[1]"] ;
188 -> 194 ;
195 [label="X[7] <= -0.404\nentropy = 0.146\nsamples = 18576\nvalue = [18189, 387]\nclass = y[0]"] ;
1 -> 195 ;
196 [label="X[1] <= 0.178\nentropy = 0.064\nsamples = 17514\nvalue = [17382, 132]\nclass = y[0]"] ;
195 -> 196 ;
197 [label="X[6] <= -0.577\nentropy = 0.309\nsamples = 2128\nvalue = [2010, 118]\nclass = y[0]"] ;
196 -> 197 ;
198 [label="X[21] <= 0.5\nentropy = 0.08\nsamples = 1812\nvalue = [1794, 18]\nclass = y[0]"] ;
197 -> 198 ;
199 [label="X[0] <= -0.441\nentropy = 0.05\nsamples = 1787\nvalue = [1777, 10]\nclass = y[0]"] ;
198 -> 199 ;
200 [label="X[12] <= 0.5\nentropy = 0.014\nsamples = 1537\nvalue = [1535, 2]\nclass = y[0]"] ;
199 -> 200 ;
201 [label="entropy = 0.0\nsamples = 1083\nvalue = [1083, 0]\nclass = y[0]"] ;
200 -> 201 ;
202 [label="X[9] <= 0.05\nentropy = 0.041\nsamples = 454\nvalue = [452, 2]\nclass = y[0]"] ;
200 -> 202 ;
203 [label="X[0] <= -1.408\nentropy = 0.023\nsamples = 438\nvalue = [437, 1]\nclass = y[0]"] ;
202 -> 203 ;
204 [label="X[0] <= -1.411\nentropy = 0.078\nsamples = 105\nvalue = [104, 1]\nclass = y[0]"] ;
203 -> 204 ;
205 [label="entropy = 0.0\nsamples = 104\nvalue = [104, 0]\nclass = y[0]"] ;
204 -> 205 ;
206 [label="entropy = 0.0\nsamples = 1\nvalue = [0, 1]\nclass = y[1]"] ;
204 -> 206 ;
207 [label="entropy = 0.0\nsamples = 333\nvalue = [333, 0]\nclass = y[0]"] ;
203 -> 207 ;
208 [label="X[14] <= 0.5\nentropy = 0.337\nsamples = 16\nvalue = [15, 1]\nclass = y[0]"] ;
202 -> 208 ;
209 [label="X[25] <= 0.5\nentropy = 0.722\nsamples = 5\nvalue = [4, 1]\nclass = y[0]"] ;
208 -> 209 ;
210 [label="entropy = 0.0\nsamples = 4\nvalue = [4, 0]\nclass = y[0]"] ;
209 -> 210 ;
211 [label="entropy = 0.0\nsamples = 1\nvalue = [0, 1]\nclass = y[1]"] ;
209 -> 211 ;
212 [label="entropy = 0.0\nsamples = 11\nvalue = [11, 0]\nclass = y[0]"] ;
208 -> 212 ;
213 [label="X[9] <= -0.77\nentropy = 0.204\nsamples = 250\nvalue = [242, 8]\nclass = y[0]"] ;
199 -> 213 ;
214 [label="entropy = 0.0\nsamples = 97\nvalue = [97, 0]\nclass = y[0]"] ;
213 -> 214 ;
215 [label="X[25] <= 0.5\nentropy = 0.296\nsamples = 153\nvalue = [145, 8]\nclass = y[0]"] ;
213 -> 215 ;
216 [label="entropy = 0.0\nsamples = 51\nvalue = [51, 0]\nclass = y[0]"] ;
215 -> 216 ;
217 [label="X[0] <= -0.438\nentropy = 0.397\nsamples = 102\nvalue = [94, 8]\nclass = y[0]"] ;
215 -> 217 ;
218 [label="entropy = 0.0\nsamples = 1\nvalue = [0, 1]\nclass = y[1]"] ;
217 -> 218 ;
219 [label="X[1] <= -0.357\nentropy = 0.363\nsamples = 101\nvalue = [94, 7]\nclass = y[0]"] ;
217 -> 219 ;
220 [label="X[24] <= 0.5\nentropy = 0.764\nsamples = 18\nvalue = [14, 4]\nclass = y[0]"] ;
219 -> 220 ;
221 [label="X[3] <= 0.204\nentropy = 0.971\nsamples = 5\nvalue = [2, 3]\nclass = y[1]"] ;
220 -> 221 ;
222 [label="entropy = 0.0\nsamples = 3\nvalue = [0, 3]\nclass = y[1]"] ;
221 -> 222 ;
223 [label="entropy = 0.0\nsamples = 2\nvalue = [2, 0]\nclass = y[0]"] ;
221 -> 223 ;
224 [label="X[0] <= 0.688\nentropy = 0.391\nsamples = 13\nvalue = [12, 1]\nclass = y[0]"] ;
220 -> 224 ;
225 [label="entropy = 0.0\nsamples = 11\nvalue = [11, 0]\nclass = y[0]"] ;
224 -> 225 ;
226 [label="X[4] <= 0.064\nentropy = 1.0\nsamples = 2\nvalue = [1, 1]\nclass = y[0]"] ;
224 -> 226 ;
227 [label="entropy = 0.0\nsamples = 1\nvalue = [0, 1]\nclass = y[1]"] ;
226 -> 227 ;
228 [label="entropy = 0.0\nsamples = 1\nvalue = [1, 0]\nclass = y[0]"] ;
226 -> 228 ;
229 [label="X[6] <= -0.84\nentropy = 0.224\nsamples = 83\nvalue = [80, 3]\nclass = y[0]"] ;
219 -> 229 ;
230 [label="entropy = 0.0\nsamples = 41\nvalue = [41, 0]\nclass = y[0]"] ;
229 -> 230 ;
231 [label="X[9] <= 0.05\nentropy = 0.371\nsamples = 42\nvalue = [39, 3]\nclass = y[0]"] ;
229 -> 231 ;
232 [label="X[23] <= 0.5\nentropy = 0.516\nsamples = 26\nvalue = [23, 3]\nclass = y[0]"] ;
231 -> 232 ;
233 [label="X[4] <= 0.894\nentropy = 0.722\nsamples = 15\nvalue = [12, 3]\nclass = y[0]"] ;
232 -> 233 ;
234 [label="X[15] <= 0.5\nentropy = 0.845\nsamples = 11\nvalue = [8, 3]\nclass = y[0]"] ;
233 -> 234 ;
235 [label="X[4] <= 0.064\nentropy = 1.0\nsamples = 4\nvalue = [2, 2]\nclass = y[0]"] ;
234 -> 235 ;
236 [label="entropy = 0.0\nsamples = 2\nvalue = [2, 0]\nclass = y[0]"] ;
235 -> 236 ;
237 [label="entropy = 0.0\nsamples = 2\nvalue = [0, 2]\nclass = y[1]"] ;
235 -> 237 ;
238 [label="X[4] <= 0.064\nentropy = 0.592\nsamples = 7\nvalue = [6, 1]\nclass = y[0]"] ;
234 -> 238 ;
239 [label="X[12] <= 0.5\nentropy = 1.0\nsamples = 2\nvalue = [1, 1]\nclass = y[0]"] ;
238 -> 239 ;
240 [label="entropy = 0.0\nsamples = 1\nvalue = [0, 1]\nclass = y[1]"] ;
239 -> 240 ;
241 [label="entropy = 0.0\nsamples = 1\nvalue = [1, 0]\nclass = y[0]"] ;
239 -> 241 ;
242 [label="entropy = 0.0\nsamples = 5\nvalue = [5, 0]\nclass = y[0]"] ;
238 -> 242 ;
243 [label="entropy = 0.0\nsamples = 4\nvalue = [4, 0]\nclass = y[0]"] ;
233 -> 243 ;
244 [label="entropy = 0.0\nsamples = 11\nvalue = [11, 0]\nclass = y[0]"] ;
232 -> 244 ;
245 [label="entropy = 0.0\nsamples = 16\nvalue = [16, 0]\nclass = y[0]"] ;
231 -> 245 ;
246 [label="X[1] <= -0.089\nentropy = 0.904\nsamples = 25\nvalue = [17, 8]\nclass = y[0]"] ;
198 -> 246 ;
247 [label="X[24] <= 0.5\nentropy = 0.918\nsamples = 12\nvalue = [4, 8]\nclass = y[1]"] ;
246 -> 247 ;
248 [label="entropy = 0.0\nsamples = 4\nvalue = [0, 4]\nclass = y[1]"] ;
247 -> 248 ;
249 [label="X[4] <= 0.064\nentropy = 1.0\nsamples = 8\nvalue = [4, 4]\nclass = y[0]"] ;
247 -> 249 ;
250 [label="X[26] <= 0.5\nentropy = 0.722\nsamples = 5\nvalue = [1, 4]\nclass = y[1]"] ;
249 -> 250 ;
251 [label="entropy = 0.0\nsamples = 4\nvalue = [0, 4]\nclass = y[1]"] ;
250 -> 251 ;
252 [label="entropy = 0.0\nsamples = 1\nvalue = [1, 0]\nclass = y[0]"] ;
250 -> 252 ;
253 [label="entropy = 0.0\nsamples = 3\nvalue = [3, 0]\nclass = y[0]"] ;
249 -> 253 ;
254 [label="entropy = 0.0\nsamples = 13\nvalue = [13, 0]\nclass = y[0]"] ;
246 -> 254 ;
255 [label="X[2] <= -0.425\nentropy = 0.9\nsamples = 316\nvalue = [216, 100]\nclass = y[0]"] ;
197 -> 255 ;
256 [label="X[3] <= 0.204\nentropy = 0.988\nsamples = 158\nvalue = [69, 89]\nclass = y[1]"] ;
255 -> 256 ;
257 [label="X[6] <= -0.314\nentropy = 0.854\nsamples = 111\nvalue = [31, 80]\nclass = y[1]"] ;
256 -> 257 ;
258 [label="X[14] <= 0.5\nentropy = 0.997\nsamples = 45\nvalue = [24, 21]\nclass = y[0]"] ;
257 -> 258 ;
259 [label="X[19] <= 0.5\nentropy = 0.672\nsamples = 17\nvalue = [14, 3]\nclass = y[0]"] ;
258 -> 259 ;
260 [label="X[23] <= 0.5\nentropy = 0.918\nsamples = 3\nvalue = [1, 2]\nclass = y[1]"] ;
259 -> 260 ;
261 [label="entropy = 0.0\nsamples = 1\nvalue = [1, 0]\nclass = y[0]"] ;
260 -> 261 ;
262 [label="entropy = 0.0\nsamples = 2\nvalue = [0, 2]\nclass = y[1]"] ;
260 -> 262 ;
263 [label="X[27] <= 0.5\nentropy = 0.371\nsamples = 14\nvalue = [13, 1]\nclass = y[0]"] ;
259 -> 263 ;
264 [label="entropy = 0.0\nsamples = 10\nvalue = [10, 0]\nclass = y[0]"] ;
263 -> 264 ;
265 [label="X[9] <= 0.05\nentropy = 0.811\nsamples = 4\nvalue = [3, 1]\nclass = y[0]"] ;
263 -> 265 ;
266 [label="entropy = 0.0\nsamples = 1\nvalue = [0, 1]\nclass = y[1]"] ;
265 -> 266 ;
267 [label="entropy = 0.0\nsamples = 3\nvalue = [3, 0]\nclass = y[0]"] ;
265 -> 267 ;
268 [label="X[1] <= -0.089\nentropy = 0.94\nsamples = 28\nvalue = [10, 18]\nclass = y[1]"] ;
258 -> 268 ;
269 [label="X[0] <= 0.451\nentropy = 0.722\nsamples = 20\nvalue = [4, 16]\nclass = y[1]"] ;
268 -> 269 ;
270 [label="X[27] <= 0.5\nentropy = 0.503\nsamples = 18\nvalue = [2, 16]\nclass = y[1]"] ;
269 -> 270 ;
271 [label="X[0] <= -0.226\nentropy = 0.323\nsamples = 17\nvalue = [1, 16]\nclass = y[1]"] ;
270 -> 271 ;
272 [label="X[0] <= -0.27\nentropy = 0.544\nsamples = 8\nvalue = [1, 7]\nclass = y[1]"] ;
271 -> 272 ;
273 [label="entropy = 0.0\nsamples = 7\nvalue = [0, 7]\nclass = y[1]"] ;
272 -> 273 ;
274 [label="entropy = 0.0\nsamples = 1\nvalue = [1, 0]\nclass = y[0]"] ;
272 -> 274 ;
275 [label="entropy = 0.0\nsamples = 9\nvalue = [0, 9]\nclass = y[1]"] ;
271 -> 275 ;
276 [label="entropy = 0.0\nsamples = 1\nvalue = [1, 0]\nclass = y[0]"] ;
270 -> 276 ;
277 [label="entropy = 0.0\nsamples = 2\nvalue = [2, 0]\nclass = y[0]"] ;
269 -> 277 ;
278 [label="X[8] <= 0.115\nentropy = 0.811\nsamples = 8\nvalue = [6, 2]\nclass = y[0]"] ;
268 -> 278 ;
279 [label="entropy = 0.0\nsamples = 5\nvalue = [5, 0]\nclass = y[0]"] ;
278 -> 279 ;
280 [label="X[12] <= 0.5\nentropy = 0.918\nsamples = 3\nvalue = [1, 2]\nclass = y[1]"] ;
278 -> 280 ;
281 [label="entropy = 0.0\nsamples = 2\nvalue = [0, 2]\nclass = y[1]"] ;
280 -> 281 ;
282 [label="entropy = 0.0\nsamples = 1\nvalue = [1, 0]\nclass = y[0]"] ;
280 -> 282 ;
283 [label="X[9] <= -0.77\nentropy = 0.488\nsamples = 66\nvalue = [7, 59]\nclass = y[1]"] ;
257 -> 283 ;
284 [label="X[0] <= 0.014\nentropy = 0.971\nsamples = 5\nvalue = [3, 2]\nclass = y[0]"] ;
283 -> 284 ;
285 [label="entropy = 0.0\nsamples = 2\nvalue = [0, 2]\nclass = y[1]"] ;
284 -> 285 ;
286 [label="entropy = 0.0\nsamples = 3\nvalue = [3, 0]\nclass = y[0]"] ;
284 -> 286 ;
287 [label="X[24] <= 0.5\nentropy = 0.349\nsamples = 61\nvalue = [4, 57]\nclass = y[1]"] ;
283 -> 287 ;
288 [label="entropy = 0.0\nsamples = 22\nvalue = [0, 22]\nclass = y[1]"] ;
287 -> 288 ;
289 [label="X[4] <= -0.765\nentropy = 0.477\nsamples = 39\nvalue = [4, 35]\nclass = y[1]"] ;
287 -> 289 ;
290 [label="entropy = 0.0\nsamples = 20\nvalue = [0, 20]\nclass = y[1]"] ;
289 -> 290 ;
291 [label="X[0] <= -0.795\nentropy = 0.742\nsamples = 19\nvalue = [4, 15]\nclass = y[1]"] ;
289 -> 291 ;
292 [label="entropy = 0.0\nsamples = 1\nvalue = [1, 0]\nclass = y[0]"] ;
291 -> 292 ;
293 [label="X[0] <= -0.021\nentropy = 0.65\nsamples = 18\nvalue = [3, 15]\nclass = y[1]"] ;
291 -> 293 ;
294 [label="entropy = 0.0\nsamples = 8\nvalue = [0, 8]\nclass = y[1]"] ;
293 -> 294 ;
295 [label="X[6] <= -0.051\nentropy = 0.881\nsamples = 10\nvalue = [3, 7]\nclass = y[1]"] ;
293 -> 295 ;
296 [label="entropy = 0.0\nsamples = 2\nvalue = [2, 0]\nclass = y[0]"] ;
295 -> 296 ;
297 [label="X[0] <= 0.146\nentropy = 0.544\nsamples = 8\nvalue = [1, 7]\nclass = y[1]"] ;
295 -> 297 ;
298 [label="entropy = 0.0\nsamples = 1\nvalue = [1, 0]\nclass = y[0]"] ;
297 -> 298 ;
299 [label="entropy = 0.0\nsamples = 7\nvalue = [0, 7]\nclass = y[1]"] ;
297 -> 299 ;
300 [label="X[9] <= 1.689\nentropy = 0.705\nsamples = 47\nvalue = [38, 9]\nclass = y[0]"] ;
256 -> 300 ;
301 [label="X[0] <= 0.662\nentropy = 0.624\nsamples = 45\nvalue = [38, 7]\nclass = y[0]"] ;
300 -> 301 ;
302 [label="X[15] <= 0.5\nentropy = 0.477\nsamples = 39\nvalue = [35, 4]\nclass = y[0]"] ;
301 -> 302 ;
303 [label="X[6] <= -0.314\nentropy = 0.863\nsamples = 14\nvalue = [10, 4]\nclass = y[0]"] ;
302 -> 303 ;
304 [label="X[23] <= 0.5\nentropy = 0.469\nsamples = 10\nvalue = [9, 1]\nclass = y[0]"] ;
303 -> 304 ;
305 [label="X[4] <= 0.064\nentropy = 0.918\nsamples = 3\nvalue = [2, 1]\nclass = y[0]"] ;
304 -> 305 ;
306 [label="X[0] <= -0.651\nentropy = 1.0\nsamples = 2\nvalue = [1, 1]\nclass = y[0]"] ;
305 -> 306 ;
307 [label="entropy = 0.0\nsamples = 1\nvalue = [1, 0]\nclass = y[0]"] ;
306 -> 307 ;
308 [label="entropy = 0.0\nsamples = 1\nvalue = [0, 1]\nclass = y[1]"] ;
306 -> 308 ;
309 [label="entropy = 0.0\nsamples = 1\nvalue = [1, 0]\nclass = y[0]"] ;
305 -> 309 ;
310 [label="entropy = 0.0\nsamples = 7\nvalue = [7, 0]\nclass = y[0]"] ;
304 -> 310 ;
311 [label="X[4] <= 0.064\nentropy = 0.811\nsamples = 4\nvalue = [1, 3]\nclass = y[1]"] ;
303 -> 311 ;
312 [label="entropy = 0.0\nsamples = 2\nvalue = [0, 2]\nclass = y[1]"] ;
311 -> 312 ;
313 [label="X[9] <= -0.77\nentropy = 1.0\nsamples = 2\nvalue = [1, 1]\nclass = y[0]"] ;
311 -> 313 ;
314 [label="entropy = 0.0\nsamples = 1\nvalue = [0, 1]\nclass = y[1]"] ;
313 -> 314 ;
315 [label="entropy = 0.0\nsamples = 1\nvalue = [1, 0]\nclass = y[0]"] ;
313 -> 315 ;
316 [label="entropy = 0.0\nsamples = 25\nvalue = [25, 0]\nclass = y[0]"] ;
302 -> 316 ;
317 [label="X[1] <= -0.089\nentropy = 1.0\nsamples = 6\nvalue = [3, 3]\nclass = y[0]"] ;
301 -> 317 ;
318 [label="entropy = 0.0\nsamples = 2\nvalue = [2, 0]\nclass = y[0]"] ;
317 -> 318 ;
319 [label="X[12] <= 0.5\nentropy = 0.811\nsamples = 4\nvalue = [1, 3]\nclass = y[1]"] ;
317 -> 319 ;
320 [label="entropy = 0.0\nsamples = 2\nvalue = [0, 2]\nclass = y[1]"] ;
319 -> 320 ;
321 [label="X[27] <= 0.5\nentropy = 1.0\nsamples = 2\nvalue = [1, 1]\nclass = y[0]"] ;
319 -> 321 ;
322 [label="entropy = 0.0\nsamples = 1\nvalue = [0, 1]\nclass = y[1]"] ;
321 -> 322 ;
323 [label="entropy = 0.0\nsamples = 1\nvalue = [1, 0]\nclass = y[0]"] ;
321 -> 323 ;
324 [label="entropy = 0.0\nsamples = 2\nvalue = [0, 2]\nclass = y[1]"] ;
300 -> 324 ;
325 [label="X[21] <= 0.5\nentropy = 0.365\nsamples = 158\nvalue = [147, 11]\nclass = y[0]"] ;
255 -> 325 ;
326 [label="entropy = 0.0\nsamples = 122\nvalue = [122, 0]\nclass = y[0]"] ;
325 -> 326 ;
327 [label="X[23] <= 0.5\nentropy = 0.888\nsamples = 36\nvalue = [25, 11]\nclass = y[0]"] ;
325 -> 327 ;
328 [label="X[5] <= 0.557\nentropy = 0.485\nsamples = 19\nvalue = [17, 2]\nclass = y[0]"] ;
327 -> 328 ;
329 [label="entropy = 0.0\nsamples = 15\nvalue = [15, 0]\nclass = y[0]"] ;
328 -> 329 ;
330 [label="X[12] <= 0.5\nentropy = 1.0\nsamples = 4\nvalue = [2, 2]\nclass = y[0]"] ;
328 -> 330 ;
331 [label="entropy = 0.0\nsamples = 2\nvalue = [2, 0]\nclass = y[0]"] ;
330 -> 331 ;
332 [label="entropy = 0.0\nsamples = 2\nvalue = [0, 2]\nclass = y[1]"] ;
330 -> 332 ;
333 [label="X[25] <= 0.5\nentropy = 0.998\nsamples = 17\nvalue = [8, 9]\nclass = y[1]"] ;
327 -> 333 ;
334 [label="X[1] <= -0.089\nentropy = 0.764\nsamples = 9\nvalue = [7, 2]\nclass = y[0]"] ;
333 -> 334 ;
335 [label="X[9] <= 0.05\nentropy = 1.0\nsamples = 4\nvalue = [2, 2]\nclass = y[0]"] ;
334 -> 335 ;
336 [label="entropy = 0.0\nsamples = 2\nvalue = [0, 2]\nclass = y[1]"] ;
335 -> 336 ;
337 [label="entropy = 0.0\nsamples = 2\nvalue = [2, 0]\nclass = y[0]"] ;
335 -> 337 ;
338 [label="entropy = 0.0\nsamples = 5\nvalue = [5, 0]\nclass = y[0]"] ;
334 -> 338 ;
339 [label="X[0] <= 1.366\nentropy = 0.544\nsamples = 8\nvalue = [1, 7]\nclass = y[1]"] ;
333 -> 339 ;
340 [label="entropy = 0.0\nsamples = 6\nvalue = [0, 6]\nclass = y[1]"] ;
339 -> 340 ;
341 [label="X[1] <= -0.089\nentropy = 1.0\nsamples = 2\nvalue = [1, 1]\nclass = y[0]"] ;
339 -> 341 ;
342 [label="entropy = 0.0\nsamples = 1\nvalue = [0, 1]\nclass = y[1]"] ;
341 -> 342 ;
343 [label="entropy = 0.0\nsamples = 1\nvalue = [1, 0]\nclass = y[0]"] ;
341 -> 343 ;
344 [label="X[0] <= 1.682\nentropy = 0.011\nsamples = 15386\nvalue = [15372, 14]\nclass = y[0]"] ;
196 -> 344 ;
345 [label="X[6] <= -0.84\nentropy = 0.006\nsamples = 14998\nvalue = [14991, 7]\nclass = y[0]"] ;
344 -> 345 ;
346 [label="X[0] <= -1.557\nentropy = 0.002\nsamples = 9124\nvalue = [9123, 1]\nclass = y[0]"] ;
345 -> 346 ;
347 [label="X[0] <= -1.559\nentropy = 0.029\nsamples = 341\nvalue = [340, 1]\nclass = y[0]"] ;
346 -> 347 ;
348 [label="entropy = 0.0\nsamples = 335\nvalue = [335, 0]\nclass = y[0]"] ;
347 -> 348 ;
349 [label="X[11] <= 0.5\nentropy = 0.65\nsamples = 6\nvalue = [5, 1]\nclass = y[0]"] ;
347 -> 349 ;
350 [label="X[25] <= 0.5\nentropy = 1.0\nsamples = 2\nvalue = [1, 1]\nclass = y[0]"] ;
349 -> 350 ;
351 [label="entropy = 0.0\nsamples = 1\nvalue = [1, 0]\nclass = y[0]"] ;
350 -> 351 ;
352 [label="entropy = 0.0\nsamples = 1\nvalue = [0, 1]\nclass = y[1]"] ;
350 -> 352 ;
353 [label="entropy = 0.0\nsamples = 4\nvalue = [4, 0]\nclass = y[0]"] ;
349 -> 353 ;
354 [label="entropy = 0.0\nsamples = 8783\nvalue = [8783, 0]\nclass = y[0]"] ;
346 -> 354 ;
355 [label="X[4] <= 0.894\nentropy = 0.012\nsamples = 5874\nvalue = [5868, 6]\nclass = y[0]"] ;
345 -> 355 ;
356 [label="X[0] <= 0.954\nentropy = 0.018\nsamples = 3666\nvalue = [3660, 6]\nclass = y[0]"] ;
355 -> 356 ;
357 [label="X[0] <= -0.215\nentropy = 0.011\nsamples = 3225\nvalue = [3222, 3]\nclass = y[0]"] ;
356 -> 357 ;
358 [label="X[0] <= -0.217\nentropy = 0.034\nsamples = 857\nvalue = [854, 3]\nclass = y[0]"] ;
357 -> 358 ;
359 [label="X[17] <= 0.5\nentropy = 0.024\nsamples = 850\nvalue = [848, 2]\nclass = y[0]"] ;
358 -> 359 ;
360 [label="X[10] <= 0.593\nentropy = 0.439\nsamples = 11\nvalue = [10, 1]\nclass = y[0]"] ;
359 -> 360 ;
361 [label="entropy = 0.0\nsamples = 8\nvalue = [8, 0]\nclass = y[0]"] ;
360 -> 361 ;
362 [label="X[0] <= -0.465\nentropy = 0.918\nsamples = 3\nvalue = [2, 1]\nclass = y[0]"] ;
360 -> 362 ;
363 [label="entropy = 0.0\nsamples = 1\nvalue = [0, 1]\nclass = y[1]"] ;
362 -> 363 ;
364 [label="entropy = 0.0\nsamples = 2\nvalue = [2, 0]\nclass = y[0]"] ;
362 -> 364 ;
365 [label="X[8] <= 0.115\nentropy = 0.013\nsamples = 839\nvalue = [838, 1]\nclass = y[0]"] ;
359 -> 365 ;
366 [label="entropy = 0.0\nsamples = 792\nvalue = [792, 0]\nclass = y[0]"] ;
365 -> 366 ;
367 [label="X[9] <= -0.77\nentropy = 0.149\nsamples = 47\nvalue = [46, 1]\nclass = y[0]"] ;
365 -> 367 ;
368 [label="X[6] <= -0.314\nentropy = 0.544\nsamples = 8\nvalue = [7, 1]\nclass = y[0]"] ;
367 -> 368 ;
369 [label="entropy = 0.0\nsamples = 6\nvalue = [6, 0]\nclass = y[0]"] ;
368 -> 369 ;
370 [label="X[0] <= -0.372\nentropy = 1.0\nsamples = 2\nvalue = [1, 1]\nclass = y[0]"] ;
368 -> 370 ;
371 [label="entropy = 0.0\nsamples = 1\nvalue = [1, 0]\nclass = y[0]"] ;
370 -> 371 ;
372 [label="entropy = 0.0\nsamples = 1\nvalue = [0, 1]\nclass = y[1]"] ;
370 -> 372 ;
373 [label="entropy = 0.0\nsamples = 39\nvalue = [39, 0]\nclass = y[0]"] ;
367 -> 373 ;
374 [label="X[1] <= 1.248\nentropy = 0.592\nsamples = 7\nvalue = [6, 1]\nclass = y[0]"] ;
358 -> 374 ;
375 [label="entropy = 0.0\nsamples = 6\nvalue = [6, 0]\nclass = y[0]"] ;
374 -> 375 ;
376 [label="entropy = 0.0\nsamples = 1\nvalue = [0, 1]\nclass = y[1]"] ;
374 -> 376 ;
377 [label="entropy = 0.0\nsamples = 2368\nvalue = [2368, 0]\nclass = y[0]"] ;
357 -> 377 ;
378 [label="X[0] <= 0.957\nentropy = 0.059\nsamples = 441\nvalue = [438, 3]\nclass = y[0]"] ;
356 -> 378 ;
379 [label="X[9] <= 0.05\nentropy = 0.918\nsamples = 3\nvalue = [2, 1]\nclass = y[0]"] ;
378 -> 379 ;
380 [label="entropy = 0.0\nsamples = 1\nvalue = [0, 1]\nclass = y[1]"] ;
379 -> 380 ;
381 [label="entropy = 0.0\nsamples = 2\nvalue = [2, 0]\nclass = y[0]"] ;
379 -> 381 ;
382 [label="X[8] <= 0.115\nentropy = 0.042\nsamples = 438\nvalue = [436, 2]\nclass = y[0]"] ;
378 -> 382 ;
383 [label="entropy = 0.0\nsamples = 271\nvalue = [271, 0]\nclass = y[0]"] ;
382 -> 383 ;
384 [label="X[2] <= 2.725\nentropy = 0.094\nsamples = 167\nvalue = [165, 2]\nclass = y[0]"] ;
382 -> 384 ;
385 [label="X[9] <= 1.689\nentropy = 0.056\nsamples = 157\nvalue = [156, 1]\nclass = y[0]"] ;
384 -> 385 ;
386 [label="entropy = 0.0\nsamples = 144\nvalue = [144, 0]\nclass = y[0]"] ;
385 -> 386 ;
387 [label="X[26] <= 0.5\nentropy = 0.391\nsamples = 13\nvalue = [12, 1]\nclass = y[0]"] ;
385 -> 387 ;
388 [label="entropy = 0.0\nsamples = 10\nvalue = [10, 0]\nclass = y[0]"] ;
387 -> 388 ;
389 [label="X[1] <= 0.713\nentropy = 0.918\nsamples = 3\nvalue = [2, 1]\nclass = y[0]"] ;
387 -> 389 ;
390 [label="entropy = 0.0\nsamples = 1\nvalue = [0, 1]\nclass = y[1]"] ;
389 -> 390 ;
391 [label="entropy = 0.0\nsamples = 2\nvalue = [2, 0]\nclass = y[0]"] ;
389 -> 391 ;
392 [label="X[8] <= 1.73\nentropy = 0.469\nsamples = 10\nvalue = [9, 1]\nclass = y[0]"] ;
384 -> 392 ;
393 [label="entropy = 0.0\nsamples = 9\nvalue = [9, 0]\nclass = y[0]"] ;
392 -> 393 ;
394 [label="entropy = 0.0\nsamples = 1\nvalue = [0, 1]\nclass = y[1]"] ;
392 -> 394 ;
395 [label="entropy = 0.0\nsamples = 2208\nvalue = [2208, 0]\nclass = y[0]"] ;
355 -> 395 ;
396 [label="X[1] <= 0.446\nentropy = 0.13\nsamples = 388\nvalue = [381, 7]\nclass = y[0]"] ;
344 -> 396 ;
397 [label="X[27] <= 0.5\nentropy = 0.9\nsamples = 19\nvalue = [13, 6]\nclass = y[0]"] ;
396 -> 397 ;
398 [label="X[8] <= 0.115\nentropy = 0.696\nsamples = 16\nvalue = [13, 3]\nclass = y[0]"] ;
397 -> 398 ;
399 [label="entropy = 0.0\nsamples = 6\nvalue = [6, 0]\nclass = y[0]"] ;
398 -> 399 ;
400 [label="X[9] <= 0.869\nentropy = 0.881\nsamples = 10\nvalue = [7, 3]\nclass = y[0]"] ;
398 -> 400 ;
401 [label="X[0] <= 1.838\nentropy = 0.764\nsamples = 9\nvalue = [7, 2]\nclass = y[0]"] ;
400 -> 401 ;
402 [label="X[0] <= 1.792\nentropy = 0.918\nsamples = 6\nvalue = [4, 2]\nclass = y[0]"] ;
401 -> 402 ;
403 [label="X[9] <= 0.05\nentropy = 0.722\nsamples = 5\nvalue = [4, 1]\nclass = y[0]"] ;
402 -> 403 ;
404 [label="X[0] <= 1.759\nentropy = 0.918\nsamples = 3\nvalue = [2, 1]\nclass = y[0]"] ;
403 -> 404 ;
405 [label="entropy = 0.0\nsamples = 1\nvalue = [0, 1]\nclass = y[1]"] ;
404 -> 405 ;
406 [label="entropy = 0.0\nsamples = 2\nvalue = [2, 0]\nclass = y[0]"] ;
404 -> 406 ;
407 [label="entropy = 0.0\nsamples = 2\nvalue = [2, 0]\nclass = y[0]"] ;
403 -> 407 ;
408 [label="entropy = 0.0\nsamples = 1\nvalue = [0, 1]\nclass = y[1]"] ;
402 -> 408 ;
409 [label="entropy = 0.0\nsamples = 3\nvalue = [3, 0]\nclass = y[0]"] ;
401 -> 409 ;
410 [label="entropy = 0.0\nsamples = 1\nvalue = [0, 1]\nclass = y[1]"] ;
400 -> 410 ;
411 [label="entropy = 0.0\nsamples = 3\nvalue = [0, 3]\nclass = y[1]"] ;
397 -> 411 ;
412 [label="X[0] <= 1.684\nentropy = 0.027\nsamples = 369\nvalue = [368, 1]\nclass = y[0]"] ;
396 -> 412 ;
413 [label="X[3] <= 2.761\nentropy = 0.918\nsamples = 3\nvalue = [2, 1]\nclass = y[0]"] ;
412 -> 413 ;
414 [label="entropy = 0.0\nsamples = 2\nvalue = [2, 0]\nclass = y[0]"] ;
413 -> 414 ;
415 [label="entropy = 0.0\nsamples = 1\nvalue = [0, 1]\nclass = y[1]"] ;
413 -> 415 ;
416 [label="entropy = 0.0\nsamples = 366\nvalue = [366, 0]\nclass = y[0]"] ;
412 -> 416 ;
417 [label="X[2] <= -0.425\nentropy = 0.795\nsamples = 1062\nvalue = [807, 255]\nclass = y[0]"] ;
195 -> 417 ;
418 [label="X[20] <= 0.5\nentropy = 0.173\nsamples = 155\nvalue = [4, 151]\nclass = y[1]"] ;
417 -> 418 ;
419 [label="X[10] <= 0.593\nentropy = 0.065\nsamples = 131\nvalue = [1, 130]\nclass = y[1]"] ;
418 -> 419 ;
420 [label="entropy = 0.0\nsamples = 108\nvalue = [0, 108]\nclass = y[1]"] ;
419 -> 420 ;
421 [label="X[9] <= 0.869\nentropy = 0.258\nsamples = 23\nvalue = [1, 22]\nclass = y[1]"] ;
419 -> 421 ;
422 [label="entropy = 0.0\nsamples = 17\nvalue = [0, 17]\nclass = y[1]"] ;
421 -> 422 ;
423 [label="X[0] <= -0.225\nentropy = 0.65\nsamples = 6\nvalue = [1, 5]\nclass = y[1]"] ;
421 -> 423 ;
424 [label="X[12] <= 0.5\nentropy = 1.0\nsamples = 2\nvalue = [1, 1]\nclass = y[0]"] ;
423 -> 424 ;
425 [label="entropy = 0.0\nsamples = 1\nvalue = [0, 1]\nclass = y[1]"] ;
424 -> 425 ;
426 [label="entropy = 0.0\nsamples = 1\nvalue = [1, 0]\nclass = y[0]"] ;
424 -> 426 ;
427 [label="entropy = 0.0\nsamples = 4\nvalue = [0, 4]\nclass = y[1]"] ;
423 -> 427 ;
428 [label="X[23] <= 0.5\nentropy = 0.544\nsamples = 24\nvalue = [3, 21]\nclass = y[1]"] ;
418 -> 428 ;
429 [label="entropy = 0.0\nsamples = 13\nvalue = [0, 13]\nclass = y[1]"] ;
428 -> 429 ;
430 [label="X[8] <= 0.115\nentropy = 0.845\nsamples = 11\nvalue = [3, 8]\nclass = y[1]"] ;
428 -> 430 ;
431 [label="X[9] <= 0.869\nentropy = 1.0\nsamples = 6\nvalue = [3, 3]\nclass = y[0]"] ;
430 -> 431 ;
432 [label="X[14] <= 0.5\nentropy = 0.811\nsamples = 4\nvalue = [1, 3]\nclass = y[1]"] ;
431 -> 432 ;
433 [label="entropy = 0.0\nsamples = 1\nvalue = [1, 0]\nclass = y[0]"] ;
432 -> 433 ;
434 [label="entropy = 0.0\nsamples = 3\nvalue = [0, 3]\nclass = y[1]"] ;
432 -> 434 ;
435 [label="entropy = 0.0\nsamples = 2\nvalue = [2, 0]\nclass = y[0]"] ;
431 -> 435 ;
436 [label="entropy = 0.0\nsamples = 5\nvalue = [0, 5]\nclass = y[1]"] ;
430 -> 436 ;
437 [label="X[17] <= 0.5\nentropy = 0.514\nsamples = 907\nvalue = [803, 104]\nclass = y[0]"] ;
417 -> 437 ;
438 [label="X[1] <= 0.713\nentropy = 0.136\nsamples = 524\nvalue = [514, 10]\nclass = y[0]"] ;
437 -> 438 ;
439 [label="X[3] <= 0.204\nentropy = 0.344\nsamples = 156\nvalue = [146, 10]\nclass = y[0]"] ;
438 -> 439 ;
440 [label="X[0] <= 0.089\nentropy = 0.771\nsamples = 31\nvalue = [24, 7]\nclass = y[0]"] ;
439 -> 440 ;
441 [label="X[15] <= 0.5\nentropy = 0.991\nsamples = 9\nvalue = [4, 5]\nclass = y[1]"] ;
440 -> 441 ;
442 [label="entropy = 0.0\nsamples = 4\nvalue = [0, 4]\nclass = y[1]"] ;
441 -> 442 ;
443 [label="X[26] <= 0.5\nentropy = 0.722\nsamples = 5\nvalue = [4, 1]\nclass = y[0]"] ;
441 -> 443 ;
444 [label="entropy = 0.0\nsamples = 4\nvalue = [4, 0]\nclass = y[0]"] ;
443 -> 444 ;
445 [label="entropy = 0.0\nsamples = 1\nvalue = [0, 1]\nclass = y[1]"] ;
443 -> 445 ;
446 [label="X[2] <= 0.363\nentropy = 0.439\nsamples = 22\nvalue = [20, 2]\nclass = y[0]"] ;
440 -> 446 ;
447 [label="entropy = 0.0\nsamples = 20\nvalue = [20, 0]\nclass = y[0]"] ;
446 -> 447 ;
448 [label="entropy = 0.0\nsamples = 2\nvalue = [0, 2]\nclass = y[1]"] ;
446 -> 448 ;
449 [label="X[7] <= 0.386\nentropy = 0.163\nsamples = 125\nvalue = [122, 3]\nclass = y[0]"] ;
439 -> 449 ;
450 [label="entropy = 0.0\nsamples = 106\nvalue = [106, 0]\nclass = y[0]"] ;
449 -> 450 ;
451 [label="X[0] <= 2.421\nentropy = 0.629\nsamples = 19\nvalue = [16, 3]\nclass = y[0]"] ;
449 -> 451 ;
452 [label="X[4] <= 1.723\nentropy = 0.503\nsamples = 18\nvalue = [16, 2]\nclass = y[0]"] ;
451 -> 452 ;
453 [label="X[7] <= 1.176\nentropy = 0.323\nsamples = 17\nvalue = [16, 1]\nclass = y[0]"] ;
452 -> 453 ;
454 [label="entropy = 0.0\nsamples = 14\nvalue = [14, 0]\nclass = y[0]"] ;
453 -> 454 ;
455 [label="X[0] <= 1.336\nentropy = 0.918\nsamples = 3\nvalue = [2, 1]\nclass = y[0]"] ;
453 -> 455 ;
456 [label="entropy = 0.0\nsamples = 1\nvalue = [0, 1]\nclass = y[1]"] ;
455 -> 456 ;
457 [label="entropy = 0.0\nsamples = 2\nvalue = [2, 0]\nclass = y[0]"] ;
455 -> 457 ;
458 [label="entropy = 0.0\nsamples = 1\nvalue = [0, 1]\nclass = y[1]"] ;
452 -> 458 ;
459 [label="entropy = 0.0\nsamples = 1\nvalue = [0, 1]\nclass = y[1]"] ;
451 -> 459 ;
460 [label="entropy = 0.0\nsamples = 368\nvalue = [368, 0]\nclass = y[0]"] ;
438 -> 460 ;
461 [label="X[2] <= 0.363\nentropy = 0.804\nsamples = 383\nvalue = [289, 94]\nclass = y[0]"] ;
437 -> 461 ;
462 [label="X[8] <= 0.115\nentropy = 0.918\nsamples = 72\nvalue = [24, 48]\nclass = y[1]"] ;
461 -> 462 ;
463 [label="X[0] <= 0.561\nentropy = 0.877\nsamples = 27\nvalue = [19, 8]\nclass = y[0]"] ;
462 -> 463 ;
464 [label="X[1] <= -0.089\nentropy = 0.503\nsamples = 18\nvalue = [16, 2]\nclass = y[0]"] ;
463 -> 464 ;
465 [label="X[11] <= 0.5\nentropy = 0.918\nsamples = 3\nvalue = [1, 2]\nclass = y[1]"] ;
464 -> 465 ;
466 [label="entropy = 0.0\nsamples = 1\nvalue = [1, 0]\nclass = y[0]"] ;
465 -> 466 ;
467 [label="entropy = 0.0\nsamples = 2\nvalue = [0, 2]\nclass = y[1]"] ;
465 -> 467 ;
468 [label="entropy = 0.0\nsamples = 15\nvalue = [15, 0]\nclass = y[0]"] ;
464 -> 468 ;
469 [label="X[0] <= 1.01\nentropy = 0.918\nsamples = 9\nvalue = [3, 6]\nclass = y[1]"] ;
463 -> 469 ;
470 [label="entropy = 0.0\nsamples = 4\nvalue = [0, 4]\nclass = y[1]"] ;
469 -> 470 ;
471 [label="X[9] <= 0.05\nentropy = 0.971\nsamples = 5\nvalue = [3, 2]\nclass = y[0]"] ;
469 -> 471 ;
472 [label="X[1] <= 0.178\nentropy = 0.918\nsamples = 3\nvalue = [1, 2]\nclass = y[1]"] ;
471 -> 472 ;
473 [label="entropy = 0.0\nsamples = 1\nvalue = [1, 0]\nclass = y[0]"] ;
472 -> 473 ;
474 [label="entropy = 0.0\nsamples = 2\nvalue = [0, 2]\nclass = y[1]"] ;
472 -> 474 ;
475 [label="entropy = 0.0\nsamples = 2\nvalue = [2, 0]\nclass = y[0]"] ;
471 -> 475 ;
476 [label="X[6] <= -0.051\nentropy = 0.503\nsamples = 45\nvalue = [5, 40]\nclass = y[1]"] ;
462 -> 476 ;
477 [label="X[1] <= 0.178\nentropy = 1.0\nsamples = 8\nvalue = [4, 4]\nclass = y[0]"] ;
476 -> 477 ;
478 [label="entropy = 0.0\nsamples = 2\nvalue = [0, 2]\nclass = y[1]"] ;
477 -> 478 ;
479 [label="X[8] <= 1.73\nentropy = 0.918\nsamples = 6\nvalue = [4, 2]\nclass = y[0]"] ;
477 -> 479 ;
480 [label="entropy = 0.0\nsamples = 3\nvalue = [3, 0]\nclass = y[0]"] ;
479 -> 480 ;
481 [label="X[9] <= -0.77\nentropy = 0.918\nsamples = 3\nvalue = [1, 2]\nclass = y[1]"] ;
479 -> 481 ;
482 [label="entropy = 0.0\nsamples = 1\nvalue = [1, 0]\nclass = y[0]"] ;
481 -> 482 ;
483 [label="entropy = 0.0\nsamples = 2\nvalue = [0, 2]\nclass = y[1]"] ;
481 -> 483 ;
484 [label="X[27] <= 0.5\nentropy = 0.179\nsamples = 37\nvalue = [1, 36]\nclass = y[1]"] ;
476 -> 484 ;
485 [label="entropy = 0.0\nsamples = 33\nvalue = [0, 33]\nclass = y[1]"] ;
484 -> 485 ;
486 [label="X[0] <= 0.132\nentropy = 0.811\nsamples = 4\nvalue = [1, 3]\nclass = y[1]"] ;
484 -> 486 ;
487 [label="entropy = 0.0\nsamples = 1\nvalue = [1, 0]\nclass = y[0]"] ;
486 -> 487 ;
488 [label="entropy = 0.0\nsamples = 3\nvalue = [0, 3]\nclass = y[1]"] ;
486 -> 488 ;
489 [label="X[1] <= 0.981\nentropy = 0.605\nsamples = 311\nvalue = [265, 46]\nclass = y[0]"] ;
461 -> 489 ;
490 [label="X[0] <= 0.144\nentropy = 0.817\nsamples = 134\nvalue = [100, 34]\nclass = y[0]"] ;
489 -> 490 ;
491 [label="entropy = 0.0\nsamples = 19\nvalue = [19, 0]\nclass = y[0]"] ;
490 -> 491 ;
492 [label="X[5] <= 0.557\nentropy = 0.876\nsamples = 115\nvalue = [81, 34]\nclass = y[0]"] ;
490 -> 492 ;
493 [label="X[2] <= 1.15\nentropy = 0.736\nsamples = 82\nvalue = [65, 17]\nclass = y[0]"] ;
492 -> 493 ;
494 [label="X[14] <= 0.5\nentropy = 0.536\nsamples = 49\nvalue = [43, 6]\nclass = y[0]"] ;
493 -> 494 ;
495 [label="entropy = 0.0\nsamples = 21\nvalue = [21, 0]\nclass = y[0]"] ;
494 -> 495 ;
496 [label="X[1] <= 0.178\nentropy = 0.75\nsamples = 28\nvalue = [22, 6]\nclass = y[0]"] ;
494 -> 496 ;
497 [label="entropy = 0.0\nsamples = 2\nvalue = [0, 2]\nclass = y[1]"] ;
496 -> 497 ;
498 [label="X[8] <= 0.115\nentropy = 0.619\nsamples = 26\nvalue = [22, 4]\nclass = y[0]"] ;
496 -> 498 ;
499 [label="entropy = 0.0\nsamples = 9\nvalue = [9, 0]\nclass = y[0]"] ;
498 -> 499 ;
500 [label="X[0] <= 1.156\nentropy = 0.787\nsamples = 17\nvalue = [13, 4]\nclass = y[0]"] ;
498 -> 500 ;
501 [label="X[0] <= 0.7\nentropy = 0.991\nsamples = 9\nvalue = [5, 4]\nclass = y[0]"] ;
500 -> 501 ;
502 [label="entropy = 0.0\nsamples = 4\nvalue = [4, 0]\nclass = y[0]"] ;
501 -> 502 ;
503 [label="X[11] <= 0.5\nentropy = 0.722\nsamples = 5\nvalue = [1, 4]\nclass = y[1]"] ;
501 -> 503 ;
504 [label="entropy = 0.0\nsamples = 1\nvalue = [1, 0]\nclass = y[0]"] ;
503 -> 504 ;
505 [label="entropy = 0.0\nsamples = 4\nvalue = [0, 4]\nclass = y[1]"] ;
503 -> 505 ;
506 [label="entropy = 0.0\nsamples = 8\nvalue = [8, 0]\nclass = y[0]"] ;
500 -> 506 ;
507 [label="X[0] <= 2.406\nentropy = 0.918\nsamples = 33\nvalue = [22, 11]\nclass = y[0]"] ;
493 -> 507 ;
508 [label="X[7] <= 0.386\nentropy = 0.967\nsamples = 28\nvalue = [17, 11]\nclass = y[0]"] ;
507 -> 508 ;
509 [label="X[6] <= -0.051\nentropy = 0.999\nsamples = 23\nvalue = [12, 11]\nclass = y[0]"] ;
508 -> 509 ;
510 [label="X[3] <= 1.909\nentropy = 0.592\nsamples = 7\nvalue = [6, 1]\nclass = y[0]"] ;
509 -> 510 ;
511 [label="entropy = 0.0\nsamples = 5\nvalue = [5, 0]\nclass = y[0]"] ;
510 -> 511 ;
512 [label="X[0] <= 1.638\nentropy = 1.0\nsamples = 2\nvalue = [1, 1]\nclass = y[0]"] ;
510 -> 512 ;
513 [label="entropy = 0.0\nsamples = 1\nvalue = [1, 0]\nclass = y[0]"] ;
512 -> 513 ;
514 [label="entropy = 0.0\nsamples = 1\nvalue = [0, 1]\nclass = y[1]"] ;
512 -> 514 ;
515 [label="X[0] <= 1.673\nentropy = 0.954\nsamples = 16\nvalue = [6, 10]\nclass = y[1]"] ;
509 -> 515 ;
516 [label="X[0] <= 0.71\nentropy = 0.684\nsamples = 11\nvalue = [2, 9]\nclass = y[1]"] ;
515 -> 516 ;
517 [label="X[12] <= 0.5\nentropy = 0.918\nsamples = 3\nvalue = [2, 1]\nclass = y[0]"] ;
516 -> 517 ;
518 [label="entropy = 0.0\nsamples = 1\nvalue = [0, 1]\nclass = y[1]"] ;
517 -> 518 ;
519 [label="entropy = 0.0\nsamples = 2\nvalue = [2, 0]\nclass = y[0]"] ;
517 -> 519 ;
520 [label="entropy = 0.0\nsamples = 8\nvalue = [0, 8]\nclass = y[1]"] ;
516 -> 520 ;
521 [label="X[9] <= 1.689\nentropy = 0.722\nsamples = 5\nvalue = [4, 1]\nclass = y[0]"] ;
515 -> 521 ;
522 [label="entropy = 0.0\nsamples = 4\nvalue = [4, 0]\nclass = y[0]"] ;
521 -> 522 ;
523 [label="entropy = 0.0\nsamples = 1\nvalue = [0, 1]\nclass = y[1]"] ;
521 -> 523 ;
524 [label="entropy = 0.0\nsamples = 5\nvalue = [5, 0]\nclass = y[0]"] ;
508 -> 524 ;
525 [label="entropy = 0.0\nsamples = 5\nvalue = [5, 0]\nclass = y[0]"] ;
507 -> 525 ;
526 [label="X[19] <= 0.5\nentropy = 0.999\nsamples = 33\nvalue = [16, 17]\nclass = y[1]"] ;
492 -> 526 ;
527 [label="X[0] <= 2.029\nentropy = 0.978\nsamples = 29\nvalue = [12, 17]\nclass = y[1]"] ;
526 -> 527 ;
528 [label="X[0] <= 1.618\nentropy = 0.999\nsamples = 25\nvalue = [12, 13]\nclass = y[1]"] ;
527 -> 528 ;
529 [label="X[3] <= 1.909\nentropy = 0.988\nsamples = 23\nvalue = [10, 13]\nclass = y[1]"] ;
528 -> 529 ;
530 [label="X[0] <= 0.543\nentropy = 1.0\nsamples = 20\nvalue = [10, 10]\nclass = y[0]"] ;
529 -> 530 ;
531 [label="X[0] <= 0.339\nentropy = 0.722\nsamples = 5\nvalue = [1, 4]\nclass = y[1]"] ;
530 -> 531 ;
532 [label="entropy = 0.0\nsamples = 1\nvalue = [1, 0]\nclass = y[0]"] ;
531 -> 532 ;
533 [label="entropy = 0.0\nsamples = 4\nvalue = [0, 4]\nclass = y[1]"] ;
531 -> 533 ;
534 [label="X[24] <= 0.5\nentropy = 0.971\nsamples = 15\nvalue = [9, 6]\nclass = y[0]"] ;
530 -> 534 ;
535 [label="X[1] <= 0.713\nentropy = 0.994\nsamples = 11\nvalue = [5, 6]\nclass = y[1]"] ;
534 -> 535 ;
536 [label="X[1] <= 0.178\nentropy = 0.65\nsamples = 6\nvalue = [5, 1]\nclass = y[0]"] ;
535 -> 536 ;
537 [label="entropy = 0.0\nsamples = 1\nvalue = [0, 1]\nclass = y[1]"] ;
536 -> 537 ;
538 [label="entropy = 0.0\nsamples = 5\nvalue = [5, 0]\nclass = y[0]"] ;
536 -> 538 ;
539 [label="entropy = 0.0\nsamples = 5\nvalue = [0, 5]\nclass = y[1]"] ;
535 -> 539 ;
540 [label="entropy = 0.0\nsamples = 4\nvalue = [4, 0]\nclass = y[0]"] ;
534 -> 540 ;
541 [label="entropy = 0.0\nsamples = 3\nvalue = [0, 3]\nclass = y[1]"] ;
529 -> 541 ;
542 [label="entropy = 0.0\nsamples = 2\nvalue = [2, 0]\nclass = y[0]"] ;
528 -> 542 ;
543 [label="entropy = 0.0\nsamples = 4\nvalue = [0, 4]\nclass = y[1]"] ;
527 -> 543 ;
544 [label="entropy = 0.0\nsamples = 4\nvalue = [4, 0]\nclass = y[0]"] ;
526 -> 544 ;
545 [label="X[9] <= -0.77\nentropy = 0.358\nsamples = 177\nvalue = [165, 12]\nclass = y[0]"] ;
489 -> 545 ;
546 [label="entropy = 0.0\nsamples = 48\nvalue = [48, 0]\nclass = y[0]"] ;
545 -> 546 ;
547 [label="X[4] <= 0.064\nentropy = 0.446\nsamples = 129\nvalue = [117, 12]\nclass = y[0]"] ;
545 -> 547 ;
548 [label="entropy = 0.0\nsamples = 31\nvalue = [31, 0]\nclass = y[0]"] ;
547 -> 548 ;
549 [label="X[27] <= 0.5\nentropy = 0.536\nsamples = 98\nvalue = [86, 12]\nclass = y[0]"] ;
547 -> 549 ;
550 [label="X[0] <= 0.724\nentropy = 0.629\nsamples = 76\nvalue = [64, 12]\nclass = y[0]"] ;
549 -> 550 ;
551 [label="entropy = 0.0\nsamples = 13\nvalue = [13, 0]\nclass = y[0]"] ;
550 -> 551 ;
552 [label="X[0] <= 0.737\nentropy = 0.702\nsamples = 63\nvalue = [51, 12]\nclass = y[0]"] ;
550 -> 552 ;
553 [label="X[1] <= 1.248\nentropy = 0.918\nsamples = 3\nvalue = [1, 2]\nclass = y[1]"] ;
552 -> 553 ;
554 [label="entropy = 0.0\nsamples = 2\nvalue = [0, 2]\nclass = y[1]"] ;
553 -> 554 ;
555 [label="entropy = 0.0\nsamples = 1\nvalue = [1, 0]\nclass = y[0]"] ;
553 -> 555 ;
556 [label="X[2] <= 5.088\nentropy = 0.65\nsamples = 60\nvalue = [50, 10]\nclass = y[0]"] ;
552 -> 556 ;
557 [label="X[0] <= 1.589\nentropy = 0.585\nsamples = 57\nvalue = [49, 8]\nclass = y[0]"] ;
556 -> 557 ;
558 [label="X[3] <= 1.909\nentropy = 0.811\nsamples = 24\nvalue = [18, 6]\nclass = y[0]"] ;
557 -> 558 ;
559 [label="X[0] <= 1.447\nentropy = 0.918\nsamples = 18\nvalue = [12, 6]\nclass = y[0]"] ;
558 -> 559 ;
560 [label="X[21] <= 0.5\nentropy = 0.811\nsamples = 16\nvalue = [12, 4]\nclass = y[0]"] ;
559 -> 560 ;
561 [label="X[8] <= 0.115\nentropy = 0.971\nsamples = 10\nvalue = [6, 4]\nclass = y[0]"] ;
560 -> 561 ;
562 [label="X[2] <= 1.15\nentropy = 0.592\nsamples = 7\nvalue = [6, 1]\nclass = y[0]"] ;
561 -> 562 ;
563 [label="X[23] <= 0.5\nentropy = 1.0\nsamples = 2\nvalue = [1, 1]\nclass = y[0]"] ;
562 -> 563 ;
564 [label="entropy = 0.0\nsamples = 1\nvalue = [0, 1]\nclass = y[1]"] ;
563 -> 564 ;
565 [label="entropy = 0.0\nsamples = 1\nvalue = [1, 0]\nclass = y[0]"] ;
563 -> 565 ;
566 [label="entropy = 0.0\nsamples = 5\nvalue = [5, 0]\nclass = y[0]"] ;
562 -> 566 ;
567 [label="entropy = 0.0\nsamples = 3\nvalue = [0, 3]\nclass = y[1]"] ;
561 -> 567 ;
568 [label="entropy = 0.0\nsamples = 6\nvalue = [6, 0]\nclass = y[0]"] ;
560 -> 568 ;
569 [label="entropy = 0.0\nsamples = 2\nvalue = [0, 2]\nclass = y[1]"] ;
559 -> 569 ;
570 [label="entropy = 0.0\nsamples = 6\nvalue = [6, 0]\nclass = y[0]"] ;
558 -> 570 ;
571 [label="X[0] <= 2.753\nentropy = 0.33\nsamples = 33\nvalue = [31, 2]\nclass = y[0]"] ;
557 -> 571 ;
572 [label="entropy = 0.0\nsamples = 24\nvalue = [24, 0]\nclass = y[0]"] ;
571 -> 572 ;
573 [label="X[3] <= 1.909\nentropy = 0.764\nsamples = 9\nvalue = [7, 2]\nclass = y[0]"] ;
571 -> 573 ;
574 [label="entropy = 0.0\nsamples = 6\nvalue = [6, 0]\nclass = y[0]"] ;
573 -> 574 ;
575 [label="X[2] <= 2.332\nentropy = 0.918\nsamples = 3\nvalue = [1, 2]\nclass = y[1]"] ;
573 -> 575 ;
576 [label="entropy = 0.0\nsamples = 1\nvalue = [1, 0]\nclass = y[0]"] ;
575 -> 576 ;
577 [label="entropy = 0.0\nsamples = 2\nvalue = [0, 2]\nclass = y[1]"] ;
575 -> 577 ;
578 [label="X[0] <= 2.285\nentropy = 0.918\nsamples = 3\nvalue = [1, 2]\nclass = y[1]"] ;
556 -> 578 ;
579 [label="entropy = 0.0\nsamples = 1\nvalue = [1, 0]\nclass = y[0]"] ;
578 -> 579 ;
580 [label="entropy = 0.0\nsamples = 2\nvalue = [0, 2]\nclass = y[1]"] ;
578 -> 580 ;
581 [label="entropy = 0.0\nsamples = 22\nvalue = [22, 0]\nclass = y[0]"] ;
549 -> 581 ;
582 [label="X[2] <= -0.425\nentropy = 0.412\nsamples = 19005\nvalue = [1576, 17429]\nclass = y[1]"] ;
0 -> 582 [labeldistance=2.5, labelangle=-45, headlabel="False"] ;
583 [label="X[6] <= 0.738\nentropy = 0.008\nsamples = 15250\nvalue = [10, 15240]\nclass = y[1]"] ;
582 -> 583 ;
584 [label="X[7] <= 1.176\nentropy = 0.027\nsamples = 3705\nvalue = [10, 3695]\nclass = y[1]"] ;
583 -> 584 ;
585 [label="X[6] <= 0.475\nentropy = 0.015\nsamples = 3644\nvalue = [5, 3639]\nclass = y[1]"] ;
584 -> 585 ;
586 [label="X[0] <= 0.853\nentropy = 0.031\nsamples = 1561\nvalue = [5, 1556]\nclass = y[1]"] ;
585 -> 586 ;
587 [label="X[0] <= -0.277\nentropy = 0.015\nsamples = 1415\nvalue = [2, 1413]\nclass = y[1]"] ;
586 -> 587 ;
588 [label="entropy = 0.0\nsamples = 791\nvalue = [0, 791]\nclass = y[1]"] ;
587 -> 588 ;
589 [label="X[0] <= -0.275\nentropy = 0.031\nsamples = 624\nvalue = [2, 622]\nclass = y[1]"] ;
587 -> 589 ;
590 [label="X[15] <= 0.5\nentropy = 0.811\nsamples = 4\nvalue = [1, 3]\nclass = y[1]"] ;
589 -> 590 ;
591 [label="X[24] <= 0.5\nentropy = 1.0\nsamples = 2\nvalue = [1, 1]\nclass = y[0]"] ;
590 -> 591 ;
592 [label="entropy = 0.0\nsamples = 1\nvalue = [1, 0]\nclass = y[0]"] ;
591 -> 592 ;
593 [label="entropy = 0.0\nsamples = 1\nvalue = [0, 1]\nclass = y[1]"] ;
591 -> 593 ;
594 [label="entropy = 0.0\nsamples = 2\nvalue = [0, 2]\nclass = y[1]"] ;
590 -> 594 ;
595 [label="X[18] <= 0.5\nentropy = 0.017\nsamples = 620\nvalue = [1, 619]\nclass = y[1]"] ;
589 -> 595 ;
596 [label="X[0] <= -0.094\nentropy = 0.191\nsamples = 34\nvalue = [1, 33]\nclass = y[1]"] ;
595 -> 596 ;
597 [label="X[0] <= -0.127\nentropy = 0.503\nsamples = 9\nvalue = [1, 8]\nclass = y[1]"] ;
596 -> 597 ;
598 [label="entropy = 0.0\nsamples = 8\nvalue = [0, 8]\nclass = y[1]"] ;
597 -> 598 ;
599 [label="entropy = 0.0\nsamples = 1\nvalue = [1, 0]\nclass = y[0]"] ;
597 -> 599 ;
600 [label="entropy = 0.0\nsamples = 25\nvalue = [0, 25]\nclass = y[1]"] ;
596 -> 600 ;
601 [label="entropy = 0.0\nsamples = 586\nvalue = [0, 586]\nclass = y[1]"] ;
595 -> 601 ;
602 [label="X[12] <= 0.5\nentropy = 0.145\nsamples = 146\nvalue = [3, 143]\nclass = y[1]"] ;
586 -> 602 ;
603 [label="entropy = 0.0\nsamples = 76\nvalue = [0, 76]\nclass = y[1]"] ;
602 -> 603 ;
604 [label="X[0] <= 0.859\nentropy = 0.255\nsamples = 70\nvalue = [3, 67]\nclass = y[1]"] ;
602 -> 604 ;
605 [label="X[8] <= 0.115\nentropy = 1.0\nsamples = 2\nvalue = [1, 1]\nclass = y[0]"] ;
604 -> 605 ;
606 [label="entropy = 0.0\nsamples = 1\nvalue = [0, 1]\nclass = y[1]"] ;
605 -> 606 ;
607 [label="entropy = 0.0\nsamples = 1\nvalue = [1, 0]\nclass = y[0]"] ;
605 -> 607 ;
608 [label="X[0] <= 1.188\nentropy = 0.191\nsamples = 68\nvalue = [2, 66]\nclass = y[1]"] ;
604 -> 608 ;
609 [label="entropy = 0.0\nsamples = 32\nvalue = [0, 32]\nclass = y[1]"] ;
608 -> 609 ;
610 [label="X[0] <= 1.193\nentropy = 0.31\nsamples = 36\nvalue = [2, 34]\nclass = y[1]"] ;
608 -> 610 ;
611 [label="entropy = 0.0\nsamples = 1\nvalue = [1, 0]\nclass = y[0]"] ;
610 -> 611 ;
612 [label="X[4] <= -0.765\nentropy = 0.187\nsamples = 35\nvalue = [1, 34]\nclass = y[1]"] ;
610 -> 612 ;
613 [label="X[0] <= 1.517\nentropy = 0.811\nsamples = 4\nvalue = [1, 3]\nclass = y[1]"] ;
612 -> 613 ;
614 [label="entropy = 0.0\nsamples = 1\nvalue = [1, 0]\nclass = y[0]"] ;
613 -> 614 ;
615 [label="entropy = 0.0\nsamples = 3\nvalue = [0, 3]\nclass = y[1]"] ;
613 -> 615 ;
616 [label="entropy = 0.0\nsamples = 31\nvalue = [0, 31]\nclass = y[1]"] ;
612 -> 616 ;
617 [label="entropy = 0.0\nsamples = 2083\nvalue = [0, 2083]\nclass = y[1]"] ;
585 -> 617 ;
618 [label="X[3] <= 0.204\nentropy = 0.409\nsamples = 61\nvalue = [5, 56]\nclass = y[1]"] ;
584 -> 618 ;
619 [label="entropy = 0.0\nsamples = 41\nvalue = [0, 41]\nclass = y[1]"] ;
618 -> 619 ;
620 [label="X[0] <= 0.607\nentropy = 0.811\nsamples = 20\nvalue = [5, 15]\nclass = y[1]"] ;
618 -> 620 ;
621 [label="entropy = 0.0\nsamples = 6\nvalue = [0, 6]\nclass = y[1]"] ;
620 -> 621 ;
622 [label="X[0] <= 1.868\nentropy = 0.94\nsamples = 14\nvalue = [5, 9]\nclass = y[1]"] ;
620 -> 622 ;
623 [label="X[6] <= 0.475\nentropy = 1.0\nsamples = 10\nvalue = [5, 5]\nclass = y[0]"] ;
622 -> 623 ;
624 [label="entropy = 0.0\nsamples = 3\nvalue = [3, 0]\nclass = y[0]"] ;
623 -> 624 ;
625 [label="X[0] <= 1.664\nentropy = 0.863\nsamples = 7\nvalue = [2, 5]\nclass = y[1]"] ;
623 -> 625 ;
626 [label="X[9] <= 0.05\nentropy = 0.65\nsamples = 6\nvalue = [1, 5]\nclass = y[1]"] ;
625 -> 626 ;
627 [label="X[8] <= 0.115\nentropy = 1.0\nsamples = 2\nvalue = [1, 1]\nclass = y[0]"] ;
626 -> 627 ;
628 [label="entropy = 0.0\nsamples = 1\nvalue = [1, 0]\nclass = y[0]"] ;
627 -> 628 ;
629 [label="entropy = 0.0\nsamples = 1\nvalue = [0, 1]\nclass = y[1]"] ;
627 -> 629 ;
630 [label="entropy = 0.0\nsamples = 4\nvalue = [0, 4]\nclass = y[1]"] ;
626 -> 630 ;
631 [label="entropy = 0.0\nsamples = 1\nvalue = [1, 0]\nclass = y[0]"] ;
625 -> 631 ;
632 [label="entropy = 0.0\nsamples = 4\nvalue = [0, 4]\nclass = y[1]"] ;
622 -> 632 ;
633 [label="entropy = 0.0\nsamples = 11545\nvalue = [0, 11545]\nclass = y[1]"] ;
583 -> 633 ;
634 [label="X[1] <= 0.446\nentropy = 0.98\nsamples = 3755\nvalue = [1566, 2189]\nclass = y[1]"] ;
582 -> 634 ;
635 [label="X[17] <= 0.5\nentropy = 0.688\nsamples = 1726\nvalue = [317, 1409]\nclass = y[1]"] ;
634 -> 635 ;
636 [label="X[1] <= 0.178\nentropy = 0.927\nsamples = 703\nvalue = [241, 462]\nclass = y[1]"] ;
635 -> 636 ;
637 [label="X[7] <= 0.386\nentropy = 0.649\nsamples = 391\nvalue = [65, 326]\nclass = y[1]"] ;
636 -> 637 ;
638 [label="X[3] <= 0.204\nentropy = 0.989\nsamples = 66\nvalue = [29, 37]\nclass = y[1]"] ;
637 -> 638 ;
639 [label="X[0] <= 0.756\nentropy = 0.544\nsamples = 32\nvalue = [4, 28]\nclass = y[1]"] ;
638 -> 639 ;
640 [label="entropy = 0.0\nsamples = 22\nvalue = [0, 22]\nclass = y[1]"] ;
639 -> 640 ;
641 [label="X[19] <= 0.5\nentropy = 0.971\nsamples = 10\nvalue = [4, 6]\nclass = y[1]"] ;
639 -> 641 ;
642 [label="X[24] <= 0.5\nentropy = 0.918\nsamples = 6\nvalue = [4, 2]\nclass = y[0]"] ;
641 -> 642 ;
643 [label="X[12] <= 0.5\nentropy = 0.918\nsamples = 3\nvalue = [1, 2]\nclass = y[1]"] ;
642 -> 643 ;
644 [label="entropy = 0.0\nsamples = 2\nvalue = [0, 2]\nclass = y[1]"] ;
643 -> 644 ;
645 [label="entropy = 0.0\nsamples = 1\nvalue = [1, 0]\nclass = y[0]"] ;
643 -> 645 ;
646 [label="entropy = 0.0\nsamples = 3\nvalue = [3, 0]\nclass = y[0]"] ;
642 -> 646 ;
647 [label="entropy = 0.0\nsamples = 4\nvalue = [0, 4]\nclass = y[1]"] ;
641 -> 647 ;
648 [label="X[0] <= 0.521\nentropy = 0.834\nsamples = 34\nvalue = [25, 9]\nclass = y[0]"] ;
638 -> 648 ;
649 [label="entropy = 0.0\nsamples = 12\nvalue = [12, 0]\nclass = y[0]"] ;
648 -> 649 ;
650 [label="X[20] <= 0.5\nentropy = 0.976\nsamples = 22\nvalue = [13, 9]\nclass = y[0]"] ;
648 -> 650 ;
651 [label="entropy = 0.0\nsamples = 5\nvalue = [5, 0]\nclass = y[0]"] ;
650 -> 651 ;
652 [label="X[26] <= 0.5\nentropy = 0.998\nsamples = 17\nvalue = [8, 9]\nclass = y[1]"] ;
650 -> 652 ;
653 [label="X[4] <= -0.765\nentropy = 0.985\nsamples = 14\nvalue = [8, 6]\nclass = y[0]"] ;
652 -> 653 ;
654 [label="entropy = 0.0\nsamples = 4\nvalue = [4, 0]\nclass = y[0]"] ;
653 -> 654 ;
655 [label="X[0] <= 0.737\nentropy = 0.971\nsamples = 10\nvalue = [4, 6]\nclass = y[1]"] ;
653 -> 655 ;
656 [label="X[0] <= 0.642\nentropy = 0.918\nsamples = 6\nvalue = [4, 2]\nclass = y[0]"] ;
655 -> 656 ;
657 [label="X[25] <= 0.5\nentropy = 0.918\nsamples = 3\nvalue = [1, 2]\nclass = y[1]"] ;
656 -> 657 ;
658 [label="entropy = 0.0\nsamples = 2\nvalue = [0, 2]\nclass = y[1]"] ;
657 -> 658 ;
659 [label="entropy = 0.0\nsamples = 1\nvalue = [1, 0]\nclass = y[0]"] ;
657 -> 659 ;
660 [label="entropy = 0.0\nsamples = 3\nvalue = [3, 0]\nclass = y[0]"] ;
656 -> 660 ;
661 [label="entropy = 0.0\nsamples = 4\nvalue = [0, 4]\nclass = y[1]"] ;
655 -> 661 ;
662 [label="entropy = 0.0\nsamples = 3\nvalue = [0, 3]\nclass = y[1]"] ;
652 -> 662 ;
663 [label="X[1] <= -0.089\nentropy = 0.502\nsamples = 325\nvalue = [36, 289]\nclass = y[1]"] ;
637 -> 663 ;
664 [label="X[20] <= 0.5\nentropy = 0.249\nsamples = 145\nvalue = [6, 139]\nclass = y[1]"] ;
663 -> 664 ;
665 [label="X[6] <= 0.738\nentropy = 0.081\nsamples = 100\nvalue = [1, 99]\nclass = y[1]"] ;
664 -> 665 ;
666 [label="X[14] <= 0.5\nentropy = 0.544\nsamples = 8\nvalue = [1, 7]\nclass = y[1]"] ;
665 -> 666 ;
667 [label="entropy = 0.0\nsamples = 6\nvalue = [0, 6]\nclass = y[1]"] ;
666 -> 667 ;
668 [label="X[9] <= 0.869\nentropy = 1.0\nsamples = 2\nvalue = [1, 1]\nclass = y[0]"] ;
666 -> 668 ;
669 [label="entropy = 0.0\nsamples = 1\nvalue = [0, 1]\nclass = y[1]"] ;
668 -> 669 ;
670 [label="entropy = 0.0\nsamples = 1\nvalue = [1, 0]\nclass = y[0]"] ;
668 -> 670 ;
671 [label="entropy = 0.0\nsamples = 92\nvalue = [0, 92]\nclass = y[1]"] ;
665 -> 671 ;
672 [label="X[4] <= 0.064\nentropy = 0.503\nsamples = 45\nvalue = [5, 40]\nclass = y[1]"] ;
664 -> 672 ;
673 [label="X[0] <= 0.943\nentropy = 0.722\nsamples = 25\nvalue = [5, 20]\nclass = y[1]"] ;
672 -> 673 ;
674 [label="X[11] <= 0.5\nentropy = 0.353\nsamples = 15\nvalue = [1, 14]\nclass = y[1]"] ;
673 -> 674 ;
675 [label="X[4] <= -0.765\nentropy = 0.65\nsamples = 6\nvalue = [1, 5]\nclass = y[1]"] ;
674 -> 675 ;
676 [label="entropy = 0.0\nsamples = 3\nvalue = [0, 3]\nclass = y[1]"] ;
675 -> 676 ;
677 [label="X[8] <= 0.115\nentropy = 0.918\nsamples = 3\nvalue = [1, 2]\nclass = y[1]"] ;
675 -> 677 ;
678 [label="entropy = 0.0\nsamples = 1\nvalue = [1, 0]\nclass = y[0]"] ;
677 -> 678 ;
679 [label="entropy = 0.0\nsamples = 2\nvalue = [0, 2]\nclass = y[1]"] ;
677 -> 679 ;
680 [label="entropy = 0.0\nsamples = 9\nvalue = [0, 9]\nclass = y[1]"] ;
674 -> 680 ;
681 [label="X[7] <= 1.176\nentropy = 0.971\nsamples = 10\nvalue = [4, 6]\nclass = y[1]"] ;
673 -> 681 ;
682 [label="entropy = 0.0\nsamples = 3\nvalue = [3, 0]\nclass = y[0]"] ;
681 -> 682 ;
683 [label="X[9] <= 1.279\nentropy = 0.592\nsamples = 7\nvalue = [1, 6]\nclass = y[1]"] ;
681 -> 683 ;
684 [label="entropy = 0.0\nsamples = 1\nvalue = [1, 0]\nclass = y[0]"] ;
683 -> 684 ;
685 [label="entropy = 0.0\nsamples = 6\nvalue = [0, 6]\nclass = y[1]"] ;
683 -> 685 ;
686 [label="entropy = 0.0\nsamples = 20\nvalue = [0, 20]\nclass = y[1]"] ;
672 -> 686 ;
687 [label="X[3] <= 0.204\nentropy = 0.65\nsamples = 180\nvalue = [30, 150]\nclass = y[1]"] ;
663 -> 687 ;
688 [label="X[6] <= 1.264\nentropy = 0.454\nsamples = 84\nvalue = [8, 76]\nclass = y[1]"] ;
687 -> 688 ;
689 [label="X[9] <= 0.869\nentropy = 0.573\nsamples = 59\nvalue = [8, 51]\nclass = y[1]"] ;
688 -> 689 ;
690 [label="X[6] <= 0.475\nentropy = 0.216\nsamples = 29\nvalue = [1, 28]\nclass = y[1]"] ;
689 -> 690 ;
691 [label="X[9] <= 0.05\nentropy = 0.918\nsamples = 3\nvalue = [1, 2]\nclass = y[1]"] ;
690 -> 691 ;
692 [label="entropy = 0.0\nsamples = 2\nvalue = [0, 2]\nclass = y[1]"] ;
691 -> 692 ;
693 [label="entropy = 0.0\nsamples = 1\nvalue = [1, 0]\nclass = y[0]"] ;
691 -> 693 ;
694 [label="entropy = 0.0\nsamples = 26\nvalue = [0, 26]\nclass = y[1]"] ;
690 -> 694 ;
695 [label="X[0] <= 0.528\nentropy = 0.784\nsamples = 30\nvalue = [7, 23]\nclass = y[1]"] ;
689 -> 695 ;
696 [label="entropy = 0.0\nsamples = 7\nvalue = [0, 7]\nclass = y[1]"] ;
695 -> 696 ;
697 [label="X[10] <= 0.593\nentropy = 0.887\nsamples = 23\nvalue = [7, 16]\nclass = y[1]"] ;
695 -> 697 ;
698 [label="X[4] <= -0.765\nentropy = 0.619\nsamples = 13\nvalue = [2, 11]\nclass = y[1]"] ;
697 -> 698 ;
699 [label="X[8] <= 1.73\nentropy = 0.971\nsamples = 5\nvalue = [2, 3]\nclass = y[1]"] ;
698 -> 699 ;
700 [label="entropy = 0.0\nsamples = 3\nvalue = [0, 3]\nclass = y[1]"] ;
699 -> 700 ;
701 [label="entropy = 0.0\nsamples = 2\nvalue = [2, 0]\nclass = y[0]"] ;
699 -> 701 ;
702 [label="entropy = 0.0\nsamples = 8\nvalue = [0, 8]\nclass = y[1]"] ;
698 -> 702 ;
703 [label="X[6] <= 0.738\nentropy = 1.0\nsamples = 10\nvalue = [5, 5]\nclass = y[0]"] ;
697 -> 703 ;
704 [label="entropy = 0.0\nsamples = 2\nvalue = [2, 0]\nclass = y[0]"] ;
703 -> 704 ;
705 [label="X[0] <= 1.919\nentropy = 0.954\nsamples = 8\nvalue = [3, 5]\nclass = y[1]"] ;
703 -> 705 ;
706 [label="X[7] <= 1.176\nentropy = 1.0\nsamples = 6\nvalue = [3, 3]\nclass = y[0]"] ;
705 -> 706 ;
707 [label="X[0] <= 0.787\nentropy = 0.811\nsamples = 4\nvalue = [1, 3]\nclass = y[1]"] ;
706 -> 707 ;
708 [label="entropy = 0.0\nsamples = 1\nvalue = [1, 0]\nclass = y[0]"] ;
707 -> 708 ;
709 [label="entropy = 0.0\nsamples = 3\nvalue = [0, 3]\nclass = y[1]"] ;
707 -> 709 ;
710 [label="entropy = 0.0\nsamples = 2\nvalue = [2, 0]\nclass = y[0]"] ;
706 -> 710 ;
711 [label="entropy = 0.0\nsamples = 2\nvalue = [0, 2]\nclass = y[1]"] ;
705 -> 711 ;
712 [label="entropy = 0.0\nsamples = 25\nvalue = [0, 25]\nclass = y[1]"] ;
688 -> 712 ;
713 [label="X[4] <= 0.894\nentropy = 0.777\nsamples = 96\nvalue = [22, 74]\nclass = y[1]"] ;
687 -> 713 ;
714 [label="X[0] <= 3.236\nentropy = 0.84\nsamples = 78\nvalue = [21, 57]\nclass = y[1]"] ;
713 -> 714 ;
715 [label="X[21] <= 0.5\nentropy = 0.811\nsamples = 76\nvalue = [19, 57]\nclass = y[1]"] ;
714 -> 715 ;
716 [label="X[4] <= 0.064\nentropy = 0.684\nsamples = 55\nvalue = [10, 45]\nclass = y[1]"] ;
715 -> 716 ;
717 [label="X[9] <= 0.05\nentropy = 0.431\nsamples = 34\nvalue = [3, 31]\nclass = y[1]"] ;
716 -> 717 ;
718 [label="entropy = 0.0\nsamples = 1\nvalue = [1, 0]\nclass = y[0]"] ;
717 -> 718 ;
719 [label="X[0] <= 2.414\nentropy = 0.33\nsamples = 33\nvalue = [2, 31]\nclass = y[1]"] ;
717 -> 719 ;
720 [label="X[24] <= 0.5\nentropy = 0.206\nsamples = 31\nvalue = [1, 30]\nclass = y[1]"] ;
719 -> 720 ;
721 [label="X[0] <= 0.948\nentropy = 0.592\nsamples = 7\nvalue = [1, 6]\nclass = y[1]"] ;
720 -> 721 ;
722 [label="entropy = 0.0\nsamples = 1\nvalue = [1, 0]\nclass = y[0]"] ;
721 -> 722 ;
723 [label="entropy = 0.0\nsamples = 6\nvalue = [0, 6]\nclass = y[1]"] ;
721 -> 723 ;
724 [label="entropy = 0.0\nsamples = 24\nvalue = [0, 24]\nclass = y[1]"] ;
720 -> 724 ;
725 [label="X[0] <= 2.573\nentropy = 1.0\nsamples = 2\nvalue = [1, 1]\nclass = y[0]"] ;
719 -> 725 ;
726 [label="entropy = 0.0\nsamples = 1\nvalue = [1, 0]\nclass = y[0]"] ;
725 -> 726 ;
727 [label="entropy = 0.0\nsamples = 1\nvalue = [0, 1]\nclass = y[1]"] ;
725 -> 727 ;
728 [label="X[25] <= 0.5\nentropy = 0.918\nsamples = 21\nvalue = [7, 14]\nclass = y[1]"] ;
716 -> 728 ;
729 [label="X[11] <= 0.5\nentropy = 0.991\nsamples = 9\nvalue = [5, 4]\nclass = y[0]"] ;
728 -> 729 ;
730 [label="X[0] <= 1.187\nentropy = 0.918\nsamples = 6\nvalue = [2, 4]\nclass = y[1]"] ;
729 -> 730 ;
731 [label="entropy = 0.0\nsamples = 3\nvalue = [0, 3]\nclass = y[1]"] ;
730 -> 731 ;
732 [label="X[6] <= 1.264\nentropy = 0.918\nsamples = 3\nvalue = [2, 1]\nclass = y[0]"] ;
730 -> 732 ;
733 [label="entropy = 0.0\nsamples = 2\nvalue = [2, 0]\nclass = y[0]"] ;
732 -> 733 ;
734 [label="entropy = 0.0\nsamples = 1\nvalue = [0, 1]\nclass = y[1]"] ;
732 -> 734 ;
735 [label="entropy = 0.0\nsamples = 3\nvalue = [3, 0]\nclass = y[0]"] ;
729 -> 735 ;
736 [label="X[0] <= 1.4\nentropy = 0.65\nsamples = 12\nvalue = [2, 10]\nclass = y[1]"] ;
728 -> 736 ;
737 [label="X[0] <= 1.103\nentropy = 1.0\nsamples = 4\nvalue = [2, 2]\nclass = y[0]"] ;
736 -> 737 ;
738 [label="entropy = 0.0\nsamples = 2\nvalue = [0, 2]\nclass = y[1]"] ;
737 -> 738 ;
739 [label="entropy = 0.0\nsamples = 2\nvalue = [2, 0]\nclass = y[0]"] ;
737 -> 739 ;
740 [label="entropy = 0.0\nsamples = 8\nvalue = [0, 8]\nclass = y[1]"] ;
736 -> 740 ;
741 [label="X[4] <= -0.765\nentropy = 0.985\nsamples = 21\nvalue = [9, 12]\nclass = y[1]"] ;
715 -> 741 ;
742 [label="X[15] <= 0.5\nentropy = 0.65\nsamples = 6\nvalue = [5, 1]\nclass = y[0]"] ;
741 -> 742 ;
743 [label="X[7] <= 1.176\nentropy = 1.0\nsamples = 2\nvalue = [1, 1]\nclass = y[0]"] ;
742 -> 743 ;
744 [label="entropy = 0.0\nsamples = 1\nvalue = [0, 1]\nclass = y[1]"] ;
743 -> 744 ;
745 [label="entropy = 0.0\nsamples = 1\nvalue = [1, 0]\nclass = y[0]"] ;
743 -> 745 ;
746 [label="entropy = 0.0\nsamples = 4\nvalue = [4, 0]\nclass = y[0]"] ;
742 -> 746 ;
747 [label="X[9] <= 0.869\nentropy = 0.837\nsamples = 15\nvalue = [4, 11]\nclass = y[1]"] ;
741 -> 747 ;
748 [label="X[12] <= 0.5\nentropy = 0.918\nsamples = 6\nvalue = [4, 2]\nclass = y[0]"] ;
747 -> 748 ;
749 [label="entropy = 0.0\nsamples = 2\nvalue = [0, 2]\nclass = y[1]"] ;
748 -> 749 ;
750 [label="entropy = 0.0\nsamples = 4\nvalue = [4, 0]\nclass = y[0]"] ;
748 -> 750 ;
751 [label="entropy = 0.0\nsamples = 9\nvalue = [0, 9]\nclass = y[1]"] ;
747 -> 751 ;
752 [label="entropy = 0.0\nsamples = 2\nvalue = [2, 0]\nclass = y[0]"] ;
714 -> 752 ;
753 [label="X[6] <= 0.475\nentropy = 0.31\nsamples = 18\nvalue = [1, 17]\nclass = y[1]"] ;
713 -> 753 ;
754 [label="X[7] <= 1.176\nentropy = 1.0\nsamples = 2\nvalue = [1, 1]\nclass = y[0]"] ;
753 -> 754 ;
755 [label="entropy = 0.0\nsamples = 1\nvalue = [0, 1]\nclass = y[1]"] ;
754 -> 755 ;
756 [label="entropy = 0.0\nsamples = 1\nvalue = [1, 0]\nclass = y[0]"] ;
754 -> 756 ;
757 [label="entropy = 0.0\nsamples = 16\nvalue = [0, 16]\nclass = y[1]"] ;
753 -> 757 ;
758 [label="X[6] <= 0.738\nentropy = 0.988\nsamples = 312\nvalue = [176, 136]\nclass = y[0]"] ;
636 -> 758 ;
759 [label="X[6] <= 0.475\nentropy = 0.757\nsamples = 151\nvalue = [118, 33]\nclass = y[0]"] ;
758 -> 759 ;
760 [label="X[3] <= 0.204\nentropy = 0.569\nsamples = 82\nvalue = [71, 11]\nclass = y[0]"] ;
759 -> 760 ;
761 [label="X[25] <= 0.5\nentropy = 0.855\nsamples = 25\nvalue = [18, 7]\nclass = y[0]"] ;
760 -> 761 ;
762 [label="X[15] <= 0.5\nentropy = 0.65\nsamples = 18\nvalue = [15, 3]\nclass = y[0]"] ;
761 -> 762 ;
763 [label="X[9] <= 0.05\nentropy = 0.954\nsamples = 8\nvalue = [5, 3]\nclass = y[0]"] ;
762 -> 763 ;
764 [label="entropy = 0.0\nsamples = 2\nvalue = [2, 0]\nclass = y[0]"] ;
763 -> 764 ;
765 [label="X[8] <= 1.73\nentropy = 1.0\nsamples = 6\nvalue = [3, 3]\nclass = y[0]"] ;
763 -> 765 ;
766 [label="X[2] <= 0.363\nentropy = 0.971\nsamples = 5\nvalue = [2, 3]\nclass = y[1]"] ;
765 -> 766 ;
767 [label="X[0] <= 1.304\nentropy = 0.811\nsamples = 4\nvalue = [1, 3]\nclass = y[1]"] ;
766 -> 767 ;
768 [label="entropy = 0.0\nsamples = 3\nvalue = [0, 3]\nclass = y[1]"] ;
767 -> 768 ;
769 [label="entropy = 0.0\nsamples = 1\nvalue = [1, 0]\nclass = y[0]"] ;
767 -> 769 ;
770 [label="entropy = 0.0\nsamples = 1\nvalue = [1, 0]\nclass = y[0]"] ;
766 -> 770 ;
771 [label="entropy = 0.0\nsamples = 1\nvalue = [1, 0]\nclass = y[0]"] ;
765 -> 771 ;
772 [label="entropy = 0.0\nsamples = 10\nvalue = [10, 0]\nclass = y[0]"] ;
762 -> 772 ;
773 [label="X[0] <= 0.723\nentropy = 0.985\nsamples = 7\nvalue = [3, 4]\nclass = y[1]"] ;
761 -> 773 ;
774 [label="entropy = 0.0\nsamples = 2\nvalue = [0, 2]\nclass = y[1]"] ;
773 -> 774 ;
775 [label="X[0] <= 1.629\nentropy = 0.971\nsamples = 5\nvalue = [3, 2]\nclass = y[0]"] ;
773 -> 775 ;
776 [label="entropy = 0.0\nsamples = 3\nvalue = [3, 0]\nclass = y[0]"] ;
775 -> 776 ;
777 [label="entropy = 0.0\nsamples = 2\nvalue = [0, 2]\nclass = y[1]"] ;
775 -> 777 ;
778 [label="X[23] <= 0.5\nentropy = 0.367\nsamples = 57\nvalue = [53, 4]\nclass = y[0]"] ;
760 -> 778 ;
779 [label="entropy = 0.0\nsamples = 31\nvalue = [31, 0]\nclass = y[0]"] ;
778 -> 779 ;
780 [label="X[0] <= 0.206\nentropy = 0.619\nsamples = 26\nvalue = [22, 4]\nclass = y[0]"] ;
778 -> 780 ;
781 [label="entropy = 0.0\nsamples = 1\nvalue = [0, 1]\nclass = y[1]"] ;
780 -> 781 ;
782 [label="X[0] <= 0.802\nentropy = 0.529\nsamples = 25\nvalue = [22, 3]\nclass = y[0]"] ;
780 -> 782 ;
783 [label="entropy = 0.0\nsamples = 8\nvalue = [8, 0]\nclass = y[0]"] ;
782 -> 783 ;
784 [label="X[0] <= 0.936\nentropy = 0.672\nsamples = 17\nvalue = [14, 3]\nclass = y[0]"] ;
782 -> 784 ;
785 [label="entropy = 0.0\nsamples = 2\nvalue = [0, 2]\nclass = y[1]"] ;
784 -> 785 ;
786 [label="X[0] <= 2.051\nentropy = 0.353\nsamples = 15\nvalue = [14, 1]\nclass = y[0]"] ;
784 -> 786 ;
787 [label="entropy = 0.0\nsamples = 13\nvalue = [13, 0]\nclass = y[0]"] ;
786 -> 787 ;
788 [label="X[26] <= 0.5\nentropy = 1.0\nsamples = 2\nvalue = [1, 1]\nclass = y[0]"] ;
786 -> 788 ;
789 [label="entropy = 0.0\nsamples = 1\nvalue = [1, 0]\nclass = y[0]"] ;
788 -> 789 ;
790 [label="entropy = 0.0\nsamples = 1\nvalue = [0, 1]\nclass = y[1]"] ;
788 -> 790 ;
791 [label="X[0] <= 0.103\nentropy = 0.903\nsamples = 69\nvalue = [47, 22]\nclass = y[0]"] ;
759 -> 791 ;
792 [label="entropy = 0.0\nsamples = 4\nvalue = [4, 0]\nclass = y[0]"] ;
791 -> 792 ;
793 [label="X[20] <= 0.5\nentropy = 0.923\nsamples = 65\nvalue = [43, 22]\nclass = y[0]"] ;
791 -> 793 ;
794 [label="X[4] <= 0.894\nentropy = 0.99\nsamples = 34\nvalue = [19, 15]\nclass = y[0]"] ;
793 -> 794 ;
795 [label="X[0] <= 0.744\nentropy = 0.904\nsamples = 25\nvalue = [17, 8]\nclass = y[0]"] ;
794 -> 795 ;
796 [label="X[9] <= -0.36\nentropy = 0.811\nsamples = 4\nvalue = [1, 3]\nclass = y[1]"] ;
795 -> 796 ;
797 [label="entropy = 0.0\nsamples = 1\nvalue = [1, 0]\nclass = y[0]"] ;
796 -> 797 ;
798 [label="entropy = 0.0\nsamples = 3\nvalue = [0, 3]\nclass = y[1]"] ;
796 -> 798 ;
799 [label="X[0] <= 0.953\nentropy = 0.792\nsamples = 21\nvalue = [16, 5]\nclass = y[0]"] ;
795 -> 799 ;
800 [label="entropy = 0.0\nsamples = 6\nvalue = [6, 0]\nclass = y[0]"] ;
799 -> 800 ;
801 [label="X[4] <= -0.765\nentropy = 0.918\nsamples = 15\nvalue = [10, 5]\nclass = y[0]"] ;
799 -> 801 ;
802 [label="entropy = 0.0\nsamples = 3\nvalue = [3, 0]\nclass = y[0]"] ;
801 -> 802 ;
803 [label="X[8] <= 3.344\nentropy = 0.98\nsamples = 12\nvalue = [7, 5]\nclass = y[0]"] ;
801 -> 803 ;
804 [label="X[25] <= 0.5\nentropy = 0.946\nsamples = 11\nvalue = [7, 4]\nclass = y[0]"] ;
803 -> 804 ;
805 [label="entropy = 0.0\nsamples = 3\nvalue = [3, 0]\nclass = y[0]"] ;
804 -> 805 ;
806 [label="X[0] <= 1.181\nentropy = 1.0\nsamples = 8\nvalue = [4, 4]\nclass = y[0]"] ;
804 -> 806 ;
807 [label="entropy = 0.0\nsamples = 2\nvalue = [0, 2]\nclass = y[1]"] ;
806 -> 807 ;
808 [label="X[14] <= 0.5\nentropy = 0.918\nsamples = 6\nvalue = [4, 2]\nclass = y[0]"] ;
806 -> 808 ;
809 [label="X[0] <= 1.2\nentropy = 1.0\nsamples = 4\nvalue = [2, 2]\nclass = y[0]"] ;
808 -> 809 ;
810 [label="entropy = 0.0\nsamples = 1\nvalue = [1, 0]\nclass = y[0]"] ;
809 -> 810 ;
811 [label="X[9] <= 1.689\nentropy = 0.918\nsamples = 3\nvalue = [1, 2]\nclass = y[1]"] ;
809 -> 811 ;
812 [label="entropy = 0.0\nsamples = 2\nvalue = [0, 2]\nclass = y[1]"] ;
811 -> 812 ;
813 [label="entropy = 0.0\nsamples = 1\nvalue = [1, 0]\nclass = y[0]"] ;
811 -> 813 ;
814 [label="entropy = 0.0\nsamples = 2\nvalue = [2, 0]\nclass = y[0]"] ;
808 -> 814 ;
815 [label="entropy = 0.0\nsamples = 1\nvalue = [0, 1]\nclass = y[1]"] ;
803 -> 815 ;
816 [label="X[0] <= 0.688\nentropy = 0.764\nsamples = 9\nvalue = [2, 7]\nclass = y[1]"] ;
794 -> 816 ;
817 [label="entropy = 0.0\nsamples = 1\nvalue = [1, 0]\nclass = y[0]"] ;
816 -> 817 ;
818 [label="X[0] <= 1.72\nentropy = 0.544\nsamples = 8\nvalue = [1, 7]\nclass = y[1]"] ;
816 -> 818 ;
819 [label="entropy = 0.0\nsamples = 4\nvalue = [0, 4]\nclass = y[1]"] ;
818 -> 819 ;
820 [label="X[0] <= 1.91\nentropy = 0.811\nsamples = 4\nvalue = [1, 3]\nclass = y[1]"] ;
818 -> 820 ;
821 [label="entropy = 0.0\nsamples = 1\nvalue = [1, 0]\nclass = y[0]"] ;
820 -> 821 ;
822 [label="entropy = 0.0\nsamples = 3\nvalue = [0, 3]\nclass = y[1]"] ;
820 -> 822 ;
823 [label="X[0] <= 0.269\nentropy = 0.771\nsamples = 31\nvalue = [24, 7]\nclass = y[0]"] ;
793 -> 823 ;
824 [label="entropy = 0.0\nsamples = 1\nvalue = [0, 1]\nclass = y[1]"] ;
823 -> 824 ;
825 [label="X[11] <= 0.5\nentropy = 0.722\nsamples = 30\nvalue = [24, 6]\nclass = y[0]"] ;
823 -> 825 ;
826 [label="X[7] <= 1.176\nentropy = 0.896\nsamples = 16\nvalue = [11, 5]\nclass = y[0]"] ;
825 -> 826 ;
827 [label="X[0] <= 1.456\nentropy = 0.98\nsamples = 12\nvalue = [7, 5]\nclass = y[0]"] ;
826 -> 827 ;
828 [label="X[25] <= 0.5\nentropy = 0.881\nsamples = 10\nvalue = [7, 3]\nclass = y[0]"] ;
827 -> 828 ;
829 [label="X[15] <= 0.5\nentropy = 1.0\nsamples = 6\nvalue = [3, 3]\nclass = y[0]"] ;
828 -> 829 ;
830 [label="entropy = 0.0\nsamples = 2\nvalue = [0, 2]\nclass = y[1]"] ;
829 -> 830 ;
831 [label="X[4] <= 0.479\nentropy = 0.811\nsamples = 4\nvalue = [3, 1]\nclass = y[0]"] ;
829 -> 831 ;
832 [label="entropy = 0.0\nsamples = 2\nvalue = [2, 0]\nclass = y[0]"] ;
831 -> 832 ;
833 [label="X[24] <= 0.5\nentropy = 1.0\nsamples = 2\nvalue = [1, 1]\nclass = y[0]"] ;
831 -> 833 ;
834 [label="entropy = 0.0\nsamples = 1\nvalue = [1, 0]\nclass = y[0]"] ;
833 -> 834 ;
835 [label="entropy = 0.0\nsamples = 1\nvalue = [0, 1]\nclass = y[1]"] ;
833 -> 835 ;
836 [label="entropy = 0.0\nsamples = 4\nvalue = [4, 0]\nclass = y[0]"] ;
828 -> 836 ;
837 [label="entropy = 0.0\nsamples = 2\nvalue = [0, 2]\nclass = y[1]"] ;
827 -> 837 ;
838 [label="entropy = 0.0\nsamples = 4\nvalue = [4, 0]\nclass = y[0]"] ;
826 -> 838 ;
839 [label="X[0] <= 1.877\nentropy = 0.371\nsamples = 14\nvalue = [13, 1]\nclass = y[0]"] ;
825 -> 839 ;
840 [label="entropy = 0.0\nsamples = 11\nvalue = [11, 0]\nclass = y[0]"] ;
839 -> 840 ;
841 [label="X[3] <= 1.909\nentropy = 0.918\nsamples = 3\nvalue = [2, 1]\nclass = y[0]"] ;
839 -> 841 ;
842 [label="entropy = 0.0\nsamples = 2\nvalue = [2, 0]\nclass = y[0]"] ;
841 -> 842 ;
843 [label="entropy = 0.0\nsamples = 1\nvalue = [0, 1]\nclass = y[1]"] ;
841 -> 843 ;
844 [label="X[6] <= 1.001\nentropy = 0.943\nsamples = 161\nvalue = [58, 103]\nclass = y[1]"] ;
758 -> 844 ;
845 [label="X[27] <= 0.5\nentropy = 1.0\nsamples = 75\nvalue = [37, 38]\nclass = y[1]"] ;
844 -> 845 ;
846 [label="X[9] <= 1.689\nentropy = 0.944\nsamples = 47\nvalue = [17, 30]\nclass = y[1]"] ;
845 -> 846 ;
847 [label="X[2] <= 0.363\nentropy = 0.995\nsamples = 35\nvalue = [16, 19]\nclass = y[1]"] ;
846 -> 847 ;
848 [label="X[11] <= 0.5\nentropy = 0.983\nsamples = 26\nvalue = [15, 11]\nclass = y[0]"] ;
847 -> 848 ;
849 [label="X[0] <= 0.039\nentropy = 0.779\nsamples = 13\nvalue = [10, 3]\nclass = y[0]"] ;
848 -> 849 ;
850 [label="entropy = 0.0\nsamples = 1\nvalue = [0, 1]\nclass = y[1]"] ;
849 -> 850 ;
851 [label="X[7] <= 2.756\nentropy = 0.65\nsamples = 12\nvalue = [10, 2]\nclass = y[0]"] ;
849 -> 851 ;
852 [label="X[8] <= 0.115\nentropy = 0.439\nsamples = 11\nvalue = [10, 1]\nclass = y[0]"] ;
851 -> 852 ;
853 [label="entropy = 0.0\nsamples = 7\nvalue = [7, 0]\nclass = y[0]"] ;
852 -> 853 ;
854 [label="X[20] <= 0.5\nentropy = 0.811\nsamples = 4\nvalue = [3, 1]\nclass = y[0]"] ;
852 -> 854 ;
855 [label="entropy = 0.0\nsamples = 3\nvalue = [3, 0]\nclass = y[0]"] ;
854 -> 855 ;
856 [label="entropy = 0.0\nsamples = 1\nvalue = [0, 1]\nclass = y[1]"] ;
854 -> 856 ;
857 [label="entropy = 0.0\nsamples = 1\nvalue = [0, 1]\nclass = y[1]"] ;
851 -> 857 ;
858 [label="X[4] <= 0.894\nentropy = 0.961\nsamples = 13\nvalue = [5, 8]\nclass = y[1]"] ;
848 -> 858 ;
859 [label="X[24] <= 0.5\nentropy = 1.0\nsamples = 10\nvalue = [5, 5]\nclass = y[0]"] ;
858 -> 859 ;
860 [label="entropy = 0.0\nsamples = 3\nvalue = [3, 0]\nclass = y[0]"] ;
859 -> 860 ;
861 [label="X[21] <= 0.5\nentropy = 0.863\nsamples = 7\nvalue = [2, 5]\nclass = y[1]"] ;
859 -> 861 ;
862 [label="entropy = 0.0\nsamples = 4\nvalue = [0, 4]\nclass = y[1]"] ;
861 -> 862 ;
863 [label="X[25] <= 0.5\nentropy = 0.918\nsamples = 3\nvalue = [2, 1]\nclass = y[0]"] ;
861 -> 863 ;
864 [label="entropy = 0.0\nsamples = 1\nvalue = [0, 1]\nclass = y[1]"] ;
863 -> 864 ;
865 [label="entropy = 0.0\nsamples = 2\nvalue = [2, 0]\nclass = y[0]"] ;
863 -> 865 ;
866 [label="entropy = 0.0\nsamples = 3\nvalue = [0, 3]\nclass = y[1]"] ;
858 -> 866 ;
867 [label="X[0] <= 2.538\nentropy = 0.503\nsamples = 9\nvalue = [1, 8]\nclass = y[1]"] ;
847 -> 867 ;
868 [label="entropy = 0.0\nsamples = 7\nvalue = [0, 7]\nclass = y[1]"] ;
867 -> 868 ;
869 [label="X[9] <= 0.869\nentropy = 1.0\nsamples = 2\nvalue = [1, 1]\nclass = y[0]"] ;
867 -> 869 ;
870 [label="entropy = 0.0\nsamples = 1\nvalue = [0, 1]\nclass = y[1]"] ;
869 -> 870 ;
871 [label="entropy = 0.0\nsamples = 1\nvalue = [1, 0]\nclass = y[0]"] ;
869 -> 871 ;
872 [label="X[2] <= 1.15\nentropy = 0.414\nsamples = 12\nvalue = [1, 11]\nclass = y[1]"] ;
846 -> 872 ;
873 [label="entropy = 0.0\nsamples = 11\nvalue = [0, 11]\nclass = y[1]"] ;
872 -> 873 ;
874 [label="entropy = 0.0\nsamples = 1\nvalue = [1, 0]\nclass = y[0]"] ;
872 -> 874 ;
875 [label="X[4] <= -0.765\nentropy = 0.863\nsamples = 28\nvalue = [20, 8]\nclass = y[0]"] ;
845 -> 875 ;
876 [label="entropy = 0.0\nsamples = 7\nvalue = [7, 0]\nclass = y[0]"] ;
875 -> 876 ;
877 [label="X[9] <= 0.05\nentropy = 0.959\nsamples = 21\nvalue = [13, 8]\nclass = y[0]"] ;
875 -> 877 ;
878 [label="entropy = 0.0\nsamples = 3\nvalue = [3, 0]\nclass = y[0]"] ;
877 -> 878 ;
879 [label="X[0] <= 1.255\nentropy = 0.991\nsamples = 18\nvalue = [10, 8]\nclass = y[0]"] ;
877 -> 879 ;
880 [label="X[4] <= 0.064\nentropy = 0.89\nsamples = 13\nvalue = [9, 4]\nclass = y[0]"] ;
879 -> 880 ;
881 [label="X[20] <= 0.5\nentropy = 0.544\nsamples = 8\nvalue = [7, 1]\nclass = y[0]"] ;
880 -> 881 ;
882 [label="entropy = 0.0\nsamples = 5\nvalue = [5, 0]\nclass = y[0]"] ;
881 -> 882 ;
883 [label="X[0] <= 0.725\nentropy = 0.918\nsamples = 3\nvalue = [2, 1]\nclass = y[0]"] ;
881 -> 883 ;
884 [label="entropy = 0.0\nsamples = 2\nvalue = [2, 0]\nclass = y[0]"] ;
883 -> 884 ;
885 [label="entropy = 0.0\nsamples = 1\nvalue = [0, 1]\nclass = y[1]"] ;
883 -> 885 ;
886 [label="X[0] <= 0.599\nentropy = 0.971\nsamples = 5\nvalue = [2, 3]\nclass = y[1]"] ;
880 -> 886 ;
887 [label="entropy = 0.0\nsamples = 3\nvalue = [0, 3]\nclass = y[1]"] ;
886 -> 887 ;
888 [label="entropy = 0.0\nsamples = 2\nvalue = [2, 0]\nclass = y[0]"] ;
886 -> 888 ;
889 [label="X[2] <= 0.363\nentropy = 0.722\nsamples = 5\nvalue = [1, 4]\nclass = y[1]"] ;
879 -> 889 ;
890 [label="entropy = 0.0\nsamples = 4\nvalue = [0, 4]\nclass = y[1]"] ;
889 -> 890 ;
891 [label="entropy = 0.0\nsamples = 1\nvalue = [1, 0]\nclass = y[0]"] ;
889 -> 891 ;
892 [label="X[0] <= 2.482\nentropy = 0.802\nsamples = 86\nvalue = [21, 65]\nclass = y[1]"] ;
844 -> 892 ;
893 [label="X[24] <= 0.5\nentropy = 0.687\nsamples = 71\nvalue = [13, 58]\nclass = y[1]"] ;
892 -> 893 ;
894 [label="X[10] <= 0.593\nentropy = 0.211\nsamples = 30\nvalue = [1, 29]\nclass = y[1]"] ;
893 -> 894 ;
895 [label="entropy = 0.0\nsamples = 20\nvalue = [0, 20]\nclass = y[1]"] ;
894 -> 895 ;
896 [label="X[0] <= 1.064\nentropy = 0.469\nsamples = 10\nvalue = [1, 9]\nclass = y[1]"] ;
894 -> 896 ;
897 [label="X[0] <= 0.99\nentropy = 0.811\nsamples = 4\nvalue = [1, 3]\nclass = y[1]"] ;
896 -> 897 ;
898 [label="entropy = 0.0\nsamples = 3\nvalue = [0, 3]\nclass = y[1]"] ;
897 -> 898 ;
899 [label="entropy = 0.0\nsamples = 1\nvalue = [1, 0]\nclass = y[0]"] ;
897 -> 899 ;
900 [label="entropy = 0.0\nsamples = 6\nvalue = [0, 6]\nclass = y[1]"] ;
896 -> 900 ;
901 [label="X[27] <= 0.5\nentropy = 0.872\nsamples = 41\nvalue = [12, 29]\nclass = y[1]"] ;
893 -> 901 ;
902 [label="X[0] <= 2.231\nentropy = 0.592\nsamples = 21\nvalue = [3, 18]\nclass = y[1]"] ;
901 -> 902 ;
903 [label="X[0] <= 1.52\nentropy = 0.469\nsamples = 20\nvalue = [2, 18]\nclass = y[1]"] ;
902 -> 903 ;
904 [label="X[0] <= 1.451\nentropy = 0.722\nsamples = 10\nvalue = [2, 8]\nclass = y[1]"] ;
903 -> 904 ;
905 [label="X[8] <= 1.73\nentropy = 0.503\nsamples = 9\nvalue = [1, 8]\nclass = y[1]"] ;
904 -> 905 ;
906 [label="entropy = 0.0\nsamples = 7\nvalue = [0, 7]\nclass = y[1]"] ;
905 -> 906 ;
907 [label="X[8] <= 3.344\nentropy = 1.0\nsamples = 2\nvalue = [1, 1]\nclass = y[0]"] ;
905 -> 907 ;
908 [label="entropy = 0.0\nsamples = 1\nvalue = [1, 0]\nclass = y[0]"] ;
907 -> 908 ;
909 [label="entropy = 0.0\nsamples = 1\nvalue = [0, 1]\nclass = y[1]"] ;
907 -> 909 ;
910 [label="entropy = 0.0\nsamples = 1\nvalue = [1, 0]\nclass = y[0]"] ;
904 -> 910 ;
911 [label="entropy = 0.0\nsamples = 10\nvalue = [0, 10]\nclass = y[1]"] ;
903 -> 911 ;
912 [label="entropy = 0.0\nsamples = 1\nvalue = [1, 0]\nclass = y[0]"] ;
902 -> 912 ;
913 [label="X[0] <= 2.086\nentropy = 0.993\nsamples = 20\nvalue = [9, 11]\nclass = y[1]"] ;
901 -> 913 ;
914 [label="X[0] <= 1.05\nentropy = 0.998\nsamples = 17\nvalue = [9, 8]\nclass = y[0]"] ;
913 -> 914 ;
915 [label="entropy = 0.0\nsamples = 2\nvalue = [2, 0]\nclass = y[0]"] ;
914 -> 915 ;
916 [label="X[9] <= 1.689\nentropy = 0.997\nsamples = 15\nvalue = [7, 8]\nclass = y[1]"] ;
914 -> 916 ;
917 [label="X[0] <= 1.642\nentropy = 0.946\nsamples = 11\nvalue = [7, 4]\nclass = y[0]"] ;
916 -> 917 ;
918 [label="X[0] <= 1.503\nentropy = 0.991\nsamples = 9\nvalue = [5, 4]\nclass = y[0]"] ;
917 -> 918 ;
919 [label="X[0] <= 1.146\nentropy = 0.863\nsamples = 7\nvalue = [5, 2]\nclass = y[0]"] ;
918 -> 919 ;
920 [label="X[21] <= 0.5\nentropy = 0.918\nsamples = 3\nvalue = [1, 2]\nclass = y[1]"] ;
919 -> 920 ;
921 [label="entropy = 0.0\nsamples = 2\nvalue = [0, 2]\nclass = y[1]"] ;
920 -> 921 ;
922 [label="entropy = 0.0\nsamples = 1\nvalue = [1, 0]\nclass = y[0]"] ;
920 -> 922 ;
923 [label="entropy = 0.0\nsamples = 4\nvalue = [4, 0]\nclass = y[0]"] ;
919 -> 923 ;
924 [label="entropy = 0.0\nsamples = 2\nvalue = [0, 2]\nclass = y[1]"] ;
918 -> 924 ;
925 [label="entropy = 0.0\nsamples = 2\nvalue = [2, 0]\nclass = y[0]"] ;
917 -> 925 ;
926 [label="entropy = 0.0\nsamples = 4\nvalue = [0, 4]\nclass = y[1]"] ;
916 -> 926 ;
927 [label="entropy = 0.0\nsamples = 3\nvalue = [0, 3]\nclass = y[1]"] ;
913 -> 927 ;
928 [label="X[6] <= 1.264\nentropy = 0.997\nsamples = 15\nvalue = [8, 7]\nclass = y[0]"] ;
892 -> 928 ;
929 [label="X[0] <= 2.934\nentropy = 0.845\nsamples = 11\nvalue = [8, 3]\nclass = y[0]"] ;
928 -> 929 ;
930 [label="entropy = 0.0\nsamples = 6\nvalue = [6, 0]\nclass = y[0]"] ;
929 -> 930 ;
931 [label="X[9] <= 0.869\nentropy = 0.971\nsamples = 5\nvalue = [2, 3]\nclass = y[1]"] ;
929 -> 931 ;
932 [label="entropy = 0.0\nsamples = 2\nvalue = [0, 2]\nclass = y[1]"] ;
931 -> 932 ;
933 [label="X[7] <= 4.337\nentropy = 0.918\nsamples = 3\nvalue = [2, 1]\nclass = y[0]"] ;
931 -> 933 ;
934 [label="entropy = 0.0\nsamples = 2\nvalue = [2, 0]\nclass = y[0]"] ;
933 -> 934 ;
935 [label="entropy = 0.0\nsamples = 1\nvalue = [0, 1]\nclass = y[1]"] ;
933 -> 935 ;
936 [label="entropy = 0.0\nsamples = 4\nvalue = [0, 4]\nclass = y[1]"] ;
928 -> 936 ;
937 [label="X[7] <= -0.404\nentropy = 0.382\nsamples = 1023\nvalue = [76, 947]\nclass = y[1]"] ;
635 -> 937 ;
938 [label="X[8] <= 0.115\nentropy = 0.348\nsamples = 46\nvalue = [43, 3]\nclass = y[0]"] ;
937 -> 938 ;
939 [label="entropy = 0.0\nsamples = 27\nvalue = [27, 0]\nclass = y[0]"] ;
938 -> 939 ;
940 [label="X[25] <= 0.5\nentropy = 0.629\nsamples = 19\nvalue = [16, 3]\nclass = y[0]"] ;
938 -> 940 ;
941 [label="entropy = 0.0\nsamples = 10\nvalue = [10, 0]\nclass = y[0]"] ;
940 -> 941 ;
942 [label="X[1] <= 0.178\nentropy = 0.918\nsamples = 9\nvalue = [6, 3]\nclass = y[0]"] ;
940 -> 942 ;
943 [label="entropy = 0.0\nsamples = 2\nvalue = [0, 2]\nclass = y[1]"] ;
942 -> 943 ;
944 [label="X[14] <= 0.5\nentropy = 0.592\nsamples = 7\nvalue = [6, 1]\nclass = y[0]"] ;
942 -> 944 ;
945 [label="entropy = 0.0\nsamples = 4\nvalue = [4, 0]\nclass = y[0]"] ;
944 -> 945 ;
946 [label="X[0] <= 0.565\nentropy = 0.918\nsamples = 3\nvalue = [2, 1]\nclass = y[0]"] ;
944 -> 946 ;
947 [label="entropy = 0.0\nsamples = 1\nvalue = [0, 1]\nclass = y[1]"] ;
946 -> 947 ;
948 [label="entropy = 0.0\nsamples = 2\nvalue = [2, 0]\nclass = y[0]"] ;
946 -> 948 ;
949 [label="X[2] <= 0.363\nentropy = 0.213\nsamples = 977\nvalue = [33, 944]\nclass = y[1]"] ;
937 -> 949 ;
950 [label="X[0] <= 0.968\nentropy = 0.096\nsamples = 725\nvalue = [9, 716]\nclass = y[1]"] ;
949 -> 950 ;
951 [label="X[1] <= 0.178\nentropy = 0.161\nsamples = 383\nvalue = [9, 374]\nclass = y[1]"] ;
950 -> 951 ;
952 [label="X[0] <= 0.959\nentropy = 0.065\nsamples = 262\nvalue = [2, 260]\nclass = y[1]"] ;
951 -> 952 ;
953 [label="X[4] <= 0.894\nentropy = 0.036\nsamples = 260\nvalue = [1, 259]\nclass = y[1]"] ;
952 -> 953 ;
954 [label="entropy = 0.0\nsamples = 211\nvalue = [0, 211]\nclass = y[1]"] ;
953 -> 954 ;
955 [label="X[6] <= 1.001\nentropy = 0.144\nsamples = 49\nvalue = [1, 48]\nclass = y[1]"] ;
953 -> 955 ;
956 [label="entropy = 0.0\nsamples = 33\nvalue = [0, 33]\nclass = y[1]"] ;
955 -> 956 ;
957 [label="X[3] <= 0.204\nentropy = 0.337\nsamples = 16\nvalue = [1, 15]\nclass = y[1]"] ;
955 -> 957 ;
958 [label="entropy = 0.0\nsamples = 11\nvalue = [0, 11]\nclass = y[1]"] ;
957 -> 958 ;
959 [label="X[21] <= 0.5\nentropy = 0.722\nsamples = 5\nvalue = [1, 4]\nclass = y[1]"] ;
957 -> 959 ;
960 [label="entropy = 0.0\nsamples = 4\nvalue = [0, 4]\nclass = y[1]"] ;
959 -> 960 ;
961 [label="entropy = 0.0\nsamples = 1\nvalue = [1, 0]\nclass = y[0]"] ;
959 -> 961 ;
962 [label="X[4] <= -0.765\nentropy = 1.0\nsamples = 2\nvalue = [1, 1]\nclass = y[0]"] ;
952 -> 962 ;
963 [label="entropy = 0.0\nsamples = 1\nvalue = [0, 1]\nclass = y[1]"] ;
962 -> 963 ;
964 [label="entropy = 0.0\nsamples = 1\nvalue = [1, 0]\nclass = y[0]"] ;
962 -> 964 ;
965 [label="X[5] <= 0.557\nentropy = 0.319\nsamples = 121\nvalue = [7, 114]\nclass = y[1]"] ;
951 -> 965 ;
966 [label="X[9] <= 0.869\nentropy = 0.414\nsamples = 84\nvalue = [7, 77]\nclass = y[1]"] ;
965 -> 966 ;
967 [label="X[0] <= -0.468\nentropy = 0.211\nsamples = 60\nvalue = [2, 58]\nclass = y[1]"] ;
966 -> 967 ;
968 [label="entropy = 0.0\nsamples = 1\nvalue = [1, 0]\nclass = y[0]"] ;
967 -> 968 ;
969 [label="X[3] <= 1.909\nentropy = 0.124\nsamples = 59\nvalue = [1, 58]\nclass = y[1]"] ;
967 -> 969 ;
970 [label="entropy = 0.0\nsamples = 58\nvalue = [0, 58]\nclass = y[1]"] ;
969 -> 970 ;
971 [label="entropy = 0.0\nsamples = 1\nvalue = [1, 0]\nclass = y[0]"] ;
969 -> 971 ;
972 [label="X[7] <= 0.386\nentropy = 0.738\nsamples = 24\nvalue = [5, 19]\nclass = y[1]"] ;
966 -> 972 ;
973 [label="X[8] <= 0.115\nentropy = 0.98\nsamples = 12\nvalue = [5, 7]\nclass = y[1]"] ;
972 -> 973 ;
974 [label="entropy = 0.0\nsamples = 2\nvalue = [2, 0]\nclass = y[0]"] ;
973 -> 974 ;
975 [label="X[6] <= 0.475\nentropy = 0.881\nsamples = 10\nvalue = [3, 7]\nclass = y[1]"] ;
973 -> 975 ;
976 [label="entropy = 0.0\nsamples = 4\nvalue = [0, 4]\nclass = y[1]"] ;
975 -> 976 ;
977 [label="X[14] <= 0.5\nentropy = 1.0\nsamples = 6\nvalue = [3, 3]\nclass = y[0]"] ;
975 -> 977 ;
978 [label="entropy = 0.0\nsamples = 1\nvalue = [1, 0]\nclass = y[0]"] ;
977 -> 978 ;
979 [label="X[0] <= 0.579\nentropy = 0.971\nsamples = 5\nvalue = [2, 3]\nclass = y[1]"] ;
977 -> 979 ;
980 [label="X[0] <= 0.475\nentropy = 0.811\nsamples = 4\nvalue = [1, 3]\nclass = y[1]"] ;
979 -> 980 ;
981 [label="X[6] <= 0.738\nentropy = 1.0\nsamples = 2\nvalue = [1, 1]\nclass = y[0]"] ;
980 -> 981 ;
982 [label="entropy = 0.0\nsamples = 1\nvalue = [1, 0]\nclass = y[0]"] ;
981 -> 982 ;
983 [label="entropy = 0.0\nsamples = 1\nvalue = [0, 1]\nclass = y[1]"] ;
981 -> 983 ;
984 [label="entropy = 0.0\nsamples = 2\nvalue = [0, 2]\nclass = y[1]"] ;
980 -> 984 ;
985 [label="entropy = 0.0\nsamples = 1\nvalue = [1, 0]\nclass = y[0]"] ;
979 -> 985 ;
986 [label="entropy = 0.0\nsamples = 12\nvalue = [0, 12]\nclass = y[1]"] ;
972 -> 986 ;
987 [label="entropy = 0.0\nsamples = 37\nvalue = [0, 37]\nclass = y[1]"] ;
965 -> 987 ;
988 [label="entropy = 0.0\nsamples = 342\nvalue = [0, 342]\nclass = y[1]"] ;
950 -> 988 ;
989 [label="X[6] <= 0.738\nentropy = 0.454\nsamples = 252\nvalue = [24, 228]\nclass = y[1]"] ;
949 -> 989 ;
990 [label="X[3] <= 1.909\nentropy = 0.705\nsamples = 94\nvalue = [18, 76]\nclass = y[1]"] ;
989 -> 990 ;
991 [label="X[27] <= 0.5\nentropy = 0.608\nsamples = 87\nvalue = [13, 74]\nclass = y[1]"] ;
990 -> 991 ;
992 [label="X[6] <= 0.475\nentropy = 0.435\nsamples = 67\nvalue = [6, 61]\nclass = y[1]"] ;
991 -> 992 ;
993 [label="X[0] <= 2.231\nentropy = 0.75\nsamples = 28\nvalue = [6, 22]\nclass = y[1]"] ;
992 -> 993 ;
994 [label="X[0] <= 1.004\nentropy = 0.619\nsamples = 26\nvalue = [4, 22]\nclass = y[1]"] ;
993 -> 994 ;
995 [label="X[3] <= 0.204\nentropy = 0.89\nsamples = 13\nvalue = [4, 9]\nclass = y[1]"] ;
994 -> 995 ;
996 [label="X[2] <= 1.15\nentropy = 0.684\nsamples = 11\nvalue = [2, 9]\nclass = y[1]"] ;
995 -> 996 ;
997 [label="X[0] <= -0.333\nentropy = 0.469\nsamples = 10\nvalue = [1, 9]\nclass = y[1]"] ;
996 -> 997 ;
998 [label="entropy = 0.0\nsamples = 1\nvalue = [1, 0]\nclass = y[0]"] ;
997 -> 998 ;
999 [label="entropy = 0.0\nsamples = 9\nvalue = [0, 9]\nclass = y[1]"] ;
997 -> 999 ;
1000 [label="entropy = 0.0\nsamples = 1\nvalue = [1, 0]\nclass = y[0]"] ;
996 -> 1000 ;
1001 [label="entropy = 0.0\nsamples = 2\nvalue = [2, 0]\nclass = y[0]"] ;
995 -> 1001 ;
1002 [label="entropy = 0.0\nsamples = 13\nvalue = [0, 13]\nclass = y[1]"] ;
994 -> 1002 ;
1003 [label="entropy = 0.0\nsamples = 2\nvalue = [2, 0]\nclass = y[0]"] ;
993 -> 1003 ;
1004 [label="entropy = 0.0\nsamples = 39\nvalue = [0, 39]\nclass = y[1]"] ;
992 -> 1004 ;
1005 [label="X[4] <= 0.064\nentropy = 0.934\nsamples = 20\nvalue = [7, 13]\nclass = y[1]"] ;
991 -> 1005 ;
1006 [label="X[7] <= 0.386\nentropy = 0.954\nsamples = 8\nvalue = [5, 3]\nclass = y[0]"] ;
1005 -> 1006 ;
1007 [label="X[14] <= 0.5\nentropy = 1.0\nsamples = 6\nvalue = [3, 3]\nclass = y[0]"] ;
1006 -> 1007 ;
1008 [label="X[0] <= 1.255\nentropy = 0.811\nsamples = 4\nvalue = [3, 1]\nclass = y[0]"] ;
1007 -> 1008 ;
1009 [label="entropy = 0.0\nsamples = 3\nvalue = [3, 0]\nclass = y[0]"] ;
1008 -> 1009 ;
1010 [label="entropy = 0.0\nsamples = 1\nvalue = [0, 1]\nclass = y[1]"] ;
1008 -> 1010 ;
1011 [label="entropy = 0.0\nsamples = 2\nvalue = [0, 2]\nclass = y[1]"] ;
1007 -> 1011 ;
1012 [label="entropy = 0.0\nsamples = 2\nvalue = [2, 0]\nclass = y[0]"] ;
1006 -> 1012 ;
1013 [label="X[0] <= 1.538\nentropy = 0.65\nsamples = 12\nvalue = [2, 10]\nclass = y[1]"] ;
1005 -> 1013 ;
1014 [label="entropy = 0.0\nsamples = 8\nvalue = [0, 8]\nclass = y[1]"] ;
1013 -> 1014 ;
1015 [label="X[21] <= 0.5\nentropy = 1.0\nsamples = 4\nvalue = [2, 2]\nclass = y[0]"] ;
1013 -> 1015 ;
1016 [label="entropy = 0.0\nsamples = 2\nvalue = [0, 2]\nclass = y[1]"] ;
1015 -> 1016 ;
1017 [label="entropy = 0.0\nsamples = 2\nvalue = [2, 0]\nclass = y[0]"] ;
1015 -> 1017 ;
1018 [label="X[0] <= 1.696\nentropy = 0.863\nsamples = 7\nvalue = [5, 2]\nclass = y[0]"] ;
990 -> 1018 ;
1019 [label="X[1] <= 0.178\nentropy = 0.65\nsamples = 6\nvalue = [5, 1]\nclass = y[0]"] ;
1018 -> 1019 ;
1020 [label="X[25] <= 0.5\nentropy = 1.0\nsamples = 2\nvalue = [1, 1]\nclass = y[0]"] ;
1019 -> 1020 ;
1021 [label="entropy = 0.0\nsamples = 1\nvalue = [1, 0]\nclass = y[0]"] ;
1020 -> 1021 ;
1022 [label="entropy = 0.0\nsamples = 1\nvalue = [0, 1]\nclass = y[1]"] ;
1020 -> 1022 ;
1023 [label="entropy = 0.0\nsamples = 4\nvalue = [4, 0]\nclass = y[0]"] ;
1019 -> 1023 ;
1024 [label="entropy = 0.0\nsamples = 1\nvalue = [0, 1]\nclass = y[1]"] ;
1018 -> 1024 ;
1025 [label="X[0] <= 1.141\nentropy = 0.233\nsamples = 158\nvalue = [6, 152]\nclass = y[1]"] ;
989 -> 1025 ;
1026 [label="entropy = 0.0\nsamples = 57\nvalue = [0, 57]\nclass = y[1]"] ;
1025 -> 1026 ;
1027 [label="X[0] <= 1.153\nentropy = 0.325\nsamples = 101\nvalue = [6, 95]\nclass = y[1]"] ;
1025 -> 1027 ;
1028 [label="entropy = 0.0\nsamples = 1\nvalue = [1, 0]\nclass = y[0]"] ;
1027 -> 1028 ;
1029 [label="X[24] <= 0.5\nentropy = 0.286\nsamples = 100\nvalue = [5, 95]\nclass = y[1]"] ;
1027 -> 1029 ;
1030 [label="X[15] <= 0.5\nentropy = 0.489\nsamples = 47\nvalue = [5, 42]\nclass = y[1]"] ;
1029 -> 1030 ;
1031 [label="X[21] <= 0.5\nentropy = 0.65\nsamples = 30\nvalue = [5, 25]\nclass = y[1]"] ;
1030 -> 1031 ;
1032 [label="X[10] <= 0.593\nentropy = 0.946\nsamples = 11\nvalue = [4, 7]\nclass = y[1]"] ;
1031 -> 1032 ;
1033 [label="X[6] <= 1.001\nentropy = 0.764\nsamples = 9\nvalue = [2, 7]\nclass = y[1]"] ;
1032 -> 1033 ;
1034 [label="X[0] <= 1.399\nentropy = 1.0\nsamples = 4\nvalue = [2, 2]\nclass = y[0]"] ;
1033 -> 1034 ;
1035 [label="entropy = 0.0\nsamples = 2\nvalue = [0, 2]\nclass = y[1]"] ;
1034 -> 1035 ;
1036 [label="entropy = 0.0\nsamples = 2\nvalue = [2, 0]\nclass = y[0]"] ;
1034 -> 1036 ;
1037 [label="entropy = 0.0\nsamples = 5\nvalue = [0, 5]\nclass = y[1]"] ;
1033 -> 1037 ;
1038 [label="entropy = 0.0\nsamples = 2\nvalue = [2, 0]\nclass = y[0]"] ;
1032 -> 1038 ;
1039 [label="X[4] <= 0.064\nentropy = 0.297\nsamples = 19\nvalue = [1, 18]\nclass = y[1]"] ;
1031 -> 1039 ;
1040 [label="X[26] <= 0.5\nentropy = 1.0\nsamples = 2\nvalue = [1, 1]\nclass = y[0]"] ;
1039 -> 1040 ;
1041 [label="entropy = 0.0\nsamples = 1\nvalue = [0, 1]\nclass = y[1]"] ;
1040 -> 1041 ;
1042 [label="entropy = 0.0\nsamples = 1\nvalue = [1, 0]\nclass = y[0]"] ;
1040 -> 1042 ;
1043 [label="entropy = 0.0\nsamples = 17\nvalue = [0, 17]\nclass = y[1]"] ;
1039 -> 1043 ;
1044 [label="entropy = 0.0\nsamples = 17\nvalue = [0, 17]\nclass = y[1]"] ;
1030 -> 1044 ;
1045 [label="entropy = 0.0\nsamples = 53\nvalue = [0, 53]\nclass = y[1]"] ;
1029 -> 1045 ;
1046 [label="X[17] <= 0.5\nentropy = 0.961\nsamples = 2029\nvalue = [1249, 780]\nclass = y[0]"] ;
634 -> 1046 ;
