digraph Tree {
node [shape=box, fontname="helvetica"] ;
edge [fontname="helvetica"] ;
0 [label="X[6] <= 0.212\nentropy = 1.0\nsamples = 40228\nvalue = [20309, 19919]\nclass = y[0]"] ;
1 [label="X[1] <= -0.624\nentropy = 0.522\nsamples = 21223\nvalue = [18733, 2490]\nclass = y[0]"] ;
0 -> 1 [labeldistance=2.5, labelangle=45, headlabel="True"] ;
3 [label="X[6] <= -1.103\nentropy = 0.733\nsamples = 2647\nvalue = [544, 2103]\nclass = y[1]"] ;
1 -> 3 ;
7 [label="X[1] <= -1.427\nentropy = 0.469\nsamples = 510\nvalue = [459, 51]\nclass = y[0]"] ;
3 -> 7 ;
33 [label="X[6] <= -1.366\nentropy = 0.792\nsamples = 42\nvalue = [10, 32]\nclass = y[1]"] ;
7 -> 33 ;
91 [label="X[4] <= -0.765\nentropy = 0.89\nsamples = 13\nvalue = [9, 4]\nclass = y[0]"] ;
33 -> 91 ;
447 [label="X[0] <= -2.08\nentropy = 1.0\nsamples = 8\nvalue = [4, 4]\nclass = y[0]"] ;
91 -> 447 ;
923 [label="entropy = 0.0\nsamples = 2\nvalue = [2, 0]\nclass = y[0]"] ;
447 -> 923 ;
924 [label="X[11] <= 0.5\nentropy = 0.918\nsamples = 6\nvalue = [2, 4]\nclass = y[1]"] ;
447 -> 924 ;
925 [label="entropy = 0.0\nsamples = 3\nvalue = [0, 3]\nclass = y[1]"] ;
924 -> 925 ;
926 [label="X[0] <= -1.964\nentropy = 0.918\nsamples = 3\nvalue = [2, 1]\nclass = y[0]"] ;
924 -> 926 ;
927 [label="entropy = 0.0\nsamples = 2\nvalue = [2, 0]\nclass = y[0]"] ;
926 -> 927 ;
928 [label="entropy = 0.0\nsamples = 1\nvalue = [0, 1]\nclass = y[1]"] ;
926 -> 928 ;
448 [label="entropy = 0.0\nsamples = 5\nvalue = [5, 0]\nclass = y[0]"] ;
91 -> 448 ;
92 [label="X[0] <= -2.126\nentropy = 0.216\nsamples = 29\nvalue = [1, 28]\nclass = y[1]"] ;
33 -> 92 ;
469 [label="X[9] <= -0.77\nentropy = 0.918\nsamples = 3\nvalue = [1, 2]\nclass = y[1]"] ;
92 -> 469 ;
721 [label="entropy = 0.0\nsamples = 1\nvalue = [1, 0]\nclass = y[0]"] ;
469 -> 721 ;
722 [label="entropy = 0.0\nsamples = 2\nvalue = [0, 2]\nclass = y[1]"] ;
469 -> 722 ;
470 [label="entropy = 0.0\nsamples = 26\nvalue = [0, 26]\nclass = y[1]"] ;
92 -> 470 ;
34 [label="X[9] <= -0.77\nentropy = 0.245\nsamples = 468\nvalue = [449, 19]\nclass = y[0]"] ;
7 -> 34 ;
45 [label="X[27] <= 0.5\nentropy = 0.025\nsamples = 395\nvalue = [394, 1]\nclass = y[0]"] ;
34 -> 45 ;
249 [label="entropy = 0.0\nsamples = 383\nvalue = [383, 0]\nclass = y[0]"] ;
45 -> 249 ;
250 [label="X[11] <= 0.5\nentropy = 0.414\nsamples = 12\nvalue = [11, 1]\nclass = y[0]"] ;
45 -> 250 ;
1095 [label="X[0] <= -1.323\nentropy = 0.918\nsamples = 3\nvalue = [2, 1]\nclass = y[0]"] ;
250 -> 1095 ;
1097 [label="entropy = 0.0\nsamples = 2\nvalue = [2, 0]\nclass = y[0]"] ;
1095 -> 1097 ;
1098 [label="entropy = 0.0\nsamples = 1\nvalue = [0, 1]\nclass = y[1]"] ;
1095 -> 1098 ;
1096 [label="entropy = 0.0\nsamples = 9\nvalue = [9, 0]\nclass = y[0]"] ;
250 -> 1096 ;
46 [label="X[1] <= -1.159\nentropy = 0.806\nsamples = 73\nvalue = [55, 18]\nclass = y[0]"] ;
34 -> 46 ;
85 [label="X[6] <= -1.366\nentropy = 0.9\nsamples = 19\nvalue = [6, 13]\nclass = y[1]"] ;
46 -> 85 ;
135 [label="X[4] <= -0.765\nentropy = 0.65\nsamples = 6\nvalue = [5, 1]\nclass = y[0]"] ;
85 -> 135 ;
1327 [label="entropy = 0.0\nsamples = 4\nvalue = [4, 0]\nclass = y[0]"] ;
135 -> 1327 ;
1328 [label="X[26] <= 0.5\nentropy = 1.0\nsamples = 2\nvalue = [1, 1]\nclass = y[0]"] ;
135 -> 1328 ;
1329 [label="entropy = 0.0\nsamples = 1\nvalue = [0, 1]\nclass = y[1]"] ;
1328 -> 1329 ;
1330 [label="entropy = 0.0\nsamples = 1\nvalue = [1, 0]\nclass = y[0]"] ;
1328 -> 1330 ;
136 [label="X[25] <= 0.5\nentropy = 0.391\nsamples = 13\nvalue = [1, 12]\nclass = y[1]"] ;
85 -> 136 ;
629 [label="X[21] <= 0.5\nentropy = 1.0\nsamples = 2\nvalue = [1, 1]\nclass = y[0]"] ;
136 -> 629 ;
1269 [label="entropy = 0.0\nsamples = 1\nvalue = [1, 0]\nclass = y[0]"] ;
629 -> 1269 ;
1270 [label="entropy = 0.0\nsamples = 1\nvalue = [0, 1]\nclass = y[1]"] ;
629 -> 1270 ;
630 [label="entropy = 0.0\nsamples = 11\nvalue = [0, 11]\nclass = y[1]"] ;
136 -> 630 ;
86 [label="X[11] <= 0.5\nentropy = 0.445\nsamples = 54\nvalue = [49, 5]\nclass = y[0]"] ;
46 -> 86 ;
107 [label="X[0] <= -1.639\nentropy = 0.918\nsamples = 15\nvalue = [10, 5]\nclass = y[0]"] ;
86 -> 107 ;
265 [label="entropy = 0.0\nsamples = 6\nvalue = [6, 0]\nclass = y[0]"] ;
107 -> 265 ;
266 [label="X[4] <= -0.765\nentropy = 0.991\nsamples = 9\nvalue = [4, 5]\nclass = y[1]"] ;
107 -> 266 ;
267 [label="entropy = 0.0\nsamples = 4\nvalue = [0, 4]\nclass = y[1]"] ;
266 -> 267 ;
268 [label="X[6] <= -1.366\nentropy = 0.722\nsamples = 5\nvalue = [4, 1]\nclass = y[0]"] ;
266 -> 268 ;
445 [label="entropy = 0.0\nsamples = 4\nvalue = [4, 0]\nclass = y[0]"] ;
268 -> 445 ;
446 [label="entropy = 0.0\nsamples = 1\nvalue = [0, 1]\nclass = y[1]"] ;
268 -> 446 ;
108 [label="entropy = 0.0\nsamples = 39\nvalue = [39, 0]\nclass = y[0]"] ;
86 -> 108 ;
8 [label="X[1] <= -1.159\nentropy = 0.241\nsamples = 2137\nvalue = [85, 2052]\nclass = y[1]"] ;
3 -> 8 ;
27 [label="X[0] <= -1.122\nentropy = 0.027\nsamples = 1509\nvalue = [4, 1505]\nclass = y[1]"] ;
8 -> 27 ;
165 [label="entropy = 0.0\nsamples = 1063\nvalue = [0, 1063]\nclass = y[1]"] ;
27 -> 165 ;
166 [label="X[9] <= -0.77\nentropy = 0.074\nsamples = 446\nvalue = [4, 442]\nclass = y[1]"] ;
27 -> 166 ;
167 [label="X[6] <= -0.84\nentropy = 0.365\nsamples = 43\nvalue = [3, 40]\nclass = y[1]"] ;
166 -> 167 ;
333 [label="entropy = 0.0\nsamples = 1\nvalue = [1, 0]\nclass = y[0]"] ;
167 -> 333 ;
334 [label="X[0] <= -0.998\nentropy = 0.276\nsamples = 42\nvalue = [2, 40]\nclass = y[1]"] ;
167 -> 334 ;
335 [label="X[16] <= 0.5\nentropy = 0.764\nsamples = 9\nvalue = [2, 7]\nclass = y[1]"] ;
334 -> 335 ;
885 [label="entropy = 0.0\nsamples = 1\nvalue = [1, 0]\nclass = y[0]"] ;
335 -> 885 ;
886 [label="X[6] <= -0.314\nentropy = 0.544\nsamples = 8\nvalue = [1, 7]\nclass = y[1]"] ;
335 -> 886 ;
1511 [label="X[6] <= -0.577\nentropy = 0.918\nsamples = 3\nvalue = [1, 2]\nclass = y[1]"] ;
886 -> 1511 ;
1513 [label="entropy = 0.0\nsamples = 2\nvalue = [0, 2]\nclass = y[1]"] ;
1511 -> 1513 ;
1514 [label="entropy = 0.0\nsamples = 1\nvalue = [1, 0]\nclass = y[0]"] ;
1511 -> 1514 ;
1512 [label="entropy = 0.0\nsamples = 5\nvalue = [0, 5]\nclass = y[1]"] ;
886 -> 1512 ;
336 [label="entropy = 0.0\nsamples = 33\nvalue = [0, 33]\nclass = y[1]"] ;
334 -> 336 ;
168 [label="X[0] <= -1.12\nentropy = 0.025\nsamples = 403\nvalue = [1, 402]\nclass = y[1]"] ;
166 -> 168 ;
187 [label="X[25] <= 0.5\nentropy = 0.65\nsamples = 6\nvalue = [1, 5]\nclass = y[1]"] ;
168 -> 187 ;
1303 [label="X[1] <= -1.427\nentropy = 1.0\nsamples = 2\nvalue = [1, 1]\nclass = y[0]"] ;
187 -> 1303 ;
1305 [label="entropy = 0.0\nsamples = 1\nvalue = [0, 1]\nclass = y[1]"] ;
1303 -> 1305 ;
1306 [label="entropy = 0.0\nsamples = 1\nvalue = [1, 0]\nclass = y[0]"] ;
1303 -> 1306 ;
1304 [label="entropy = 0.0\nsamples = 4\nvalue = [0, 4]\nclass = y[1]"] ;
187 -> 1304 ;
188 [label="entropy = 0.0\nsamples = 397\nvalue = [0, 397]\nclass = y[1]"] ;
168 -> 188 ;
28 [label="X[6] <= -0.577\nentropy = 0.555\nsamples = 628\nvalue = [81, 547]\nclass = y[1]"] ;
8 -> 28 ;
29 [label="X[4] <= -0.765\nentropy = 0.99\nsamples = 150\nvalue = [66, 84]\nclass = y[1]"] ;
28 -> 29 ;
55 [label="X[22] <= 0.5\nentropy = 0.61\nsamples = 60\nvalue = [9, 51]\nclass = y[1]"] ;
29 -> 55 ;
145 [label="X[0] <= -0.756\nentropy = 0.397\nsamples = 51\nvalue = [4, 47]\nclass = y[1]"] ;
55 -> 145 ;
147 [label="entropy = 0.0\nsamples = 38\nvalue = [0, 38]\nclass = y[1]"] ;
145 -> 147 ;
148 [label="X[19] <= 0.5\nentropy = 0.89\nsamples = 13\nvalue = [4, 9]\nclass = y[1]"] ;
145 -> 148 ;
1353 [label="entropy = 0.0\nsamples = 3\nvalue = [0, 3]\nclass = y[1]"] ;
148 -> 1353 ;
1354 [label="X[9] <= 0.05\nentropy = 0.971\nsamples = 10\nvalue = [4, 6]\nclass = y[1]"] ;
148 -> 1354 ;
1437 [label="entropy = 0.0\nsamples = 2\nvalue = [0, 2]\nclass = y[1]"] ;
1354 -> 1437 ;
1438 [label="X[15] <= 0.5\nentropy = 1.0\nsamples = 8\nvalue = [4, 4]\nclass = y[0]"] ;
1354 -> 1438 ;
1565 [label="X[6] <= -0.84\nentropy = 0.811\nsamples = 4\nvalue = [1, 3]\nclass = y[1]"] ;
1438 -> 1565 ;
1633 [label="X[1] <= -0.892\nentropy = 1.0\nsamples = 2\nvalue = [1, 1]\nclass = y[0]"] ;
1565 -> 1633 ;
1635 [label="entropy = 0.0\nsamples = 1\nvalue = [1, 0]\nclass = y[0]"] ;
1633 -> 1635 ;
1636 [label="entropy = 0.0\nsamples = 1\nvalue = [0, 1]\nclass = y[1]"] ;
1633 -> 1636 ;
1634 [label="entropy = 0.0\nsamples = 2\nvalue = [0, 2]\nclass = y[1]"] ;
1565 -> 1634 ;
1566 [label="X[11] <= 0.5\nentropy = 0.811\nsamples = 4\nvalue = [3, 1]\nclass = y[0]"] ;
1438 -> 1566 ;
1567 [label="entropy = 0.0\nsamples = 3\nvalue = [3, 0]\nclass = y[0]"] ;
1566 -> 1567 ;
1568 [label="entropy = 0.0\nsamples = 1\nvalue = [0, 1]\nclass = y[1]"] ;
1566 -> 1568 ;
146 [label="X[0] <= -0.681\nentropy = 0.991\nsamples = 9\nvalue = [5, 4]\nclass = y[0]"] ;
55 -> 146 ;
1229 [label="X[0] <= -1.379\nentropy = 0.985\nsamples = 7\nvalue = [3, 4]\nclass = y[1]"] ;
146 -> 1229 ;
1231 [label="X[0] <= -1.958\nentropy = 0.811\nsamples = 4\nvalue = [3, 1]\nclass = y[0]"] ;
1229 -> 1231 ;
1233 [label="entropy = 0.0\nsamples = 1\nvalue = [0, 1]\nclass = y[1]"] ;
1231 -> 1233 ;
1234 [label="entropy = 0.0\nsamples = 3\nvalue = [3, 0]\nclass = y[0]"] ;
1231 -> 1234 ;
1232 [label="entropy = 0.0\nsamples = 3\nvalue = [0, 3]\nclass = y[1]"] ;
1229 -> 1232 ;
1230 [label="entropy = 0.0\nsamples = 2\nvalue = [2, 0]\nclass = y[0]"] ;
146 -> 1230 ;
56 [label="X[1] <= -0.892\nentropy = 0.948\nsamples = 90\nvalue = [57, 33]\nclass = y[0]"] ;
29 -> 56 ;
93 [label="X[0] <= -0.595\nentropy = 0.928\nsamples = 35\nvalue = [12, 23]\nclass = y[1]"] ;
56 -> 93 ;
337 [label="X[0] <= -0.825\nentropy = 0.978\nsamples = 29\nvalue = [12, 17]\nclass = y[1]"] ;
93 -> 337 ;
757 [label="X[11] <= 0.5\nentropy = 0.918\nsamples = 24\nvalue = [8, 16]\nclass = y[1]"] ;
337 -> 757 ;
759 [label="X[27] <= 0.5\nentropy = 0.439\nsamples = 11\nvalue = [1, 10]\nclass = y[1]"] ;
757 -> 759 ;
1523 [label="entropy = 0.0\nsamples = 7\nvalue = [0, 7]\nclass = y[1]"] ;
759 -> 1523 ;
1524 [label="X[9] <= -0.77\nentropy = 0.811\nsamples = 4\nvalue = [1, 3]\nclass = y[1]"] ;
759 -> 1524 ;
1525 [label="entropy = 0.0\nsamples = 1\nvalue = [1, 0]\nclass = y[0]"] ;
1524 -> 1525 ;
1526 [label="entropy = 0.0\nsamples = 3\nvalue = [0, 3]\nclass = y[1]"] ;
1524 -> 1526 ;
760 [label="X[4] <= 0.064\nentropy = 0.996\nsamples = 13\nvalue = [7, 6]\nclass = y[0]"] ;
757 -> 760 ;
763 [label="X[0] <= -1.167\nentropy = 0.971\nsamples = 10\nvalue = [4, 6]\nclass = y[1]"] ;
760 -> 763 ;
765 [label="X[0] <= -1.363\nentropy = 0.918\nsamples = 6\nvalue = [4, 2]\nclass = y[0]"] ;
763 -> 765 ;
767 [label="X[0] <= -1.445\nentropy = 0.918\nsamples = 3\nvalue = [1, 2]\nclass = y[1]"] ;
765 -> 767 ;
769 [label="entropy = 0.0\nsamples = 1\nvalue = [1, 0]\nclass = y[0]"] ;
767 -> 769 ;
770 [label="entropy = 0.0\nsamples = 2\nvalue = [0, 2]\nclass = y[1]"] ;
767 -> 770 ;
768 [label="entropy = 0.0\nsamples = 3\nvalue = [3, 0]\nclass = y[0]"] ;
765 -> 768 ;
766 [label="entropy = 0.0\nsamples = 4\nvalue = [0, 4]\nclass = y[1]"] ;
763 -> 766 ;
764 [label="entropy = 0.0\nsamples = 3\nvalue = [3, 0]\nclass = y[0]"] ;
760 -> 764 ;
758 [label="X[9] <= 0.05\nentropy = 0.722\nsamples = 5\nvalue = [4, 1]\nclass = y[0]"] ;
337 -> 758 ;
761 [label="entropy = 0.0\nsamples = 4\nvalue = [4, 0]\nclass = y[0]"] ;
758 -> 761 ;
762 [label="entropy = 0.0\nsamples = 1\nvalue = [0, 1]\nclass = y[1]"] ;
758 -> 762 ;
338 [label="entropy = 0.0\nsamples = 6\nvalue = [0, 6]\nclass = y[1]"] ;
93 -> 338 ;
94 [label="X[6] <= -0.84\nentropy = 0.684\nsamples = 55\nvalue = [45, 10]\nclass = y[0]"] ;
56 -> 94 ;
161 [label="X[0] <= -1.421\nentropy = 0.216\nsamples = 29\nvalue = [28, 1]\nclass = y[0]"] ;
94 -> 161 ;
647 [label="X[0] <= -1.457\nentropy = 0.811\nsamples = 4\nvalue = [3, 1]\nclass = y[0]"] ;
161 -> 647 ;
649 [label="entropy = 0.0\nsamples = 3\nvalue = [3, 0]\nclass = y[0]"] ;
647 -> 649 ;
650 [label="entropy = 0.0\nsamples = 1\nvalue = [0, 1]\nclass = y[1]"] ;
647 -> 650 ;
648 [label="entropy = 0.0\nsamples = 25\nvalue = [25, 0]\nclass = y[0]"] ;
161 -> 648 ;
162 [label="X[20] <= 0.5\nentropy = 0.931\nsamples = 26\nvalue = [17, 9]\nclass = y[0]"] ;
94 -> 162 ;
771 [label="X[0] <= -0.225\nentropy = 0.976\nsamples = 22\nvalue = [13, 9]\nclass = y[0]"] ;
162 -> 771 ;
1603 [label="X[11] <= 0.5\nentropy = 0.959\nsamples = 21\nvalue = [13, 8]\nclass = y[0]"] ;
771 -> 1603 ;
1605 [label="X[0] <= -1.322\nentropy = 1.0\nsamples = 14\nvalue = [7, 7]\nclass = y[0]"] ;
1603 -> 1605 ;
1607 [label="entropy = 0.0\nsamples = 2\nvalue = [0, 2]\nclass = y[1]"] ;
1605 -> 1607 ;
1608 [label="X[15] <= 0.5\nentropy = 0.98\nsamples = 12\nvalue = [7, 5]\nclass = y[0]"] ;
1605 -> 1608 ;
1611 [label="X[0] <= -1.213\nentropy = 0.811\nsamples = 4\nvalue = [1, 3]\nclass = y[1]"] ;
1608 -> 1611 ;
1613 [label="entropy = 0.0\nsamples = 1\nvalue = [1, 0]\nclass = y[0]"] ;
1611 -> 1613 ;
1614 [label="entropy = 0.0\nsamples = 3\nvalue = [0, 3]\nclass = y[1]"] ;
1611 -> 1614 ;
1612 [label="X[0] <= -0.763\nentropy = 0.811\nsamples = 8\nvalue = [6, 2]\nclass = y[0]"] ;
1608 -> 1612 ;
1615 [label="entropy = 0.0\nsamples = 4\nvalue = [4, 0]\nclass = y[0]"] ;
1612 -> 1615 ;
1616 [label="X[9] <= -0.77\nentropy = 1.0\nsamples = 4\nvalue = [2, 2]\nclass = y[0]"] ;
1612 -> 1616 ;
1617 [label="entropy = 0.0\nsamples = 2\nvalue = [2, 0]\nclass = y[0]"] ;
1616 -> 1617 ;
1618 [label="entropy = 0.0\nsamples = 2\nvalue = [0, 2]\nclass = y[1]"] ;
1616 -> 1618 ;
1606 [label="X[0] <= -0.533\nentropy = 0.592\nsamples = 7\nvalue = [6, 1]\nclass = y[0]"] ;
1603 -> 1606 ;
1609 [label="entropy = 0.0\nsamples = 5\nvalue = [5, 0]\nclass = y[0]"] ;
1606 -> 1609 ;
1610 [label="X[23] <= 0.5\nentropy = 1.0\nsamples = 2\nvalue = [1, 1]\nclass = y[0]"] ;
1606 -> 1610 ;
1619 [label="entropy = 0.0\nsamples = 1\nvalue = [1, 0]\nclass = y[0]"] ;
1610 -> 1619 ;
1620 [label="entropy = 0.0\nsamples = 1\nvalue = [0, 1]\nclass = y[1]"] ;
1610 -> 1620 ;
1604 [label="entropy = 0.0\nsamples = 1\nvalue = [0, 1]\nclass = y[1]"] ;
771 -> 1604 ;
772 [label="entropy = 0.0\nsamples = 4\nvalue = [4, 0]\nclass = y[0]"] ;
162 -> 772 ;
30 [label="X[3] <= 0.204\nentropy = 0.201\nsamples = 478\nvalue = [15, 463]\nclass = y[1]"] ;
28 -> 30 ;
101 [label="X[0] <= -0.459\nentropy = 0.151\nsamples = 461\nvalue = [10, 451]\nclass = y[1]"] ;
30 -> 101 ;
119 [label="X[4] <= 0.064\nentropy = 0.033\nsamples = 294\nvalue = [1, 293]\nclass = y[1]"] ;
101 -> 119 ;
351 [label="entropy = 0.0\nsamples = 275\nvalue = [0, 275]\nclass = y[1]"] ;
119 -> 351 ;
352 [label="X[0] <= -0.861\nentropy = 0.297\nsamples = 19\nvalue = [1, 18]\nclass = y[1]"] ;
119 -> 352 ;
1211 [label="X[0] <= -0.947\nentropy = 0.722\nsamples = 5\nvalue = [1, 4]\nclass = y[1]"] ;
352 -> 1211 ;
1213 [label="entropy = 0.0\nsamples = 4\nvalue = [0, 4]\nclass = y[1]"] ;
1211 -> 1213 ;
1214 [label="entropy = 0.0\nsamples = 1\nvalue = [1, 0]\nclass = y[0]"] ;
1211 -> 1214 ;
1212 [label="entropy = 0.0\nsamples = 14\nvalue = [0, 14]\nclass = y[1]"] ;
352 -> 1212 ;
120 [label="X[8] <= 0.115\nentropy = 0.303\nsamples = 167\nvalue = [9, 158]\nclass = y[1]"] ;
101 -> 120 ;
133 [label="X[18] <= 0.5\nentropy = 0.469\nsamples = 90\nvalue = [9, 81]\nclass = y[1]"] ;
120 -> 133 ;
277 [label="X[1] <= -0.892\nentropy = 0.586\nsamples = 64\nvalue = [9, 55]\nclass = y[1]"] ;
133 -> 277 ;
951 [label="X[12] <= 0.5\nentropy = 0.337\nsamples = 32\nvalue = [2, 30]\nclass = y[1]"] ;
277 -> 951 ;
1187 [label="entropy = 0.0\nsamples = 16\nvalue = [0, 16]\nclass = y[1]"] ;
951 -> 1187 ;
1188 [label="X[4] <= -0.765\nentropy = 0.544\nsamples = 16\nvalue = [2, 14]\nclass = y[1]"] ;
951 -> 1188 ;
1189 [label="entropy = 0.0\nsamples = 9\nvalue = [0, 9]\nclass = y[1]"] ;
1188 -> 1189 ;
1190 [label="X[6] <= -0.051\nentropy = 0.863\nsamples = 7\nvalue = [2, 5]\nclass = y[1]"] ;
1188 -> 1190 ;
1191 [label="entropy = 0.0\nsamples = 4\nvalue = [0, 4]\nclass = y[1]"] ;
1190 -> 1191 ;
1192 [label="X[27] <= 0.5\nentropy = 0.918\nsamples = 3\nvalue = [2, 1]\nclass = y[0]"] ;
1190 -> 1192 ;
1193 [label="entropy = 0.0\nsamples = 2\nvalue = [2, 0]\nclass = y[0]"] ;
1192 -> 1193 ;
1194 [label="entropy = 0.0\nsamples = 1\nvalue = [0, 1]\nclass = y[1]"] ;
1192 -> 1194 ;
952 [label="X[25] <= 0.5\nentropy = 0.758\nsamples = 32\nvalue = [7, 25]\nclass = y[1]"] ;
277 -> 952 ;
953 [label="X[6] <= -0.051\nentropy = 0.954\nsamples = 16\nvalue = [6, 10]\nclass = y[1]"] ;
952 -> 953 ;
955 [label="X[0] <= -0.387\nentropy = 1.0\nsamples = 12\nvalue = [6, 6]\nclass = y[0]"] ;
953 -> 955 ;
1043 [label="entropy = 0.0\nsamples = 2\nvalue = [2, 0]\nclass = y[0]"] ;
955 -> 1043 ;
1044 [label="X[0] <= -0.1\nentropy = 0.971\nsamples = 10\nvalue = [4, 6]\nclass = y[1]"] ;
955 -> 1044 ;
1045 [label="entropy = 0.0\nsamples = 4\nvalue = [0, 4]\nclass = y[1]"] ;
1044 -> 1045 ;
1046 [label="X[0] <= 0.083\nentropy = 0.918\nsamples = 6\nvalue = [4, 2]\nclass = y[0]"] ;
1044 -> 1046 ;
1047 [label="entropy = 0.0\nsamples = 3\nvalue = [3, 0]\nclass = y[0]"] ;
1046 -> 1047 ;
1048 [label="X[0] <= 0.342\nentropy = 0.918\nsamples = 3\nvalue = [1, 2]\nclass = y[1]"] ;
1046 -> 1048 ;
1049 [label="entropy = 0.0\nsamples = 2\nvalue = [0, 2]\nclass = y[1]"] ;
1048 -> 1049 ;
1050 [label="entropy = 0.0\nsamples = 1\nvalue = [1, 0]\nclass = y[0]"] ;
1048 -> 1050 ;
956 [label="entropy = 0.0\nsamples = 4\nvalue = [0, 4]\nclass = y[1]"] ;
953 -> 956 ;
954 [label="X[14] <= 0.5\nentropy = 0.337\nsamples = 16\nvalue = [1, 15]\nclass = y[1]"] ;
952 -> 954 ;
1427 [label="X[0] <= -0.218\nentropy = 0.722\nsamples = 5\nvalue = [1, 4]\nclass = y[1]"] ;
954 -> 1427 ;
1711 [label="entropy = 0.0\nsamples = 2\nvalue = [0, 2]\nclass = y[1]"] ;
1427 -> 1711 ;
1712 [label="X[0] <= -0.14\nentropy = 0.918\nsamples = 3\nvalue = [1, 2]\nclass = y[1]"] ;
1427 -> 1712 ;
1713 [label="entropy = 0.0\nsamples = 1\nvalue = [1, 0]\nclass = y[0]"] ;
1712 -> 1713 ;
1714 [label="entropy = 0.0\nsamples = 2\nvalue = [0, 2]\nclass = y[1]"] ;
1712 -> 1714 ;
1428 [label="entropy = 0.0\nsamples = 11\nvalue = [0, 11]\nclass = y[1]"] ;
954 -> 1428 ;
278 [label="entropy = 0.0\nsamples = 26\nvalue = [0, 26]\nclass = y[1]"] ;
133 -> 278 ;
134 [label="entropy = 0.0\nsamples = 77\nvalue = [0, 77]\nclass = y[1]"] ;
120 -> 134 ;
102 [label="X[18] <= 0.5\nentropy = 0.874\nsamples = 17\nvalue = [5, 12]\nclass = y[1]"] ;
30 -> 102 ;
155 [label="X[0] <= -0.053\nentropy = 0.954\nsamples = 8\nvalue = [5, 3]\nclass = y[0]"] ;
102 -> 155 ;
313 [label="entropy = 0.0\nsamples = 4\nvalue = [4, 0]\nclass = y[0]"] ;
155 -> 313 ;
314 [label="X[1] <= -0.892\nentropy = 0.811\nsamples = 4\nvalue = [1, 3]\nclass = y[1]"] ;
155 -> 314 ;
587 [label="entropy = 0.0\nsamples = 1\nvalue = [1, 0]\nclass = y[0]"] ;
314 -> 587 ;
588 [label="entropy = 0.0\nsamples = 3\nvalue = [0, 3]\nclass = y[1]"] ;
314 -> 588 ;
156 [label="entropy = 0.0\nsamples = 9\nvalue = [0, 9]\nclass = y[1]"] ;
102 -> 156 ;
4 [label="X[7] <= -0.404\nentropy = 0.146\nsamples = 18576\nvalue = [18189, 387]\nclass = y[0]"] ;
1 -> 4 ;
9 [label="X[1] <= 0.178\nentropy = 0.064\nsamples = 17514\nvalue = [17382, 132]\nclass = y[0]"] ;
4 -> 9 ;
15 [label="X[6] <= -0.577\nentropy = 0.309\nsamples = 2128\nvalue = [2010, 118]\nclass = y[0]"] ;
9 -> 15 ;
17 [label="X[21] <= 0.5\nentropy = 0.08\nsamples = 1812\nvalue = [1794, 18]\nclass = y[0]"] ;
15 -> 17 ;
51 [label="X[0] <= -0.441\nentropy = 0.05\nsamples = 1787\nvalue = [1777, 10]\nclass = y[0]"] ;
17 -> 51 ;
89 [label="X[11] <= 0.5\nentropy = 0.014\nsamples = 1537\nvalue = [1535, 2]\nclass = y[0]"] ;
51 -> 89 ;
467 [label="X[9] <= 0.05\nentropy = 0.041\nsamples = 454\nvalue = [452, 2]\nclass = y[0]"] ;
89 -> 467 ;
683 [label="X[0] <= -1.408\nentropy = 0.023\nsamples = 438\nvalue = [437, 1]\nclass = y[0]"] ;
467 -> 683 ;
1207 [label="X[0] <= -1.411\nentropy = 0.078\nsamples = 105\nvalue = [104, 1]\nclass = y[0]"] ;
683 -> 1207 ;
1209 [label="entropy = 0.0\nsamples = 104\nvalue = [104, 0]\nclass = y[0]"] ;
1207 -> 1209 ;
1210 [label="entropy = 0.0\nsamples = 1\nvalue = [0, 1]\nclass = y[1]"] ;
1207 -> 1210 ;
1208 [label="entropy = 0.0\nsamples = 333\nvalue = [333, 0]\nclass = y[0]"] ;
683 -> 1208 ;
684 [label="X[14] <= 0.5\nentropy = 0.337\nsamples = 16\nvalue = [15, 1]\nclass = y[0]"] ;
467 -> 684 ;
1429 [label="X[6] <= -1.103\nentropy = 0.722\nsamples = 5\nvalue = [4, 1]\nclass = y[0]"] ;
684 -> 1429 ;
1431 [label="entropy = 0.0\nsamples = 1\nvalue = [0, 1]\nclass = y[1]"] ;
1429 -> 1431 ;
1432 [label="entropy = 0.0\nsamples = 4\nvalue = [4, 0]\nclass = y[0]"] ;
1429 -> 1432 ;
1430 [label="entropy = 0.0\nsamples = 11\nvalue = [11, 0]\nclass = y[0]"] ;
684 -> 1430 ;
468 [label="entropy = 0.0\nsamples = 1083\nvalue = [1083, 0]\nclass = y[0]"] ;
89 -> 468 ;
90 [label="X[9] <= -0.77\nentropy = 0.204\nsamples = 250\nvalue = [242, 8]\nclass = y[0]"] ;
51 -> 90 ;
201 [label="entropy = 0.0\nsamples = 97\nvalue = [97, 0]\nclass = y[0]"] ;
90 -> 201 ;
202 [label="X[25] <= 0.5\nentropy = 0.296\nsamples = 153\nvalue = [145, 8]\nclass = y[0]"] ;
90 -> 202 ;
271 [label="entropy = 0.0\nsamples = 51\nvalue = [51, 0]\nclass = y[0]"] ;
202 -> 271 ;
272 [label="X[0] <= -0.438\nentropy = 0.397\nsamples = 102\nvalue = [94, 8]\nclass = y[0]"] ;
202 -> 272 ;
381 [label="entropy = 0.0\nsamples = 1\nvalue = [0, 1]\nclass = y[1]"] ;
272 -> 381 ;
382 [label="X[1] <= -0.357\nentropy = 0.363\nsamples = 101\nvalue = [94, 7]\nclass = y[0]"] ;
272 -> 382 ;
383 [label="X[24] <= 0.5\nentropy = 0.764\nsamples = 18\nvalue = [14, 4]\nclass = y[0]"] ;
382 -> 383 ;
385 [label="X[20] <= 0.5\nentropy = 0.971\nsamples = 5\nvalue = [2, 3]\nclass = y[1]"] ;
383 -> 385 ;
387 [label="entropy = 0.0\nsamples = 3\nvalue = [0, 3]\nclass = y[1]"] ;
385 -> 387 ;
388 [label="entropy = 0.0\nsamples = 2\nvalue = [2, 0]\nclass = y[0]"] ;
385 -> 388 ;
386 [label="X[0] <= 0.688\nentropy = 0.391\nsamples = 13\nvalue = [12, 1]\nclass = y[0]"] ;
383 -> 386 ;
627 [label="entropy = 0.0\nsamples = 11\nvalue = [11, 0]\nclass = y[0]"] ;
386 -> 627 ;
628 [label="X[9] <= 0.05\nentropy = 1.0\nsamples = 2\nvalue = [1, 1]\nclass = y[0]"] ;
386 -> 628 ;
1271 [label="entropy = 0.0\nsamples = 1\nvalue = [1, 0]\nclass = y[0]"] ;
628 -> 1271 ;
1272 [label="entropy = 0.0\nsamples = 1\nvalue = [0, 1]\nclass = y[1]"] ;
628 -> 1272 ;
384 [label="X[6] <= -0.84\nentropy = 0.224\nsamples = 83\nvalue = [80, 3]\nclass = y[0]"] ;
382 -> 384 ;
651 [label="entropy = 0.0\nsamples = 41\nvalue = [41, 0]\nclass = y[0]"] ;
384 -> 651 ;
652 [label="X[9] <= 0.05\nentropy = 0.371\nsamples = 42\nvalue = [39, 3]\nclass = y[0]"] ;
384 -> 652 ;
1115 [label="X[24] <= 0.5\nentropy = 0.516\nsamples = 26\nvalue = [23, 3]\nclass = y[0]"] ;
652 -> 1115 ;
1117 [label="entropy = 0.0\nsamples = 11\nvalue = [11, 0]\nclass = y[0]"] ;
1115 -> 1117 ;
1118 [label="X[4] <= 0.894\nentropy = 0.722\nsamples = 15\nvalue = [12, 3]\nclass = y[0]"] ;
1115 -> 1118 ;
1557 [label="X[15] <= 0.5\nentropy = 0.845\nsamples = 11\nvalue = [8, 3]\nclass = y[0]"] ;
1118 -> 1557 ;
1669 [label="X[4] <= 0.064\nentropy = 1.0\nsamples = 4\nvalue = [2, 2]\nclass = y[0]"] ;
1557 -> 1669 ;
1671 [label="entropy = 0.0\nsamples = 2\nvalue = [2, 0]\nclass = y[0]"] ;
1669 -> 1671 ;
1672 [label="entropy = 0.0\nsamples = 2\nvalue = [0, 2]\nclass = y[1]"] ;
1669 -> 1672 ;
1670 [label="X[4] <= 0.064\nentropy = 0.592\nsamples = 7\nvalue = [6, 1]\nclass = y[0]"] ;
1557 -> 1670 ;
1673 [label="X[19] <= 0.5\nentropy = 1.0\nsamples = 2\nvalue = [1, 1]\nclass = y[0]"] ;
1670 -> 1673 ;
1675 [label="entropy = 0.0\nsamples = 1\nvalue = [0, 1]\nclass = y[1]"] ;
1673 -> 1675 ;
1676 [label="entropy = 0.0\nsamples = 1\nvalue = [1, 0]\nclass = y[0]"] ;
1673 -> 1676 ;
1674 [label="entropy = 0.0\nsamples = 5\nvalue = [5, 0]\nclass = y[0]"] ;
1670 -> 1674 ;
1558 [label="entropy = 0.0\nsamples = 4\nvalue = [4, 0]\nclass = y[0]"] ;
1118 -> 1558 ;
1116 [label="entropy = 0.0\nsamples = 16\nvalue = [16, 0]\nclass = y[0]"] ;
652 -> 1116 ;
52 [label="X[1] <= -0.089\nentropy = 0.904\nsamples = 25\nvalue = [17, 8]\nclass = y[0]"] ;
17 -> 52 ;
103 [label="X[23] <= 0.5\nentropy = 0.918\nsamples = 12\nvalue = [4, 8]\nclass = y[1]"] ;
52 -> 103 ;
661 [label="X[4] <= 0.064\nentropy = 1.0\nsamples = 8\nvalue = [4, 4]\nclass = y[0]"] ;
103 -> 661 ;
663 [label="X[5] <= 0.557\nentropy = 0.722\nsamples = 5\nvalue = [1, 4]\nclass = y[1]"] ;
661 -> 663 ;
665 [label="entropy = 0.0\nsamples = 4\nvalue = [0, 4]\nclass = y[1]"] ;
663 -> 665 ;
666 [label="entropy = 0.0\nsamples = 1\nvalue = [1, 0]\nclass = y[0]"] ;
663 -> 666 ;
664 [label="entropy = 0.0\nsamples = 3\nvalue = [3, 0]\nclass = y[0]"] ;
661 -> 664 ;
662 [label="entropy = 0.0\nsamples = 4\nvalue = [0, 4]\nclass = y[1]"] ;
103 -> 662 ;
104 [label="entropy = 0.0\nsamples = 13\nvalue = [13, 0]\nclass = y[0]"] ;
52 -> 104 ;
18 [label="X[17] <= 0.5\nentropy = 0.9\nsamples = 316\nvalue = [216, 100]\nclass = y[0]"] ;
15 -> 18 ;
39 [label="X[3] <= 0.204\nentropy = 0.988\nsamples = 158\nvalue = [69, 89]\nclass = y[1]"] ;
18 -> 39 ;
53 [label="X[6] <= -0.314\nentropy = 0.854\nsamples = 111\nvalue = [31, 80]\nclass = y[1]"] ;
39 -> 53 ;
83 [label="X[14] <= 0.5\nentropy = 0.997\nsamples = 45\nvalue = [24, 21]\nclass = y[0]"] ;
53 -> 83 ;
163 [label="X[8] <= 0.115\nentropy = 0.672\nsamples = 17\nvalue = [14, 3]\nclass = y[0]"] ;
83 -> 163 ;
481 [label="X[10] <= 0.593\nentropy = 0.371\nsamples = 14\nvalue = [13, 1]\nclass = y[0]"] ;
163 -> 481 ;
1289 [label="entropy = 0.0\nsamples = 10\nvalue = [10, 0]\nclass = y[0]"] ;
481 -> 1289 ;
1290 [label="X[9] <= 0.05\nentropy = 0.811\nsamples = 4\nvalue = [3, 1]\nclass = y[0]"] ;
481 -> 1290 ;
1291 [label="entropy = 0.0\nsamples = 1\nvalue = [0, 1]\nclass = y[1]"] ;
1290 -> 1291 ;
1292 [label="entropy = 0.0\nsamples = 3\nvalue = [3, 0]\nclass = y[0]"] ;
1290 -> 1292 ;
482 [label="X[23] <= 0.5\nentropy = 0.918\nsamples = 3\nvalue = [1, 2]\nclass = y[1]"] ;
163 -> 482 ;
719 [label="entropy = 0.0\nsamples = 1\nvalue = [1, 0]\nclass = y[0]"] ;
482 -> 719 ;
720 [label="entropy = 0.0\nsamples = 2\nvalue = [0, 2]\nclass = y[1]"] ;
482 -> 720 ;
164 [label="X[1] <= -0.089\nentropy = 0.94\nsamples = 28\nvalue = [10, 18]\nclass = y[1]"] ;
83 -> 164 ;
223 [label="X[0] <= 0.451\nentropy = 0.722\nsamples = 20\nvalue = [4, 16]\nclass = y[1]"] ;
164 -> 223 ;
225 [label="X[27] <= 0.5\nentropy = 0.503\nsamples = 18\nvalue = [2, 16]\nclass = y[1]"] ;
223 -> 225 ;
449 [label="X[4] <= 0.064\nentropy = 0.323\nsamples = 17\nvalue = [1, 16]\nclass = y[1]"] ;
225 -> 449 ;
1691 [label="entropy = 0.0\nsamples = 9\nvalue = [0, 9]\nclass = y[1]"] ;
449 -> 1691 ;
1692 [label="X[0] <= -0.226\nentropy = 0.544\nsamples = 8\nvalue = [1, 7]\nclass = y[1]"] ;
449 -> 1692 ;
1693 [label="X[0] <= -0.279\nentropy = 0.918\nsamples = 3\nvalue = [1, 2]\nclass = y[1]"] ;
1692 -> 1693 ;
1695 [label="entropy = 0.0\nsamples = 2\nvalue = [0, 2]\nclass = y[1]"] ;
1693 -> 1695 ;
1696 [label="entropy = 0.0\nsamples = 1\nvalue = [1, 0]\nclass = y[0]"] ;
1693 -> 1696 ;
1694 [label="entropy = 0.0\nsamples = 5\nvalue = [0, 5]\nclass = y[1]"] ;
1692 -> 1694 ;
450 [label="entropy = 0.0\nsamples = 1\nvalue = [1, 0]\nclass = y[0]"] ;
225 -> 450 ;
226 [label="entropy = 0.0\nsamples = 2\nvalue = [2, 0]\nclass = y[0]"] ;
223 -> 226 ;
224 [label="X[8] <= 0.115\nentropy = 0.811\nsamples = 8\nvalue = [6, 2]\nclass = y[0]"] ;
164 -> 224 ;
403 [label="entropy = 0.0\nsamples = 5\nvalue = [5, 0]\nclass = y[0]"] ;
224 -> 403 ;
404 [label="X[4] <= 1.308\nentropy = 0.918\nsamples = 3\nvalue = [1, 2]\nclass = y[1]"] ;
224 -> 404 ;
727 [label="entropy = 0.0\nsamples = 2\nvalue = [0, 2]\nclass = y[1]"] ;
404 -> 727 ;
728 [label="entropy = 0.0\nsamples = 1\nvalue = [1, 0]\nclass = y[0]"] ;
404 -> 728 ;
84 [label="X[9] <= -0.77\nentropy = 0.488\nsamples = 66\nvalue = [7, 59]\nclass = y[1]"] ;
53 -> 84 ;
191 [label="X[11] <= 0.5\nentropy = 0.971\nsamples = 5\nvalue = [3, 2]\nclass = y[0]"] ;
84 -> 191 ;
269 [label="entropy = 0.0\nsamples = 3\nvalue = [3, 0]\nclass = y[0]"] ;
191 -> 269 ;
270 [label="entropy = 0.0\nsamples = 2\nvalue = [0, 2]\nclass = y[1]"] ;
191 -> 270 ;
192 [label="X[23] <= 0.5\nentropy = 0.349\nsamples = 61\nvalue = [4, 57]\nclass = y[1]"] ;
84 -> 192 ;
789 [label="X[4] <= -0.765\nentropy = 0.477\nsamples = 39\nvalue = [4, 35]\nclass = y[1]"] ;
192 -> 789 ;
791 [label="entropy = 0.0\nsamples = 20\nvalue = [0, 20]\nclass = y[1]"] ;
789 -> 791 ;
792 [label="X[0] <= -0.795\nentropy = 0.742\nsamples = 19\nvalue = [4, 15]\nclass = y[1]"] ;
789 -> 792 ;
967 [label="entropy = 0.0\nsamples = 1\nvalue = [1, 0]\nclass = y[0]"] ;
792 -> 967 ;
968 [label="X[0] <= -0.021\nentropy = 0.65\nsamples = 18\nvalue = [3, 15]\nclass = y[1]"] ;
792 -> 968 ;
969 [label="entropy = 0.0\nsamples = 8\nvalue = [0, 8]\nclass = y[1]"] ;
968 -> 969 ;
970 [label="X[6] <= -0.051\nentropy = 0.881\nsamples = 10\nvalue = [3, 7]\nclass = y[1]"] ;
968 -> 970 ;
971 [label="entropy = 0.0\nsamples = 2\nvalue = [2, 0]\nclass = y[0]"] ;
970 -> 971 ;
972 [label="X[0] <= 0.146\nentropy = 0.544\nsamples = 8\nvalue = [1, 7]\nclass = y[1]"] ;
970 -> 972 ;
973 [label="entropy = 0.0\nsamples = 1\nvalue = [1, 0]\nclass = y[0]"] ;
972 -> 973 ;
974 [label="entropy = 0.0\nsamples = 7\nvalue = [0, 7]\nclass = y[1]"] ;
972 -> 974 ;
790 [label="entropy = 0.0\nsamples = 22\nvalue = [0, 22]\nclass = y[1]"] ;
192 -> 790 ;
54 [label="X[9] <= 1.689\nentropy = 0.705\nsamples = 47\nvalue = [38, 9]\nclass = y[0]"] ;
39 -> 54 ;
251 [label="X[0] <= 0.662\nentropy = 0.624\nsamples = 45\nvalue = [38, 7]\nclass = y[0]"] ;
54 -> 251 ;
487 [label="X[15] <= 0.5\nentropy = 0.477\nsamples = 39\nvalue = [35, 4]\nclass = y[0]"] ;
251 -> 487 ;
489 [label="X[6] <= -0.314\nentropy = 0.863\nsamples = 14\nvalue = [10, 4]\nclass = y[0]"] ;
487 -> 489 ;
491 [label="X[23] <= 0.5\nentropy = 0.469\nsamples = 10\nvalue = [9, 1]\nclass = y[0]"] ;
489 -> 491 ;
1297 [label="X[26] <= 0.5\nentropy = 0.918\nsamples = 3\nvalue = [2, 1]\nclass = y[0]"] ;
491 -> 1297 ;
1727 [label="X[0] <= -0.651\nentropy = 1.0\nsamples = 2\nvalue = [1, 1]\nclass = y[0]"] ;
1297 -> 1727 ;
1729 [label="entropy = 0.0\nsamples = 1\nvalue = [1, 0]\nclass = y[0]"] ;
1727 -> 1729 ;
1730 [label="entropy = 0.0\nsamples = 1\nvalue = [0, 1]\nclass = y[1]"] ;
1727 -> 1730 ;
1728 [label="entropy = 0.0\nsamples = 1\nvalue = [1, 0]\nclass = y[0]"] ;
1297 -> 1728 ;
1298 [label="entropy = 0.0\nsamples = 7\nvalue = [7, 0]\nclass = y[0]"] ;
491 -> 1298 ;
492 [label="X[0] <= -0.021\nentropy = 0.811\nsamples = 4\nvalue = [1, 3]\nclass = y[1]"] ;
489 -> 492 ;
1645 [label="X[24] <= 0.5\nentropy = 1.0\nsamples = 2\nvalue = [1, 1]\nclass = y[0]"] ;
492 -> 1645 ;
1647 [label="entropy = 0.0\nsamples = 1\nvalue = [0, 1]\nclass = y[1]"] ;
1645 -> 1647 ;
1648 [label="entropy = 0.0\nsamples = 1\nvalue = [1, 0]\nclass = y[0]"] ;
1645 -> 1648 ;
1646 [label="entropy = 0.0\nsamples = 2\nvalue = [0, 2]\nclass = y[1]"] ;
492 -> 1646 ;
490 [label="entropy = 0.0\nsamples = 25\nvalue = [25, 0]\nclass = y[0]"] ;
487 -> 490 ;
488 [label="X[1] <= -0.089\nentropy = 1.0\nsamples = 6\nvalue = [3, 3]\nclass = y[0]"] ;
251 -> 488 ;
729 [label="entropy = 0.0\nsamples = 2\nvalue = [2, 0]\nclass = y[0]"] ;
488 -> 729 ;
730 [label="X[12] <= 0.5\nentropy = 0.811\nsamples = 4\nvalue = [1, 3]\nclass = y[1]"] ;
488 -> 730 ;
1649 [label="entropy = 0.0\nsamples = 2\nvalue = [0, 2]\nclass = y[1]"] ;
730 -> 1649 ;
1650 [label="X[15] <= 0.5\nentropy = 1.0\nsamples = 2\nvalue = [1, 1]\nclass = y[0]"] ;
730 -> 1650 ;
1651 [label="entropy = 0.0\nsamples = 1\nvalue = [0, 1]\nclass = y[1]"] ;
1650 -> 1651 ;
1652 [label="entropy = 0.0\nsamples = 1\nvalue = [1, 0]\nclass = y[0]"] ;
1650 -> 1652 ;
252 [label="entropy = 0.0\nsamples = 2\nvalue = [0, 2]\nclass = y[1]"] ;
54 -> 252 ;
40 [label="X[21] <= 0.5\nentropy = 0.365\nsamples = 158\nvalue = [147, 11]\nclass = y[0]"] ;
18 -> 40 ;
57 [label="entropy = 0.0\nsamples = 122\nvalue = [122, 0]\nclass = y[0]"] ;
40 -> 57 ;
58 [label="X[24] <= 0.5\nentropy = 0.888\nsamples = 36\nvalue = [25, 11]\nclass = y[0]"] ;
40 -> 58 ;
203 [label="X[25] <= 0.5\nentropy = 0.998\nsamples = 17\nvalue = [8, 9]\nclass = y[1]"] ;
58 -> 203 ;
205 [label="X[1] <= -0.089\nentropy = 0.764\nsamples = 9\nvalue = [7, 2]\nclass = y[0]"] ;
203 -> 205 ;
697 [label="X[9] <= 0.05\nentropy = 1.0\nsamples = 4\nvalue = [2, 2]\nclass = y[0]"] ;
205 -> 697 ;
699 [label="entropy = 0.0\nsamples = 2\nvalue = [0, 2]\nclass = y[1]"] ;
697 -> 699 ;
700 [label="entropy = 0.0\nsamples = 2\nvalue = [2, 0]\nclass = y[0]"] ;
697 -> 700 ;
698 [label="entropy = 0.0\nsamples = 5\nvalue = [5, 0]\nclass = y[0]"] ;
205 -> 698 ;
206 [label="X[0] <= 1.366\nentropy = 0.544\nsamples = 8\nvalue = [1, 7]\nclass = y[1]"] ;
203 -> 206 ;
985 [label="entropy = 0.0\nsamples = 6\nvalue = [0, 6]\nclass = y[1]"] ;
206 -> 985 ;
986 [label="X[4] <= 0.894\nentropy = 1.0\nsamples = 2\nvalue = [1, 1]\nclass = y[0]"] ;
206 -> 986 ;
1245 [label="entropy = 0.0\nsamples = 1\nvalue = [0, 1]\nclass = y[1]"] ;
986 -> 1245 ;
1246 [label="entropy = 0.0\nsamples = 1\nvalue = [1, 0]\nclass = y[0]"] ;
986 -> 1246 ;
204 [label="X[26] <= 0.5\nentropy = 0.485\nsamples = 19\nvalue = [17, 2]\nclass = y[0]"] ;
58 -> 204 ;
243 [label="entropy = 0.0\nsamples = 15\nvalue = [15, 0]\nclass = y[0]"] ;
204 -> 243 ;
244 [label="X[11] <= 0.5\nentropy = 1.0\nsamples = 4\nvalue = [2, 2]\nclass = y[0]"] ;
204 -> 244 ;
347 [label="entropy = 0.0\nsamples = 2\nvalue = [0, 2]\nclass = y[1]"] ;
244 -> 347 ;
348 [label="entropy = 0.0\nsamples = 2\nvalue = [2, 0]\nclass = y[0]"] ;
244 -> 348 ;
16 [label="X[0] <= 1.682\nentropy = 0.011\nsamples = 15386\nvalue = [15372, 14]\nclass = y[0]"] ;
9 -> 16 ;
63 [label="X[6] <= -0.84\nentropy = 0.006\nsamples = 14998\nvalue = [14991, 7]\nclass = y[0]"] ;
16 -> 63 ;
279 [label="X[0] <= -1.557\nentropy = 0.002\nsamples = 9124\nvalue = [9123, 1]\nclass = y[0]"] ;
63 -> 279 ;
281 [label="X[0] <= -1.559\nentropy = 0.029\nsamples = 341\nvalue = [340, 1]\nclass = y[0]"] ;
279 -> 281 ;
283 [label="entropy = 0.0\nsamples = 335\nvalue = [335, 0]\nclass = y[0]"] ;
281 -> 283 ;
284 [label="X[12] <= 0.5\nentropy = 0.65\nsamples = 6\nvalue = [5, 1]\nclass = y[0]"] ;
281 -> 284 ;
1319 [label="entropy = 0.0\nsamples = 4\nvalue = [4, 0]\nclass = y[0]"] ;
284 -> 1319 ;
1320 [label="X[1] <= 0.579\nentropy = 1.0\nsamples = 2\nvalue = [1, 1]\nclass = y[0]"] ;
284 -> 1320 ;
1321 [label="entropy = 0.0\nsamples = 1\nvalue = [1, 0]\nclass = y[0]"] ;
1320 -> 1321 ;
1322 [label="entropy = 0.0\nsamples = 1\nvalue = [0, 1]\nclass = y[1]"] ;
1320 -> 1322 ;
282 [label="entropy = 0.0\nsamples = 8783\nvalue = [8783, 0]\nclass = y[0]"] ;
279 -> 282 ;
280 [label="X[4] <= 0.894\nentropy = 0.012\nsamples = 5874\nvalue = [5868, 6]\nclass = y[0]"] ;
63 -> 280 ;
339 [label="X[0] <= 0.954\nentropy = 0.018\nsamples = 3666\nvalue = [3660, 6]\nclass = y[0]"] ;
280 -> 339 ;
419 [label="X[0] <= -0.215\nentropy = 0.011\nsamples = 3225\nvalue = [3222, 3]\nclass = y[0]"] ;
339 -> 419 ;
421 [label="X[0] <= -0.217\nentropy = 0.034\nsamples = 857\nvalue = [854, 3]\nclass = y[0]"] ;
419 -> 421 ;
425 [label="X[2] <= -0.425\nentropy = 0.024\nsamples = 850\nvalue = [848, 2]\nclass = y[0]"] ;
421 -> 425 ;
427 [label="X[19] <= 0.5\nentropy = 0.439\nsamples = 11\nvalue = [10, 1]\nclass = y[0]"] ;
425 -> 427 ;
1203 [label="entropy = 0.0\nsamples = 8\nvalue = [8, 0]\nclass = y[0]"] ;
427 -> 1203 ;
1204 [label="X[9] <= -0.77\nentropy = 0.918\nsamples = 3\nvalue = [2, 1]\nclass = y[0]"] ;
427 -> 1204 ;
1205 [label="entropy = 0.0\nsamples = 2\nvalue = [2, 0]\nclass = y[0]"] ;
1204 -> 1205 ;
1206 [label="entropy = 0.0\nsamples = 1\nvalue = [0, 1]\nclass = y[1]"] ;
1204 -> 1206 ;
428 [label="X[8] <= 0.115\nentropy = 0.013\nsamples = 839\nvalue = [838, 1]\nclass = y[0]"] ;
425 -> 428 ;
429 [label="entropy = 0.0\nsamples = 792\nvalue = [792, 0]\nclass = y[0]"] ;
428 -> 429 ;
430 [label="X[9] <= -0.77\nentropy = 0.149\nsamples = 47\nvalue = [46, 1]\nclass = y[0]"] ;
428 -> 430 ;
807 [label="X[6] <= -0.314\nentropy = 0.544\nsamples = 8\nvalue = [7, 1]\nclass = y[0]"] ;
430 -> 807 ;
989 [label="entropy = 0.0\nsamples = 6\nvalue = [6, 0]\nclass = y[0]"] ;
807 -> 989 ;
990 [label="X[15] <= 0.5\nentropy = 1.0\nsamples = 2\nvalue = [1, 1]\nclass = y[0]"] ;
807 -> 990 ;
1243 [label="entropy = 0.0\nsamples = 1\nvalue = [0, 1]\nclass = y[1]"] ;
990 -> 1243 ;
1244 [label="entropy = 0.0\nsamples = 1\nvalue = [1, 0]\nclass = y[0]"] ;
990 -> 1244 ;
808 [label="entropy = 0.0\nsamples = 39\nvalue = [39, 0]\nclass = y[0]"] ;
430 -> 808 ;
426 [label="X[1] <= 1.248\nentropy = 0.592\nsamples = 7\nvalue = [6, 1]\nclass = y[0]"] ;
421 -> 426 ;
431 [label="entropy = 0.0\nsamples = 6\nvalue = [6, 0]\nclass = y[0]"] ;
426 -> 431 ;
432 [label="entropy = 0.0\nsamples = 1\nvalue = [0, 1]\nclass = y[1]"] ;
426 -> 432 ;
422 [label="entropy = 0.0\nsamples = 2368\nvalue = [2368, 0]\nclass = y[0]"] ;
419 -> 422 ;
420 [label="X[0] <= 0.957\nentropy = 0.059\nsamples = 441\nvalue = [438, 3]\nclass = y[0]"] ;
339 -> 420 ;
423 [label="X[12] <= 0.5\nentropy = 0.918\nsamples = 3\nvalue = [2, 1]\nclass = y[0]"] ;
420 -> 423 ;
725 [label="entropy = 0.0\nsamples = 1\nvalue = [0, 1]\nclass = y[1]"] ;
423 -> 725 ;
726 [label="entropy = 0.0\nsamples = 2\nvalue = [2, 0]\nclass = y[0]"] ;
423 -> 726 ;
424 [label="X[8] <= 0.115\nentropy = 0.042\nsamples = 438\nvalue = [436, 2]\nclass = y[0]"] ;
420 -> 424 ;
713 [label="entropy = 0.0\nsamples = 271\nvalue = [271, 0]\nclass = y[0]"] ;
424 -> 713 ;
714 [label="X[2] <= 2.725\nentropy = 0.094\nsamples = 167\nvalue = [165, 2]\nclass = y[0]"] ;
424 -> 714 ;
1085 [label="X[9] <= 1.689\nentropy = 0.056\nsamples = 157\nvalue = [156, 1]\nclass = y[0]"] ;
714 -> 1085 ;
1089 [label="entropy = 0.0\nsamples = 144\nvalue = [144, 0]\nclass = y[0]"] ;
1085 -> 1089 ;
1090 [label="X[26] <= 0.5\nentropy = 0.391\nsamples = 13\nvalue = [12, 1]\nclass = y[0]"] ;
1085 -> 1090 ;
1091 [label="entropy = 0.0\nsamples = 10\nvalue = [10, 0]\nclass = y[0]"] ;
1090 -> 1091 ;
1092 [label="X[6] <= -0.314\nentropy = 0.918\nsamples = 3\nvalue = [2, 1]\nclass = y[0]"] ;
1090 -> 1092 ;
1093 [label="entropy = 0.0\nsamples = 1\nvalue = [0, 1]\nclass = y[1]"] ;
1092 -> 1093 ;
1094 [label="entropy = 0.0\nsamples = 2\nvalue = [2, 0]\nclass = y[0]"] ;
1092 -> 1094 ;
1086 [label="X[1] <= 1.248\nentropy = 0.469\nsamples = 10\nvalue = [9, 1]\nclass = y[0]"] ;
714 -> 1086 ;
1087 [label="entropy = 0.0\nsamples = 1\nvalue = [0, 1]\nclass = y[1]"] ;
1086 -> 1087 ;
1088 [label="entropy = 0.0\nsamples = 9\nvalue = [9, 0]\nclass = y[0]"] ;
1086 -> 1088 ;
340 [label="entropy = 0.0\nsamples = 2208\nvalue = [2208, 0]\nclass = y[0]"] ;
280 -> 340 ;
64 [label="X[1] <= 0.446\nentropy = 0.13\nsamples = 388\nvalue = [381, 7]\nclass = y[0]"] ;
16 -> 64 ;
65 [label="X[27] <= 0.5\nentropy = 0.9\nsamples = 19\nvalue = [13, 6]\nclass = y[0]"] ;
64 -> 65 ;
195 [label="X[8] <= 0.115\nentropy = 0.696\nsamples = 16\nvalue = [13, 3]\nclass = y[0]"] ;
65 -> 195 ;
1005 [label="entropy = 0.0\nsamples = 6\nvalue = [6, 0]\nclass = y[0]"] ;
195 -> 1005 ;
1006 [label="X[9] <= 0.869\nentropy = 0.881\nsamples = 10\nvalue = [7, 3]\nclass = y[0]"] ;
195 -> 1006 ;
1295 [label="X[0] <= 1.838\nentropy = 0.764\nsamples = 9\nvalue = [7, 2]\nclass = y[0]"] ;
1006 -> 1295 ;
1591 [label="X[0] <= 1.792\nentropy = 0.918\nsamples = 6\nvalue = [4, 2]\nclass = y[0]"] ;
1295 -> 1591 ;
1593 [label="X[14] <= 0.5\nentropy = 0.722\nsamples = 5\nvalue = [4, 1]\nclass = y[0]"] ;
1591 -> 1593 ;
1709 [label="entropy = 0.0\nsamples = 2\nvalue = [2, 0]\nclass = y[0]"] ;
1593 -> 1709 ;
1710 [label="X[8] <= 1.73\nentropy = 0.918\nsamples = 3\nvalue = [2, 1]\nclass = y[0]"] ;
1593 -> 1710 ;
1723 [label="X[20] <= 0.5\nentropy = 1.0\nsamples = 2\nvalue = [1, 1]\nclass = y[0]"] ;
1710 -> 1723 ;
1725 [label="entropy = 0.0\nsamples = 1\nvalue = [0, 1]\nclass = y[1]"] ;
1723 -> 1725 ;
1726 [label="entropy = 0.0\nsamples = 1\nvalue = [1, 0]\nclass = y[0]"] ;
1723 -> 1726 ;
1724 [label="entropy = 0.0\nsamples = 1\nvalue = [1, 0]\nclass = y[0]"] ;
1710 -> 1724 ;
1594 [label="entropy = 0.0\nsamples = 1\nvalue = [0, 1]\nclass = y[1]"] ;
1591 -> 1594 ;
1592 [label="entropy = 0.0\nsamples = 3\nvalue = [3, 0]\nclass = y[0]"] ;
1295 -> 1592 ;
1296 [label="entropy = 0.0\nsamples = 1\nvalue = [0, 1]\nclass = y[1]"] ;
1006 -> 1296 ;
196 [label="entropy = 0.0\nsamples = 3\nvalue = [0, 3]\nclass = y[1]"] ;
65 -> 196 ;
66 [label="X[0] <= 1.684\nentropy = 0.027\nsamples = 369\nvalue = [368, 1]\nclass = y[0]"] ;
64 -> 66 ;
157 [label="X[6] <= -0.577\nentropy = 0.918\nsamples = 3\nvalue = [2, 1]\nclass = y[0]"] ;
66 -> 157 ;
739 [label="entropy = 0.0\nsamples = 1\nvalue = [0, 1]\nclass = y[1]"] ;
157 -> 739 ;
740 [label="entropy = 0.0\nsamples = 2\nvalue = [2, 0]\nclass = y[0]"] ;
157 -> 740 ;
158 [label="entropy = 0.0\nsamples = 366\nvalue = [366, 0]\nclass = y[0]"] ;
66 -> 158 ;
10 [label="X[2] <= -0.425\nentropy = 0.795\nsamples = 1062\nvalue = [807, 255]\nclass = y[0]"] ;
4 -> 10 ;
13 [label="X[20] <= 0.5\nentropy = 0.173\nsamples = 155\nvalue = [4, 151]\nclass = y[1]"] ;
10 -> 13 ;
235 [label="X[10] <= 0.593\nentropy = 0.065\nsamples = 131\nvalue = [1, 130]\nclass = y[1]"] ;
13 -> 235 ;
877 [label="entropy = 0.0\nsamples = 108\nvalue = [0, 108]\nclass = y[1]"] ;
235 -> 877 ;
878 [label="X[9] <= 0.869\nentropy = 0.258\nsamples = 23\nvalue = [1, 22]\nclass = y[1]"] ;
235 -> 878 ;
1219 [label="entropy = 0.0\nsamples = 17\nvalue = [0, 17]\nclass = y[1]"] ;
878 -> 1219 ;
1220 [label="X[0] <= -0.225\nentropy = 0.65\nsamples = 6\nvalue = [1, 5]\nclass = y[1]"] ;
878 -> 1220 ;
1307 [label="X[12] <= 0.5\nentropy = 1.0\nsamples = 2\nvalue = [1, 1]\nclass = y[0]"] ;
1220 -> 1307 ;
1309 [label="entropy = 0.0\nsamples = 1\nvalue = [0, 1]\nclass = y[1]"] ;
1307 -> 1309 ;
1310 [label="entropy = 0.0\nsamples = 1\nvalue = [1, 0]\nclass = y[0]"] ;
1307 -> 1310 ;
1308 [label="entropy = 0.0\nsamples = 4\nvalue = [0, 4]\nclass = y[1]"] ;
1220 -> 1308 ;
236 [label="X[24] <= 0.5\nentropy = 0.544\nsamples = 24\nvalue = [3, 21]\nclass = y[1]"] ;
13 -> 236 ;
397 [label="X[8] <= 0.115\nentropy = 0.845\nsamples = 11\nvalue = [3, 8]\nclass = y[1]"] ;
236 -> 397 ;
553 [label="X[15] <= 0.5\nentropy = 1.0\nsamples = 6\nvalue = [3, 3]\nclass = y[0]"] ;
397 -> 553 ;
749 [label="X[9] <= 0.869\nentropy = 0.811\nsamples = 4\nvalue = [1, 3]\nclass = y[1]"] ;
553 -> 749 ;
751 [label="entropy = 0.0\nsamples = 3\nvalue = [0, 3]\nclass = y[1]"] ;
749 -> 751 ;
752 [label="entropy = 0.0\nsamples = 1\nvalue = [1, 0]\nclass = y[0]"] ;
749 -> 752 ;
750 [label="entropy = 0.0\nsamples = 2\nvalue = [2, 0]\nclass = y[0]"] ;
553 -> 750 ;
554 [label="entropy = 0.0\nsamples = 5\nvalue = [0, 5]\nclass = y[1]"] ;
397 -> 554 ;
398 [label="entropy = 0.0\nsamples = 13\nvalue = [0, 13]\nclass = y[1]"] ;
236 -> 398 ;
14 [label="X[18] <= 0.5\nentropy = 0.514\nsamples = 907\nvalue = [803, 104]\nclass = y[0]"] ;
10 -> 14 ;
37 [label="X[2] <= 0.363\nentropy = 0.804\nsamples = 383\nvalue = [289, 94]\nclass = y[0]"] ;
14 -> 37 ;
43 [label="X[8] <= 0.115\nentropy = 0.918\nsamples = 72\nvalue = [24, 48]\nclass = y[1]"] ;
37 -> 43 ;
77 [label="X[0] <= 0.561\nentropy = 0.877\nsamples = 27\nvalue = [19, 8]\nclass = y[0]"] ;
43 -> 77 ;
179 [label="X[1] <= -0.089\nentropy = 0.503\nsamples = 18\nvalue = [16, 2]\nclass = y[0]"] ;
77 -> 179 ;
183 [label="X[12] <= 0.5\nentropy = 0.918\nsamples = 3\nvalue = [1, 2]\nclass = y[1]"] ;
179 -> 183 ;
731 [label="entropy = 0.0\nsamples = 2\nvalue = [0, 2]\nclass = y[1]"] ;
183 -> 731 ;
732 [label="entropy = 0.0\nsamples = 1\nvalue = [1, 0]\nclass = y[0]"] ;
183 -> 732 ;
184 [label="entropy = 0.0\nsamples = 15\nvalue = [15, 0]\nclass = y[0]"] ;
179 -> 184 ;
180 [label="X[0] <= 1.01\nentropy = 0.918\nsamples = 9\nvalue = [3, 6]\nclass = y[1]"] ;
77 -> 180 ;
509 [label="entropy = 0.0\nsamples = 4\nvalue = [0, 4]\nclass = y[1]"] ;
180 -> 509 ;
510 [label="X[0] <= 1.194\nentropy = 0.971\nsamples = 5\nvalue = [3, 2]\nclass = y[0]"] ;
180 -> 510 ;
1179 [label="entropy = 0.0\nsamples = 2\nvalue = [2, 0]\nclass = y[0]"] ;
510 -> 1179 ;
1180 [label="X[6] <= -0.051\nentropy = 0.918\nsamples = 3\nvalue = [1, 2]\nclass = y[1]"] ;
510 -> 1180 ;
1181 [label="entropy = 0.0\nsamples = 1\nvalue = [1, 0]\nclass = y[0]"] ;
1180 -> 1181 ;
1182 [label="entropy = 0.0\nsamples = 2\nvalue = [0, 2]\nclass = y[1]"] ;
1180 -> 1182 ;
78 [label="X[6] <= -0.051\nentropy = 0.503\nsamples = 45\nvalue = [5, 40]\nclass = y[1]"] ;
43 -> 78 ;
137 [label="X[1] <= 0.178\nentropy = 1.0\nsamples = 8\nvalue = [4, 4]\nclass = y[0]"] ;
78 -> 137 ;
929 [label="entropy = 0.0\nsamples = 2\nvalue = [0, 2]\nclass = y[1]"] ;
137 -> 929 ;
930 [label="X[8] <= 1.73\nentropy = 0.918\nsamples = 6\nvalue = [4, 2]\nclass = y[0]"] ;
137 -> 930 ;
931 [label="entropy = 0.0\nsamples = 3\nvalue = [3, 0]\nclass = y[0]"] ;
930 -> 931 ;
932 [label="X[0] <= 0.491\nentropy = 0.918\nsamples = 3\nvalue = [1, 2]\nclass = y[1]"] ;
930 -> 932 ;
933 [label="entropy = 0.0\nsamples = 1\nvalue = [1, 0]\nclass = y[0]"] ;
932 -> 933 ;
934 [label="entropy = 0.0\nsamples = 2\nvalue = [0, 2]\nclass = y[1]"] ;
932 -> 934 ;
138 [label="X[10] <= 0.593\nentropy = 0.179\nsamples = 37\nvalue = [1, 36]\nclass = y[1]"] ;
78 -> 138 ;
513 [label="entropy = 0.0\nsamples = 33\nvalue = [0, 33]\nclass = y[1]"] ;
138 -> 513 ;
514 [label="X[1] <= 0.446\nentropy = 0.811\nsamples = 4\nvalue = [1, 3]\nclass = y[1]"] ;
138 -> 514 ;
591 [label="entropy = 0.0\nsamples = 3\nvalue = [0, 3]\nclass = y[1]"] ;
514 -> 591 ;
592 [label="entropy = 0.0\nsamples = 1\nvalue = [1, 0]\nclass = y[0]"] ;
514 -> 592 ;
44 [label="X[1] <= 0.981\nentropy = 0.605\nsamples = 311\nvalue = [265, 46]\nclass = y[0]"] ;
37 -> 44 ;
95 [label="X[0] <= 0.144\nentropy = 0.817\nsamples = 134\nvalue = [100, 34]\nclass = y[0]"] ;
44 -> 95 ;
123 [label="entropy = 0.0\nsamples = 19\nvalue = [19, 0]\nclass = y[0]"] ;
95 -> 123 ;
124 [label="X[5] <= 0.557\nentropy = 0.876\nsamples = 115\nvalue = [81, 34]\nclass = y[0]"] ;
95 -> 124 ;
151 [label="X[2] <= 1.15\nentropy = 0.736\nsamples = 82\nvalue = [65, 17]\nclass = y[0]"] ;
124 -> 151 ;
373 [label="X[14] <= 0.5\nentropy = 0.536\nsamples = 49\nvalue = [43, 6]\nclass = y[0]"] ;
151 -> 373 ;
375 [label="entropy = 0.0\nsamples = 21\nvalue = [21, 0]\nclass = y[0]"] ;
373 -> 375 ;
376 [label="X[1] <= 0.178\nentropy = 0.75\nsamples = 28\nvalue = [22, 6]\nclass = y[0]"] ;
373 -> 376 ;
377 [label="entropy = 0.0\nsamples = 2\nvalue = [0, 2]\nclass = y[1]"] ;
376 -> 377 ;
378 [label="X[8] <= 0.115\nentropy = 0.619\nsamples = 26\nvalue = [22, 4]\nclass = y[0]"] ;
376 -> 378 ;
773 [label="entropy = 0.0\nsamples = 9\nvalue = [9, 0]\nclass = y[0]"] ;
378 -> 773 ;
774 [label="X[0] <= 1.156\nentropy = 0.787\nsamples = 17\nvalue = [13, 4]\nclass = y[0]"] ;
378 -> 774 ;
775 [label="X[0] <= 0.7\nentropy = 0.991\nsamples = 9\nvalue = [5, 4]\nclass = y[0]"] ;
774 -> 775 ;
777 [label="entropy = 0.0\nsamples = 4\nvalue = [4, 0]\nclass = y[0]"] ;
775 -> 777 ;
778 [label="X[25] <= 0.5\nentropy = 0.722\nsamples = 5\nvalue = [1, 4]\nclass = y[1]"] ;
775 -> 778 ;
779 [label="entropy = 0.0\nsamples = 1\nvalue = [1, 0]\nclass = y[0]"] ;
778 -> 779 ;
780 [label="entropy = 0.0\nsamples = 4\nvalue = [0, 4]\nclass = y[1]"] ;
778 -> 780 ;
776 [label="entropy = 0.0\nsamples = 8\nvalue = [8, 0]\nclass = y[0]"] ;
774 -> 776 ;
374 [label="X[0] <= 2.406\nentropy = 0.918\nsamples = 33\nvalue = [22, 11]\nclass = y[0]"] ;
151 -> 374 ;
593 [label="X[7] <= 0.386\nentropy = 0.967\nsamples = 28\nvalue = [17, 11]\nclass = y[0]"] ;
374 -> 593 ;
595 [label="X[6] <= -0.051\nentropy = 0.999\nsamples = 23\nvalue = [12, 11]\nclass = y[0]"] ;
593 -> 595 ;
597 [label="X[3] <= 1.909\nentropy = 0.592\nsamples = 7\nvalue = [6, 1]\nclass = y[0]"] ;
595 -> 597 ;
1133 [label="entropy = 0.0\nsamples = 5\nvalue = [5, 0]\nclass = y[0]"] ;
597 -> 1133 ;
1134 [label="X[6] <= -0.314\nentropy = 1.0\nsamples = 2\nvalue = [1, 1]\nclass = y[0]"] ;
597 -> 1134 ;
1277 [label="entropy = 0.0\nsamples = 1\nvalue = [1, 0]\nclass = y[0]"] ;
1134 -> 1277 ;
1278 [label="entropy = 0.0\nsamples = 1\nvalue = [0, 1]\nclass = y[1]"] ;
1134 -> 1278 ;
598 [label="X[0] <= 1.673\nentropy = 0.954\nsamples = 16\nvalue = [6, 10]\nclass = y[1]"] ;
595 -> 598 ;
599 [label="X[0] <= 0.71\nentropy = 0.684\nsamples = 11\nvalue = [2, 9]\nclass = y[1]"] ;
598 -> 599 ;
601 [label="X[12] <= 0.5\nentropy = 0.918\nsamples = 3\nvalue = [2, 1]\nclass = y[0]"] ;
599 -> 601 ;
745 [label="entropy = 0.0\nsamples = 1\nvalue = [0, 1]\nclass = y[1]"] ;
601 -> 745 ;
746 [label="entropy = 0.0\nsamples = 2\nvalue = [2, 0]\nclass = y[0]"] ;
601 -> 746 ;
602 [label="entropy = 0.0\nsamples = 8\nvalue = [0, 8]\nclass = y[1]"] ;
599 -> 602 ;
600 [label="X[9] <= 1.689\nentropy = 0.722\nsamples = 5\nvalue = [4, 1]\nclass = y[0]"] ;
598 -> 600 ;
603 [label="entropy = 0.0\nsamples = 4\nvalue = [4, 0]\nclass = y[0]"] ;
600 -> 603 ;
604 [label="entropy = 0.0\nsamples = 1\nvalue = [0, 1]\nclass = y[1]"] ;
600 -> 604 ;
596 [label="entropy = 0.0\nsamples = 5\nvalue = [5, 0]\nclass = y[0]"] ;
593 -> 596 ;
594 [label="entropy = 0.0\nsamples = 5\nvalue = [5, 0]\nclass = y[0]"] ;
374 -> 594 ;
152 [label="X[19] <= 0.5\nentropy = 0.999\nsamples = 33\nvalue = [16, 17]\nclass = y[1]"] ;
124 -> 152 ;
287 [label="X[0] <= 2.029\nentropy = 0.978\nsamples = 29\nvalue = [12, 17]\nclass = y[1]"] ;
152 -> 287 ;
511 [label="X[0] <= 1.618\nentropy = 0.999\nsamples = 25\nvalue = [12, 13]\nclass = y[1]"] ;
287 -> 511 ;
1053 [label="X[3] <= 1.909\nentropy = 0.988\nsamples = 23\nvalue = [10, 13]\nclass = y[1]"] ;
511 -> 1053 ;
1055 [label="X[0] <= 0.543\nentropy = 1.0\nsamples = 20\nvalue = [10, 10]\nclass = y[0]"] ;
1053 -> 1055 ;
1391 [label="X[0] <= 0.339\nentropy = 0.722\nsamples = 5\nvalue = [1, 4]\nclass = y[1]"] ;
1055 -> 1391 ;
1399 [label="entropy = 0.0\nsamples = 1\nvalue = [1, 0]\nclass = y[0]"] ;
1391 -> 1399 ;
1400 [label="entropy = 0.0\nsamples = 4\nvalue = [0, 4]\nclass = y[1]"] ;
1391 -> 1400 ;
1392 [label="X[23] <= 0.5\nentropy = 0.971\nsamples = 15\nvalue = [9, 6]\nclass = y[0]"] ;
1055 -> 1392 ;
1393 [label="entropy = 0.0\nsamples = 4\nvalue = [4, 0]\nclass = y[0]"] ;
1392 -> 1393 ;
1394 [label="X[1] <= 0.713\nentropy = 0.994\nsamples = 11\nvalue = [5, 6]\nclass = y[1]"] ;
1392 -> 1394 ;
1395 [label="X[9] <= -0.77\nentropy = 0.65\nsamples = 6\nvalue = [5, 1]\nclass = y[0]"] ;
1394 -> 1395 ;
1397 [label="entropy = 0.0\nsamples = 5\nvalue = [5, 0]\nclass = y[0]"] ;
1395 -> 1397 ;
1398 [label="entropy = 0.0\nsamples = 1\nvalue = [0, 1]\nclass = y[1]"] ;
1395 -> 1398 ;
1396 [label="entropy = 0.0\nsamples = 5\nvalue = [0, 5]\nclass = y[1]"] ;
1394 -> 1396 ;
1056 [label="entropy = 0.0\nsamples = 3\nvalue = [0, 3]\nclass = y[1]"] ;
1053 -> 1056 ;
1054 [label="entropy = 0.0\nsamples = 2\nvalue = [2, 0]\nclass = y[0]"] ;
511 -> 1054 ;
512 [label="entropy = 0.0\nsamples = 4\nvalue = [0, 4]\nclass = y[1]"] ;
287 -> 512 ;
288 [label="entropy = 0.0\nsamples = 4\nvalue = [4, 0]\nclass = y[0]"] ;
152 -> 288 ;
96 [label="X[9] <= -0.77\nentropy = 0.358\nsamples = 177\nvalue = [165, 12]\nclass = y[0]"] ;
44 -> 96 ;
209 [label="entropy = 0.0\nsamples = 48\nvalue = [48, 0]\nclass = y[0]"] ;
96 -> 209 ;
210 [label="X[4] <= 0.064\nentropy = 0.446\nsamples = 129\nvalue = [117, 12]\nclass = y[0]"] ;
96 -> 210 ;
255 [label="entropy = 0.0\nsamples = 31\nvalue = [31, 0]\nclass = y[0]"] ;
210 -> 255 ;
256 [label="X[27] <= 0.5\nentropy = 0.536\nsamples = 98\nvalue = [86, 12]\nclass = y[0]"] ;
210 -> 256 ;
275 [label="X[0] <= 0.724\nentropy = 0.629\nsamples = 76\nvalue = [64, 12]\nclass = y[0]"] ;
256 -> 275 ;
451 [label="entropy = 0.0\nsamples = 13\nvalue = [13, 0]\nclass = y[0]"] ;
275 -> 451 ;
452 [label="X[2] <= 5.088\nentropy = 0.702\nsamples = 63\nvalue = [51, 12]\nclass = y[0]"] ;
275 -> 452 ;
891 [label="X[0] <= 1.589\nentropy = 0.65\nsamples = 60\nvalue = [50, 10]\nclass = y[0]"] ;
452 -> 891 ;
893 [label="X[3] <= 1.909\nentropy = 0.877\nsamples = 27\nvalue = [19, 8]\nclass = y[0]"] ;
891 -> 893 ;
897 [label="X[0] <= 1.447\nentropy = 0.959\nsamples = 21\nvalue = [13, 8]\nclass = y[0]"] ;
893 -> 897 ;
899 [label="X[21] <= 0.5\nentropy = 0.9\nsamples = 19\nvalue = [13, 6]\nclass = y[0]"] ;
897 -> 899 ;
1401 [label="X[8] <= 0.115\nentropy = 0.994\nsamples = 11\nvalue = [6, 5]\nclass = y[0]"] ;
899 -> 1401 ;
1403 [label="X[2] <= 1.15\nentropy = 0.592\nsamples = 7\nvalue = [6, 1]\nclass = y[0]"] ;
1401 -> 1403 ;
1407 [label="X[24] <= 0.5\nentropy = 1.0\nsamples = 2\nvalue = [1, 1]\nclass = y[0]"] ;
1403 -> 1407 ;
1409 [label="entropy = 0.0\nsamples = 1\nvalue = [1, 0]\nclass = y[0]"] ;
1407 -> 1409 ;
1410 [label="entropy = 0.0\nsamples = 1\nvalue = [0, 1]\nclass = y[1]"] ;
1407 -> 1410 ;
1408 [label="entropy = 0.0\nsamples = 5\nvalue = [5, 0]\nclass = y[0]"] ;
1403 -> 1408 ;
1404 [label="entropy = 0.0\nsamples = 4\nvalue = [0, 4]\nclass = y[1]"] ;
1401 -> 1404 ;
1402 [label="X[2] <= 1.15\nentropy = 0.544\nsamples = 8\nvalue = [7, 1]\nclass = y[0]"] ;
899 -> 1402 ;
1405 [label="entropy = 0.0\nsamples = 1\nvalue = [0, 1]\nclass = y[1]"] ;
1402 -> 1405 ;
1406 [label="entropy = 0.0\nsamples = 7\nvalue = [7, 0]\nclass = y[0]"] ;
1402 -> 1406 ;
900 [label="entropy = 0.0\nsamples = 2\nvalue = [0, 2]\nclass = y[1]"] ;
897 -> 900 ;
898 [label="entropy = 0.0\nsamples = 6\nvalue = [6, 0]\nclass = y[0]"] ;
893 -> 898 ;
894 [label="X[2] <= 2.725\nentropy = 0.33\nsamples = 33\nvalue = [31, 2]\nclass = y[0]"] ;
891 -> 894 ;
895 [label="entropy = 0.0\nsamples = 24\nvalue = [24, 0]\nclass = y[0]"] ;
894 -> 895 ;
896 [label="X[3] <= 1.909\nentropy = 0.764\nsamples = 9\nvalue = [7, 2]\nclass = y[0]"] ;
894 -> 896 ;
1225 [label="entropy = 0.0\nsamples = 4\nvalue = [4, 0]\nclass = y[0]"] ;
896 -> 1225 ;
1226 [label="X[0] <= 2.603\nentropy = 0.971\nsamples = 5\nvalue = [3, 2]\nclass = y[0]"] ;
896 -> 1226 ;
1227 [label="entropy = 0.0\nsamples = 3\nvalue = [3, 0]\nclass = y[0]"] ;
1226 -> 1227 ;
1228 [label="entropy = 0.0\nsamples = 2\nvalue = [0, 2]\nclass = y[1]"] ;
1226 -> 1228 ;
892 [label="X[3] <= 1.909\nentropy = 0.918\nsamples = 3\nvalue = [1, 2]\nclass = y[1]"] ;
452 -> 892 ;
901 [label="entropy = 0.0\nsamples = 1\nvalue = [1, 0]\nclass = y[0]"] ;
892 -> 901 ;
902 [label="entropy = 0.0\nsamples = 2\nvalue = [0, 2]\nclass = y[1]"] ;
892 -> 902 ;
276 [label="entropy = 0.0\nsamples = 22\nvalue = [22, 0]\nclass = y[0]"] ;
256 -> 276 ;
38 [label="X[1] <= 0.713\nentropy = 0.136\nsamples = 524\nvalue = [514, 10]\nclass = y[0]"] ;
14 -> 38 ;
81 [label="X[3] <= 0.204\nentropy = 0.344\nsamples = 156\nvalue = [146, 10]\nclass = y[0]"] ;
38 -> 81 ;
121 [label="X[0] <= 0.089\nentropy = 0.771\nsamples = 31\nvalue = [24, 7]\nclass = y[0]"] ;
81 -> 121 ;
229 [label="X[14] <= 0.5\nentropy = 0.991\nsamples = 9\nvalue = [4, 5]\nclass = y[1]"] ;
121 -> 229 ;
233 [label="X[5] <= 0.557\nentropy = 0.722\nsamples = 5\nvalue = [4, 1]\nclass = y[0]"] ;
229 -> 233 ;
441 [label="entropy = 0.0\nsamples = 4\nvalue = [4, 0]\nclass = y[0]"] ;
233 -> 441 ;
442 [label="entropy = 0.0\nsamples = 1\nvalue = [0, 1]\nclass = y[1]"] ;
233 -> 442 ;
234 [label="entropy = 0.0\nsamples = 4\nvalue = [0, 4]\nclass = y[1]"] ;
229 -> 234 ;
230 [label="X[2] <= 0.363\nentropy = 0.439\nsamples = 22\nvalue = [20, 2]\nclass = y[0]"] ;
121 -> 230 ;
231 [label="entropy = 0.0\nsamples = 20\nvalue = [20, 0]\nclass = y[0]"] ;
230 -> 231 ;
232 [label="entropy = 0.0\nsamples = 2\nvalue = [0, 2]\nclass = y[1]"] ;
230 -> 232 ;
122 [label="X[7] <= 0.386\nentropy = 0.163\nsamples = 125\nvalue = [122, 3]\nclass = y[0]"] ;
81 -> 122 ;
129 [label="entropy = 0.0\nsamples = 106\nvalue = [106, 0]\nclass = y[0]"] ;
122 -> 129 ;
130 [label="X[0] <= 2.421\nentropy = 0.629\nsamples = 19\nvalue = [16, 3]\nclass = y[0]"] ;
122 -> 130 ;
687 [label="X[4] <= 1.723\nentropy = 0.503\nsamples = 18\nvalue = [16, 2]\nclass = y[0]"] ;
130 -> 687 ;
689 [label="X[7] <= 1.176\nentropy = 0.323\nsamples = 17\nvalue = [16, 1]\nclass = y[0]"] ;
687 -> 689 ;
753 [label="entropy = 0.0\nsamples = 14\nvalue = [14, 0]\nclass = y[0]"] ;
689 -> 753 ;
754 [label="X[0] <= 1.336\nentropy = 0.918\nsamples = 3\nvalue = [2, 1]\nclass = y[0]"] ;
689 -> 754 ;
755 [label="entropy = 0.0\nsamples = 1\nvalue = [0, 1]\nclass = y[1]"] ;
754 -> 755 ;
756 [label="entropy = 0.0\nsamples = 2\nvalue = [2, 0]\nclass = y[0]"] ;
754 -> 756 ;
690 [label="entropy = 0.0\nsamples = 1\nvalue = [0, 1]\nclass = y[1]"] ;
687 -> 690 ;
688 [label="entropy = 0.0\nsamples = 1\nvalue = [0, 1]\nclass = y[1]"] ;
130 -> 688 ;
82 [label="entropy = 0.0\nsamples = 368\nvalue = [368, 0]\nclass = y[0]"] ;
38 -> 82 ;
2 [label="X[2] <= -0.425\nentropy = 0.412\nsamples = 19005\nvalue = [1576, 17429]\nclass = y[1]"] ;
0 -> 2 [labeldistance=2.5, labelangle=-45, headlabel="False"] ;
5 [label="X[6] <= 0.738\nentropy = 0.008\nsamples = 15250\nvalue = [10, 15240]\nclass = y[1]"] ;
2 -> 5 ;
73 [label="X[7] <= 1.176\nentropy = 0.027\nsamples = 3705\nvalue = [10, 3695]\nclass = y[1]"] ;
5 -> 73 ;
75 [label="X[6] <= 0.475\nentropy = 0.015\nsamples = 3644\nvalue = [5, 3639]\nclass = y[1]"] ;
73 -> 75 ;
189 [label="X[0] <= 0.853\nentropy = 0.031\nsamples = 1561\nvalue = [5, 1556]\nclass = y[1]"] ;
75 -> 189 ;
207 [label="X[0] <= -0.277\nentropy = 0.015\nsamples = 1415\nvalue = [2, 1413]\nclass = y[1]"] ;
189 -> 207 ;
979 [label="entropy = 0.0\nsamples = 791\nvalue = [0, 791]\nclass = y[1]"] ;
207 -> 979 ;
980 [label="X[0] <= -0.275\nentropy = 0.031\nsamples = 624\nvalue = [2, 622]\nclass = y[1]"] ;
207 -> 980 ;
981 [label="X[14] <= 0.5\nentropy = 0.811\nsamples = 4\nvalue = [1, 3]\nclass = y[1]"] ;
980 -> 981 ;
1629 [label="entropy = 0.0\nsamples = 2\nvalue = [0, 2]\nclass = y[1]"] ;
981 -> 1629 ;
1630 [label="X[26] <= 0.5\nentropy = 1.0\nsamples = 2\nvalue = [1, 1]\nclass = y[0]"] ;
981 -> 1630 ;
1631 [label="entropy = 0.0\nsamples = 1\nvalue = [1, 0]\nclass = y[0]"] ;
1630 -> 1631 ;
1632 [label="entropy = 0.0\nsamples = 1\nvalue = [0, 1]\nclass = y[1]"] ;
1630 -> 1632 ;
982 [label="X[7] <= -0.404\nentropy = 0.017\nsamples = 620\nvalue = [1, 619]\nclass = y[1]"] ;
980 -> 982 ;
983 [label="X[0] <= -0.094\nentropy = 0.191\nsamples = 34\nvalue = [1, 33]\nclass = y[1]"] ;
982 -> 983 ;
1285 [label="X[0] <= -0.127\nentropy = 0.503\nsamples = 9\nvalue = [1, 8]\nclass = y[1]"] ;
983 -> 1285 ;
1287 [label="entropy = 0.0\nsamples = 8\nvalue = [0, 8]\nclass = y[1]"] ;
1285 -> 1287 ;
1288 [label="entropy = 0.0\nsamples = 1\nvalue = [1, 0]\nclass = y[0]"] ;
1285 -> 1288 ;
1286 [label="entropy = 0.0\nsamples = 25\nvalue = [0, 25]\nclass = y[1]"] ;
983 -> 1286 ;
984 [label="entropy = 0.0\nsamples = 586\nvalue = [0, 586]\nclass = y[1]"] ;
982 -> 984 ;
208 [label="X[12] <= 0.5\nentropy = 0.145\nsamples = 146\nvalue = [3, 143]\nclass = y[1]"] ;
189 -> 208 ;
605 [label="entropy = 0.0\nsamples = 76\nvalue = [0, 76]\nclass = y[1]"] ;
208 -> 605 ;
606 [label="X[0] <= 0.859\nentropy = 0.255\nsamples = 70\nvalue = [3, 67]\nclass = y[1]"] ;
208 -> 606 ;
703 [label="X[24] <= 0.5\nentropy = 1.0\nsamples = 2\nvalue = [1, 1]\nclass = y[0]"] ;
606 -> 703 ;
1261 [label="entropy = 0.0\nsamples = 1\nvalue = [1, 0]\nclass = y[0]"] ;
703 -> 1261 ;
1262 [label="entropy = 0.0\nsamples = 1\nvalue = [0, 1]\nclass = y[1]"] ;
703 -> 1262 ;
704 [label="X[0] <= 1.188\nentropy = 0.191\nsamples = 68\nvalue = [2, 66]\nclass = y[1]"] ;
606 -> 704 ;
1345 [label="entropy = 0.0\nsamples = 32\nvalue = [0, 32]\nclass = y[1]"] ;
704 -> 1345 ;
1346 [label="X[0] <= 1.193\nentropy = 0.31\nsamples = 36\nvalue = [2, 34]\nclass = y[1]"] ;
704 -> 1346 ;
1347 [label="entropy = 0.0\nsamples = 1\nvalue = [1, 0]\nclass = y[0]"] ;
1346 -> 1347 ;
1348 [label="X[27] <= 0.5\nentropy = 0.187\nsamples = 35\nvalue = [1, 34]\nclass = y[1]"] ;
1346 -> 1348 ;
1349 [label="entropy = 0.0\nsamples = 31\nvalue = [0, 31]\nclass = y[1]"] ;
1348 -> 1349 ;
1350 [label="X[7] <= 0.386\nentropy = 0.811\nsamples = 4\nvalue = [1, 3]\nclass = y[1]"] ;
1348 -> 1350 ;
1351 [label="entropy = 0.0\nsamples = 3\nvalue = [0, 3]\nclass = y[1]"] ;
1350 -> 1351 ;
1352 [label="entropy = 0.0\nsamples = 1\nvalue = [1, 0]\nclass = y[0]"] ;
1350 -> 1352 ;
190 [label="entropy = 0.0\nsamples = 2083\nvalue = [0, 2083]\nclass = y[1]"] ;
75 -> 190 ;
76 [label="X[3] <= 0.204\nentropy = 0.409\nsamples = 61\nvalue = [5, 56]\nclass = y[1]"] ;
73 -> 76 ;
127 [label="entropy = 0.0\nsamples = 41\nvalue = [0, 41]\nclass = y[1]"] ;
76 -> 127 ;
128 [label="X[0] <= 0.607\nentropy = 0.811\nsamples = 20\nvalue = [5, 15]\nclass = y[1]"] ;
76 -> 128 ;
631 [label="entropy = 0.0\nsamples = 6\nvalue = [0, 6]\nclass = y[1]"] ;
128 -> 631 ;
632 [label="X[0] <= 1.868\nentropy = 0.94\nsamples = 14\nvalue = [5, 9]\nclass = y[1]"] ;
128 -> 632 ;
633 [label="X[6] <= 0.475\nentropy = 1.0\nsamples = 10\nvalue = [5, 5]\nclass = y[0]"] ;
632 -> 633 ;
635 [label="entropy = 0.0\nsamples = 3\nvalue = [3, 0]\nclass = y[0]"] ;
633 -> 635 ;
636 [label="X[0] <= 1.664\nentropy = 0.863\nsamples = 7\nvalue = [2, 5]\nclass = y[1]"] ;
633 -> 636 ;
1137 [label="X[9] <= 0.05\nentropy = 0.65\nsamples = 6\nvalue = [1, 5]\nclass = y[1]"] ;
636 -> 1137 ;
1311 [label="X[1] <= -0.089\nentropy = 1.0\nsamples = 2\nvalue = [1, 1]\nclass = y[0]"] ;
1137 -> 1311 ;
1313 [label="entropy = 0.0\nsamples = 1\nvalue = [0, 1]\nclass = y[1]"] ;
1311 -> 1313 ;
1314 [label="entropy = 0.0\nsamples = 1\nvalue = [1, 0]\nclass = y[0]"] ;
1311 -> 1314 ;
1312 [label="entropy = 0.0\nsamples = 4\nvalue = [0, 4]\nclass = y[1]"] ;
1137 -> 1312 ;
1138 [label="entropy = 0.0\nsamples = 1\nvalue = [1, 0]\nclass = y[0]"] ;
636 -> 1138 ;
634 [label="entropy = 0.0\nsamples = 4\nvalue = [0, 4]\nclass = y[1]"] ;
632 -> 634 ;
74 [label="entropy = 0.0\nsamples = 11545\nvalue = [0, 11545]\nclass = y[1]"] ;
5 -> 74 ;
6 [label="X[1] <= 0.446\nentropy = 0.98\nsamples = 3755\nvalue = [1566, 2189]\nclass = y[1]"] ;
2 -> 6 ;
11 [label="X[17] <= 0.5\nentropy = 0.688\nsamples = 1726\nvalue = [317, 1409]\nclass = y[1]"] ;
6 -> 11 ;
23 [label="X[1] <= 0.178\nentropy = 0.927\nsamples = 703\nvalue = [241, 462]\nclass = y[1]"] ;
11 -> 23 ;
35 [label="X[7] <= 0.386\nentropy = 0.649\nsamples = 391\nvalue = [65, 326]\nclass = y[1]"] ;
23 -> 35 ;
59 [label="X[3] <= 0.204\nentropy = 0.989\nsamples = 66\nvalue = [29, 37]\nclass = y[1]"] ;
35 -> 59 ;
79 [label="X[0] <= 0.756\nentropy = 0.544\nsamples = 32\nvalue = [4, 28]\nclass = y[1]"] ;
59 -> 79 ;
141 [label="entropy = 0.0\nsamples = 22\nvalue = [0, 22]\nclass = y[1]"] ;
79 -> 141 ;
142 [label="X[19] <= 0.5\nentropy = 0.971\nsamples = 10\nvalue = [4, 6]\nclass = y[1]"] ;
79 -> 142 ;
329 [label="X[24] <= 0.5\nentropy = 0.918\nsamples = 6\nvalue = [4, 2]\nclass = y[0]"] ;
142 -> 329 ;
737 [label="X[0] <= 1.539\nentropy = 0.918\nsamples = 3\nvalue = [1, 2]\nclass = y[1]"] ;
329 -> 737 ;
743 [label="entropy = 0.0\nsamples = 2\nvalue = [0, 2]\nclass = y[1]"] ;
737 -> 743 ;
744 [label="entropy = 0.0\nsamples = 1\nvalue = [1, 0]\nclass = y[0]"] ;
737 -> 744 ;
738 [label="entropy = 0.0\nsamples = 3\nvalue = [3, 0]\nclass = y[0]"] ;
329 -> 738 ;
330 [label="entropy = 0.0\nsamples = 4\nvalue = [0, 4]\nclass = y[1]"] ;
142 -> 330 ;
80 [label="X[0] <= 0.521\nentropy = 0.834\nsamples = 34\nvalue = [25, 9]\nclass = y[0]"] ;
59 -> 80 ;
169 [label="entropy = 0.0\nsamples = 12\nvalue = [12, 0]\nclass = y[0]"] ;
80 -> 169 ;
170 [label="X[21] <= 0.5\nentropy = 0.976\nsamples = 22\nvalue = [13, 9]\nclass = y[0]"] ;
80 -> 170 ;
309 [label="X[26] <= 0.5\nentropy = 0.998\nsamples = 17\nvalue = [8, 9]\nclass = y[1]"] ;
170 -> 309 ;
619 [label="X[4] <= -0.765\nentropy = 0.985\nsamples = 14\nvalue = [8, 6]\nclass = y[0]"] ;
309 -> 619 ;
621 [label="entropy = 0.0\nsamples = 4\nvalue = [4, 0]\nclass = y[0]"] ;
619 -> 621 ;
622 [label="X[0] <= 0.737\nentropy = 0.971\nsamples = 10\nvalue = [4, 6]\nclass = y[1]"] ;
619 -> 622 ;
623 [label="X[9] <= 0.869\nentropy = 0.918\nsamples = 6\nvalue = [4, 2]\nclass = y[0]"] ;
622 -> 623 ;
741 [label="entropy = 0.0\nsamples = 3\nvalue = [3, 0]\nclass = y[0]"] ;
623 -> 741 ;
742 [label="X[25] <= 0.5\nentropy = 0.918\nsamples = 3\nvalue = [1, 2]\nclass = y[1]"] ;
623 -> 742 ;
747 [label="entropy = 0.0\nsamples = 2\nvalue = [0, 2]\nclass = y[1]"] ;
742 -> 747 ;
748 [label="entropy = 0.0\nsamples = 1\nvalue = [1, 0]\nclass = y[0]"] ;
742 -> 748 ;
624 [label="entropy = 0.0\nsamples = 4\nvalue = [0, 4]\nclass = y[1]"] ;
622 -> 624 ;
620 [label="entropy = 0.0\nsamples = 3\nvalue = [0, 3]\nclass = y[1]"] ;
309 -> 620 ;
310 [label="entropy = 0.0\nsamples = 5\nvalue = [5, 0]\nclass = y[0]"] ;
170 -> 310 ;
60 [label="X[1] <= -0.089\nentropy = 0.502\nsamples = 325\nvalue = [36, 289]\nclass = y[1]"] ;
35 -> 60 ;
109 [label="X[20] <= 0.5\nentropy = 0.249\nsamples = 145\nvalue = [6, 139]\nclass = y[1]"] ;
60 -> 109 ;
227 [label="X[6] <= 0.738\nentropy = 0.081\nsamples = 100\nvalue = [1, 99]\nclass = y[1]"] ;
109 -> 227 ;
417 [label="X[15] <= 0.5\nentropy = 0.544\nsamples = 8\nvalue = [1, 7]\nclass = y[1]"] ;
227 -> 417 ;
987 [label="X[1] <= -0.357\nentropy = 1.0\nsamples = 2\nvalue = [1, 1]\nclass = y[0]"] ;
417 -> 987 ;
1247 [label="entropy = 0.0\nsamples = 1\nvalue = [0, 1]\nclass = y[1]"] ;
987 -> 1247 ;
1248 [label="entropy = 0.0\nsamples = 1\nvalue = [1, 0]\nclass = y[0]"] ;
987 -> 1248 ;
988 [label="entropy = 0.0\nsamples = 6\nvalue = [0, 6]\nclass = y[1]"] ;
417 -> 988 ;
418 [label="entropy = 0.0\nsamples = 92\nvalue = [0, 92]\nclass = y[1]"] ;
227 -> 418 ;
228 [label="X[4] <= 0.064\nentropy = 0.503\nsamples = 45\nvalue = [5, 40]\nclass = y[1]"] ;
109 -> 228 ;
289 [label="X[0] <= 0.943\nentropy = 0.722\nsamples = 25\nvalue = [5, 20]\nclass = y[1]"] ;
228 -> 289 ;
641 [label="X[4] <= -0.765\nentropy = 0.353\nsamples = 15\nvalue = [1, 14]\nclass = y[1]"] ;
289 -> 641 ;
1581 [label="entropy = 0.0\nsamples = 9\nvalue = [0, 9]\nclass = y[1]"] ;
641 -> 1581 ;
1582 [label="X[8] <= 0.115\nentropy = 0.65\nsamples = 6\nvalue = [1, 5]\nclass = y[1]"] ;
641 -> 1582 ;
1583 [label="X[0] <= 0.167\nentropy = 1.0\nsamples = 2\nvalue = [1, 1]\nclass = y[0]"] ;
1582 -> 1583 ;
1585 [label="entropy = 0.0\nsamples = 1\nvalue = [0, 1]\nclass = y[1]"] ;
1583 -> 1585 ;
1586 [label="entropy = 0.0\nsamples = 1\nvalue = [1, 0]\nclass = y[0]"] ;
1583 -> 1586 ;
1584 [label="entropy = 0.0\nsamples = 4\nvalue = [0, 4]\nclass = y[1]"] ;
1582 -> 1584 ;
642 [label="X[7] <= 1.176\nentropy = 0.971\nsamples = 10\nvalue = [4, 6]\nclass = y[1]"] ;
289 -> 642 ;
643 [label="entropy = 0.0\nsamples = 3\nvalue = [3, 0]\nclass = y[0]"] ;
642 -> 643 ;
644 [label="X[9] <= 1.279\nentropy = 0.592\nsamples = 7\nvalue = [1, 6]\nclass = y[1]"] ;
642 -> 644 ;
645 [label="entropy = 0.0\nsamples = 1\nvalue = [1, 0]\nclass = y[0]"] ;
644 -> 645 ;
646 [label="entropy = 0.0\nsamples = 6\nvalue = [0, 6]\nclass = y[1]"] ;
644 -> 646 ;
290 [label="entropy = 0.0\nsamples = 20\nvalue = [0, 20]\nclass = y[1]"] ;
228 -> 290 ;
110 [label="X[3] <= 0.204\nentropy = 0.65\nsamples = 180\nvalue = [30, 150]\nclass = y[1]"] ;
60 -> 110 ;
319 [label="X[6] <= 1.264\nentropy = 0.454\nsamples = 84\nvalue = [8, 76]\nclass = y[1]"] ;
110 -> 319 ;
321 [label="X[9] <= 0.869\nentropy = 0.573\nsamples = 59\nvalue = [8, 51]\nclass = y[1]"] ;
319 -> 321 ;
349 [label="X[6] <= 0.475\nentropy = 0.216\nsamples = 29\nvalue = [1, 28]\nclass = y[1]"] ;
321 -> 349 ;
471 [label="X[4] <= 0.479\nentropy = 0.918\nsamples = 3\nvalue = [1, 2]\nclass = y[1]"] ;
349 -> 471 ;
723 [label="entropy = 0.0\nsamples = 1\nvalue = [1, 0]\nclass = y[0]"] ;
471 -> 723 ;
724 [label="entropy = 0.0\nsamples = 2\nvalue = [0, 2]\nclass = y[1]"] ;
471 -> 724 ;
472 [label="entropy = 0.0\nsamples = 26\nvalue = [0, 26]\nclass = y[1]"] ;
349 -> 472 ;
350 [label="X[0] <= 0.528\nentropy = 0.784\nsamples = 30\nvalue = [7, 23]\nclass = y[1]"] ;
321 -> 350 ;
625 [label="entropy = 0.0\nsamples = 7\nvalue = [0, 7]\nclass = y[1]"] ;
350 -> 625 ;
626 [label="X[10] <= 0.593\nentropy = 0.887\nsamples = 23\nvalue = [7, 16]\nclass = y[1]"] ;
350 -> 626 ;
991 [label="X[4] <= -0.765\nentropy = 0.619\nsamples = 13\nvalue = [2, 11]\nclass = y[1]"] ;
626 -> 991 ;
993 [label="X[8] <= 1.73\nentropy = 0.971\nsamples = 5\nvalue = [2, 3]\nclass = y[1]"] ;
991 -> 993 ;
995 [label="entropy = 0.0\nsamples = 3\nvalue = [0, 3]\nclass = y[1]"] ;
993 -> 995 ;
996 [label="entropy = 0.0\nsamples = 2\nvalue = [2, 0]\nclass = y[0]"] ;
993 -> 996 ;
994 [label="entropy = 0.0\nsamples = 8\nvalue = [0, 8]\nclass = y[1]"] ;
991 -> 994 ;
992 [label="X[24] <= 0.5\nentropy = 1.0\nsamples = 10\nvalue = [5, 5]\nclass = y[0]"] ;
626 -> 992 ;
997 [label="entropy = 0.0\nsamples = 2\nvalue = [2, 0]\nclass = y[0]"] ;
992 -> 997 ;
998 [label="X[0] <= 1.435\nentropy = 0.954\nsamples = 8\nvalue = [3, 5]\nclass = y[1]"] ;
992 -> 998 ;
999 [label="X[7] <= 1.571\nentropy = 0.971\nsamples = 5\nvalue = [3, 2]\nclass = y[0]"] ;
998 -> 999 ;
1171 [label="X[0] <= 0.787\nentropy = 0.918\nsamples = 3\nvalue = [1, 2]\nclass = y[1]"] ;
999 -> 1171 ;
1173 [label="entropy = 0.0\nsamples = 1\nvalue = [1, 0]\nclass = y[0]"] ;
1171 -> 1173 ;
1174 [label="entropy = 0.0\nsamples = 2\nvalue = [0, 2]\nclass = y[1]"] ;
1171 -> 1174 ;
1172 [label="entropy = 0.0\nsamples = 2\nvalue = [2, 0]\nclass = y[0]"] ;
999 -> 1172 ;
1000 [label="entropy = 0.0\nsamples = 3\nvalue = [0, 3]\nclass = y[1]"] ;
998 -> 1000 ;
322 [label="entropy = 0.0\nsamples = 25\nvalue = [0, 25]\nclass = y[1]"] ;
319 -> 322 ;
320 [label="X[4] <= 0.894\nentropy = 0.777\nsamples = 96\nvalue = [22, 74]\nclass = y[1]"] ;
110 -> 320 ;
503 [label="X[0] <= 3.236\nentropy = 0.84\nsamples = 78\nvalue = [21, 57]\nclass = y[1]"] ;
320 -> 503 ;
505 [label="X[21] <= 0.5\nentropy = 0.811\nsamples = 76\nvalue = [19, 57]\nclass = y[1]"] ;
503 -> 505 ;
529 [label="X[4] <= 0.064\nentropy = 0.684\nsamples = 55\nvalue = [10, 45]\nclass = y[1]"] ;
505 -> 529 ;
537 [label="X[9] <= 0.05\nentropy = 0.431\nsamples = 34\nvalue = [3, 31]\nclass = y[1]"] ;
529 -> 537 ;
539 [label="entropy = 0.0\nsamples = 1\nvalue = [1, 0]\nclass = y[0]"] ;
537 -> 539 ;
540 [label="X[0] <= 2.414\nentropy = 0.33\nsamples = 33\nvalue = [2, 31]\nclass = y[1]"] ;
537 -> 540 ;
887 [label="X[24] <= 0.5\nentropy = 0.206\nsamples = 31\nvalue = [1, 30]\nclass = y[1]"] ;
540 -> 887 ;
1081 [label="X[0] <= 0.948\nentropy = 0.592\nsamples = 7\nvalue = [1, 6]\nclass = y[1]"] ;
887 -> 1081 ;
1083 [label="entropy = 0.0\nsamples = 1\nvalue = [1, 0]\nclass = y[0]"] ;
1081 -> 1083 ;
1084 [label="entropy = 0.0\nsamples = 6\nvalue = [0, 6]\nclass = y[1]"] ;
1081 -> 1084 ;
1082 [label="entropy = 0.0\nsamples = 24\nvalue = [0, 24]\nclass = y[1]"] ;
887 -> 1082 ;
888 [label="X[12] <= 0.5\nentropy = 1.0\nsamples = 2\nvalue = [1, 1]\nclass = y[0]"] ;
540 -> 888 ;
1251 [label="entropy = 0.0\nsamples = 1\nvalue = [0, 1]\nclass = y[1]"] ;
888 -> 1251 ;
1252 [label="entropy = 0.0\nsamples = 1\nvalue = [1, 0]\nclass = y[0]"] ;
888 -> 1252 ;
538 [label="X[25] <= 0.5\nentropy = 0.918\nsamples = 21\nvalue = [7, 14]\nclass = y[1]"] ;
529 -> 538 ;
865 [label="X[12] <= 0.5\nentropy = 0.991\nsamples = 9\nvalue = [5, 4]\nclass = y[0]"] ;
538 -> 865 ;
871 [label="entropy = 0.0\nsamples = 3\nvalue = [3, 0]\nclass = y[0]"] ;
865 -> 871 ;
872 [label="X[9] <= 0.869\nentropy = 0.918\nsamples = 6\nvalue = [2, 4]\nclass = y[1]"] ;
865 -> 872 ;
873 [label="entropy = 0.0\nsamples = 3\nvalue = [0, 3]\nclass = y[1]"] ;
872 -> 873 ;
874 [label="X[6] <= 1.264\nentropy = 0.918\nsamples = 3\nvalue = [2, 1]\nclass = y[0]"] ;
872 -> 874 ;
875 [label="entropy = 0.0\nsamples = 2\nvalue = [2, 0]\nclass = y[0]"] ;
874 -> 875 ;
876 [label="entropy = 0.0\nsamples = 1\nvalue = [0, 1]\nclass = y[1]"] ;
874 -> 876 ;
866 [label="X[0] <= 1.4\nentropy = 0.65\nsamples = 12\nvalue = [2, 10]\nclass = y[1]"] ;
538 -> 866 ;
867 [label="X[0] <= 1.103\nentropy = 1.0\nsamples = 4\nvalue = [2, 2]\nclass = y[0]"] ;
866 -> 867 ;
869 [label="entropy = 0.0\nsamples = 2\nvalue = [0, 2]\nclass = y[1]"] ;
867 -> 869 ;
870 [label="entropy = 0.0\nsamples = 2\nvalue = [2, 0]\nclass = y[0]"] ;
867 -> 870 ;
868 [label="entropy = 0.0\nsamples = 8\nvalue = [0, 8]\nclass = y[1]"] ;
866 -> 868 ;
530 [label="X[4] <= -0.765\nentropy = 0.985\nsamples = 21\nvalue = [9, 12]\nclass = y[1]"] ;
505 -> 530 ;
531 [label="X[7] <= 1.176\nentropy = 0.65\nsamples = 6\nvalue = [5, 1]\nclass = y[0]"] ;
530 -> 531 ;
1323 [label="X[6] <= 0.607\nentropy = 1.0\nsamples = 2\nvalue = [1, 1]\nclass = y[0]"] ;
531 -> 1323 ;
1325 [label="entropy = 0.0\nsamples = 1\nvalue = [1, 0]\nclass = y[0]"] ;
1323 -> 1325 ;
1326 [label="entropy = 0.0\nsamples = 1\nvalue = [0, 1]\nclass = y[1]"] ;
1323 -> 1326 ;
1324 [label="entropy = 0.0\nsamples = 4\nvalue = [4, 0]\nclass = y[0]"] ;
531 -> 1324 ;
532 [label="X[9] <= 0.869\nentropy = 0.837\nsamples = 15\nvalue = [4, 11]\nclass = y[1]"] ;
530 -> 532 ;
533 [label="X[11] <= 0.5\nentropy = 0.918\nsamples = 6\nvalue = [4, 2]\nclass = y[0]"] ;
532 -> 533 ;
535 [label="entropy = 0.0\nsamples = 4\nvalue = [4, 0]\nclass = y[0]"] ;
533 -> 535 ;
536 [label="entropy = 0.0\nsamples = 2\nvalue = [0, 2]\nclass = y[1]"] ;
533 -> 536 ;
534 [label="entropy = 0.0\nsamples = 9\nvalue = [0, 9]\nclass = y[1]"] ;
532 -> 534 ;
506 [label="entropy = 0.0\nsamples = 2\nvalue = [2, 0]\nclass = y[0]"] ;
503 -> 506 ;
504 [label="X[6] <= 0.475\nentropy = 0.31\nsamples = 18\nvalue = [1, 17]\nclass = y[1]"] ;
320 -> 504 ;
507 [label="X[7] <= 1.176\nentropy = 1.0\nsamples = 2\nvalue = [1, 1]\nclass = y[0]"] ;
504 -> 507 ;
1259 [label="entropy = 0.0\nsamples = 1\nvalue = [0, 1]\nclass = y[1]"] ;
507 -> 1259 ;
1260 [label="entropy = 0.0\nsamples = 1\nvalue = [1, 0]\nclass = y[0]"] ;
507 -> 1260 ;
508 [label="entropy = 0.0\nsamples = 16\nvalue = [0, 16]\nclass = y[1]"] ;
504 -> 508 ;
36 [label="X[6] <= 0.738\nentropy = 0.988\nsamples = 312\nvalue = [176, 136]\nclass = y[0]"] ;
23 -> 36 ;
47 [label="X[6] <= 0.475\nentropy = 0.757\nsamples = 151\nvalue = [118, 33]\nclass = y[0]"] ;
36 -> 47 ;
219 [label="X[3] <= 0.204\nentropy = 0.569\nsamples = 82\nvalue = [71, 11]\nclass = y[0]"] ;
47 -> 219 ;
315 [label="X[25] <= 0.5\nentropy = 0.855\nsamples = 25\nvalue = [18, 7]\nclass = y[0]"] ;
219 -> 315 ;
715 [label="X[15] <= 0.5\nentropy = 0.65\nsamples = 18\nvalue = [15, 3]\nclass = y[0]"] ;
315 -> 715 ;
717 [label="X[9] <= 0.05\nentropy = 0.954\nsamples = 8\nvalue = [5, 3]\nclass = y[0]"] ;
715 -> 717 ;
1467 [label="entropy = 0.0\nsamples = 2\nvalue = [2, 0]\nclass = y[0]"] ;
717 -> 1467 ;
1468 [label="X[2] <= 0.363\nentropy = 1.0\nsamples = 6\nvalue = [3, 3]\nclass = y[0]"] ;
717 -> 1468 ;
1677 [label="X[8] <= 1.73\nentropy = 0.971\nsamples = 5\nvalue = [2, 3]\nclass = y[1]"] ;
1468 -> 1677 ;
1679 [label="X[0] <= 1.304\nentropy = 0.811\nsamples = 4\nvalue = [1, 3]\nclass = y[1]"] ;
1677 -> 1679 ;
1681 [label="entropy = 0.0\nsamples = 3\nvalue = [0, 3]\nclass = y[1]"] ;
1679 -> 1681 ;
1682 [label="entropy = 0.0\nsamples = 1\nvalue = [1, 0]\nclass = y[0]"] ;
1679 -> 1682 ;
1680 [label="entropy = 0.0\nsamples = 1\nvalue = [1, 0]\nclass = y[0]"] ;
1677 -> 1680 ;
1678 [label="entropy = 0.0\nsamples = 1\nvalue = [1, 0]\nclass = y[0]"] ;
1468 -> 1678 ;
718 [label="entropy = 0.0\nsamples = 10\nvalue = [10, 0]\nclass = y[0]"] ;
715 -> 718 ;
716 [label="X[0] <= 0.723\nentropy = 0.985\nsamples = 7\nvalue = [3, 4]\nclass = y[1]"] ;
315 -> 716 ;
1215 [label="entropy = 0.0\nsamples = 2\nvalue = [0, 2]\nclass = y[1]"] ;
716 -> 1215 ;
1216 [label="X[0] <= 1.629\nentropy = 0.971\nsamples = 5\nvalue = [3, 2]\nclass = y[0]"] ;
716 -> 1216 ;
1217 [label="entropy = 0.0\nsamples = 3\nvalue = [3, 0]\nclass = y[0]"] ;
1216 -> 1217 ;
1218 [label="entropy = 0.0\nsamples = 2\nvalue = [0, 2]\nclass = y[1]"] ;
1216 -> 1218 ;
316 [label="X[23] <= 0.5\nentropy = 0.367\nsamples = 57\nvalue = [53, 4]\nclass = y[0]"] ;
219 -> 316 ;
317 [label="entropy = 0.0\nsamples = 31\nvalue = [31, 0]\nclass = y[0]"] ;
316 -> 317 ;
318 [label="X[0] <= 0.206\nentropy = 0.619\nsamples = 26\nvalue = [22, 4]\nclass = y[0]"] ;
316 -> 318 ;
701 [label="entropy = 0.0\nsamples = 1\nvalue = [0, 1]\nclass = y[1]"] ;
318 -> 701 ;
702 [label="X[0] <= 0.802\nentropy = 0.529\nsamples = 25\nvalue = [22, 3]\nclass = y[0]"] ;
318 -> 702 ;
1411 [label="entropy = 0.0\nsamples = 8\nvalue = [8, 0]\nclass = y[0]"] ;
702 -> 1411 ;
1412 [label="X[0] <= 0.936\nentropy = 0.672\nsamples = 17\nvalue = [14, 3]\nclass = y[0]"] ;
702 -> 1412 ;
1413 [label="entropy = 0.0\nsamples = 2\nvalue = [0, 2]\nclass = y[1]"] ;
1412 -> 1413 ;
1414 [label="X[0] <= 2.051\nentropy = 0.353\nsamples = 15\nvalue = [14, 1]\nclass = y[0]"] ;
1412 -> 1414 ;
1415 [label="entropy = 0.0\nsamples = 13\nvalue = [13, 0]\nclass = y[0]"] ;
1414 -> 1415 ;
1416 [label="X[5] <= 0.557\nentropy = 1.0\nsamples = 2\nvalue = [1, 1]\nclass = y[0]"] ;
1414 -> 1416 ;
1417 [label="entropy = 0.0\nsamples = 1\nvalue = [1, 0]\nclass = y[0]"] ;
1416 -> 1417 ;
1418 [label="entropy = 0.0\nsamples = 1\nvalue = [0, 1]\nclass = y[1]"] ;
1416 -> 1418 ;
220 [label="X[0] <= 0.103\nentropy = 0.903\nsamples = 69\nvalue = [47, 22]\nclass = y[0]"] ;
47 -> 220 ;
1007 [label="entropy = 0.0\nsamples = 4\nvalue = [4, 0]\nclass = y[0]"] ;
220 -> 1007 ;
1008 [label="X[20] <= 0.5\nentropy = 0.923\nsamples = 65\nvalue = [43, 22]\nclass = y[0]"] ;
220 -> 1008 ;
1009 [label="X[4] <= 0.894\nentropy = 0.99\nsamples = 34\nvalue = [19, 15]\nclass = y[0]"] ;
1008 -> 1009 ;
1011 [label="X[0] <= 0.744\nentropy = 0.904\nsamples = 25\nvalue = [17, 8]\nclass = y[0]"] ;
1009 -> 1011 ;
1013 [label="X[9] <= -0.36\nentropy = 0.811\nsamples = 4\nvalue = [1, 3]\nclass = y[1]"] ;
1011 -> 1013 ;
1015 [label="entropy = 0.0\nsamples = 1\nvalue = [1, 0]\nclass = y[0]"] ;
1013 -> 1015 ;
1016 [label="entropy = 0.0\nsamples = 3\nvalue = [0, 3]\nclass = y[1]"] ;
1013 -> 1016 ;
1014 [label="X[0] <= 0.953\nentropy = 0.792\nsamples = 21\nvalue = [16, 5]\nclass = y[0]"] ;
1011 -> 1014 ;
1017 [label="entropy = 0.0\nsamples = 6\nvalue = [6, 0]\nclass = y[0]"] ;
1014 -> 1017 ;
1018 [label="X[4] <= -0.765\nentropy = 0.918\nsamples = 15\nvalue = [10, 5]\nclass = y[0]"] ;
1014 -> 1018 ;
1235 [label="entropy = 0.0\nsamples = 3\nvalue = [3, 0]\nclass = y[0]"] ;
1018 -> 1235 ;
1236 [label="X[8] <= 3.344\nentropy = 0.98\nsamples = 12\nvalue = [7, 5]\nclass = y[0]"] ;
1018 -> 1236 ;
1595 [label="X[25] <= 0.5\nentropy = 0.946\nsamples = 11\nvalue = [7, 4]\nclass = y[0]"] ;
1236 -> 1595 ;
1597 [label="entropy = 0.0\nsamples = 3\nvalue = [3, 0]\nclass = y[0]"] ;
1595 -> 1597 ;
1598 [label="X[0] <= 1.181\nentropy = 1.0\nsamples = 8\nvalue = [4, 4]\nclass = y[0]"] ;
1595 -> 1598 ;
1599 [label="entropy = 0.0\nsamples = 2\nvalue = [0, 2]\nclass = y[1]"] ;
1598 -> 1599 ;
1600 [label="X[8] <= 1.73\nentropy = 0.918\nsamples = 6\nvalue = [4, 2]\nclass = y[0]"] ;
1598 -> 1600 ;
1601 [label="entropy = 0.0\nsamples = 2\nvalue = [2, 0]\nclass = y[0]"] ;
1600 -> 1601 ;
1602 [label="X[9] <= 0.869\nentropy = 1.0\nsamples = 4\nvalue = [2, 2]\nclass = y[0]"] ;
1600 -> 1602 ;
1637 [label="entropy = 0.0\nsamples = 1\nvalue = [0, 1]\nclass = y[1]"] ;
1602 -> 1637 ;
1638 [label="X[23] <= 0.5\nentropy = 0.918\nsamples = 3\nvalue = [2, 1]\nclass = y[0]"] ;
1602 -> 1638 ;
1639 [label="entropy = 0.0\nsamples = 2\nvalue = [2, 0]\nclass = y[0]"] ;
1638 -> 1639 ;
1640 [label="entropy = 0.0\nsamples = 1\nvalue = [0, 1]\nclass = y[1]"] ;
1638 -> 1640 ;
1596 [label="entropy = 0.0\nsamples = 1\nvalue = [0, 1]\nclass = y[1]"] ;
1236 -> 1596 ;
1012 [label="X[0] <= 0.688\nentropy = 0.764\nsamples = 9\nvalue = [2, 7]\nclass = y[1]"] ;
1009 -> 1012 ;
1019 [label="entropy = 0.0\nsamples = 1\nvalue = [1, 0]\nclass = y[0]"] ;
1012 -> 1019 ;
1020 [label="X[12] <= 0.5\nentropy = 0.544\nsamples = 8\nvalue = [1, 7]\nclass = y[1]"] ;
1012 -> 1020 ;
1697 [label="X[25] <= 0.5\nentropy = 0.811\nsamples = 4\nvalue = [1, 3]\nclass = y[1]"] ;
1020 -> 1697 ;
1699 [label="entropy = 0.0\nsamples = 2\nvalue = [0, 2]\nclass = y[1]"] ;
1697 -> 1699 ;
1700 [label="X[0] <= 1.91\nentropy = 1.0\nsamples = 2\nvalue = [1, 1]\nclass = y[0]"] ;
1697 -> 1700 ;
1701 [label="entropy = 0.0\nsamples = 1\nvalue = [1, 0]\nclass = y[0]"] ;
1700 -> 1701 ;
1702 [label="entropy = 0.0\nsamples = 1\nvalue = [0, 1]\nclass = y[1]"] ;
1700 -> 1702 ;
1698 [label="entropy = 0.0\nsamples = 4\nvalue = [0, 4]\nclass = y[1]"] ;
1020 -> 1698 ;
1010 [label="X[0] <= 0.269\nentropy = 0.771\nsamples = 31\nvalue = [24, 7]\nclass = y[0]"] ;
1008 -> 1010 ;
1079 [label="entropy = 0.0\nsamples = 1\nvalue = [0, 1]\nclass = y[1]"] ;
1010 -> 1079 ;
1080 [label="X[11] <= 0.5\nentropy = 0.722\nsamples = 30\nvalue = [24, 6]\nclass = y[0]"] ;
1010 -> 1080 ;
1139 [label="X[7] <= 1.176\nentropy = 0.896\nsamples = 16\nvalue = [11, 5]\nclass = y[0]"] ;
1080 -> 1139 ;
1141 [label="X[0] <= 1.456\nentropy = 0.98\nsamples = 12\nvalue = [7, 5]\nclass = y[0]"] ;
1139 -> 1141 ;
1143 [label="X[25] <= 0.5\nentropy = 0.881\nsamples = 10\nvalue = [7, 3]\nclass = y[0]"] ;
1141 -> 1143 ;
1145 [label="X[14] <= 0.5\nentropy = 1.0\nsamples = 6\nvalue = [3, 3]\nclass = y[0]"] ;
1143 -> 1145 ;
1147 [label="X[10] <= 0.593\nentropy = 0.811\nsamples = 4\nvalue = [3, 1]\nclass = y[0]"] ;
1145 -> 1147 ;
1657 [label="X[3] <= 1.909\nentropy = 1.0\nsamples = 2\nvalue = [1, 1]\nclass = y[0]"] ;
1147 -> 1657 ;
1659 [label="entropy = 0.0\nsamples = 1\nvalue = [1, 0]\nclass = y[0]"] ;
1657 -> 1659 ;
1660 [label="entropy = 0.0\nsamples = 1\nvalue = [0, 1]\nclass = y[1]"] ;
1657 -> 1660 ;
1658 [label="entropy = 0.0\nsamples = 2\nvalue = [2, 0]\nclass = y[0]"] ;
1147 -> 1658 ;
1148 [label="entropy = 0.0\nsamples = 2\nvalue = [0, 2]\nclass = y[1]"] ;
1145 -> 1148 ;
1146 [label="entropy = 0.0\nsamples = 4\nvalue = [4, 0]\nclass = y[0]"] ;
1143 -> 1146 ;
1144 [label="entropy = 0.0\nsamples = 2\nvalue = [0, 2]\nclass = y[1]"] ;
1141 -> 1144 ;
1142 [label="entropy = 0.0\nsamples = 4\nvalue = [4, 0]\nclass = y[0]"] ;
1139 -> 1142 ;
1140 [label="X[0] <= 1.877\nentropy = 0.371\nsamples = 14\nvalue = [13, 1]\nclass = y[0]"] ;
1080 -> 1140 ;
1149 [label="entropy = 0.0\nsamples = 11\nvalue = [11, 0]\nclass = y[0]"] ;
1140 -> 1149 ;
1150 [label="X[9] <= 1.279\nentropy = 0.918\nsamples = 3\nvalue = [2, 1]\nclass = y[0]"] ;
1140 -> 1150 ;
1151 [label="entropy = 0.0\nsamples = 2\nvalue = [2, 0]\nclass = y[0]"] ;
1150 -> 1151 ;
1152 [label="entropy = 0.0\nsamples = 1\nvalue = [0, 1]\nclass = y[1]"] ;
1150 -> 1152 ;
48 [label="X[6] <= 1.001\nentropy = 0.943\nsamples = 161\nvalue = [58, 103]\nclass = y[1]"] ;
36 -> 48 ;
139 [label="X[10] <= 0.593\nentropy = 1.0\nsamples = 75\nvalue = [37, 38]\nclass = y[1]"] ;
48 -> 139 ;
175 [label="X[9] <= 1.689\nentropy = 0.944\nsamples = 47\nvalue = [17, 30]\nclass = y[1]"] ;
139 -> 175 ;
291 [label="X[2] <= 0.363\nentropy = 0.995\nsamples = 35\nvalue = [16, 19]\nclass = y[1]"] ;
175 -> 291 ;
295 [label="X[12] <= 0.5\nentropy = 0.983\nsamples = 26\nvalue = [15, 11]\nclass = y[0]"] ;
291 -> 295 ;
681 [label="X[4] <= 0.894\nentropy = 0.961\nsamples = 13\nvalue = [5, 8]\nclass = y[1]"] ;
295 -> 681 ;
911 [label="X[24] <= 0.5\nentropy = 1.0\nsamples = 10\nvalue = [5, 5]\nclass = y[0]"] ;
681 -> 911 ;
913 [label="entropy = 0.0\nsamples = 3\nvalue = [3, 0]\nclass = y[0]"] ;
911 -> 913 ;
914 [label="X[21] <= 0.5\nentropy = 0.863\nsamples = 7\nvalue = [2, 5]\nclass = y[1]"] ;
911 -> 914 ;
915 [label="entropy = 0.0\nsamples = 4\nvalue = [0, 4]\nclass = y[1]"] ;
914 -> 915 ;
916 [label="X[4] <= 0.064\nentropy = 0.918\nsamples = 3\nvalue = [2, 1]\nclass = y[0]"] ;
914 -> 916 ;
917 [label="entropy = 0.0\nsamples = 1\nvalue = [0, 1]\nclass = y[1]"] ;
916 -> 917 ;
918 [label="entropy = 0.0\nsamples = 2\nvalue = [2, 0]\nclass = y[0]"] ;
916 -> 918 ;
912 [label="entropy = 0.0\nsamples = 3\nvalue = [0, 3]\nclass = y[1]"] ;
681 -> 912 ;
682 [label="X[0] <= 0.039\nentropy = 0.779\nsamples = 13\nvalue = [10, 3]\nclass = y[0]"] ;
295 -> 682 ;
1001 [label="entropy = 0.0\nsamples = 1\nvalue = [0, 1]\nclass = y[1]"] ;
682 -> 1001 ;
1002 [label="X[0] <= 2.503\nentropy = 0.65\nsamples = 12\nvalue = [10, 2]\nclass = y[0]"] ;
682 -> 1002 ;
1003 [label="X[8] <= 0.115\nentropy = 0.439\nsamples = 11\nvalue = [10, 1]\nclass = y[0]"] ;
1002 -> 1003 ;
1519 [label="entropy = 0.0\nsamples = 7\nvalue = [7, 0]\nclass = y[0]"] ;
1003 -> 1519 ;
1520 [label="X[21] <= 0.5\nentropy = 0.811\nsamples = 4\nvalue = [3, 1]\nclass = y[0]"] ;
1003 -> 1520 ;
1521 [label="entropy = 0.0\nsamples = 1\nvalue = [0, 1]\nclass = y[1]"] ;
1520 -> 1521 ;
1522 [label="entropy = 0.0\nsamples = 3\nvalue = [3, 0]\nclass = y[0]"] ;
1520 -> 1522 ;
1004 [label="entropy = 0.0\nsamples = 1\nvalue = [0, 1]\nclass = y[1]"] ;
1002 -> 1004 ;
296 [label="X[8] <= 1.73\nentropy = 0.503\nsamples = 9\nvalue = [1, 8]\nclass = y[1]"] ;
291 -> 296 ;
883 [label="entropy = 0.0\nsamples = 7\nvalue = [0, 7]\nclass = y[1]"] ;
296 -> 883 ;
884 [label="X[9] <= 0.869\nentropy = 1.0\nsamples = 2\nvalue = [1, 1]\nclass = y[0]"] ;
296 -> 884 ;
1255 [label="entropy = 0.0\nsamples = 1\nvalue = [0, 1]\nclass = y[1]"] ;
884 -> 1255 ;
1256 [label="entropy = 0.0\nsamples = 1\nvalue = [1, 0]\nclass = y[0]"] ;
884 -> 1256 ;
292 [label="X[2] <= 1.15\nentropy = 0.414\nsamples = 12\nvalue = [1, 11]\nclass = y[1]"] ;
175 -> 292 ;
293 [label="entropy = 0.0\nsamples = 11\nvalue = [0, 11]\nclass = y[1]"] ;
292 -> 293 ;
294 [label="entropy = 0.0\nsamples = 1\nvalue = [1, 0]\nclass = y[0]"] ;
292 -> 294 ;
176 [label="X[4] <= -0.765\nentropy = 0.863\nsamples = 28\nvalue = [20, 8]\nclass = y[0]"] ;
139 -> 176 ;
345 [label="entropy = 0.0\nsamples = 7\nvalue = [7, 0]\nclass = y[0]"] ;
176 -> 345 ;
346 [label="X[9] <= 0.05\nentropy = 0.959\nsamples = 21\nvalue = [13, 8]\nclass = y[0]"] ;
176 -> 346 ;
1033 [label="entropy = 0.0\nsamples = 3\nvalue = [3, 0]\nclass = y[0]"] ;
346 -> 1033 ;
1034 [label="X[0] <= 1.255\nentropy = 0.991\nsamples = 18\nvalue = [10, 8]\nclass = y[0]"] ;
346 -> 1034 ;
1035 [label="X[4] <= 0.064\nentropy = 0.89\nsamples = 13\nvalue = [9, 4]\nclass = y[0]"] ;
1034 -> 1035 ;
1039 [label="X[21] <= 0.5\nentropy = 0.544\nsamples = 8\nvalue = [7, 1]\nclass = y[0]"] ;
1035 -> 1039 ;
1515 [label="X[0] <= 0.725\nentropy = 0.918\nsamples = 3\nvalue = [2, 1]\nclass = y[0]"] ;
1039 -> 1515 ;
1517 [label="entropy = 0.0\nsamples = 2\nvalue = [2, 0]\nclass = y[0]"] ;
1515 -> 1517 ;
1518 [label="entropy = 0.0\nsamples = 1\nvalue = [0, 1]\nclass = y[1]"] ;
1515 -> 1518 ;
1516 [label="entropy = 0.0\nsamples = 5\nvalue = [5, 0]\nclass = y[0]"] ;
1039 -> 1516 ;
1040 [label="X[0] <= 0.599\nentropy = 0.971\nsamples = 5\nvalue = [2, 3]\nclass = y[1]"] ;
1035 -> 1040 ;
1041 [label="entropy = 0.0\nsamples = 3\nvalue = [0, 3]\nclass = y[1]"] ;
1040 -> 1041 ;
1042 [label="entropy = 0.0\nsamples = 2\nvalue = [2, 0]\nclass = y[0]"] ;
1040 -> 1042 ;
1036 [label="X[2] <= 0.363\nentropy = 0.722\nsamples = 5\nvalue = [1, 4]\nclass = y[1]"] ;
1034 -> 1036 ;
1037 [label="entropy = 0.0\nsamples = 4\nvalue = [0, 4]\nclass = y[1]"] ;
1036 -> 1037 ;
1038 [label="entropy = 0.0\nsamples = 1\nvalue = [1, 0]\nclass = y[0]"] ;
1036 -> 1038 ;
140 [label="X[0] <= 2.482\nentropy = 0.802\nsamples = 86\nvalue = [21, 65]\nclass = y[1]"] ;
48 -> 140 ;
237 [label="X[24] <= 0.5\nentropy = 0.687\nsamples = 71\nvalue = [13, 58]\nclass = y[1]"] ;
140 -> 237 ;
239 [label="X[10] <= 0.593\nentropy = 0.211\nsamples = 30\nvalue = [1, 29]\nclass = y[1]"] ;
237 -> 239 ;
1479 [label="entropy = 0.0\nsamples = 20\nvalue = [0, 20]\nclass = y[1]"] ;
239 -> 1479 ;
1480 [label="X[0] <= 1.064\nentropy = 0.469\nsamples = 10\nvalue = [1, 9]\nclass = y[1]"] ;
239 -> 1480 ;
1577 [label="X[0] <= 0.99\nentropy = 0.811\nsamples = 4\nvalue = [1, 3]\nclass = y[1]"] ;
1480 -> 1577 ;
1579 [label="entropy = 0.0\nsamples = 3\nvalue = [0, 3]\nclass = y[1]"] ;
1577 -> 1579 ;
1580 [label="entropy = 0.0\nsamples = 1\nvalue = [1, 0]\nclass = y[0]"] ;
1577 -> 1580 ;
1578 [label="entropy = 0.0\nsamples = 6\nvalue = [0, 6]\nclass = y[1]"] ;
1480 -> 1578 ;
240 [label="X[27] <= 0.5\nentropy = 0.872\nsamples = 41\nvalue = [12, 29]\nclass = y[1]"] ;
237 -> 240 ;
479 [label="X[0] <= 2.231\nentropy = 0.592\nsamples = 21\nvalue = [3, 18]\nclass = y[1]"] ;
240 -> 479 ;
637 [label="X[7] <= 1.966\nentropy = 0.469\nsamples = 20\nvalue = [2, 18]\nclass = y[1]"] ;
479 -> 637 ;
1119 [label="entropy = 0.0\nsamples = 10\nvalue = [0, 10]\nclass = y[1]"] ;
637 -> 1119 ;
1120 [label="X[3] <= 1.909\nentropy = 0.722\nsamples = 10\nvalue = [2, 8]\nclass = y[1]"] ;
637 -> 1120 ;
1121 [label="X[4] <= -0.765\nentropy = 0.503\nsamples = 9\nvalue = [1, 8]\nclass = y[1]"] ;
1120 -> 1121 ;
1123 [label="X[26] <= 0.5\nentropy = 1.0\nsamples = 2\nvalue = [1, 1]\nclass = y[0]"] ;
1121 -> 1123 ;
1275 [label="entropy = 0.0\nsamples = 1\nvalue = [0, 1]\nclass = y[1]"] ;
1123 -> 1275 ;
1276 [label="entropy = 0.0\nsamples = 1\nvalue = [1, 0]\nclass = y[0]"] ;
1123 -> 1276 ;
1124 [label="entropy = 0.0\nsamples = 7\nvalue = [0, 7]\nclass = y[1]"] ;
1121 -> 1124 ;
1122 [label="entropy = 0.0\nsamples = 1\nvalue = [1, 0]\nclass = y[0]"] ;
1120 -> 1122 ;
638 [label="entropy = 0.0\nsamples = 1\nvalue = [1, 0]\nclass = y[0]"] ;
479 -> 638 ;
480 [label="X[0] <= 2.086\nentropy = 0.993\nsamples = 20\nvalue = [9, 11]\nclass = y[1]"] ;
240 -> 480 ;
685 [label="X[0] <= 1.05\nentropy = 0.998\nsamples = 17\nvalue = [9, 8]\nclass = y[0]"] ;
480 -> 685 ;
1237 [label="entropy = 0.0\nsamples = 2\nvalue = [2, 0]\nclass = y[0]"] ;
685 -> 1237 ;
1238 [label="X[9] <= 1.689\nentropy = 0.997\nsamples = 15\nvalue = [7, 8]\nclass = y[1]"] ;
685 -> 1238 ;
1239 [label="X[0] <= 1.642\nentropy = 0.946\nsamples = 11\nvalue = [7, 4]\nclass = y[0]"] ;
1238 -> 1239 ;
1569 [label="X[0] <= 1.503\nentropy = 0.991\nsamples = 9\nvalue = [5, 4]\nclass = y[0]"] ;
1239 -> 1569 ;
1571 [label="X[0] <= 1.146\nentropy = 0.863\nsamples = 7\nvalue = [5, 2]\nclass = y[0]"] ;
1569 -> 1571 ;
1573 [label="X[0] <= 1.113\nentropy = 0.918\nsamples = 3\nvalue = [1, 2]\nclass = y[1]"] ;
1571 -> 1573 ;
1575 [label="entropy = 0.0\nsamples = 1\nvalue = [1, 0]\nclass = y[0]"] ;
1573 -> 1575 ;
1576 [label="entropy = 0.0\nsamples = 2\nvalue = [0, 2]\nclass = y[1]"] ;
1573 -> 1576 ;
1574 [label="entropy = 0.0\nsamples = 4\nvalue = [4, 0]\nclass = y[0]"] ;
1571 -> 1574 ;
1572 [label="entropy = 0.0\nsamples = 2\nvalue = [0, 2]\nclass = y[1]"] ;
1569 -> 1572 ;
1570 [label="entropy = 0.0\nsamples = 2\nvalue = [2, 0]\nclass = y[0]"] ;
1239 -> 1570 ;
1240 [label="entropy = 0.0\nsamples = 4\nvalue = [0, 4]\nclass = y[1]"] ;
1238 -> 1240 ;
686 [label="entropy = 0.0\nsamples = 3\nvalue = [0, 3]\nclass = y[1]"] ;
480 -> 686 ;
238 [label="X[6] <= 1.264\nentropy = 0.997\nsamples = 15\nvalue = [8, 7]\nclass = y[0]"] ;
140 -> 238 ;
241 [label="X[0] <= 2.934\nentropy = 0.845\nsamples = 11\nvalue = [8, 3]\nclass = y[0]"] ;
238 -> 241 ;
311 [label="entropy = 0.0\nsamples = 6\nvalue = [6, 0]\nclass = y[0]"] ;
241 -> 311 ;
312 [label="X[9] <= 0.869\nentropy = 0.971\nsamples = 5\nvalue = [2, 3]\nclass = y[1]"] ;
241 -> 312 ;
1175 [label="entropy = 0.0\nsamples = 2\nvalue = [0, 2]\nclass = y[1]"] ;
312 -> 1175 ;
1176 [label="X[7] <= 4.337\nentropy = 0.918\nsamples = 3\nvalue = [2, 1]\nclass = y[0]"] ;
312 -> 1176 ;
1177 [label="entropy = 0.0\nsamples = 2\nvalue = [2, 0]\nclass = y[0]"] ;
1176 -> 1177 ;
1178 [label="entropy = 0.0\nsamples = 1\nvalue = [0, 1]\nclass = y[1]"] ;
1176 -> 1178 ;
242 [label="entropy = 0.0\nsamples = 4\nvalue = [0, 4]\nclass = y[1]"] ;
238 -> 242 ;
24 [label="X[7] <= -0.404\nentropy = 0.382\nsamples = 1023\nvalue = [76, 947]\nclass = y[1]"] ;
11 -> 24 ;
25 [label="X[8] <= 0.115\nentropy = 0.348\nsamples = 46\nvalue = [43, 3]\nclass = y[0]"] ;
24 -> 25 ;
343 [label="entropy = 0.0\nsamples = 27\nvalue = [27, 0]\nclass = y[0]"] ;
25 -> 343 ;
344 [label="X[25] <= 0.5\nentropy = 0.629\nsamples = 19\nvalue = [16, 3]\nclass = y[0]"] ;
25 -> 344 ;
437 [label="entropy = 0.0\nsamples = 10\nvalue = [10, 0]\nclass = y[0]"] ;
344 -> 437 ;
438 [label="X[1] <= 0.178\nentropy = 0.918\nsamples = 9\nvalue = [6, 3]\nclass = y[0]"] ;
344 -> 438 ;
439 [label="entropy = 0.0\nsamples = 2\nvalue = [0, 2]\nclass = y[1]"] ;
438 -> 439 ;
440 [label="X[15] <= 0.5\nentropy = 0.592\nsamples = 7\nvalue = [6, 1]\nclass = y[0]"] ;
438 -> 440 ;
1587 [label="X[3] <= 0.204\nentropy = 0.918\nsamples = 3\nvalue = [2, 1]\nclass = y[0]"] ;
440 -> 1587 ;
1589 [label="entropy = 0.0\nsamples = 1\nvalue = [0, 1]\nclass = y[1]"] ;
1587 -> 1589 ;
1590 [label="entropy = 0.0\nsamples = 2\nvalue = [2, 0]\nclass = y[0]"] ;
1587 -> 1590 ;
1588 [label="entropy = 0.0\nsamples = 4\nvalue = [4, 0]\nclass = y[0]"] ;
440 -> 1588 ;
26 [label="X[2] <= 0.363\nentropy = 0.213\nsamples = 977\nvalue = [33, 944]\nclass = y[1]"] ;
24 -> 26 ;
61 [label="X[0] <= 0.968\nentropy = 0.096\nsamples = 725\nvalue = [9, 716]\nclass = y[1]"] ;
26 -> 61 ;
131 [label="X[1] <= 0.178\nentropy = 0.161\nsamples = 383\nvalue = [9, 374]\nclass = y[1]"] ;
61 -> 131 ;
193 [label="X[0] <= 0.959\nentropy = 0.065\nsamples = 262\nvalue = [2, 260]\nclass = y[1]"] ;
131 -> 193 ;
217 [label="X[4] <= 0.894\nentropy = 0.036\nsamples = 260\nvalue = [1, 259]\nclass = y[1]"] ;
193 -> 217 ;
957 [label="entropy = 0.0\nsamples = 211\nvalue = [0, 211]\nclass = y[1]"] ;
217 -> 957 ;
958 [label="X[6] <= 1.001\nentropy = 0.144\nsamples = 49\nvalue = [1, 48]\nclass = y[1]"] ;
217 -> 958 ;
1459 [label="entropy = 0.0\nsamples = 33\nvalue = [0, 33]\nclass = y[1]"] ;
958 -> 1459 ;
1460 [label="X[3] <= 0.204\nentropy = 0.337\nsamples = 16\nvalue = [1, 15]\nclass = y[1]"] ;
958 -> 1460 ;
1461 [label="entropy = 0.0\nsamples = 11\nvalue = [0, 11]\nclass = y[1]"] ;
1460 -> 1461 ;
1462 [label="X[20] <= 0.5\nentropy = 0.722\nsamples = 5\nvalue = [1, 4]\nclass = y[1]"] ;
1460 -> 1462 ;
1463 [label="entropy = 0.0\nsamples = 1\nvalue = [1, 0]\nclass = y[0]"] ;
1462 -> 1463 ;
1464 [label="entropy = 0.0\nsamples = 4\nvalue = [0, 4]\nclass = y[1]"] ;
1462 -> 1464 ;
218 [label="X[26] <= 0.5\nentropy = 1.0\nsamples = 2\nvalue = [1, 1]\nclass = y[0]"] ;
193 -> 218 ;
1265 [label="entropy = 0.0\nsamples = 1\nvalue = [1, 0]\nclass = y[0]"] ;
218 -> 1265 ;
1266 [label="entropy = 0.0\nsamples = 1\nvalue = [0, 1]\nclass = y[1]"] ;
218 -> 1266 ;
194 [label="X[5] <= 0.557\nentropy = 0.319\nsamples = 121\nvalue = [7, 114]\nclass = y[1]"] ;
131 -> 194 ;
361 [label="X[9] <= 0.869\nentropy = 0.414\nsamples = 84\nvalue = [7, 77]\nclass = y[1]"] ;
194 -> 361 ;
363 [label="X[3] <= 1.909\nentropy = 0.211\nsamples = 60\nvalue = [2, 58]\nclass = y[1]"] ;
361 -> 363 ;
367 [label="X[0] <= -0.468\nentropy = 0.124\nsamples = 59\nvalue = [1, 58]\nclass = y[1]"] ;
363 -> 367 ;
369 [label="entropy = 0.0\nsamples = 1\nvalue = [1, 0]\nclass = y[0]"] ;
367 -> 369 ;
370 [label="entropy = 0.0\nsamples = 58\nvalue = [0, 58]\nclass = y[1]"] ;
367 -> 370 ;
368 [label="entropy = 0.0\nsamples = 1\nvalue = [1, 0]\nclass = y[0]"] ;
363 -> 368 ;
364 [label="X[7] <= 0.386\nentropy = 0.738\nsamples = 24\nvalue = [5, 19]\nclass = y[1]"] ;
361 -> 364 ;
365 [label="X[19] <= 0.5\nentropy = 0.98\nsamples = 12\nvalue = [5, 7]\nclass = y[1]"] ;
364 -> 365 ;
679 [label="X[6] <= 0.475\nentropy = 0.881\nsamples = 10\nvalue = [3, 7]\nclass = y[1]"] ;
365 -> 679 ;
711 [label="entropy = 0.0\nsamples = 4\nvalue = [0, 4]\nclass = y[1]"] ;
679 -> 711 ;
712 [label="X[15] <= 0.5\nentropy = 1.0\nsamples = 6\nvalue = [3, 3]\nclass = y[0]"] ;
679 -> 712 ;
1683 [label="X[0] <= 0.579\nentropy = 0.971\nsamples = 5\nvalue = [2, 3]\nclass = y[1]"] ;
712 -> 1683 ;
1685 [label="X[0] <= 0.475\nentropy = 0.811\nsamples = 4\nvalue = [1, 3]\nclass = y[1]"] ;
1683 -> 1685 ;
1687 [label="X[11] <= 0.5\nentropy = 1.0\nsamples = 2\nvalue = [1, 1]\nclass = y[0]"] ;
1685 -> 1687 ;
1689 [label="entropy = 0.0\nsamples = 1\nvalue = [1, 0]\nclass = y[0]"] ;
1687 -> 1689 ;
1690 [label="entropy = 0.0\nsamples = 1\nvalue = [0, 1]\nclass = y[1]"] ;
1687 -> 1690 ;
1688 [label="entropy = 0.0\nsamples = 2\nvalue = [0, 2]\nclass = y[1]"] ;
1685 -> 1688 ;
1686 [label="entropy = 0.0\nsamples = 1\nvalue = [1, 0]\nclass = y[0]"] ;
1683 -> 1686 ;
1684 [label="entropy = 0.0\nsamples = 1\nvalue = [1, 0]\nclass = y[0]"] ;
712 -> 1684 ;
680 [label="entropy = 0.0\nsamples = 2\nvalue = [2, 0]\nclass = y[0]"] ;
365 -> 680 ;
366 [label="entropy = 0.0\nsamples = 12\nvalue = [0, 12]\nclass = y[1]"] ;
364 -> 366 ;
362 [label="entropy = 0.0\nsamples = 37\nvalue = [0, 37]\nclass = y[1]"] ;
194 -> 362 ;
132 [label="entropy = 0.0\nsamples = 342\nvalue = [0, 342]\nclass = y[1]"] ;
61 -> 132 ;
62 [label="X[6] <= 0.738\nentropy = 0.454\nsamples = 252\nvalue = [24, 228]\nclass = y[1]"] ;
26 -> 62 ;
105 [label="X[3] <= 1.909\nentropy = 0.705\nsamples = 94\nvalue = [18, 76]\nclass = y[1]"] ;
62 -> 105 ;
153 [label="X[10] <= 0.593\nentropy = 0.608\nsamples = 87\nvalue = [13, 74]\nclass = y[1]"] ;
105 -> 153 ;
245 [label="X[6] <= 0.475\nentropy = 0.435\nsamples = 67\nvalue = [6, 61]\nclass = y[1]"] ;
153 -> 245 ;
247 [label="X[0] <= 2.231\nentropy = 0.75\nsamples = 28\nvalue = [6, 22]\nclass = y[1]"] ;
245 -> 247 ;
263 [label="X[0] <= 1.004\nentropy = 0.619\nsamples = 26\nvalue = [4, 22]\nclass = y[1]"] ;
247 -> 263 ;
307 [label="X[3] <= 0.204\nentropy = 0.89\nsamples = 13\nvalue = [4, 9]\nclass = y[1]"] ;
263 -> 307 ;
341 [label="X[2] <= 1.15\nentropy = 0.684\nsamples = 11\nvalue = [2, 9]\nclass = y[1]"] ;
307 -> 341 ;
705 [label="X[0] <= -0.333\nentropy = 0.469\nsamples = 10\nvalue = [1, 9]\nclass = y[1]"] ;
341 -> 705 ;
707 [label="entropy = 0.0\nsamples = 1\nvalue = [1, 0]\nclass = y[0]"] ;
705 -> 707 ;
708 [label="entropy = 0.0\nsamples = 9\nvalue = [0, 9]\nclass = y[1]"] ;
705 -> 708 ;
706 [label="entropy = 0.0\nsamples = 1\nvalue = [1, 0]\nclass = y[0]"] ;
341 -> 706 ;
342 [label="entropy = 0.0\nsamples = 2\nvalue = [2, 0]\nclass = y[0]"] ;
307 -> 342 ;
308 [label="entropy = 0.0\nsamples = 13\nvalue = [0, 13]\nclass = y[1]"] ;
263 -> 308 ;
264 [label="entropy = 0.0\nsamples = 2\nvalue = [2, 0]\nclass = y[0]"] ;
247 -> 264 ;
248 [label="entropy = 0.0\nsamples = 39\nvalue = [0, 39]\nclass = y[1]"] ;
245 -> 248 ;
246 [label="X[4] <= 0.064\nentropy = 0.934\nsamples = 20\nvalue = [7, 13]\nclass = y[1]"] ;
153 -> 246 ;
577 [label="X[7] <= 0.386\nentropy = 0.954\nsamples = 8\nvalue = [5, 3]\nclass = y[0]"] ;
246 -> 577 ;
1473 [label="X[14] <= 0.5\nentropy = 1.0\nsamples = 6\nvalue = [3, 3]\nclass = y[0]"] ;
577 -> 1473 ;
1475 [label="X[0] <= 1.255\nentropy = 0.811\nsamples = 4\nvalue = [3, 1]\nclass = y[0]"] ;
1473 -> 1475 ;
1477 [label="entropy = 0.0\nsamples = 3\nvalue = [3, 0]\nclass = y[0]"] ;
1475 -> 1477 ;
1478 [label="entropy = 0.0\nsamples = 1\nvalue = [0, 1]\nclass = y[1]"] ;
1475 -> 1478 ;
1476 [label="entropy = 0.0\nsamples = 2\nvalue = [0, 2]\nclass = y[1]"] ;
1473 -> 1476 ;
1474 [label="entropy = 0.0\nsamples = 2\nvalue = [2, 0]\nclass = y[0]"] ;
577 -> 1474 ;
578 [label="X[0] <= 1.538\nentropy = 0.65\nsamples = 12\nvalue = [2, 10]\nclass = y[1]"] ;
246 -> 578 ;
579 [label="entropy = 0.0\nsamples = 8\nvalue = [0, 8]\nclass = y[1]"] ;
578 -> 579 ;
580 [label="X[3] <= 0.204\nentropy = 1.0\nsamples = 4\nvalue = [2, 2]\nclass = y[0]"] ;
578 -> 580 ;
581 [label="entropy = 0.0\nsamples = 2\nvalue = [2, 0]\nclass = y[0]"] ;
580 -> 581 ;
582 [label="entropy = 0.0\nsamples = 2\nvalue = [0, 2]\nclass = y[1]"] ;
580 -> 582 ;
154 [label="X[9] <= -0.77\nentropy = 0.863\nsamples = 7\nvalue = [5, 2]\nclass = y[0]"] ;
105 -> 154 ;
1131 [label="entropy = 0.0\nsamples = 1\nvalue = [0, 1]\nclass = y[1]"] ;
154 -> 1131 ;
1132 [label="X[4] <= 0.894\nentropy = 0.65\nsamples = 6\nvalue = [5, 1]\nclass = y[0]"] ;
154 -> 1132 ;
1315 [label="X[14] <= 0.5\nentropy = 1.0\nsamples = 2\nvalue = [1, 1]\nclass = y[0]"] ;
1132 -> 1315 ;
1317 [label="entropy = 0.0\nsamples = 1\nvalue = [0, 1]\nclass = y[1]"] ;
1315 -> 1317 ;
1318 [label="entropy = 0.0\nsamples = 1\nvalue = [1, 0]\nclass = y[0]"] ;
1315 -> 1318 ;
1316 [label="entropy = 0.0\nsamples = 4\nvalue = [4, 0]\nclass = y[0]"] ;
1132 -> 1316 ;
106 [label="X[0] <= 1.141\nentropy = 0.233\nsamples = 158\nvalue = [6, 152]\nclass = y[1]"] ;
62 -> 106 ;
353 [label="entropy = 0.0\nsamples = 57\nvalue = [0, 57]\nclass = y[1]"] ;
106 -> 353 ;
354 [label="X[0] <= 1.153\nentropy = 0.325\nsamples = 101\nvalue = [6, 95]\nclass = y[1]"] ;
106 -> 354 ;
355 [label="entropy = 0.0\nsamples = 1\nvalue = [1, 0]\nclass = y[0]"] ;
354 -> 355 ;
356 [label="X[24] <= 0.5\nentropy = 0.286\nsamples = 100\nvalue = [5, 95]\nclass = y[1]"] ;
354 -> 356 ;
357 [label="X[15] <= 0.5\nentropy = 0.489\nsamples = 47\nvalue = [5, 42]\nclass = y[1]"] ;
356 -> 357 ;
477 [label="X[21] <= 0.5\nentropy = 0.65\nsamples = 30\nvalue = [5, 25]\nclass = y[1]"] ;
357 -> 477 ;
493 [label="X[27] <= 0.5\nentropy = 0.946\nsamples = 11\nvalue = [4, 7]\nclass = y[1]"] ;
477 -> 493 ;
497 [label="X[6] <= 1.001\nentropy = 0.764\nsamples = 9\nvalue = [2, 7]\nclass = y[1]"] ;
493 -> 497 ;
693 [label="X[0] <= 1.399\nentropy = 1.0\nsamples = 4\nvalue = [2, 2]\nclass = y[0]"] ;
